127 100
</s> -0.0083691 0.0083102 -0.0068015 -0.0021581 0.0051505 0.0012012 0.0066173 0.00020598 0.010408 0.01011 -0.0014272 0.0036151 0.0092212 0.0073339 -0.0043554 -0.0017901 0.00048457 0.0061778 0.001052 -0.0086193 -0.0015069 0.0068648 0.0059882 -0.0063322 0.0053432 -0.0066134 0.0017298 -0.0040828 -0.0018393 0.010835 -0.0069949 -0.0029404 -0.0087563 -0.0068816 -0.0095972 -0.00059884 0.0034816 -0.0090322 -0.0021379 -0.007118 0.010175 0.0079879 0.003606 0.0019069 -0.0050624 0.0016579 -0.0048123 -0.0045844 -0.008541 0.0025504 -0.0075082 0.0094986 -0.0095658 0.0048824 -0.00092133 -0.0055579 0.0013949 0.0020851 0.0038645 0.0042858 -0.0068266 0.0048856 0.006861 0.0053608 -0.0037704 0.00065769 -0.0070151 0.0063855 0.0086806 0.0060117 -0.010148 0.00038764 -0.0042943 0.0013448 0.00019082 -0.0038816 0.010382 0.0099574 -0.0013071 -0.0036489 -0.0096901 0.0060681 0.010373 -0.0090972 -0.0053848 -0.0084635 0.00058447 0.00011846 -0.0038803 -0.0041282 0.01047 0.0054467 0.0095033 -0.0094403 0.0014525 -0.008973 0.0064815 0.0099326 -0.0055163 -0.001635 
число 0.001876 0.001913 -0.0039942 -4.1467e-05 0.00014501 -0.00031887 0.0011159 0.0013426 0.0018262 0.0016163 0.0015975 0.0013779 -0.0011269 -0.00074268 -0.0009322 0.0014756 0.0029943 -0.00067309 -0.0020562 -0.0011001 -0.0020047 0.001261 -0.000211 -0.00079964 -0.0018315 -0.0021009 -0.00058096 -0.0010118 -0.00022954 0.0015316 -0.00097384 0.0012973 -0.0017834 -0.00041985 0.0001948 -0.00090892 -0.0031615 0.00076405 0.00089003 -0.00039597 -0.0017102 -0.00084543 0.00080168 0.0016425 0.00021486 -0.0018789 -0.0012614 -1.9806e-06 -0.0012196 0.00017263 0.0016983 0.0018322 -0.0011265 0.0015612 0.00056743 0.00080802 0.0015203 0.00060667 0.00035058 0.0012487 -0.00077878 0.00076411 0.0017397 0.0012791 0.001645 -0.0013133 -0.0022757 -0.0014015 7.2883e-05 -0.00078628 0.00086926 0.0023867 0.0012277 0.00069866 -0.00064988 0.0027962 -0.0013031 0.0018729 -0.00082367 0.0015342 -0.00019854 -0.0021569 -0.00028697 -0.00019197 0.0023464 6.5597e-05 5.9848e-05 -0.00022528 0.0004649 -0.00073742 0.0022269 0.0015315 0.0024715 -0.00041666 -0.0010386 0.0010359 -0.00074363 -0.0039897 -0.0010052 -0.00046061 
свет 0.0015642 -0.0044182 -0.00040938 -0.0018783 -0.0011251 0.0024682 -0.00052471 0.0005443 -0.00051259 -0.00026949 -0.0010232 0.0012721 0.00028313 -0.0023274 0.0010007 0.00088177 -0.0048763 -0.0010594 0.0015135 -0.0015864 0.0011284 0.00012157 0.000146 0.0030372 -0.0018417 0.0021837 -0.0015599 -0.00020823 -0.0025403 0.0040527 0.00082353 0.0013682 0.00095864 -0.0010138 -0.0010279 -0.0029455 -0.001095 -0.00021639 0.00092844 -0.001593 -0.0010842 0.00019419 0.00097249 0.00024127 0.00068916 -0.00081224 -0.001243 0.00026599 -0.00027829 0.00035028 -0.00052335 -0.00092485 -0.002764 -0.0026408 -0.0045177 0.0068001 6.8842e-05 -0.0009697 0.0011197 0.0032124 0.0023462 0.00021681 0.0021933 0.0015329 -0.003045 0.00082638 -0.0016844 0.0018016 0.00017247 -0.002782 0.00091643 -5.1041e-05 0.0010749 -0.0018496 -0.0025098 0.0034918 0.0010964 -0.0014806 0.00040327 -0.0015719 0.00078367 3.437e-05 -0.00091501 0.00022111 -0.00072643 -0.0011702 -0.0018841 -0.00063489 -0.00085029 0.0025042 -0.0013842 -0.0017149 0.00032503 9.3979e-05 -0.0027975 0.00081611 -9.2069e-05 0.00096865 0.00089591 0.0025797 
включи 0.0013651 0.0020019 -0.00022327 -0.0014807 0.0030037 0.0025402 -0.00087398 6.333e-05 0.00026726 0.0027917 -0.00061783 0.0022271 -0.00064298 -1.0578e-05 -0.00061698 -0.0014657 -0.0017427 0.0011167 -0.00027665 -0.00045155 -0.00054122 0.00012135 0.0018158 0.0010753 -0.0007251 2.8343e-06 -0.0012926 0.00042817 -0.00071114 0.002308 -0.0012344 -0.00038098 0.00089538 -0.002038 -0.00090503 0.0015368 -0.00034525 -0.00109 0.00041158 -0.0013216 0.0017704 0.0021946 -0.00048954 0.00074167 0.00088384 -0.0010067 0.00081696 0.0004114 0.0022341 9.9116e-05 0.0017516 0.0013879 -0.00059493 -0.0017428 -0.0015683 -0.00079177 -4.0976e-06 0.0013042 -0.0013488 0.0029358 0.00041854 0.00040801 0.00090775 -0.0013363 -0.00065152 0.00017905 -0.0007494 0.0011355 -0.00034089 0.00014817 -3.9605e-05 -0.0026926 -0.00039146 0.0025465 -0.0011587 0.0010663 0.0020879 0.0024592 -0.0014784 -7.6553e-05 -0.00042242 -0.00062497 0.0033744 -0.00078287 0.002771 -4.879e-05 0.00072199 -0.00039206 -0.0016436 -0.00014297 0.0016296 0.00034069 -0.00049455 0.00019501 -0.00081555 0.00031614 -0.00033312 0.00096629 0.0033596 0.0010068 
сколько -0.002218 0.001535 -0.0015541 -0.0022405 0.00096058 0.0015535 -0.00067584 -0.0008234 -0.00089777 0.00075982 0.00042546 0.001216 -0.00075305 0.0010114 0.00041256 -0.0027682 -8.5814e-05 -0.0020244 -0.00069401 0.00051224 0.00016612 -0.001821 -0.0014403 -0.00067544 -0.0001918 -0.00052337 0.00083784 -0.00055814 0.0014846 -0.0016841 1.496e-05 0.00032775 0.00067987 -0.0021975 0.0010764 0.0012731 0.0010828 0.00063532 0.0014304 0.00095851 0.00012038 -0.0018108 -0.00013061 0.0024413 -0.0022854 0.00025475 -0.0014898 0.00095501 -0.0012542 0.00059084 -0.0020881 -0.00011239 0.0021642 0.0005296 0.0012939 -0.0011646 -0.00036755 -0.00062539 -0.0013872 0.00057528 -0.0014587 0.0013493 0.00029152 -0.0011944 0.0017598 0.0004343 0.0024647 0.00093659 -0.00077711 -3.0011e-05 -0.00078875 -0.00068219 -0.0020426 0.00038374 0.0017503 0.001018 0.00018087 0.00023365 -0.00030044 0.00068154 -0.0016364 -0.00035769 0.0009442 0.00092117 -0.0012365 -0.0013601 0.0016828 0.00038063 -0.00078581 -0.0014377 -0.0012043 -0.0011891 -0.0015556 -0.0016563 -0.001425 -0.0008866 0.0001149 0.0009537 -0.00098838 0.00033581 
время 0.0010467 0.0012739 -0.00017308 -0.0023783 -1.0504e-05 -0.00020005 -0.00034539 0.002419 -0.0016346 0.0024547 0.00080106 0.0028884 -0.0013546 0.00036561 -0.0027844 0.0031423 -0.0010189 0.0013248 0.00073584 0.0011742 -0.0018484 0.00071852 0.0031311 0.00024334 0.0027812 -0.0017676 0.0029321 -0.0024743 -0.00093139 -6.5491e-05 -0.0015478 0.00015765 0.00091817 0.0016932 0.0021029 0.0026073 0.0014842 -0.0017186 0.00059558 0.00033344 -7.008e-05 0.00047955 0.00017996 0.0018607 0.0002835 0.00068162 -0.00050808 0.0011739 -0.0021985 0.0011451 -0.0011155 0.0012506 0.0029283 -0.0014466 0.0017645 -0.0025359 0.0021245 -0.00078545 0.0022987 0.00015255 -0.0016019 -0.00086781 0.0032111 0.0012113 0.00017 -2.6509e-05 0.00041341 0.0019669 -0.00044996 -0.00086084 -0.00086295 0.0010907 -0.0018775 -4.5374e-05 0.0019722 -9.2849e-05 -0.00094976 -0.00030715 0.0026887 0.0017555 -0.0018916 0.00086787 0.00031753 -0.00048702 0.0028661 0.00099812 0.0021989 -0.00095849 -0.0024202 -0.00026569 0.0024492 0.0033203 -0.00035319 0.00074171 0.0021813 -0.0010517 0.00078176 -0.00039742 -0.00068424 -0.00011307 
сделай 0.001276 0.00030546 0.0010775 -0.0034736 0.00050045 0.0027388 -0.0018265 -0.0010484 0.0017283 -0.0017919 0.00036238 0.0025557 -0.00032719 -0.0030252 0.0008379 0.0016208 0.00063887 -6.917e-05 0.0017657 0.00058606 8.7071e-05 0.00014268 0.00086818 -0.0014118 -0.001045 -0.00095219 -0.0024598 0.0026573 0.0013539 -0.00089161 0.00020124 0.0023086 -0.00088612 -0.0014149 -0.00061794 -0.0014047 0.0015966 -0.0015366 0.00055592 -0.0013176 -0.00034669 -0.00024337 -0.00033339 -0.00023839 0.0010129 -0.00044405 0.00032104 -0.0020479 -4.402e-05 -0.0023603 0.00053143 -0.0013948 0.00026685 0.0013102 0.0010474 -0.00069537 0.00045016 -0.0012773 -0.0017441 0.0013613 0.00069072 0.00019771 -0.00082523 -0.00042472 0.00069841 0.0020039 -0.0009061 0.00069621 -0.0020511 0.0013539 -0.0010227 -0.00075861 0.0012691 -0.0005721 -0.00074514 0.0023038 0.0016405 0.0011399 0.00085723 0.00043874 0.0023861 -0.0018494 0.0015258 -0.00031771 0.0023524 0.0020323 -0.00084252 0.00013355 -0.00084113 0.003926 -0.00020212 -0.0022219 0.00087709 -0.0018931 0.00052726 -0.0019903 0.0027036 -0.00010327 0.0015602 -0.00043191 
включай 0.00018192 0.0023011 -0.0029232 -0.0020247 0.0026488 0.00052028 -0.00047191 -0.00094381 -7.4735e-05 3.9893e-05 0.0013252 0.0012896 -0.00017318 -0.00026025 -0.0014965 -0.00054897 -0.00045237 0.0033378 0.00085636 0.00062552 -0.0018318 0.00028141 0.0012178 0.0013043 -0.00064689 0.00040611 0.00013521 0.00085407 0.00096561 0.00023616 0.00023258 0.00075856 0.00027762 -0.0010275 -0.00074418 0.00047347 -0.00025132 -0.00062333 0.0015291 0.00017671 0.0014529 0.0015838 -0.0012738 -0.0015485 0.00061159 -3.155e-05 -0.00053461 -0.0017069 0.0021934 0.00099976 -0.00083297 0.002508 -0.00063918 0.0013895 -0.00067686 0.00090432 -0.0011522 -0.00027835 -0.00086119 0.0031858 -0.0013091 -0.00069495 -0.00071881 0.00048758 -0.00050329 -0.00016854 0.0012031 -4.7949e-05 -0.0011703 0.0017058 -0.0011573 -0.0022143 -0.00081832 0.0012704 0.00057435 -3.9285e-06 0.0014324 0.0020509 -0.001409 0.00031244 -0.0017868 -0.0007793 0.0011042 -0.00045786 0.00070872 -0.0001202 0.0011385 -0.0013309 -0.0024716 -0.00027299 0.0015356 0.0018405 -0.00044762 -0.0017814 0.00051544 0.0011515 -0.0010835 0.0014949 0.0013725 5.9849e-06 
выключи 0.00064577 -0.00074052 -0.00080926 -0.0013635 0.0011538 0.0003696 -0.00097589 0.0014757 -0.00042307 0.0018752 0.0001387 -0.0017251 0.00040655 -3.2934e-05 -0.00036908 -0.0016187 0.00064224 0.0017937 0.0019311 -0.0016791 -0.0011537 -0.00040419 0.0015737 -0.00021764 -0.0019853 -0.00063079 -0.0010451 0.00087399 0.00047914 0.0028799 -0.0012773 0.00080748 4.2007e-05 -0.00039743 -0.00072736 0.0015488 0.0012047 -0.0015734 -0.000889 0.00044028 -0.00066862 0.0035175 0.0011776 0.0015575 0.001314 1.2332e-05 0.00038877 0.00071309 -0.00012963 0.0013242 -0.00029124 0.0014345 0.00017209 0.00083285 -0.0015759 0.0010098 0.0015753 1.8687e-05 -0.0015595 0.0011453 9.737e-05 -0.00034629 0.00060805 -0.00017634 -0.00080786 -0.0017781 -0.0012536 0.0010189 7.7442e-05 -8.9541e-05 0.0013092 -0.0015895 -0.0010094 0.0012542 -0.00010507 0.0021734 0.0020437 0.0035421 -0.0017811 0.00026806 -0.001481 -0.00088686 0.0013325 -0.00061546 0.0038414 0.0022416 -0.00064811 -0.00014398 -0.00069617 0.0017868 0.0015826 -0.00071821 0.0011327 -0.0012119 -0.0022829 -2.0538e-05 -0.0010121 0.001338 0.0013869 0.0017309 
комнате 0.0012988 0.00060213 -0.0016465 -0.0011062 -0.0006088 -0.00015576 0.00021476 0.00053674 -0.00049695 0.002884 -0.00093154 0.0011679 -0.00064885 -0.0022982 6.3345e-05 0.00041578 -3.8718e-05 0.0019445 8.1439e-06 -0.0013154 0.00028991 -0.00055016 0.00025829 -0.00051941 -0.00093491 0.0012242 0.00347 -0.00035249 0.00081579 -0.0011519 -0.0014455 -0.0016302 -0.0010116 -0.00044664 -0.0026822 0.0012288 -0.0017369 0.001292 -0.0010054 0.0014923 0.00058692 0.00089422 0.0013769 0.0010418 -3.0777e-06 0.00016851 0.0010434 -0.00066733 -0.0014221 0.00080048 -2.1712e-05 -0.00045123 0.0014943 -0.00010879 -0.00035312 -0.0022086 -0.0014377 0.00040382 -0.00084606 9.4429e-05 9.3123e-05 -0.00020054 8.8072e-05 0.00078166 -0.0034127 0.0021348 0.00069421 -5.7726e-05 0.00071924 0.0013495 0.0016964 0.0016686 -0.0012987 0.0016929 -0.00078725 -0.00051834 0.0022537 0.00071329 -0.00061646 0.0024607 -0.0027896 0.00041242 -0.00057905 0.00043738 -0.00064814 -0.00065744 0.0011034 0.00024024 -0.00047026 -0.001038 -1.8118e-05 -0.00024708 0.0015215 -0.00013393 0.0017923 -0.00074516 -0.00049225 0.0022511 0.0010513 -0.00056957 
слишком 0.00030883 0.0014315 0.00081385 0.0012058 -0.00036183 -0.00092443 -0.00067377 -0.00065221 -0.00028658 0.00014033 0.0018944 -0.00013929 -0.0014217 0.00094366 -0.00079309 0.00040407 -0.000763 0.00039567 -4.7e-05 0.00077255 0.0021158 1.9899e-05 0.00012979 -0.001489 -0.00010972 0.0031249 -0.00019954 0.0011632 -0.0016581 0.0002867 0.00076062 -0.00026528 -0.0015242 -0.00046066 0.00066425 0.00075482 0.0019695 -0.00085066 0.0022645 0.00047781 -0.0007363 0.0015162 -0.00011413 0.0013828 1.32e-05 0.0017402 -0.00067071 6.6789e-05 0.00042985 -0.0014136 0.00017384 -0.0005708 0.0014168 -0.00030926 -0.0012777 -0.00057578 -0.0011935 -0.00045261 -0.0015773 0.00017198 0.0004259 -0.0013771 0.0018776 -0.00058068 -0.00062272 0.00050482 -0.0010432 -0.00081926 -0.0001383 0.0015057 0.0038592 0.00075539 0.002055 0.00029603 -0.00068821 -0.00012108 -0.00013799 0.00016747 -0.00090235 0.0004867 -0.0016432 -0.00018274 0.00037697 0.00032259 0.00026047 -0.0014369 -0.00042178 0.0014213 -0.00024979 0.00056942 0.00091931 0.0007677 0.0024487 -0.00080219 -0.00093906 -0.00084076 -0.0012943 -3.2643e-05 -0.00049624 0.0008227 
выключай 0.00052692 0.00056544 -0.0030313 -0.0016953 0.0013716 0.000191 -0.0013869 -0.00011735 -0.00058967 0.00042365 0.0010414 -6.8672e-06 0.0008883 -0.00020781 -0.0010399 -0.00074682 0.0010735 0.0024247 0.0020426 -9.4345e-05 -0.0017112 0.00082492 0.0010905 0.0007629 -0.002303 0.00017898 0.00013713 0.001333 0.00068012 0.00063607 -7.4361e-06 0.0016006 -0.0011035 0.00053867 -0.0003191 0.0013798 -0.00019234 -0.0015172 5.6874e-05 0.00013632 -4.3383e-05 0.0026781 -0.00070891 -0.00095017 0.00069441 -0.00016079 -0.00082745 -0.0012174 -0.00021945 0.0011478 -0.0018044 0.0024202 0.00051948 0.0018888 -0.0010258 0.001998 0.00028287 -0.00073297 -0.0003853 0.00087096 -0.00093184 -0.00099443 -0.00069318 0.0020653 -5.2083e-05 -0.0016354 -1.5258e-05 0.00095093 -0.00077132 0.0011813 -0.00031244 -0.0015405 -0.0001057 0.00073362 0.00023533 0.00041798 0.0027413 0.002276 -0.00043984 -0.00031956 -0.0024862 -0.00018429 -8.8738e-05 -0.0004167 0.0017494 0.0018487 0.00015915 -0.00091292 -0.0018971 -0.00010882 0.0015973 0.00086937 0.00074907 -0.0016669 -0.00055451 0.0012092 -0.0013663 0.0013145 -0.00013564 0.0013374 
окно 0.0019203 9.575e-06 5.1663e-06 -0.0020236 -0.0004599 -0.0021286 -0.0018465 0.00036715 -0.0030987 -0.0024549 -0.0011272 0.0017084 0.0011229 0.0017569 -0.00051645 3.5741e-05 0.0041444 -0.00098951 0.00098403 0.00012179 0.0020831 0.00234 0.00084793 -0.0027311 0.0014282 -0.0017543 0.0033177 0.0020825 -0.0019594 -0.0010515 0.00022737 0.0012996 0.0030678 0.0048697 -9.708e-05 -0.0013762 -0.0010005 0.0033705 -0.0021384 -0.0016304 0.00038106 -0.0034746 -0.00042795 0.0011839 0.0017164 -0.00029023 0.0015416 0.00087089 0.00044167 0.0028257 0.0022662 -1.618e-05 0.00081185 0.00070114 -0.00074146 -0.0014293 0.001591 0.0030589 -0.00044237 0.0017471 0.0056432 -0.0010159 0.00085032 0.002292 0.0018001 0.00037691 -0.0010733 0.00011455 -0.002217 0.001244 0.0042244 0.0015153 0.0019624 0.00051398 -8.942e-05 0.00033998 -0.00019583 0.0017039 -0.0015599 0.0017875 -0.00092727 0.0012683 -0.00016902 -0.0010544 0.0027642 -0.00020935 0.0032326 0.0014027 -0.0042233 -0.0014516 -0.00090777 0.00058097 -0.00023 -0.0027659 0.00079693 -0.0038867 -0.0011221 -0.003619 0.0015954 -0.00032764 
закрой 0.0013144 0.0028934 -0.00076761 -3.1921e-05 -0.0013853 0.0003186 0.0011457 -0.00014074 -0.002694 -0.00010164 0.0012715 -0.0021564 -0.0015577 0.0012858 0.00085773 0.0046347 -0.001008 0.00018833 0.00079851 -0.0007896 -0.0017468 -0.00017632 -0.00033524 -0.0025829 -0.00058681 -0.0015854 -0.00033146 0.0019456 0.00022305 0.0019534 0.00043253 -0.0010971 -0.00055406 -0.0029081 -0.0011919 0.0011305 -0.001472 -0.0023062 0.0014337 0.00014548 0.0015501 -0.00086109 0.00071698 -0.00031938 0.002236 -0.00076997 -2.132e-05 0.00059545 -3.0015e-05 -9.0156e-05 -0.0026283 0.0011213 -0.0016444 -0.0014103 0.00075285 0.00083489 -0.0018477 0.00025414 0.0014455 0.00067039 -0.00084571 -0.00090301 0.00046681 0.0015454 0.00019287 -0.00084084 0.00032029 0.00090864 0.00015529 0.00138 -0.00063057 -0.00036097 0.00046006 -0.0015628 -0.0014028 -0.00011876 0.0023283 -0.0014065 -0.00022248 0.0014045 -0.0015368 -0.0016009 -0.0025225 0.00031916 0.0011736 0.00091397 -0.00058794 -0.001677 0.0008442 -0.0013492 0.00080614 0.0020785 0.00046052 0.00052013 -0.0019052 0.00023942 -0.00043472 0.001793 0.0011081 -0.0011753 
холодно 0.0012143 4.8794e-05 8.7592e-05 0.0011802 0.00048167 -0.00028802 0.0011422 -0.0027903 -0.0012891 0.00072031 -0.0026744 0.0019252 0.00066328 0.0021533 -0.0004613 -0.00061584 1.2834e-05 0.00086438 9.9386e-05 0.00019624 -0.0026415 0.0014155 0.0017628 0.00040815 -0.0008176 -0.0010456 0.00030932 -0.0010091 8.9595e-05 -0.00099712 -0.0016719 0.002606 0.00055914 -0.00041772 0.0027278 0.0010678 0.0019839 0.00021228 -0.0011043 -0.00087075 8.4775e-05 -0.00031528 -0.0013964 0.00025519 -0.00013571 0.00075912 0.00056622 0.00085944 0.00035844 -0.0010423 0.00057871 0.0015788 0.001778 0.003478 0.00040415 -0.0012473 -0.0011727 -0.0014562 -5.8822e-05 -0.00043898 -0.0003272 -0.0022936 -0.0016775 0.0010614 0.0015865 -0.00055581 -0.002154 0.00022774 0.0020057 0.0007061 0.00074888 0.00059485 0.00078315 -0.00010978 -0.0012531 -0.0025251 0.0014028 0.0017039 -0.0025806 0.00097329 0.0022339 -0.00029121 -0.00038409 -0.00030788 0.00021012 -0.00032826 0.00032265 -0.0016064 0.00076862 -0.002111 -0.00043459 -5.6466e-07 -0.0015652 0.00018549 0.002488 -5.342e-05 -0.00017238 -0.0030008 -0.00034316 0.00024113 
открой 0.0029658 0.0016546 -0.0032139 0.00044736 -0.0010386 -0.00053347 0.00050082 0.00010446 -0.00078951 -0.00011036 0.0012023 -0.0013121 0.0010676 0.0023229 0.0022829 0.0023692 0.001907 0.0012068 0.00094288 0.0010745 0.0011985 -0.0020204 -0.00038864 -0.0025154 0.0016344 -0.0018578 -0.0018061 0.0011157 0.00040028 0.00096762 -0.00034566 0.00034487 0.0015186 -0.0024528 0.0014118 -0.0013958 -0.00063994 -0.0029058 0.0024169 -0.0010808 -3.136e-05 -0.00076288 -0.00096051 -4.6767e-05 -0.00015014 -0.0014584 4.2534e-05 -0.0010229 -0.0011781 0.0011499 -0.00084875 0.00034559 -0.00089976 -0.0016783 0.0020465 0.003015 -0.0025612 -0.001415 0.001951 0.00063028 -0.00051239 -0.0011137 -0.0019712 -0.0011145 0.00033938 -0.0019137 0.0015938 0.0012982 -0.00097953 0.00082031 0.00097742 0.0033969 -0.00013291 -0.00035696 -0.00063455 -0.00047386 0.00071352 -0.001242 -0.00040685 0.00063968 -0.00054753 0.00061889 0.00017351 0.00074824 -4.981e-05 -0.0011 -0.0031231 0.00024719 -0.00066726 -0.0021132 0.00089136 0.0021543 0.00037893 0.0026918 -0.0020369 -0.0004123 -0.0018579 0.0026924 -7.4436e-05 0.00059907 
буду 0.00021745 -0.00052429 0.00087944 0.00049238 -0.00070809 0.0036166 -0.0021444 -0.00046846 0.0042174 -0.0028691 0.00049913 -0.00098385 -0.00054325 0.0032217 0.0027648 0.00066418 0.0029178 0.0028378 -0.00074967 -0.0015362 -0.0024991 0.00046469 0.001707 0.00053211 0.0012229 0.00029466 0.00087404 0.0025782 0.00071522 0.00093881 0.0017622 0.001244 0.0023913 0.0024528 -0.0018577 -0.00020156 -0.0028171 -0.0015645 0.0031888 -0.00073877 -0.0017325 0.0016772 0.001782 0.00077163 -0.00095663 0.0022107 0.0045313 -5.3279e-05 -0.00049813 -0.002596 0.00039417 -0.0011211 -0.0024452 1.6611e-05 0.00018406 -0.00077955 0.0032087 0.0015054 0.00043158 0.0025254 0.0023242 -0.0018362 -5.1832e-06 0.0015439 -0.00061593 0.00086619 0.005081 -0.0010913 7.7018e-05 -0.0021854 0.0013153 -0.00076205 0.0018947 0.00078948 0.0024665 -0.0019598 -0.0007883 0.0014735 0.00027603 0.0021425 -0.0011241 -0.00083576 -0.00015901 -1.821e-05 -0.00057494 0.00035642 -0.0019555 0.00057406 -0.00014813 -0.0013262 0.0015386 -1.6976e-05 0.0020161 -4.9074e-05 6.6301e-05 0.0002187 9.4305e-05 -0.0026676 0.0010868 0.0015316 
шторы 6.035e-05 -0.002229 -0.00090338 -0.00014962 -0.00025561 -0.0011609 0.0011246 0.0013848 -0.001476 -0.0012938 0.002591 0.00069845 3.3247e-05 -0.00037028 0.00043925 0.0001254 -0.00054563 -0.00034674 0.0009369 -0.0020124 -0.0011138 0.00065427 0.0014187 -0.0031318 -6.4775e-05 -0.0018599 0.0010294 -0.003337 -0.00081059 0.0014611 0.0010579 -0.00018101 0.00081196 -0.00095275 0.0024984 -0.00087649 0.00099988 -0.00028201 -0.0015536 0.0018644 0.0007769 -0.0017509 0.0034227 0.0002189 0.0016633 -0.0013858 0.00011426 0.0014788 -0.0010738 -0.0038094 -0.00010527 0.0016949 0.00084411 -0.00082098 0.00092107 7.7309e-05 -0.00072554 -0.0014122 -0.00034253 -0.00021853 -0.00020723 -0.0010594 -0.00049053 -0.0020977 -0.0019739 0.0013409 -0.0018166 0.0013615 -0.0011474 -0.00080017 -0.0022376 0.00080493 0.00035871 0.0012659 0.002302 -0.0020167 -0.0007271 0.0025365 -0.00032463 -0.0015816 0.00030136 -0.00067035 0.002294 0.00066407 -0.0019219 -0.0016652 0.00084647 -0.00024864 -0.0039672 -0.00053852 0.00050895 -0.0010498 0.00072465 0.0008895 0.0002288 -0.0022055 0.0010332 -0.0011152 0.0020037 0.00071773 
дома 0.00064414 0.0022269 0.0020709 -0.0035543 0.0003432 -0.00072915 -0.00079902 0.00046705 0.0031871 0.00017755 0.00076574 -0.00012096 0.0017793 0.00068878 0.0014197 -0.0018201 -0.00093943 -0.00019262 -0.00074563 -0.0022545 -0.0013141 0.0032862 0.00063621 0.00076169 0.0012941 -0.0018156 0.0011138 0.00018272 -0.0023714 -0.0018149 -9.318e-05 0.0042045 -0.0014696 -0.00091722 -0.0022645 0.00015655 0.00087702 -0.0026085 -0.0029456 -0.0022889 -0.00017871 0.0019242 0.0021382 -0.00095311 0.0034316 -0.0034177 -0.0034164 0.0016038 0.0011722 -0.0047408 0.00071987 0.0011033 -0.00087388 -0.001161 0.0016156 0.001232 -0.0030642 0.0023518 0.00032206 -0.0010308 -0.00080449 0.0012162 0.0009537 0.002625 0.00013925 0.0018425 0.00057527 0.0017718 0.0023412 0.00026606 -0.0033099 0.00048219 0.0061688 0.0020523 0.00075425 0.0014142 0.0011632 0.00024148 -0.0019726 -0.0014415 -0.00081791 -0.0028432 0.0015616 -0.0028076 0.0014227 0.00020543 0.0028278 0.00060193 -0.00021222 0.0016641 0.00029636 0.0011467 -0.00081019 -0.0020766 -0.0024654 -0.00083195 0.0018196 0.0028044 0.00035544 0.00049525 
улице 2.2319e-06 0.00046535 0.0030192 -0.0016477 -0.0011445 0.0025477 0.0018482 -0.0014453 0.0019897 0.0009802 -0.00031701 0.0011236 0.001429 0.00092354 0.00046965 6.0124e-05 -0.00067073 0.00097094 -0.0014758 -0.00041074 0.0012591 -0.001642 0.00027719 4.9246e-05 -0.00016509 -0.0016159 -0.00030939 -0.0014188 0.0040009 0.00015037 -0.0014705 0.0016313 -0.0010236 -4.8886e-05 -0.00022116 0.00046153 -0.0013847 0.0016623 -0.00046665 -0.00072374 0.0010146 0.0022845 -0.00079397 -0.00018225 -0.00023577 0.00037522 0.0010646 0.00011944 0.00080084 0.00091353 -0.000949 0.0022005 0.00039982 -0.0003502 -0.0023737 0.00019161 0.0018106 8.8956e-05 -5.2089e-05 -0.00066727 0.0014225 0.00077577 -0.0020154 0.0007312 -0.00012645 0.00086213 0.0026677 0.0022983 0.00044844 -0.00067218 4.5655e-05 0.0011252 -0.0019367 0.00073594 -0.0008636 0.00037095 -0.00027499 -0.00068017 0.00013599 0.0013833 -0.0018419 -0.00011319 0.0035373 -0.0011431 -0.0024724 -0.0039434 -0.0036452 -0.0019464 -0.0030891 -0.0026284 0.0011054 -0.0005802 0.0016468 -0.00070862 0.00069435 0.00056398 0.00090008 0.0011954 0.0018465 0.00042138 
кухне -1.2851e-05 0.00072277 0.0011697 -0.00074616 0.0019174 -0.0027087 0.00028014 -0.0012715 -0.0012631 0.00042742 -0.0015977 -0.00023889 -0.00046751 0.00052962 -0.0010541 0.0018068 0.0010711 7.1108e-05 -0.00050758 -0.00065972 0.0013019 0.00025747 0.0011197 0.002682 -0.0034337 0.0016921 0.0010853 0.0012314 0.0015891 -3.597e-05 0.00016479 0.00037694 -0.00010952 -0.00014018 0.0013842 6.9345e-05 0.002751 -5.8419e-05 0.0024181 0.0013543 0.00041124 0.0008144 0.0003669 -0.0014888 0.0021031 -0.00031594 -0.0013889 -0.0001729 -0.0021601 -0.0018492 -0.00025726 -0.0010047 -0.00029423 -0.0015765 -0.00044372 0.0018841 -0.0011216 -0.003514 -0.0041667 0.0010361 0.00060276 -0.0018832 0.00011582 -0.00042113 -0.0011946 -0.00067373 0.003305 0.0022423 -0.0026115 -0.0002016 -0.0011775 0.00045921 0.00084309 0.00033068 -0.00089146 0.00061022 0.00094236 0.0018961 -0.0012811 0.00018371 0.0019344 0.00058573 -0.00039005 -0.002288 0.00011159 0.0026749 0.0036796 0.00057091 -0.0011797 0.0010016 0.0032006 0.0016669 -6.4871e-05 -0.00034977 -0.0015055 0.00091902 -0.00090995 -0.0012629 0.0018273 -0.0001995 
каждый 0.0034181 7.6516e-05 0.0012729 0.0028668 0.00069126 0.0015963 0.00019941 -0.00021572 0.00052318 -0.00037177 -0.0007355 0.0021239 -0.00050814 -0.0017551 -0.00098428 -0.0013954 0.0023122 0.0017375 -0.0017737 -0.000413 0.0012173 0.0015929 0.0017474 -0.0019763 9.3979e-06 -0.00023043 0.0023197 0.0028092 -0.0016618 -0.001507 3.9294e-05 0.0004627 0.0019996 -0.00034186 0.0017601 0.00037128 -0.0035064 0.0017242 -0.0017595 0.00070207 -1.0399e-05 0.0022992 -0.0010842 -0.0014317 0.00021849 -0.00087431 0.00055804 0.0014431 -0.0007925 0.00034613 0.0030298 0.0020657 0.0012506 0.00086712 -0.00090894 -0.00015373 -0.00068755 0.00042436 -0.00055593 0.0033219 0.00066614 -0.0015791 -0.0005998 -0.0017566 -0.0017867 0.0001982 0.0021932 0.00061346 0.0013806 0.0007578 -0.00042775 1.2154e-05 0.00018941 -0.00095557 0.00048873 -0.0010801 -0.00022852 -0.0005331 -0.001329 0.00051179 -0.00062783 0.0030909 0.0035372 0.0012135 0.000782 0.00062598 -0.001164 0.00011167 -0.00033957 -0.0011177 -0.00045196 -0.0024463 -0.00034134 -0.00047986 0.0027885 0.0011485 -0.00058233 -0.001004 -0.0020426 0.0021295 
домой -0.0010299 -0.00042512 -0.0013553 0.0010311 -0.0013957 -0.0023015 -0.0014573 -0.00021039 0.003894 -0.00048243 0.0037006 0.00037285 0.0030805 0.00037651 0.00089869 -0.0024472 -0.00083054 0.00044388 -0.00011821 0.0011784 -0.002561 0.00034779 -0.00088282 0.00070454 -0.0030767 -0.0023566 -0.0021163 0.0010997 0.00060959 -0.0022286 0.0011705 -0.00037882 0.0015557 0.0012445 -0.0013597 -0.0019375 -0.0018078 0.00013694 -0.0012466 -0.0010877 -0.001275 0.0014862 0.0030711 0.0021462 0.0001448 -0.00029913 -0.0010214 0.0016028 -0.0010739 -0.0026314 0.00047677 0.0021793 0.0003525 -0.00094664 -0.00021209 -0.0013219 4.5697e-05 0.00079157 -0.00038951 -0.00034584 0.00013834 0.00029674 -0.00068012 0.00030957 0.0014135 0.00047728 0.0010012 -0.00095777 0.00061737 7.2496e-05 -4.0478e-05 0.0020913 -0.00022287 -0.00097518 -0.00039267 -0.00093168 0.0010257 -0.00038728 -0.0021388 -0.00026491 0.0017701 -0.00093081 0.00028486 0.00039605 -0.0022678 -0.00031424 0.001569 0.00025525 -0.0018854 -0.0008399 0.0023451 -0.0010548 0.00011811 -0.0028704 -0.0021344 0.0013387 0.0030123 -0.00018474 0.0023124 0.00092543 
пока 0.00055532 -0.0031412 -0.0013871 -0.00091609 0.0011509 -0.00157 0.00056539 0.00079671 0.0034538 5.765e-05 -0.000424 0.0011092 -0.0020661 0.0032288 0.00018531 -0.00081043 0.00074107 0.001572 -0.0016134 -0.0015566 -0.0010323 0.0022853 -0.001673 -0.0010322 0.00024575 -0.0011878 -0.0014351 0.00032612 -0.002633 0.0020149 -1.0711e-05 0.00040372 0.001018 0.00091901 -0.0001711 0.0015623 -0.00022644 8.7816e-05 0.00024859 -0.0025956 -0.00036567 -0.0027798 -0.00024518 -0.00049723 -0.0021684 -0.00032765 -0.00061373 -0.00078062 -0.00075636 0.0008057 0.001587 0.0030562 -0.00092045 -0.0024733 -0.00049869 -0.0016348 0.0010875 0.0038565 0.0011171 0.00050875 0.0014274 0.0010913 0.00040621 0.0022455 0.0018036 -0.0025504 0.00083689 0.0024794 -0.0032671 -0.00076918 0.002189 0.00095834 -0.0018328 -7.0024e-05 0.0027739 -0.0019328 -0.00013076 -0.003405 0.00022048 0.0029026 -0.00094913 -0.0020858 0.0018849 0.0024628 0.00054271 0.0022426 -0.00077364 -0.00046084 0.002457 -0.0013745 0.0021268 -0.00040382 -0.0026012 -0.0019703 -0.0012244 0.0010654 0.0015205 0.0014428 0.0013333 0.0020309 
день 0.00123 0.0018 -0.001686 -0.00023136 0.001898 -0.00063402 0.00039788 0.0013084 0.0011505 -0.0012953 0.00076692 -0.00064795 -0.0026399 0.0028426 0.00060821 0.0020373 -0.0025642 0.00045562 -0.0019754 -0.00051567 0.0013958 -0.00091573 0.00076357 -0.00029601 -0.00028323 -0.0016997 0.001546 0.0017048 -0.0022352 -0.00053147 -0.0019639 -0.0018087 0.0014799 0.0039915 -0.00039437 -0.00016047 0.00065031 0.0002623 0.00049065 -0.0014045 0.0020404 0.00082694 -0.00036033 -0.00022702 -0.0012635 -0.0011833 0.00032298 -6.2396e-05 0.00020292 0.00016036 0.0011205 -0.00045656 0.0017844 0.00016765 0.0026105 0.0012673 -0.0013931 0.0025126 0.0010356 0.00037166 -0.0017545 0.0038347 -0.00039645 -0.00039936 -0.00095131 -0.0024363 0.0018828 0.00099515 -0.00054902 0.0039684 -0.0013412 -0.00071269 -0.00066455 0.00064443 -0.0022642 -0.0006429 -0.00068731 0.001105 1.7544e-05 -0.002837 -0.00097946 0.0013555 0.00032696 -8.4524e-05 0.0006751 -0.00069222 0.0015209 -0.00056787 -0.0023661 0.0029658 5.022e-05 -0.00015007 0.00092641 -0.00081745 0.00054609 0.00091721 -0.00036456 -0.00068927 -0.00024269 0.002429 
электричество -0.0010318 0.0012542 0.00039124 0.00075228 0.0012461 0.00067561 0.00069985 0.0014306 3.5284e-05 0.0005316 0.0014261 0.0023836 -0.00023285 -0.00067213 -0.00078386 0.0017697 -0.0010521 0.00010684 -0.00039183 -0.00059154 0.00016365 1.8575e-05 0.0011041 -0.0010065 -0.0015103 -0.00051264 -0.00052766 5.2015e-05 -0.00099991 0.00070724 6.0629e-05 -0.00043306 -0.00013405 -0.00056669 -0.00069803 0.00084498 -7.8507e-05 -0.0001651 0.00061105 -0.00070198 0.00080552 0.001231 0.00065755 0.0010031 0.00059412 0.00033191 -0.00048867 -0.00021524 -0.0012649 -0.00022565 -0.0013155 0.000311 0.0003993 0.0016412 0.00015881 0.0007097 1.8622e-05 -0.00044961 0.00033919 5.019e-05 -0.0010021 0.00032053 -6.2743e-05 0.0006117 0.00018501 9.5633e-05 0.00011822 -0.00085246 -0.00090964 -0.00037144 -0.00047296 -2.2882e-05 0.00026469 0.00094336 -0.00012056 -0.00033409 -0.00023602 0.0012974 0.00034204 0.0018143 0.00076371 0.00017947 0.00034618 -0.00066758 0.00034645 -0.0004348 -0.0010139 0.0011304 -0.00043008 -0.00067732 0.0015621 0.0024206 0.00017221 -0.00038194 0.00057178 -4.26e-05 0.00029821 0.00027824 -0.0011016 0.00012554 
песню 3.7981e-05 0.00061369 -0.00035153 0.0025333 -0.0014385 -0.0015144 0.00015935 -0.0011659 -0.0018459 0.0015019 0.00024124 0.00010544 -0.0022168 0.0006887 2.4508e-05 -0.0010938 0.001195 0.0016011 -0.0020693 -0.0011274 1.6011e-05 0.00093029 -0.00022167 0.0021769 0.001701 -0.0022304 -0.00097762 -0.00086599 -0.0025049 0.00082456 -0.001388 -0.00065235 -0.00018331 -0.0020228 0.00041063 -0.0010085 0.00024166 0.00053488 0.001249 0.0027961 0.002051 -0.00092789 -0.0013799 0.00069648 -0.00073037 -0.0028273 7.2566e-05 -3.5634e-05 0.003187 0.00073499 -0.0007395 0.00097208 -0.0013209 0.00060024 0.0010063 0.0014564 -0.0010022 0.00019394 0.001025 0.0012121 4.2427e-05 -0.00053875 0.002018 0.0010455 0.0010212 -0.00051663 0.0013062 0.00060042 -0.0021418 -0.0010894 -0.0020729 -0.00072936 -0.00065306 0.00091377 0.0013215 0.0022847 0.00045336 -0.0025203 0.0011116 -4.1457e-05 -0.0018896 0.0012134 -0.00081803 -0.00050116 0.0033634 -0.0029443 -0.001744 0.00035968 0.0028461 -0.00073934 -0.00061338 0.0021084 0.0025445 -0.0013646 -0.0019938 0.0023784 -0.0013006 -0.0019637 0.0016785 0.00013565 
температуру -0.00055477 -0.00050929 -0.00032896 6.4063e-05 0.00036745 -0.00014706 0.0012274 0.00053293 -0.0021537 -0.00043359 -0.00082435 -0.00085589 -0.0014789 -0.00033718 -0.00071942 -0.0010072 -1.4694e-05 0.001075 0.0012201 0.001308 5.0647e-05 7.372e-05 -0.00025162 0.00087907 -0.0010084 0.0013625 -0.00012948 -0.00030834 0.00085201 -0.00067268 -0.00043027 0.0014102 0.0010605 -0.00085402 0.0010798 0.000313 0.00059589 0.00048805 -0.00063414 0.00043968 -0.00069137 0.0011331 0.00025647 0.0012188 -0.00022185 -0.0014509 0.00081297 0.00059023 -0.00058103 0.0010688 0.00025822 -0.0019771 0.0005971 0.00039411 -0.0001606 0.0010059 0.0017181 0.00094177 0.00075323 -0.0011172 0.00084278 -0.00094 -0.00096699 0.00035358 -0.0014152 -0.0018864 3.8018e-05 -0.00015467 0.00055692 -0.00064339 -0.0012511 0.0018983 -8.1689e-05 0.00021237 -0.00088244 -0.0010283 0.0020035 -0.00039111 -0.0011641 0.000271 0.00021566 -0.00018079 0.00095381 0.0014033 0.00041995 -0.0019266 -0.00049887 0.00014956 5.8782e-05 0.00016025 -0.00032108 0.00097872 -0.001669 -0.00023957 0.00036072 0.00015224 -0.00042167 0.0011623 0.0021081 0.00054008 
градусов -0.00075676 0.0011148 0.0019606 0.0025047 -0.00042039 -0.002019 0.0010992 0.00077135 0.00095982 0.00091054 0.0011768 0.0029637 -0.00066355 0.0017983 0.0012853 0.00047916 0.0017887 0.00031075 -0.00080536 -0.00026983 5.2711e-06 0.00052936 0.0011937 0.0010318 0.00070605 0.0010848 0.00071219 -0.00091759 4.0462e-05 0.0024338 0.00090034 0.0020711 0.0014462 -6.096e-05 -0.00033856 0.00022626 0.0019049 -0.0010089 0.0016444 0.00025215 -0.00055743 0.0021431 0.00047423 -0.0012768 -0.00064559 -0.0012473 -0.0004706 0.00018313 0.00029714 0.00020816 -0.00095627 0.00045043 -0.0011694 0.00043062 -0.001327 -0.0012328 -0.00048253 0.00023743 -0.00078568 0.00067689 0.0013397 -0.0016855 -5.5789e-05 0.0017459 -0.0020631 -0.0023423 -0.0015455 -0.0012465 -0.00022503 -0.0024505 -0.0013648 0.0012431 -0.00026907 -8.1221e-05 -0.0016336 0.00083522 0.0022115 -0.00086102 -0.0013115 0.00088976 -0.00059172 -0.00055206 -0.0012667 -0.00026696 -0.00091383 -0.00060341 0.0018071 -0.0012475 -0.00080515 0.0004246 0.00024507 -1.0218e-05 -0.00052251 -0.0016957 -0.0010092 0.00033612 0.00048678 -0.00090784 -0.0015625 0.0024513 
сегодня -0.0007895 -1.7818e-05 -0.00085217 0.00090518 0.0012954 0.00075394 0.0012788 0.0015254 -6.8489e-05 9.3741e-05 0.00061917 0.00063692 -0.00097861 0.0014216 0.00068008 -0.00010817 -0.0011611 -0.0023147 0.00050252 -0.0011732 -0.0015087 0.0011114 0.00029658 0.00073194 0.00066867 -0.0008461 -0.0015792 -0.00068092 -0.0029003 0.0008456 -0.00059144 0.00038482 -0.00038794 0.00025515 -0.00042019 -0.00012606 -0.001196 0.00099866 -0.00082801 -0.00049683 0.0019519 0.0021343 0.00054715 -0.00033069 0.00020926 0.00020772 3.9386e-05 0.0014381 -0.0010025 0.00039482 0.0021261 0.00020082 -5.0134e-05 -0.003251 -0.0015671 0.00034009 0.00024241 -0.0006847 0.0012078 -0.00066124 -0.0010793 -0.001642 -0.00050414 -0.00065004 -2.4813e-05 0.00036068 0.0023645 0.00080514 -0.00049697 -0.00063659 -4.0366e-05 0.0016421 -0.00014387 -1.7423e-05 0.0011412 0.00047523 0.0004592 -0.0013298 -0.00070316 0.0013704 0.0012726 0.00035397 0.00015755 -0.00034027 -0.00056169 0.001021 -0.0010966 0.0012758 -2.098e-05 -0.0017952 -0.00097343 0.0016834 0.00082014 -0.0016153 -3.189e-05 -0.00073109 -0.00011076 -0.00061777 -0.00063192 -0.00099049 
приготовь -0.00023347 -0.00088226 -0.0017988 0.00086 0.0014895 -0.0020201 -0.00067163 0.00056869 0.00043175 -0.0012452 0.0005383 0.0014013 -0.00042555 -0.0027372 -0.00049211 0.00065798 -0.0018815 0.0004972 -0.0006861 0.00054832 -0.00011126 -0.0013124 -0.0010327 0.00049238 -0.0020499 -2.4022e-05 8.6777e-05 -0.00079868 0.00018413 -0.00089337 0.00017825 0.00049032 0.00038476 0.00015665 -0.00010625 -0.00063763 -0.00087972 0.0010649 0.0003325 0.00050885 -0.00020076 0.00063935 0.00025293 -0.00070107 0.00035997 -0.002455 0.0013153 -0.00084972 0.0010805 -0.00055772 -0.00018296 0.0003995 0.0014498 0.0011066 -1.9129e-06 0.00088673 0.0016249 0.00088662 -0.00097432 -0.0013462 -0.0005642 0.00040972 -0.00089771 -0.00038496 0.00032519 0.00027688 -0.00023203 0.0017787 -0.00039068 0.00065059 -0.00071211 -0.00029859 0.00043022 -0.00058318 -0.0017154 0.00099288 0.0018402 0.0012292 -0.0021505 0.0014417 0.00050399 0.0014772 0.0016612 0.0018289 0.0004536 -0.00090656 -0.0012723 0.00053503 -4.5018e-05 -0.0020538 0.0015141 -0.00013124 0.0018437 -0.0021618 0.0011824 3.3101e-05 7.8133e-05 0.00047705 -0.0019459 -0.00091909 
минут -0.0025602 -0.0027785 -0.0011401 -0.00021743 -0.0013199 -0.0028489 0.0020321 0.00022466 -0.0014242 -0.00024872 -0.0013406 -0.00077085 0.0004333 0.00035915 0.001186 0.0010112 -0.0011119 -0.00017022 -0.0023335 -0.00098609 0.00029555 0.0010218 -0.00032767 0.00026291 0.0014465 -8.4258e-05 0.00024695 -0.00032169 0.0018589 -0.00046858 -0.001106 0.0004665 8.3651e-05 -0.00077304 0.0019757 -0.0014133 8.4093e-05 -0.0012453 2.4758e-05 0.00057614 -5.4334e-05 -0.002961 0.0014071 -0.0016162 -0.0011911 0.0016003 -0.0006247 0.0012592 0.00024407 -0.0024583 0.0024831 0.00029322 -0.0012045 0.00012625 -9.7832e-05 -0.00058482 -0.00072166 0.00019395 -0.00011815 -0.00068445 -0.00044105 0.0028698 0.002558 -0.0004134 0.0014718 9.4899e-05 0.00077297 0.00013073 0.0012076 -0.002482 -0.00078835 -0.0004513 -0.00068775 0.0015867 0.0013639 0.00098322 8.9202e-05 0.0011053 0.0013294 -0.00030517 -0.00073394 0.00061025 -0.0018595 -0.00096799 -0.00083293 0.00037171 -0.00093577 0.00066218 0.00093314 0.00067908 -0.0004724 0.0013294 0.0018598 -0.0008797 9.4793e-05 0.0011806 -0.00078211 0.0011981 -0.0024678 0.0010017 
жарко -0.0011908 0.00073835 -0.0038764 -0.00077291 0.0014374 0.00050299 0.00087096 0.00034061 -0.0010154 -0.00063373 0.0023537 0.0017296 -0.0013088 -0.0018115 0.0013783 -0.0013052 -9.3293e-05 1.5405e-05 0.0043131 -0.0005389 5.606e-05 -0.00064002 4.8607e-05 0.0011487 -0.0021005 -0.0014537 -0.00049793 -0.0016623 0.00038743 0.00090287 0.001811 0.0012089 -0.0013728 -0.00032249 -0.00094382 -0.0010148 0.0010259 -0.0018903 0.0016201 0.0011941 -0.0011963 0.00032395 -0.002666 0.0011572 -0.0012037 0.00090482 0.0016225 0.0018991 -0.00049769 -0.0013676 -0.0015102 0.0023572 0.0027677 -0.00053084 0.0024841 0.0016708 -0.0015382 -0.0017448 -0.00056354 0.0012173 0.0019956 -0.0028069 -0.0013421 -0.0022967 0.0011809 0.00051292 -6.4508e-05 -0.0010616 -0.00039091 -0.00070694 -0.00060792 0.0011804 -0.0030131 0.002145 -0.0035926 0.00094034 0.0019248 0.00049309 0.00041844 0.0021256 0.0031164 -0.00082695 0.0015034 0.00062342 0.0017308 -0.0028997 0.00060432 -1.9158e-05 0.0024527 0.0014477 0.001764 -0.0005032 -0.0015654 7.8116e-05 0.001064 -0.001419 -0.00036736 -0.0019289 0.0015267 6.0757e-06 
кофе -0.00045941 -6.6329e-05 0.0013853 0.0018522 -0.0012189 -0.0010198 0.002428 0.00031066 0.0012545 0.0014692 -0.0014965 -3.2893e-05 -0.0011541 -0.0035149 0.00041422 -0.0011434 -0.0021556 0.00035475 -0.0018349 0.00023586 0.0011899 6.4644e-05 0.0037237 -0.00078437 -0.00070861 0.0030978 -0.0040716 -0.0024566 -0.0025897 -0.00059482 -0.00070265 0.0016673 -0.0010978 -0.0028763 -0.0020007 -0.00016007 -0.0014496 0.001553 6.4159e-05 -2.9079e-05 -0.001262 -0.0012385 -0.00040378 0.0015662 0.00058904 -0.00064528 -0.00033959 0.0019694 0.0014012 -0.00034129 0.00056624 -0.00092176 0.0010769 0.00096598 -8.9972e-05 -0.001968 -1.8088e-05 -0.0022296 -0.0027189 0.0016958 -0.00094065 0.0038716 0.00027057 0.0019823 0.0015451 0.0013363 0.0011098 -0.0019837 0.0025868 0.0014379 -0.00097124 -0.001738 -6.554e-06 0.00088171 -0.0034099 0.00070509 0.0017182 -0.00035846 -0.0018216 -0.0021514 -0.0010167 -0.0010134 0.0037367 -0.0010379 -0.00031864 0.0014831 0.0020429 0.00066861 0.00049714 -0.0010746 -0.0003087 -0.0021808 0.00051226 -0.0013221 0.0033365 -0.0043446 -0.0017884 -0.0011154 0.0036987 0.00013448 
музыку -0.00047595 0.00078567 -0.0025331 -0.0006359 -0.00043757 -0.0035334 0.0019215 0.0014724 -2.3096e-05 0.0029689 -0.0002738 -0.001914 0.0013327 -0.00079493 -0.0021276 -0.00013804 0.0018633 0.00036453 0.0015403 0.00012686 -0.00063689 -0.0028467 0.0016898 -0.00023177 -0.0023034 0.0014957 0.00023774 0.0012683 -8.26e-05 0.0011601 0.00013777 0.00080081 -0.0019827 0.0019867 0.00035637 0.00070904 0.00044885 -0.00192 -0.00038794 7.596e-05 0.0011836 0.0018754 -0.001974 -0.0015645 -0.0020361 -0.0006422 -0.00069366 -0.00061615 -0.0018934 -0.0004239 0.0010711 -0.00076535 -0.00084581 0.0037067 0.00033504 -0.0017753 0.0010761 0.001154 0.00014502 -0.00031253 -0.00075179 -0.0016938 0.0013633 0.0011194 -0.00083769 -0.0010861 0.00040682 0.0004514 0.001875 -0.00071491 -0.00038362 -0.00014748 0.0015677 -0.0016793 0.00043637 -0.00050014 -0.00018502 -0.00017106 0.00038212 -0.00033835 -0.0012143 -0.0014357 0.0010045 0.0010083 0.0013992 0.00095573 -0.0022312 0.0026316 -0.0015836 -0.00080816 0.00068495 -0.0021132 -0.00083282 0.00017224 0.00095052 -0.00040276 -7.4974e-05 0.00043646 -0.0016414 -0.00098598 
комнату 0.00044334 -0.00021364 -0.00038535 -0.0016286 -0.00033702 0.0012786 -0.00010641 0.00038296 -0.0013207 0.0016818 -0.0017746 0.0024407 -0.0022291 -0.00048169 0.0013369 0.0011905 -0.00041125 0.0018296 -4.6987e-05 -0.0017606 -0.00021513 -0.0005392 0.00098271 -0.0017203 -0.0010542 0.0026085 0.0013473 0.00071631 -0.00038413 -0.0016294 -0.00016126 -0.0022121 -0.00045182 -0.00039411 -0.00094211 0.0016536 0.0012514 -0.00054113 -0.0014855 0.00016272 0.0018723 -0.00042926 -0.00011303 0.0013827 -0.0010747 -0.00050809 0.00069651 -0.0019344 -0.0021416 0.0011968 -0.00082391 0.00084532 -0.00023144 3.9306e-05 -3.933e-05 -0.00013164 -0.0023518 -0.00068931 -0.00099994 -0.00018432 0.00088763 -0.00016763 -0.00064041 0.00093696 -0.0015839 0.00083667 0.0010505 -0.00081277 0.0009212 0.00054151 0.00054205 0.00046048 -0.0010299 0.0018157 0.00033355 -0.00027995 0.0026072 0.0014929 -0.00052521 0.0028605 -0.0016854 0.00011939 -0.00064816 0.00094121 -0.0020436 -0.0010043 0.0015641 0.0010608 7.7221e-05 -0.0015141 0.00055837 -0.0002505 -0.00020476 -0.0014614 0.0014233 -0.00026894 -0.0010193 0.0018309 0.0002977 -0.00093243 
дверь 0.0025542 -0.0023392 0.00037051 0.00036157 0.0024083 0.00014315 0.001669 0.00022017 0.0024425 0.00020025 0.0014967 0.0018883 -0.0011693 0.0016958 -0.0023304 0.0021303 -0.0028691 -0.0026571 -0.00056662 0.0018462 -0.00028517 -0.002901 -0.002994 -0.00018411 -0.0026596 0.0017508 0.0042003 -0.0019661 8.7362e-05 0.0037246 -0.0036232 0.0017024 -0.0023198 0.00047149 0.003882 -0.0013267 0.00035618 -0.00029611 0.00028537 2.5492e-05 0.00053675 0.00014495 0.0011342 -0.0038578 -0.0014386 0.0016444 0.0013614 0.00091907 0.00068782 -0.002858 -0.00087258 0.0006918 -0.00061001 0.0016356 0.00091781 -0.00066591 -0.0013781 -0.0024078 0.0007961 0.0039459 -0.0032501 -0.00010899 0.0020848 -0.0010551 0.0033628 -0.0013029 -0.0027442 -0.00096201 0.00072701 -0.00017892 0.0017434 -0.001794 -0.00069612 0.0017002 0.0023326 0.0005852 -0.00060818 -0.0019319 -0.0015494 0.0010306 -0.0011669 0.00098082 -0.0010809 0.002912 0.00053667 -0.0002283 0.003264 -0.0036473 -0.0018748 -0.00036856 0.0031888 0.0034809 -0.0013101 -0.00019205 0.003344 6.7104e-05 -0.0017116 -0.0012954 -0.00058277 0.00020128 
спальне 0.00064585 0.00059653 0.00017863 0.0010494 0.0014396 -0.0017154 0.00032427 -0.0010934 -0.00096054 -0.00074512 -0.0026666 0.0011873 -0.0018307 -0.0011504 -0.00083781 0.0012126 2.1657e-05 -0.0016329 -0.0011946 0.0011972 3.2654e-05 0.00073955 -0.0030747 0.00064539 -0.0029829 0.0012439 0.00061214 0.0016055 0.0029654 -0.00068913 0.0019472 0.0012981 -0.00077475 0.00069816 -0.00022964 0.0026159 0.00087251 0.0021583 -0.0024689 -0.0018523 0.0027492 -0.00014518 -0.00026053 0.0012123 0.0021362 -0.00054684 -0.0028735 -0.0026313 -0.0016416 4.092e-06 -0.00081763 -0.00061358 -0.00047019 -0.0016096 -0.0029484 0.00039026 -0.0014531 -0.00037187 -0.001217 0.0019231 0.00020539 -0.0030188 0.0012624 -0.00066192 -0.00029034 0.0011245 0.0021188 0.00077197 0.0012248 -0.00060472 -0.00042823 0.00092238 -0.00083936 -0.00043609 0.00086313 0.001625 -0.0011598 0.00016029 -0.0015098 1.4009e-05 -0.002158 -0.0013678 0.0013065 0.00011313 4.0115e-05 0.0016269 2.199e-05 -0.00074001 -0.0015102 -0.00038756 0.0011044 0.00021052 -0.0013364 -0.00018728 0.00040645 -0.00095701 -0.00015584 -0.00015594 0.0018054 0.00035069 
проветри -0.0019635 -0.00036176 -0.00037594 -8.2556e-05 -0.0014399 0.0019021 0.00023954 0.00039078 -0.0023422 -0.00097701 0.00096066 -0.00040346 0.0010352 0.00028576 -0.0023624 -0.0012128 0.0011443 0.00062245 -0.00030659 0.0015643 -0.00039978 -0.0011862 -0.00080513 -0.00097011 0.00041915 0.0011875 0.00027856 -0.00073424 -0.00077427 0.00041875 -0.00077426 0.0016248 7.7027e-05 -0.00024942 -3.8468e-05 -0.0011627 -0.00028072 0.00063089 0.00037229 0.0013521 0.0010828 -0.0019421 -0.00016979 0.00036717 0.00032847 -0.00065789 -0.00072832 -0.00042159 -0.00027644 0.0010207 -0.0014082 0.00056164 0.0014298 -0.0019935 -0.00060564 -0.0008375 0.00078141 -9.9442e-05 -0.001705 0.0015619 -0.00039039 0.0021052 0.0008885 -0.0005647 -0.00047445 -0.0013836 0.0015447 -0.0012114 -0.00085085 0.00082323 0.0011124 -0.00027052 0.0018919 -0.0013294 0.00028571 -0.00012802 0.0012948 0.00037329 0.0017443 0.00015473 0.00095661 -0.0011826 0.00062932 -8.6566e-05 -0.00010891 0.00090156 0.0022548 0.00089613 -0.00074452 -1.1367e-05 -0.0011127 -0.00087614 0.00089601 -0.0014955 0.0015274 0.00033839 0.0013507 0.00084709 0.00069427 6.4838e-05 
температура -0.00013305 4.2219e-05 -0.00030796 -0.00032687 0.00015837 0.00043025 0.00060495 -0.00011039 -0.0025528 0.00025065 -0.00044783 -0.00093569 -0.0010908 -0.00081942 0.00044225 -0.00080079 -0.0013463 0.0015496 0.00075829 0.00010145 8.7568e-05 -0.00031402 2.7221e-05 0.00055021 -0.00087191 0.0015248 -0.00016933 -0.00091872 0.00050598 0.00016996 -0.0011768 0.0014831 0.0012892 0.00033563 0.00044755 -0.00058936 0.0010886 0.0010848 -0.00070364 -0.00053444 -0.00071729 0.0015173 0.00037024 0.00023209 -0.0002673 -0.00094283 0.0011313 0.0014559 -0.0015901 0.00070889 -4.6474e-05 -0.0026703 -0.00071091 4.9589e-07 1.6719e-05 0.0018549 0.002904 0.00091997 7.543e-05 -0.0019424 -0.0010175 0.00030371 7.99e-05 0.00086659 -0.0015947 -0.0016476 -8.3826e-05 0.00097739 0.00010995 -0.0006358 -0.0015736 0.001836 -0.00021763 0.00039768 -0.00039662 -0.00057762 0.00021741 0.00013332 -0.00086136 -8.8824e-05 -0.00022682 -6.9493e-05 0.0014497 0.001218 0.00094985 -0.0026001 0.00020377 0.0015884 0.00044115 0.00044221 -0.0004303 0.00091317 -0.00093209 0.00047659 -0.00076059 -0.00028853 0.0010471 0.0017618 0.0016165 0.00068077 
окном 0.001605 0.0015416 0.00068844 0.00044597 -0.0011481 -0.00026806 -0.0004623 -0.0012586 -0.0012659 -0.001775 0.0002749 0.00084561 -0.00099365 -6.3831e-05 -0.0021102 0.00073816 0.00040465 -0.00042501 0.00035739 0.0029707 -2.6384e-05 -0.0018495 -0.0011805 -0.0023984 -0.00034504 0.00052377 -0.00050703 0.001466 -0.002806 -4.6861e-05 0.0010596 0.0023223 0.0024762 0.0027584 -0.00075348 -0.0017695 -0.00038954 -2.8349e-06 -0.00033943 0.00218 -0.0016246 -0.0020224 0.0016203 0.0010559 -0.00032497 1.3193e-05 0.002141 0.0015312 -0.0018162 0.001722 0.0014615 -0.0030092 0.0020544 8.2901e-05 0.00041821 0.0010284 0.001047 0.001941 -0.00021641 0.0011974 0.0022056 -0.0021392 0.00033826 0.00030085 0.00013191 0.0027057 -0.0017503 -0.0011981 0.00044989 -0.0010441 0.002523 0.0026936 -0.0011499 -0.0005913 0.00048667 0.00038998 0.003061 0.0019822 -0.0013821 0.00060498 -0.0010346 0.0028295 0.001298 0.0012398 0.00019299 0.0010602 -0.00012568 0.00059613 -0.00038498 0.0026389 -0.00042301 -0.00059642 -0.0016954 0.00016694 0.00058584 -0.0014191 -0.0019831 -0.0023214 -9.9366e-05 0.00020138 
доме -0.001092 -0.0024895 -4.898e-05 -0.004572 0.0019585 -0.0011184 -0.00187 0.0016439 0.004371 -0.00042958 0.00057661 0.0014158 0.0013981 -0.0018098 0.0010386 -0.0029259 -0.00050048 -0.00050676 0.0010116 0.003098 -0.00083338 0.0028456 0.0015661 0.0001357 -0.00069135 -0.0026133 0.0034831 7.171e-05 -0.0012277 -0.00044498 0.0027106 -0.00019126 0.0001283 0.0011116 -0.0019007 0.0013714 0.00069859 0.00056597 -0.00013986 -0.00063724 0.0028436 0.0011371 0.0007058 -0.0040145 0.0035064 4.2621e-05 0.0018632 0.0029416 -0.00043857 -0.0023972 0.0024337 0.0026333 0.00076564 -0.00073366 0.0014369 0.00052447 -0.00080202 0.00048619 0.00086782 0.00062382 0.0011881 -0.0033351 -0.0014035 -0.0018437 -0.00072445 0.0032634 0.0030883 -0.002447 0.0004099 -4.5369e-05 -0.00055761 -0.0025841 0.0017882 0.00021139 0.0014875 -0.00016702 0.0022673 0.0025637 -0.0023774 0.00074333 0.0025929 -0.0016186 -0.00018182 0.00025229 0.0016324 -0.0026546 0.002103 -0.0026519 -0.00044915 0.0015252 0.000377 -0.0014748 -0.00022882 -0.00063059 -1.6637e-05 0.00056105 0.003699 0.00049215 0.00010129 0.0008276 
приду -0.0018172 0.00033396 0.0010705 -3.2284e-06 0.0026185 0.0032585 -0.00025257 -0.0010693 0.0024896 -0.0046659 -0.0028446 -0.0036661 0.00069334 -0.00098812 -0.00094373 0.00062163 0.00023989 -0.0010742 -0.00011053 0.00028788 0.00054775 -0.0028095 0.00225 0.00059308 -0.0038211 0.00077057 -0.00053615 -0.0021923 -0.0013088 -0.00043692 -0.00036268 0.0013867 0.002098 -0.0028668 -0.00086068 -0.00075905 0.00076567 -0.001229 0.0013957 0.00072647 0.00047415 -0.0015834 0.0017484 0.0010123 -0.0014861 -0.00053221 0.0010798 0.00053454 0.00045458 -0.0016527 -0.00034649 0.0025198 -0.00043376 0.00016754 -0.00075124 0.0017188 0.0002771 -0.00039841 0.00070744 0.00083025 -0.0007537 0.00035434 0.00010245 9.3277e-05 0.00024303 -0.0013468 -0.0010555 0.001002 -0.0002582 -0.00051708 0.00085288 -0.0013638 -0.0016759 -0.0023483 -0.0014456 -0.00080386 0.00033707 -0.0020038 0.00035474 -0.00041843 0.0014445 0.00091623 0.0014806 -8.6134e-05 -0.00037892 -0.00035657 0.00034195 -0.0018051 0.00058165 -0.00077451 0.0015984 0.00052934 -3.5857e-05 -0.00039489 0.0015481 -0.0014769 -0.0018528 -5.8387e-05 -0.0017336 0.0012346 
проверь 0.00089159 -0.0012183 -0.00065371 0.00020195 0.0009182 0.00060379 0.001685 -2.388e-05 -0.00032161 -0.0017668 -0.00023988 -0.00054507 -0.00040847 0.002083 -0.0015775 -0.00063454 -0.0014504 0.00043807 0.0013096 0.00073963 -0.0012395 -0.00037337 -0.0013894 0.00044081 -0.0004775 -3.4595e-05 -0.00047529 -0.0004031 -0.0013087 0.0014105 -0.00082818 0.0016054 -0.0017082 0.00027029 0.0009132 0.00037853 -0.00065665 4.3436e-05 0.00039673 -0.00036676 -0.00057467 -0.001458 -9.6259e-05 0.00046782 -0.0002376 0.00012297 -0.0010187 -0.0022068 -0.0020942 -0.001664 -0.0017675 -0.00052005 0.001395 -0.0021122 0.0005095 -0.00078796 -3.4314e-05 -0.00040213 -0.0015937 0.00064615 -0.0010941 0.0027217 0.0019332 -0.0011698 0.0011953 -0.00025154 0.00082736 -0.0015835 0.00042304 6.1589e-05 -0.00055649 -0.00046288 0.0018007 -0.0013144 0.0024626 -0.00093192 0.00027414 -0.0014233 -0.0021873 0.0010451 -0.00048175 -0.00078536 -7.3558e-05 0.0027417 -1.9282e-05 0.00056339 0.00047505 0.00078562 -0.00070977 0.00022707 0.0011879 0.0015546 0.0015045 -0.0017326 0.0015563 -6.9781e-05 -0.0020207 -0.0016432 -0.0012412 0.0004039 
темно 0.0007775 -0.0011022 0.0011438 -0.00074997 -0.0016783 -0.00082893 0.00054343 -0.00073759 0.0010335 0.0012963 0.0026897 0.0014091 0.001036 -0.0020401 0.00044662 -0.00030667 0.001646 -0.00058206 -0.00097803 0.0007196 0.0029936 0.002305 -0.00035202 -0.00014597 0.00076097 0.00042699 2.8804e-06 -0.00065358 0.000681 0.0029162 0.00039666 -0.0022432 0.00024684 -0.0014563 0.00043158 -0.00016503 0.0012267 0.00083009 -0.0021304 -0.0030204 0.0021587 0.00018508 1.1717e-05 -0.00044235 -0.0022371 0.00016453 -0.00012452 0.00058422 0.0022703 -0.00054768 -0.0010181 0.00020007 -0.00018999 0.0025537 -0.00046544 -0.0018404 0.0014643 0.00086119 0.0015084 -0.00060487 0.00025975 -0.0015513 0.00047078 0.00030838 -0.00047253 0.0016238 0.0007918 -0.00083986 -0.0009638 1.134e-05 -0.00011829 0.0024384 0.0020429 -0.0012385 -0.0019176 0.00039118 0.00078868 0.0038906 -0.0006614 -0.00048255 -0.0011896 0.00035382 -0.00089702 0.0011971 -0.0018318 -0.00058248 0.00047533 0.00010834 -0.0019479 -0.0026893 0.00094905 -0.00016988 -0.00044189 0.00014025 9.3075e-05 0.00020958 0.0018199 0.00082278 0.00035022 -0.00045351 
какие -0.0015235 -0.00089332 -0.00090305 0.0022324 0.0011535 0.00090559 -0.0035393 0.0002679 0.0010925 -0.0011036 0.0003659 -0.0013384 8.3833e-05 -0.00095504 0.0032562 -0.0011018 0.00039345 -0.00033011 0.0022537 -7.1858e-05 0.00013158 0.0018383 0.00062259 0.00082277 -0.0017496 0.0025375 -0.002062 0.0008189 -5.9737e-05 0.00086149 0.0014401 0.00035507 0.00042191 0.00017445 -0.00018497 0.0015907 -0.00014399 -8.6764e-05 0.00035067 0.0015015 -4.7542e-05 -0.00012915 0.0023946 -0.001389 0.0009699 0.00021599 -0.00044732 -0.00024196 -0.00013956 0.00060981 -0.0012337 -0.0010386 -0.0014168 0.00057351 -0.0018825 0.00015419 0.00038109 0.00017 -0.00061367 0.00037693 0.0015349 -0.00081811 -0.0012158 0.00046898 -0.0024936 -0.0019228 -0.0013565 -0.00059071 0.0016323 -3.295e-05 -0.00095044 0.001506 0.0001559 -0.00097074 0.0013905 -0.0034652 -0.001178 0.0013229 0.00049673 0.0010662 -0.00075145 0.0027946 0.0019282 0.002202 0.0032469 0.0017574 -0.0017095 -0.00080458 -0.00104 -0.00046729 -0.0032688 0.0019731 -0.0011642 0.0017076 0.0033066 -0.0014879 -0.00074314 5.1626e-05 0.0019802 0.0013249 
влажность -0.00071295 -0.00091052 -0.00031157 0.0020184 -0.0010257 0.0013507 0.000202 -0.0010275 0.00083766 -0.00080215 -0.0016143 -0.00052746 0.0012896 -0.0009271 -0.0015489 0.00097966 0.0018574 0.00032244 0.00056702 -5.5294e-05 0.0001898 0.00026186 5.7883e-05 0.0012826 -0.00063789 -0.0013445 -0.00108 -0.00054991 -0.00031673 0.0012042 -0.00021874 0.00017244 0.00043007 7.2566e-05 0.00040223 -0.00047742 -0.00038219 0.00067172 -0.00044262 -0.0019778 -0.0015115 -0.002664 2.5705e-05 -0.00072781 0.0018636 0.00048044 -0.00023349 -0.00052148 -0.0011015 0.00044002 -0.00023008 -0.0018011 -0.00035246 -0.00093546 0.00050317 0.0011071 -0.00046713 0.00089181 -0.0002786 -0.00024616 6.3772e-05 0.001663 -0.0017935 -0.0010701 2.4297e-05 -0.00012325 -0.00013354 -0.0009978 0.0019874 -0.00082763 0.00044296 0.0014973 0.0013973 0.0001179 0.00012428 -0.00021178 -0.0020311 -0.00045758 0.0011194 -0.00014802 -0.00080087 -0.00021077 -0.001542 0.0012284 -0.0017195 0.001125 -0.00058669 -0.00053121 0.00021004 -0.00012138 -0.00053642 0.0005545 0.0028099 0.0014698 0.0017412 -8.1573e-05 -0.0017627 0.0014769 -0.001146 0.0011016 
обогреватель 0.00048357 0.00021827 -0.0013068 0.00099727 0.00043072 -0.00078801 0.00022912 -0.0012085 0.00089847 0.0019577 0.00026263 -0.00017121 0.00018641 -0.00099803 -0.00041597 0.00064707 -0.0012348 0.0012973 -0.00078782 0.00040592 -0.00082045 -0.00097099 8.5206e-06 -0.00064806 -0.0019147 0.00031022 0.00025723 -0.00023972 0.00054246 0.00092008 0.00019989 0.00052815 0.00011415 -0.00052495 0.00074382 -0.00058439 0.00040932 0.00022013 0.00040105 -0.00039316 0.00035524 0.0012236 0.00044463 0.00029186 0.0013631 -0.001292 0.00029577 0.00038312 0.0010174 0.00044167 -0.00095419 -0.00073128 -0.00048385 -0.0005329 -0.00044135 -4.7088e-05 -0.00010953 -0.00047573 -0.00070628 0.0010337 -0.00053083 -0.0014463 -0.00045484 0.00024063 0.00099785 0.001443 -0.00024664 0.00076448 0.0014043 0.0007217 -0.001314 5.8521e-05 0.0018284 0.00020608 0.001397 0.00156 6.3e-05 -0.0016485 -0.0018851 2.8985e-05 -0.0015629 0.00051109 0.00054509 -0.0010637 0.0011796 -0.00057019 -0.00042287 0.00027788 -0.00014058 0.00031353 0.0015266 -7.6205e-05 0.00072935 -1.4454e-05 -0.00070231 0.00046591 0.00019495 -0.00077358 0.0002111 -0.00079791 
распечатай 0.0014472 0.00048126 -9.0731e-05 0.00077423 0.00082343 -0.00032468 -0.00056112 0.00016228 0.001095 -0.00028508 -0.00020744 0.0013963 -0.001207 -0.00069843 0.00030818 -0.0013505 0.00040284 -0.00056115 -0.00064821 -0.00093461 -0.0011397 -0.00074189 0.0001464 0.0013416 0.00034037 -0.0018402 0.00072282 -0.00073273 0.0010615 7.8903e-05 0.00078281 0.0018897 -0.00026515 -0.000797 -0.00077646 0.00040241 -0.00041005 0.00021558 0.0011046 -0.00027269 -0.0012709 -0.00053452 -0.0013835 2.2393e-05 0.00010332 -0.0021974 -0.00013228 -0.0012709 -0.00052296 -0.0015334 -0.0012705 -0.00047353 9.0007e-05 -0.00078949 -0.00032224 0.00040381 0.0014268 -0.00086004 -0.00052703 0.00049685 -0.00072523 -0.00083153 -0.00068541 0.00081969 0.00020173 0.00029473 -0.00059377 0.00024845 -0.0011082 -0.00029045 -0.0013104 -0.0010544 0.0013019 -0.00052483 0.0011669 -0.0021379 0.00075069 0.00078272 -8.8888e-05 -0.00086207 -0.0003395 -0.00024132 0.00088788 -0.0004923 -0.00050527 -0.00059837 -0.00067879 0.0004031 0.00072791 -0.0021534 -0.001383 0.00078666 0.0012144 6.2298e-05 -0.0013266 -0.00068455 -0.0010503 6.417e-05 0.00022657 -0.0023979 
покорми -0.00048251 -0.0010785 0.0017717 0.00086933 0.00094669 -0.00086343 0.0010969 -8.5078e-05 0.0010633 0.00050253 -0.0033717 2.3308e-05 -0.0026084 -0.00055239 0.0020546 -0.00051772 0.00011616 6.7829e-05 -0.00047167 0.00021636 0.00082426 -8.4221e-05 -0.0012909 0.00084968 2.1395e-05 -0.00041019 -0.00014401 0.0014904 0.0010555 0.00053157 0.00072248 0.002926 -0.00011953 0.00091803 0.00093774 0.001842 -0.00035606 0.0009041 -0.00070946 -0.0025213 0.0028431 0.00085372 0.00082613 -0.00030036 -0.0026099 0.00043247 0.00041963 -0.0017214 0.00020452 0.00018304 -0.00058499 -0.0013641 -0.0012597 -0.00072878 0.0009305 -0.00061675 -0.00033245 0.0025973 0.00048479 0.00080905 0.00014893 0.0014855 -0.00029249 0.00089262 -0.00036815 0.00049518 -0.00031526 -0.0014692 0.00026817 0.0013375 0.00081073 0.001486 -0.002614 0.00075678 0.0014624 0.00039677 -0.0013759 -0.0003045 -0.0012214 0.0015881 0.0016313 0.0023325 0.00051046 0.0029188 0.00024947 -0.00051921 -0.00044917 0.0019621 -0.00022713 -0.0013726 -0.001009 0.0023576 -0.00093478 0.0023674 0.0026775 0.0028317 0.0015619 0.0019442 -0.0020941 -0.0014686 
месяце 0.0016314 0.00048401 0.0025394 -0.0013934 0.00080264 0.0013426 -0.00036253 0.00053272 3.979e-06 0.0025697 -0.0024248 -0.0012866 -0.0020488 -0.0014066 -0.00030858 0.001975 0.0013191 -0.00089698 -0.00018859 9.1236e-05 -0.00048198 -0.00225 0.0012048 0.00025435 0.0015583 -0.0017096 -0.00010267 0.0012416 0.0003307 0.0010754 9.0262e-05 -0.0012899 0.0010914 0.0019773 -0.00076687 -0.00037383 -0.002041 0.00032271 0.00078775 -0.0012901 0.0016868 -0.00063424 -0.00029302 0.00052601 -0.0014768 -0.00028732 0.00087121 -0.0015946 0.00042499 -0.00033545 -0.00041938 -0.0014201 -0.000152 0.0024654 8.7082e-05 -0.002287 -0.00019499 0.00017253 0.00050559 0.0018998 0.0012131 0.0013039 0.00099819 -0.0010929 0.0015964 0.0021073 0.0012907 0.0019571 -0.0014433 -0.0029164 0.0015379 -0.0005424 0.00073593 0.0010663 0.00047994 0.0018125 -0.00061126 -0.0018728 -0.00088248 -0.0010402 -9.6612e-05 0.00066084 0.0025857 -0.0027503 -0.0016978 -0.0016833 0.0014561 0.00072361 -0.00017681 3.2347e-05 0.0012322 0.00055282 -0.0029415 0.00011143 0.0014551 -0.00043623 0.0011476 0.0018384 -0.00052121 0.0012485 
часов -0.0011441 -1.3855e-05 0.0021908 -0.0014171 -0.0011672 0.00022168 0.0001924 0.00060949 -0.00084664 0.003388 0.0009619 0.00031653 -0.0037897 0.00061621 0.0015257 -7.8213e-06 -0.00055438 -0.0016159 0.0014259 -0.00083265 0.00072881 -0.0028045 0.0022316 -0.00078865 -0.00090575 -0.0021073 -0.0011031 -0.00038433 0.0029311 0.0023886 -0.0005709 0.0016098 -0.0011427 -0.0034394 6.8382e-06 0.0021231 -0.00017439 0.0012487 -0.00088421 -0.0017134 -0.0018915 0.0013785 0.0015487 0.0015821 0.00043286 0.00133 -0.0034127 -0.00026397 6.4714e-05 0.00020122 0.0041652 -0.0011652 0.0027667 0.0016259 -0.00049002 0.0016132 -0.0022869 -0.0020282 -0.0011876 -0.00057173 -0.00048045 -0.0019258 0.0051962 -0.00092104 -1.4635e-05 0.00059731 0.00084358 -0.00058302 0.0023037 -0.0027722 0.00036877 0.00052404 0.00069268 0.00021577 0.0011558 -0.0021405 0.0010239 0.00067243 0.0013104 -0.0017818 -0.001511 -0.00072689 2.9967e-06 3.5635e-05 0.00069441 0.0016126 0.00049926 -0.0017903 -0.0026658 0.0012207 -0.0011678 0.00019228 -0.0023898 0.00068565 0.0016885 -0.0014889 0.00029451 0.00066568 0.00059203 0.0024012 
занавески -0.00057199 0.0017215 0.0014438 -0.00038927 -0.0017363 0.00062658 0.0003624 0.00042584 -0.0019926 -0.0013026 0.00098716 0.001066 -0.00057808 0.00090534 0.0006823 0.00069509 -9.75e-05 -0.0013906 -0.0024855 -0.00021619 -0.00060149 2.8721e-05 0.00024023 -0.00082699 -0.00036825 -0.00061775 -0.00025371 -0.00087869 0.00067697 0.0010047 -0.00015436 0.0004893 0.00030588 -0.00022768 -0.0027431 -0.0013187 -0.00096228 9.5792e-05 -2.4071e-05 -0.00012877 0.00073091 -0.0015899 0.0019644 -0.00074181 0.0022565 0.0018563 -0.00048423 -0.0015268 -0.0010805 -0.00090768 -0.00017864 0.00072679 0.00029102 -0.0026792 -0.0016228 0.00044929 0.00017349 -0.00033732 -0.0017513 0.00086155 -5.741e-06 0.00035864 0.0017429 -0.0015632 -0.00032846 0.00094784 -0.00049105 0.0016594 0.0006244 0.00061772 0.001999 -0.00012619 0.00084875 -0.0018652 -0.0001752 -0.00052579 0.00056369 -0.0014803 -0.00039512 0.00010798 0.00088535 -0.00102 -0.00068586 -0.00055617 0.00048224 0.00070862 -0.001467 -0.0002079 -0.00080729 0.00041679 -0.00091452 0.00043499 -0.0017366 0.0015022 0.00025136 0.00095786 0.0004939 0.0012411 -0.00014721 0.001324 
холодильнике -0.00042167 0.001095 -0.00088445 0.00015378 -0.00060019 2.3646e-05 0.00035025 -0.00056416 -0.00022522 8.6234e-05 -0.00029074 0.00029285 0.0004725 0.00086673 -0.0012772 1.8584e-05 0.00031944 0.0016704 -0.00015623 0.0011603 -0.0016906 -0.00067323 0.0013969 0.0004716 -0.00010589 0.0016049 0.00094791 0.000516 -0.0011681 7.7512e-05 -0.00052261 0.00204 -0.0014918 -0.00062924 0.00020195 0.00050547 0.00011528 0.00058847 -0.00033617 -0.00040942 0.00070619 0.00038722 -0.0010518 -0.00085592 0.00038621 0.0025715 0.0008268 -0.0010388 -0.0023893 0.00016131 -0.00082794 0.00024315 -0.00020402 -0.00024066 0.00023537 0.00040329 0.0001674 -0.00099987 0.0012698 -0.0014478 6.84e-05 -0.0018174 0.00057629 -0.0017019 7.4057e-06 -0.00033926 -0.00064792 0.0015694 0.00041299 0.0006356 -0.00072562 0.0016039 -0.0019658 0.00072442 0.0018183 -0.001525 0.00020434 -1.1063e-06 -0.0010855 8.0096e-06 0.00055406 0.0017841 -0.00050311 0.00023447 0.00033663 6.9496e-05 6.7924e-05 -0.00021414 -0.00053532 -0.00086278 0.0011642 -0.0001085 -0.0019284 -0.0011576 0.00053911 0.00086087 0.00024948 -0.00012065 -0.00044344 -0.00020277 
отключи 0.0017467 9.0195e-05 -0.0014376 -0.00034484 0.0022583 0.00044848 -0.00097788 -0.0012755 0.00084403 0.00010884 -0.00063079 0.00029417 0.00094159 -0.0018842 -0.00095109 -0.002857 0.0010186 0.0011818 -9.2186e-06 -5.3593e-05 0.00050052 0.0001241 0.00030434 -0.0027119 3.3089e-05 -0.001733 -0.0022224 0.0020804 0.00094462 0.00070243 0.00095959 0.00033168 0.0019426 -0.0017982 0.001956 0.00057578 0.00045397 -0.0011264 0.00039665 0.00097576 0.00045144 0.001031 0.00061403 0.00090883 0.00095976 0.001263 0.00044992 -0.001642 0.0017313 0.00072567 0.0018147 -0.0013372 0.00037205 0.00013606 -0.0014492 -6.4233e-05 -0.00065225 0.00025217 -0.00068572 0.001231 0.0013115 0.00030323 -0.00035333 -0.0022364 0.00109 -0.0022556 -0.00022932 0.00032179 0.0016925 -0.00010746 -0.00077056 -0.0019242 -8.1479e-05 0.0001476 -0.00078429 0.00051928 0.0025568 0.00022646 -0.0023272 0.00029928 -0.0010487 -0.00021515 0.0033482 -0.0010018 -0.00046681 -0.00029586 -0.00086294 0.001112 -0.002305 0.0011613 -4.477e-05 -0.00046931 7.7973e-05 -0.00034783 -0.0023136 -0.0020349 0.00040804 0.00057706 0.001196 -0.00094838 
приходу -0.0030039 0.00011076 -0.00077022 0.0032173 -0.00096798 0.00089897 -0.0021327 -0.0010527 0.0017278 -0.0017405 -0.001638 0.00055543 0.0007863 0.00034529 -0.00069934 -0.00057205 0.00016963 -0.00081007 0.0014033 0.0028939 -0.0022867 -0.0020573 -0.0016226 0.0015818 -0.0024897 0.0035488 0.00065041 0.00022962 -0.00082747 0.00030798 0.00041854 -0.000104 0.0011275 -0.0001475 -0.00038516 0.00020392 -0.00038831 -0.00027402 -0.00023739 -0.0018102 -0.00070452 -0.00092103 0.0017997 0.0013504 0.00141 -0.00077075 0.00048825 0.0008588 -0.00069155 0.00025617 0.00080837 0.0014134 -0.00086791 0.00072205 0.00027888 0.00022893 8.3582e-05 0.00032681 -0.0015754 0.00055974 0.0015961 -0.00069753 -0.0021048 -0.00014888 9.4237e-05 0.00076482 0.00035002 3.5232e-05 0.0016264 0.00037081 -7.7169e-05 -0.00052895 0.0019259 -0.00012681 0.00017616 -0.0001804 0.0003736 -0.00097635 0.0013933 -0.0011053 0.00051535 0.00071451 -0.0003135 0.0006042 -0.00093985 -0.00066117 0.00086451 0.00036001 0.0018167 -0.00062972 0.0037931 0.0020482 0.00027883 0.00060272 -0.0012554 0.0010361 0.0013101 0.00017395 -0.001303 0.00061722 
увеличь -0.00027192 -0.0021026 0.0018434 -0.0014592 0.0002822 0.0024518 9.7376e-05 -0.00054042 0.00038145 -0.0011961 0.003398 0.0024223 -7.317e-07 -0.00051953 0.00083853 0.0012256 -0.0007113 2.5751e-05 0.0009558 -0.00081928 0.00095647 -0.0011616 0.0019267 0.0013747 -0.0018478 -0.00031846 -0.0018592 0.0029783 -0.00012852 0.0009149 -0.00029014 0.00091204 -0.0010854 0.0020079 -0.00058027 0.00011011 -0.00083344 0.0009637 -0.0015134 -0.0025485 0.0023038 -0.00027043 -0.0010942 -3.5143e-05 -0.00046757 -0.0011865 0.00037258 0.00276 -0.00043687 -0.0014323 0.00091898 -0.0019513 -0.0018725 -0.0012204 0.00041116 0.00091003 0.00097532 0.0019611 0.00035691 -0.00078879 -0.0019488 -0.00033543 0.0024983 -0.00092921 -0.0015148 0.00086472 0.0014378 0.00029993 -0.0033179 -0.0024164 0.00050451 0.00018543 -0.001493 -0.00096394 -0.0017343 0.00024151 0.0014361 -0.0006038 0.0004223 -0.0012598 -0.00089927 0.00080313 -0.0020904 2.0362e-05 -0.0022112 -0.0010144 0.00046733 0.00082166 0.00049864 0.00081896 0.0002276 -0.0020148 0.00080507 0.00029479 -0.00027005 -0.0036685 0.00020583 -0.0014173 -8.5452e-05 -0.00044119 
установи -0.00055245 0.0013089 0.0018892 2.0028e-05 -0.0021965 -0.0023547 -0.0011419 -0.00057415 -0.00019037 0.0015249 -0.00053701 0.0012832 0.00064605 -0.0011041 -0.0016911 -0.0014434 0.00032473 -0.00018762 -0.00082194 8.6944e-07 0.0018851 0.00039516 8.502e-05 0.00058429 -0.00032153 -0.001009 0.00024586 -0.00056215 0.00066599 -0.00023136 0.001331 7.7655e-05 3.8294e-05 0.00058682 -0.0015784 0.00043831 0.0010773 -0.00014597 -0.00068901 -0.00066736 -0.00049437 -0.0013348 0.0019083 -0.0010263 -0.00096656 -0.00065676 -0.00033223 0.001061 0.00096865 -0.00071552 0.001101 0.00059182 0.0013216 0.00039331 -0.0012856 0.00066794 0.0041126 -0.0011275 -0.0015833 -0.00080034 5.382e-05 0.0020497 0.00050598 0.00026377 -0.00062094 0.00027987 -0.00032975 0.00087038 -0.001973 -0.0002461 9.1685e-05 -0.00050417 9.3371e-05 -0.0021991 -0.00074399 0.00067246 -0.00095178 -0.0012749 0.00031764 -0.00079788 0.0010685 -0.00049911 -0.00067842 -0.0018449 -0.0022851 -0.0016055 0.00071685 -0.0014548 0.0018431 0.00065685 -0.00072387 0.0015897 -0.00041814 -0.00051335 -0.00051642 0.00064961 0.00070831 -3.4783e-05 -0.00083965 -0.00079789 
нужно 0.00071814 -0.00035156 0.00014854 7.5294e-05 -0.0025225 -0.00019426 0.0026993 0.0011954 -0.0016147 -0.0016811 0.00064903 -0.0018093 -0.00050783 -0.00089075 2.2783e-05 0.002488 -0.00090525 0.00013377 -0.00012057 0.00085869 -0.0011089 -0.0024789 -0.0014053 -0.00064407 -7.755e-05 -0.0022491 -0.00072281 -0.0035858 -0.0013871 0.0014416 0.00078078 -5.6663e-05 0.0009729 0.00086042 -0.0029874 -0.00072627 0.00028606 0.0014271 -0.0018211 0.0018173 4.6668e-05 0.0013232 -0.0022813 -0.0016513 -0.00083804 -0.0010999 -0.00033481 0.0016014 0.00025251 -0.00045354 0.0014397 0.0026446 -1.6304e-05 0.0015304 0.00080954 -0.0019637 0.0029569 0.0016455 -0.0027778 0.0010134 0.00029109 -0.000624 -0.0021549 1.0251e-05 -0.0016106 -0.0023296 -0.00039543 0.00012969 -0.0016034 0.0014046 0.0010743 -0.00032691 0.00011658 0.0011441 0.0018005 0.0013341 -0.0016487 0.00035096 -0.0024523 0.0015105 -0.0019371 4.2718e-06 0.0022519 0.0018458 0.00092247 -8.5306e-06 -0.00089697 -6.9055e-05 0.00014966 0.00052266 0.00052195 -0.00064273 -0.00074719 -0.0013297 0.00027197 0.00088056 0.0016353 0.0013466 -0.0012383 0.001171 
чай -0.0018762 0.0010518 -0.0012094 -0.0014801 0.0054185 -0.0032097 -0.0014024 -0.00053087 0.00079691 0.00084116 -0.0007573 -0.002134 0.0010149 0.0016706 -0.00066736 0.00075601 -0.0010399 0.0023994 0.0025955 -0.00091448 -0.0004205 -0.0012245 -0.0022303 -0.00080279 0.0019145 0.0017118 0.00041308 0.00048371 0.0014587 0.001626 0.00029115 0.0046652 -0.00072835 0.0019916 -0.0041901 0.0019821 -0.00035967 -0.00073785 -0.0043703 0.0015839 0.00071365 -0.0012703 -0.0040312 -0.0022527 0.00010798 -0.001867 0.0035825 -0.0010109 0.0044802 0.0019154 -0.0005479 0.0020222 -0.0013987 0.0018513 0.00023525 0.0011212 -0.0017576 -0.0017905 0.00086852 -0.00018857 -0.0017796 0.0024125 -0.0023422 -0.0010318 -0.0026279 0.00032758 0.00065686 0.0028801 0.001713 0.001231 0.0037692 -0.0013305 -0.0027351 6.4447e-06 -0.0024814 -0.0027568 0.0057474 -0.00055368 0.0014706 -0.0007364 0.001277 -0.0048069 0.00099061 0.0031007 -0.0010902 0.0033258 -0.0034109 1.2771e-06 -0.0065097 -0.001169 -0.0021523 0.0033096 -0.0018766 0.0040295 0.0043425 -0.0018594 -0.0023539 0.00013582 0.0044877 -0.0029369 
сообщи 0.00048074 0.00077707 -0.0020506 0.001611 0.00050395 -0.0017351 0.0017764 0.0011824 0.0021775 0.00089457 -0.00077155 -0.00050336 0.001757 -0.0010815 0.00027094 0.0012124 0.00035686 0.00021412 0.00036671 0.000638 0.00098206 0.0004098 -0.00032157 -0.0024849 -0.00056665 -0.0013106 -0.00015143 -0.00047142 0.00083698 0.0005467 0.0010578 -0.0016457 0.00071268 -0.00055799 0.00052813 -0.0012919 -0.0016629 0.0022144 0.00012798 0.00023415 0.0016381 0.0019114 0.0018988 0.0016515 0.00097912 -0.00090901 -0.0015118 -0.00066957 0.0013131 -0.0019891 -0.00045855 0.0015626 -0.00060951 -0.0024216 0.0023709 0.00066665 9.1827e-05 -0.0019281 0.0002293 0.0013669 -0.0024732 0.00039978 0.0012415 0.0016608 -0.0022943 0.00073347 0.0011227 0.00023491 -0.0007041 -0.002157 -0.00062254 -4.4282e-05 -0.0016625 -0.0010359 0.00029968 -0.0015636 -0.00059741 0.0020422 -0.0017636 0.0013105 -0.0013425 -0.0019474 3.3196e-05 -0.0018178 -0.00045502 -0.0014691 -0.0013555 -0.00061602 0.0019588 0.0021294 0.00091367 0.0011425 -0.0022112 -0.0013307 -0.0006302 -0.0018962 0.00049851 -0.0025404 0.0016981 0.0008133 
машину -7.1455e-05 0.00017804 0.0021097 0.0015871 -1.7599e-05 0.00054693 0.00082617 0.00074211 -0.0016614 -0.0020594 0.0027772 0.0010513 -0.0010417 0.00071485 0.00042253 0.0014184 -0.0014359 0.0013278 -0.00032795 -0.0016233 0.00012076 -0.0010386 0.0010973 0.0018939 0.0010677 0.0011368 -0.0016304 -0.0010933 -0.00074911 0.00080788 -0.00018633 -0.00058664 -0.0022351 -0.00071261 -0.00026874 0.0013798 0.00032587 -0.00024442 -0.00058309 0.0014744 -0.0010151 -0.0013291 -0.0019856 -0.0007749 -0.00013951 0.0010709 0.0007073 0.0010751 0.00012148 -0.0026737 0.0012184 -0.00072763 -0.00080666 0.00010931 0.00022924 -0.00048591 -0.0007158 0.0015463 0.00063134 -0.0019163 0.0004224 0.0005791 -0.00099772 0.00050502 -0.00086555 9.9969e-05 0.0024769 0.0014289 -0.0010253 0.00043446 0.00224 0.00034555 0.0017189 0.00046617 0.0013561 0.0017241 0.0016882 0.0013741 0.0012301 -0.0012697 -0.0031593 0.00050224 -0.0012352 -0.00031131 0.0015255 0.0017441 0.00041269 0.00012625 0.00037314 -0.0019301 0.0018348 -0.00024313 -0.0013654 -0.0016322 -0.0025511 0.0015511 0.00094009 0.0013398 0.00055 0.0011489 
моему -0.00061079 0.0025306 -0.00046165 -0.00010102 0.001731 0.0017379 -0.00084435 -0.0028032 -4.7613e-05 0.000641 0.0012976 -0.002526 -0.0011243 0.00077339 0.00013289 0.0028586 0.0011213 0.0024343 -0.00064153 -0.0030116 -0.00076816 -0.00094434 0.00079795 0.00063819 -0.0014775 -0.00017466 0.0014521 0.00065315 -0.00040122 0.00010771 0.00013294 -0.0021377 -6.4761e-05 -0.00094046 0.0018123 0.0014813 0.0010735 0.00043248 0.00067688 -0.00062926 0.001171 -0.00076672 0.0025206 -0.0026987 0.0014988 -0.001215 -0.0010184 0.00060326 -0.0040499 -0.000958 0.0010268 -0.00097727 -0.0018507 0.000746 -0.00077441 -0.0011564 -0.00047094 -0.00025007 -0.00038095 -0.0016685 -0.00031989 0.00078371 0.0020646 0.00046338 0.0013499 0.0014433 -0.0046442 0.0012966 0.0003446 0.0030901 0.0011387 -6.3477e-05 -0.00034086 9.8283e-05 0.00076829 0.0013582 0.0033306 0.0012774 -0.00069925 -0.0010016 0.0039372 0.0003435 0.002111 0.0018617 -0.00068096 -0.0008283 -0.0011787 -0.0020068 -0.0015967 -0.00048416 0.00028746 -7.7111e-05 -0.0016762 -0.0010935 0.00069812 -0.0025775 0.00090177 -0.003601 -0.0017722 -0.0026337 
кот -0.0029289 0.000945 0.00039099 -0.0014697 0.0024616 -0.0034511 -0.0031718 -0.0011497 0.0040618 0.0021106 0.0010206 0.002747 -0.00058801 -0.0050068 -0.0019633 -0.0010861 -0.00053767 0.00031924 0.00013827 0.00013662 0.0030901 -0.0032558 -0.0018705 -0.0038374 0.002258 0.0034428 0.00080179 0.0038227 5.3107e-05 0.00029161 0.0015873 -0.002259 -0.0015014 -0.0031038 0.00034534 0.0034234 0.0001947 -0.00035237 0.00071781 -0.0037186 -0.0011715 -0.00059803 -0.001208 0.0054009 0.0011738 0.00042811 -0.0040392 0.0020389 -0.0029027 -0.00046811 -0.0024623 -0.00069121 0.0018541 -0.00031799 -0.0033285 -0.0027537 -0.00030911 -0.0021071 0.0012726 0.00017783 0.00064181 -0.00043674 -0.002891 0.0013086 0.0048334 0.0026597 -0.0037316 -0.0027498 -0.00066168 0.00063019 -0.0038039 0.0018101 -0.0033891 -0.0014688 0.00010355 0.00036607 0.00051671 -0.00098215 -0.0053938 0.0010742 -0.0015525 -0.0016676 -0.0012513 -0.00089484 -0.0006055 -0.0016661 0.00042517 -0.0047387 -0.0025994 0.0013058 -0.0032151 -0.0029725 -0.0024567 0.0030711 7.1469e-06 -0.0047395 0.0045436 0.0052878 0.00019819 -0.00067971 
осталось -0.00028941 -8.6487e-07 0.00023893 0.00051517 -0.001283 -0.0020674 -0.0010106 -0.00052015 -0.00064815 -0.0013355 7.0734e-05 -0.00070046 -0.00017932 -0.0010885 0.00099094 0.00010947 -0.0011837 -0.00036421 0.00081046 0.0024157 0.001605 -0.0011718 0.0013211 0.0008022 -0.00099694 0.00054911 0.0018662 0.00083398 0.00080173 0.0015294 0.001593 2.1654e-05 -0.0025281 -0.00033949 -0.00049716 -0.00033876 -0.0005276 -0.0010325 -0.0020814 9.9898e-05 -0.00063094 -0.0010719 0.00037557 0.0010997 -0.0016592 0.00063109 0.00044363 0.00047612 0.00038738 -0.00013492 0.0013294 0.0019035 -0.0011215 0.0010905 4.9612e-05 0.0011655 0.00016105 0.0010911 -8.5438e-06 -0.00018259 -0.00063624 -0.00066771 0.00053338 7.8031e-05 0.00037317 0.00013477 -0.00044492 0.0016103 -0.00181 0.00013042 -0.0002715 0.00089367 0.0012053 -2.4043e-05 0.0002799 -0.00012066 0.0007847 -0.0007846 -5.8827e-05 0.00070343 2.369e-05 -0.000166 -0.00017991 -0.0020573 -0.0014534 0.00012675 -7.3186e-05 -0.0015629 0.00014924 -0.0011902 0.00067818 -0.00074436 -0.00051467 0.00010567 -0.0002182 -0.00037382 -0.001045 0.00055362 0.001346 -0.00024345 
засну 0.00067411 -0.00037807 -0.003637 -0.0023043 -0.0030119 0.00077413 9.4694e-05 -0.0016642 0.0013318 -0.00076566 0.00068829 -0.0020614 0.00077034 0.00050452 0.0019039 -0.001079 -0.00040009 -0.0017977 0.00036605 -0.00084919 0.0009409 -7.2716e-06 -0.00097872 -0.0011749 -0.0026586 -0.00013629 -0.0022495 0.00083024 -0.00081637 0.00083148 -0.0011735 -0.0012843 -0.001656 0.0012048 0.00058227 0.00051604 -0.0019131 -0.0001339 -0.001177 0.00098869 -0.00073702 -0.0014111 -0.0011907 -0.0012253 -0.00079003 0.0021471 -0.0035992 0.0024215 0.0015849 0.00040853 -0.00032377 0.00095154 -0.00095223 -0.0016417 -0.0013644 0.00059302 -0.00099596 0.00017452 -0.00079433 -0.0014175 -0.001328 0.0022595 3.3969e-05 -0.0010384 -0.0031131 0.0015409 0.00043308 0.00080273 -0.0010907 0.00023307 0.00026475 6.6925e-05 0.0018497 -0.00055783 -0.00094169 0.001116 -0.00057051 0.00060653 0.0018522 0.0017436 0.00055735 0.00048487 -0.0011395 0.00034041 0.00025777 0.00036602 -0.0007571 0.0018208 -0.00093034 0.0032361 0.0013453 0.00090556 -0.00066187 0.0012909 9.6733e-05 -0.00071645 -0.00010524 -0.00020009 0.00028495 0.0013883 
воды -0.0019589 0.00087762 -0.0015783 -0.0011451 0.00042287 -0.00016094 0.0036381 0.0021502 0.00069387 -0.0045399 0.0018516 0.00054397 -0.001327 -0.0014197 -0.0032326 0.0027471 -7.5319e-05 -0.0015097 -0.0018823 -0.0016277 -0.00080794 -0.00042409 0.0016862 -0.00063785 0.0054595 -0.00075951 0.0032654 0.00086771 -0.0012756 -0.0012715 -0.00096798 -0.0018994 0.0013781 -0.00018137 -0.0010194 -0.00034628 -0.0021353 -0.00030159 -0.0033859 -0.00036311 0.0012587 0.00022961 0.0030232 0.0038117 0.00097933 0.00025925 -0.00099708 0.0018053 0.0031413 -0.00064514 -0.0042293 0.00013253 0.0021876 -0.00020835 -0.00063018 -0.00051787 0.0014093 -0.0029929 -0.00077624 0.00040845 -0.00056412 -0.0027906 0.0023911 -0.00013514 -0.0031174 -0.0014183 -0.0018322 0.0022606 0.00030646 0.0017699 -0.00016378 0.0007931 0.0011478 -0.0012845 0.00026234 4.5652e-05 0.0005066 -0.00018053 0.00013415 0.0020269 0.00010586 0.0030423 0.00086185 -0.0009006 -0.00083925 0.0014839 0.0003164 -0.00075692 0.00037452 -7.462e-05 -0.0015059 0.00011137 0.0034496 0.00015554 -0.00064756 0.0028244 -0.0034948 0.00037738 0.00088353 -0.00013342 
ванной 0.0020474 0.000192 -0.0012256 0.00092641 -0.00047601 0.00046158 -0.00094138 0.0015705 0.0010053 -0.0017721 -0.0018139 0.00019857 -0.00037819 -0.00031592 -0.00065597 -0.00021274 -0.0002766 -8.4225e-05 -0.00030072 0.0015591 -0.00093198 -0.00054371 -0.0004885 -5.2978e-05 -0.0013487 -0.0003603 -0.0010644 0.0012501 0.00067442 -0.0014242 0.00035946 -0.0014282 -0.00019847 0.001863 -0.00098903 0.0002296 0.00048978 0.001346 0.0012539 0.0010489 -0.0015056 0.0013987 -0.00071832 0.0023652 -5.3856e-05 -0.00050477 0.0012962 0.0011025 -0.0015902 -0.0016092 -0.0013717 0.0021409 -0.00216 0.00084067 0.00053325 0.00058629 0.00029141 0.00010595 -0.0013845 0.00058265 4.4847e-05 -0.0020058 -0.00048639 0.00088016 -0.00057568 0.00069047 0.00082591 -0.00094128 0.0003769 -0.00012099 -0.002106 -0.00012278 -0.00072751 0.0019379 -0.0018226 -0.00073133 0.0011765 0.00069576 0.0005604 0.0013292 -0.00059659 -0.0015826 -0.00083018 0.0024117 -0.0016389 0.00097491 -0.001188 0.00039337 0.0029818 0.0016665 -0.00066331 0.00030795 0.0001687 -0.00021165 -0.0018194 0.0016042 -0.00249 -0.00065211 0.0017887 -0.00026377 
ухожу 0.0017928 -0.0017216 0.0013007 0.0015681 -0.00089081 -0.0007575 0.0026004 -0.0003021 0.00014272 -0.00068791 0.00054471 0.00015631 0.0015421 0.0010243 -0.00066387 0.000127 -0.0013115 -0.0017142 0.0017684 0.0018094 -5.6362e-07 -0.00049596 0.00096018 0.00064944 -0.00013746 -0.0030282 -0.00074374 -8.7401e-05 -0.00022302 0.0037552 0.00043141 -0.0019204 -0.001114 -0.0011833 0.00066143 -0.00293 0.00083455 0.0017225 -0.00014203 0.00043018 -0.0022063 0.00061755 0.0010305 -0.0014777 0.00025143 -0.0041722 -0.00035294 0.00069315 -0.0035625 -0.0011365 -0.0031101 -8.8906e-06 -0.00085163 0.0012128 -0.00065206 -0.00026789 -0.00056032 6.1541e-05 -0.00021493 0.0032921 -0.00065998 -0.00053576 -0.00056708 0.00080779 0.00038289 -0.00042103 0.0030332 -0.0022557 0.0012914 -0.0010489 0.0019901 0.00043118 -0.00065254 0.0030556 0.0011877 -0.0011929 -4.2362e-05 -0.0016806 0.0010958 -0.00029011 -0.00094498 0.00092373 0.0018789 -0.00046955 -0.0019128 -0.00062427 0.00051207 0.0016887 -0.0011544 0.00075937 0.0001462 -1.1149e-05 0.0020427 0.0024644 -0.00045381 -0.0015956 -0.0011826 -0.0020285 0.0015787 -0.0014613 
мою 0.0010016 0.0021309 0.0011422 0.0020637 0.0025595 0.00063614 0.0018784 -0.0023532 -0.0015714 -0.0025324 -0.0021402 -0.0027639 0.0012693 -0.00038768 0.00068536 0.0011027 0.0036842 -0.0036845 0.0020164 -0.00087997 -0.0011267 -0.0044176 -0.001566 0.0010949 -0.0033449 0.0043115 -0.00084886 0.0018966 0.00015518 0.0035978 0.0020872 0.00038546 -4.2449e-05 0.0025804 -0.00098511 -0.0042074 0.00075882 0.0023888 0.0024259 0.00037042 0.00030996 0.00071997 -0.0021134 0.00023273 0.0011039 0.00093952 -0.0022035 0.0031833 -0.0030487 0.00057053 -0.0014307 -0.0028338 -0.0011665 0.0013349 -0.00071007 0.0028229 -0.0019695 0.0015033 0.0018926 0.005258 -0.004034 -0.0018243 0.00050222 0.0026325 -0.00079793 0.0035599 -0.0032151 -0.0018404 -2.371e-05 0.00038448 -0.0009315 -0.00054494 -0.00078919 0.00094905 -0.00070964 -0.0043215 0.00095842 0.0020892 0.0017371 0.0016463 -0.0022531 -0.0043937 -0.0027831 0.0010754 0.0016102 -9.2944e-05 -0.0016432 -0.0039864 0.0023337 -0.002611 -0.00049941 0.0025802 -0.00056837 -0.0026874 -0.0029638 0.00264 0.0012258 -0.00011364 -0.0022904 0.0026575 
вечера 0.0020481 -0.00097619 -0.00059923 -0.0025465 0.00068875 -0.00010288 0.0015797 -0.0024143 -0.002106 0.00067734 -0.0018337 0.0011286 -0.00046547 -0.00012217 -0.00030534 0.0012932 0.0012063 0.00090221 -0.00027294 -0.00048176 -0.00044311 -0.0027565 -0.0019088 0.0003187 0.0010345 0.0012294 2.4665e-05 0.00012411 -0.00049052 0.00099672 -0.0021596 -0.0014352 0.00050589 0.00085575 0.00021451 -0.00029647 0.00095057 -0.0012082 0.00042809 -0.00028631 -0.001226 0.0017717 0.00029356 0.00020966 -0.00039219 -0.00026134 -0.0029549 -0.00015208 0.0010718 0.0027011 -0.0014671 -0.0020742 0.00022805 0.00024518 -0.0032499 0.00051454 0.0015608 -0.00064986 -0.00024661 -7.8606e-06 0.0011084 -0.001274 -0.0018037 0.0003853 0.00030742 -0.0012151 0.00014969 0.00084097 -0.0008624 -0.0013541 0.0014629 0.0017279 -0.0010564 -0.0011065 0.00055159 -0.00060952 -0.0016633 0.00034678 0.0023023 0.0010493 -0.00013642 -0.0014231 -0.00082826 0.0045462 -0.00060272 0.00046363 -0.0016721 0.0035897 0.00031748 -0.00046682 -0.00051497 -7.1268e-05 -0.0011889 -0.0013861 -0.0021001 -0.0012777 -0.00099243 -0.0011044 0.00029272 0.00061834 
хлеб -0.0001089 0.00093846 -0.00041412 -0.0026802 0.00022381 0.0012643 0.00070742 -0.0023112 0.0017438 0.0027057 0.001603 -0.0032917 -0.0053301 0.0019564 0.001055 0.0019971 0.0016707 -0.0032068 -0.00011373 -0.0016322 0.00092967 0.00027043 0.00056181 0.0037066 0.0011145 0.00046781 0.00052144 8.5148e-06 0.0012823 -0.00015489 -0.00017489 0.0026228 -0.0038752 -0.0011531 0.0010446 0.0037167 -0.00094738 -0.00081481 -0.00089787 -0.0014499 -0.0015359 -0.00070286 0.00012332 -0.00071933 -0.00084767 0.0018084 -0.0020881 0.00097051 -5.1465e-05 -0.0030935 0.00049415 0.0018148 0.0019916 -0.0024982 0.0030379 0.0015155 0.00070588 0.00094675 -0.00073096 0.0014673 -0.002983 0.00096083 0.0027773 -0.0026893 -0.0022696 0.002519 0.0016202 0.0030572 0.002931 -2.6914e-05 0.0012206 0.0015565 0.0023312 0.0032932 -0.0023827 -0.00284 -0.00046695 0.0025729 -0.002353 0.0018329 -0.001462 0.00032287 -5.4135e-05 -0.0010806 0.0011427 -0.0011499 0.002182 -0.00048189 0.00054231 -0.0028907 -0.0020992 -0.0017989 0.0016913 0.003382 -0.00073769 -0.0014228 0.0023293 -0.0025501 -0.0012066 0.0027194 
отопление 0.00044295 -0.0020454 -0.0011102 0.0012087 0.00025851 0.0012263 0.00095926 0.00092439 -0.00019497 -0.00013848 -0.00031094 0.00030421 0.00016312 0.00011301 0.00011913 -0.0014668 0.00029383 0.0011841 0.00092101 -0.0019077 -0.00090901 0.00057033 0.00023156 -0.00019448 6.3212e-06 -0.00063009 -0.00081233 0.0019325 0.00091715 -0.00021432 0.00035571 -0.00081509 0.00141 -0.00068193 -0.001959 0.00046159 -0.00033566 -0.002432 0.00044844 0.00014489 0.00083874 0.0039354 -0.00083223 2.5417e-05 0.001554 -9.7794e-05 -7.5418e-06 0.0005971 0.00062186 0.00025302 0.00046371 -0.0010101 0.0001771 0.00049151 -0.00040373 0.00087944 -0.0007806 0.00017991 -0.0010819 -0.00065001 0.0007783 0.0001241 -0.00071949 -0.0011482 -0.0013597 -0.00039573 -0.00078868 -0.00012251 0.00010198 0.00042735 0.00066712 0.00051235 -0.00038002 -0.0016868 0.0014534 -0.00052139 -7.4222e-05 0.0013982 0.00047086 0.0019549 -0.0020856 0.00078148 0.0015087 -0.0012668 0.0015484 -0.00046543 7.8637e-05 -0.00037806 0.00057223 -0.00054955 -0.0030469 0.0026996 -0.00021381 -0.0010808 0.0013315 -0.0010427 0.00025369 0.00076798 -0.0013968 0.00092903 
стоит 0.0010679 -5.8659e-05 -0.00066032 -0.00052204 0.00017677 -0.0028455 -0.0012227 0.00096873 -0.00077321 0.00057344 -0.00091143 0.0010569 -0.002454 -0.00052114 -0.0012976 -0.00090209 -0.0019211 6.1369e-05 -0.00067516 -0.0025415 -0.0016283 -0.00071624 0.0019007 0.0025784 -0.0028592 -0.003708 0.00065257 -0.0021406 -0.00030226 0.0024326 -0.00057123 0.0010723 0.0016466 -0.00052474 0.00068506 -0.0014384 0.00032949 -0.00070294 -0.0011482 0.00079838 -0.0017705 -0.00089391 -0.0021423 -0.00077225 0.0013463 -0.0019759 -0.00020668 0.00099526 0.00053775 0.00072212 9.5553e-05 0.00017661 0.0027231 0.00087343 0.00049953 -0.00087477 0.001371 -0.00047986 -0.0015719 0.00013674 -0.0015954 -0.00016594 0.00010534 -0.0013243 -0.00091254 -0.0016728 -0.00094382 0.00077692 -0.00061711 0.002168 0.0014058 0.0026378 0.00010645 -0.00024347 -0.0010019 0.0014345 0.0013955 0.0021269 -0.00030607 -4.674e-05 0.00065672 0.00046478 1.6022e-05 0.0015251 -0.0022162 -0.0017435 -0.00075643 0.00078447 0.00038855 -0.0026607 0.0027567 -0.00065512 9.352e-05 0.00095675 -0.00067308 0.0012034 0.00026559 0.0036274 -0.00085018 -0.0014008 
захожу 0.0015111 0.00033907 -0.00092884 0.00086009 -0.0011191 -0.0015935 0.00015557 -0.00089295 -0.0001202 0.00041574 0.0005379 -0.00096502 -0.00024735 -4.2561e-05 -0.0010679 0.0011615 0.0017842 -0.0012185 0.0018223 0.00050699 -0.00066049 -0.0015787 0.0010062 0.0016977 -0.00091618 -0.00010121 0.0015112 -0.00062061 0.00071298 0.0027904 -0.0010022 -0.00026045 0.0013813 -2.9074e-05 0.0004077 -0.00032786 0.00054883 0.0010205 -0.00056103 -3.4767e-05 -0.0010726 0.0004373 -0.00095064 -0.0014765 -0.00035258 -0.00068102 1.9596e-05 0.0025873 -0.0020154 0.00072355 -0.00072871 -0.00078572 -0.00046403 -0.00088202 2.8108e-05 0.00075925 -0.00080458 -0.0011992 0.00084464 0.0027452 -0.00041243 0.00034592 0.0002946 -0.00094254 -0.0010497 -0.0012421 0.0016144 -0.0014636 -0.0014834 0.0014669 -0.00015264 0.00048515 -0.0012438 0.0010312 -3.9866e-05 -0.00028674 -0.00033556 0.00082538 -0.00057195 0.0013888 -0.00097498 7.8086e-06 0.0012866 -0.0015283 -0.001076 -0.00035544 -0.0027881 0.0026686 0.00077194 -0.0022531 0.0015002 -0.0012892 -0.00035028 0.00015842 -0.0012305 0.00077676 0.00015745 2.7466e-06 0.0004643 0.00071838 
солнце -0.00042952 -0.00066235 -0.0027876 -0.00015275 0.00011305 -0.0030023 -0.00050428 0.0014203 -0.00018939 -0.0017313 -0.0014391 -0.0016294 -0.0022969 -0.00033507 0.0017299 0.00050097 -0.00019306 0.0034502 0.00055368 0.00072243 0.0011043 -0.0013106 0.0014582 -0.00044671 -0.00062259 -0.0009363 -0.0042728 0.0016141 0.0016663 -0.0015573 0.0018563 -0.00072468 0.00023257 -0.00048189 -0.00094598 -3.8251e-05 0.0018672 0.0028608 0.00081215 -0.0013661 -0.0022049 -0.0016651 0.00071511 0.0021498 0.00052332 0.0014106 0.00017764 -0.00078217 0.0021439 0.00014276 0.00030838 0.0013142 -0.00049098 -0.0023626 -0.00039039 -0.0015889 0.0013098 0.0019603 -0.00069509 0.001879 0.00049565 0.00019185 -0.00024006 0.00023067 8.7975e-05 0.00045622 0.00088149 -0.0015588 -0.00069469 0.00027098 0.0016822 9.2259e-05 -0.0007194 -0.00071389 -0.00052976 -0.00022016 0.00098911 0.00096485 -0.00051091 -0.00042449 -0.00065127 -0.0015744 0.00028453 -0.0011475 0.00077338 -0.0034142 -0.00078651 -0.0021857 0.00047941 -0.00083476 -0.00099021 -3.6773e-05 -0.00035366 8.4709e-05 -0.0010773 0.0025868 0.0015895 -0.00028175 0.00051599 -0.00060377 
количество -0.00078993 0.0010688 0.00021734 -0.00069077 0.00085173 -0.00046128 0.0015085 -0.00052278 0.00066864 0.0015005 0.0013039 0.0024661 0.0013784 -3.4451e-05 -0.0011314 0.0019032 -0.00032604 -0.00075756 -4.6402e-05 0.0004879 0.00031079 -0.00041937 0.0013555 -0.000834 -0.0011907 0.0015525 -0.0012276 0.00051243 -0.0014972 0.0010097 -0.00039167 -0.001154 -0.00043666 8.9075e-05 0.0014839 -0.00017665 -0.00044449 0.0021127 0.00033827 -0.001498 0.00036601 -0.0006706 -8.9272e-05 0.0016067 0.0019142 -0.00021395 -0.00084085 -0.00018518 -0.0004486 -0.0014807 -0.0014542 -0.0009153 0.0020735 -0.0014414 0.00067175 0.0010328 -0.00053471 -0.00054671 0.00025866 3.2187e-05 0.00011066 0.00048239 0.00052126 -0.00073199 -0.0011398 0.00045443 0.00068594 0.00017007 -0.00074684 5.5867e-05 -0.00019258 -0.00036512 -0.0011079 0.0010081 -0.00050299 -0.0010468 -0.00043281 0.00072382 0.00055598 0.00038316 -0.0001472 0.0015113 -0.00041588 0.00096892 0.00037422 -0.0012468 -0.00024884 0.0023896 0.00070209 -0.00070021 0.000826 0.00062293 -0.0011611 -0.0012656 0.0015964 0.00052702 0.0021017 3.9381e-05 -0.0013636 0.00062875 
комнаты -0.00036128 0.0015566 -0.0016644 -0.0012531 -0.0015252 0.001691 0.00023839 -6.1101e-05 -0.0013084 0.0026173 -0.00066291 0.0016105 -0.0017786 -0.00058692 -0.00035363 0.00065956 0.00099358 0.00035333 -0.000125 -0.0011757 -0.0017245 1.9238e-05 0.0025473 -8.3347e-05 -0.00037729 0.0021542 0.0011557 -0.00030456 -0.00056206 0.00017943 -0.0015957 -0.001425 -0.0020517 -0.00035691 -0.00097575 -2.9971e-06 0.00015931 0.00075544 -0.0027997 0.00022094 0.00061728 3.5734e-05 0.0018797 0.0021984 -0.00076484 0.00082839 0.0014393 -0.0010985 -0.0017726 0.0019555 0.00018896 -1.0413e-05 0.0010549 -0.00048407 -0.0004377 -0.0022936 -0.0012433 -0.0013826 -0.0015258 0.00036815 6.1034e-05 -0.00070831 0.00070767 0.00070962 -0.0013566 0.0028392 0.0007126 -0.0014563 0.0013434 0.00036441 -0.0008572 0.0003732 -0.00037384 0.0014182 0.0016898 -0.0013651 0.0014169 0.0017157 -0.0013383 0.00077529 -0.0026044 0.00093628 -0.001214 0.00095845 -0.0012996 -0.00061354 0.0014389 0.00095614 -0.001051 -0.0007234 0.00080167 0.00046243 0.0018561 1.1083e-05 0.0026863 0.00069198 0.00031076 0.0010388 0.0025778 2.8787e-05 
воду 0.00021335 0.0019751 -0.0026416 0.0017645 -0.0018306 0.0018665 -0.0017011 -0.00094693 0.00046699 -0.00059527 -6.0572e-05 0.00078708 -8.0328e-05 -0.00071536 -0.0029319 0.00057844 -0.00040474 -0.00020107 -0.0010449 0.0013951 0.0013456 -0.0015645 0.00079695 -0.0027902 0.0019429 -0.0015307 -0.00061365 0.00025457 0.0016009 -0.0030981 0.00025798 -0.0016701 0.00017814 0.0028162 -0.00073487 -0.002213 -0.0016552 -0.0035738 0.00072452 -0.00081543 -0.00058554 -0.00042395 0.0011261 5.422e-05 -0.00095004 0.0026082 0.0021039 5.5353e-06 0.001269 -7.4226e-05 0.00017235 -0.0023663 0.0013327 0.00056868 0.0003706 -0.00078109 0.0025441 0.00023161 -0.00011981 -0.00046703 0.0039661 -0.0019092 0.0011866 0.0012649 0.0016543 0.00098508 -0.0013616 -0.00019858 -0.00038867 0.0031171 0.002419 -0.00046309 0.00099431 -0.00090619 0.0006694 -0.00072211 0.00036493 -0.0011476 -0.00055856 -0.0019118 -0.0023938 0.0002388 0.0011349 -0.00094411 0.00045905 -0.0016669 0.00034954 -0.0029748 0.00351 -0.0016328 0.0025152 0.0030308 0.0011981 -0.0029762 -0.0023391 0.00087442 0.00016424 0.0011809 0.0028256 0.00020833 
убирайте 0.0021021 -0.0018812 -0.00039425 -0.00089925 0.00088359 0.00078298 -0.0020884 -0.00075118 -0.00033971 0.0018559 0.00034636 0.0013111 -0.00046675 0.00057677 0.00098087 -0.0014434 -0.00047356 0.00018416 0.00041804 -0.001274 0.00087669 0.00068211 -0.00056406 0.00077521 0.0011789 0.00076784 -0.00071471 -0.0013143 -0.0017454 0.00068145 4.8271e-05 0.002118 0.0009268 0.00057134 -0.00059883 -0.00037743 6.8586e-06 0.00054031 9.169e-05 0.0019729 -1.4944e-05 0.0012158 -0.00016467 -0.0017186 -0.0010456 -0.0010399 0.00079506 0.0018679 -0.00078542 -0.0018413 0.0008069 -0.00086666 -0.00023421 -0.0012393 -0.0011378 0.00040341 -7.2404e-05 0.0013132 -0.00050653 0.00033222 -0.00040092 0.00058045 0.0005994 0.00029926 -0.0020787 -0.00011093 0.0011235 0.000468 0.0012382 -0.00019787 -0.00016259 -0.0004647 8.6733e-05 0.00085936 0.00014165 -0.0012072 0.0022613 -0.00048511 -0.00060626 0.00061275 -4.0593e-05 -0.0010166 -0.00073923 -0.00031581 -0.00070902 -0.00072681 -0.0017469 0.00064516 0.00074782 -0.0012412 0.0017958 -0.00029455 -0.0010378 2.9862e-05 0.0015265 0.00053171 -6.9274e-05 0.00067242 0.00013594 -0.00070688 
утра -0.00054149 0.0028242 0.00028066 0.0025481 -0.0025016 -0.0013489 -0.00026561 -0.00067541 0.0011808 -0.0015925 -0.0017083 -0.00019083 0.0009041 -0.00069209 0.0023189 -0.0023272 -0.00092114 -0.00027163 0.0052123 0.00043472 0.0010806 0.00031994 -0.00051158 0.00033975 -0.00074442 -0.00065626 0.00041032 -0.0030624 -0.0029454 -8.4887e-05 -0.002189 0.00029285 -0.00077021 -0.0029336 0.0017176 0.0012748 -0.0017439 0.0006513 -0.0011955 0.00038937 -0.0030731 0.0014654 -0.00061923 -0.0038213 0.0031034 -0.0012366 -0.0014288 -0.00071781 -0.0023411 -0.00034013 -0.0014632 -0.0018639 0.00056039 0.0014567 -0.00088303 0.0007164 -0.0012317 0.0012201 -0.0035966 0.001584 -0.0018168 -0.00035421 -0.0035049 0.0021104 0.0023649 0.00032178 -0.00090604 0.0026672 0.00049508 0.0013941 0.0028902 -0.00095798 -0.0012511 -0.0017347 0.0005039 -0.00012549 0.00024155 0.00039264 -0.00062973 0.0016112 -0.00040826 -0.0012778 -0.00086111 0.0033388 0.00066656 -0.00042941 0.0012602 0.0023491 0.0029463 0.00077345 0.0016141 0.0036288 0.0043746 0.0041298 -0.0016812 -0.0014405 -0.0017353 -0.00021135 0.0001468 -0.0005408 
телефон 0.0013198 0.0014655 0.0015899 -0.00013482 0.00042686 3.939e-05 0.00049517 -0.0012723 0.0024212 6.9429e-06 0.00017884 0.00054518 -0.0011611 0.0013115 -0.0019254 -5.5776e-05 0.0015464 0.00093294 -0.00035847 -0.00040697 0.0022071 -0.0031905 0.00027151 -0.0012464 -0.0012744 0.00038996 -0.00051719 -0.0032797 -0.0013985 0.002595 -0.0012633 -0.0002164 -0.00054262 -0.00014578 -6.2905e-05 0.00022148 -0.00010587 0.00012936 0.0013917 0.00018464 0.0021188 0.00065525 -0.001445 -0.00107 -0.0015658 -0.0013968 -0.00081867 -0.00061632 0.00036894 0.00069436 -0.0013595 -0.0012882 -0.0012793 -0.00025364 -0.00022706 -0.0003585 -0.0015086 0.0005889 -0.00019495 0.00077276 -0.001269 0.00047283 0.0017063 -0.00014424 0.00080687 0.0014993 0.0019008 -0.00068436 0.0017121 -0.00023866 -0.0010964 0.00034578 0.00080306 0.00020596 -0.00083034 -0.0024192 -0.00061117 -0.00017971 -0.0016245 0.0020658 -0.00044384 -0.0010614 0.00023597 0.0018 0.00018711 0.00067432 0.00098465 -0.0011457 -0.0016351 -0.0012361 0.00060465 0.00017492 0.0002804 -0.0017334 -0.00019289 -0.0007318 -0.0011789 -0.00079546 0.0022937 -0.0022932 
разогрей -0.00082443 0.0010788 -0.0013863 0.00079746 -0.0018602 -0.00058423 -0.00096993 0.00010863 0.00057437 -0.0011477 -0.00014848 -0.00098576 -0.0005165 -0.00057892 8.3646e-05 -0.0023368 -0.00077441 0.00062161 -0.0033161 0.00085983 -0.0018678 0.0006069 -0.0012604 -0.00031339 0.00080816 -0.0012597 -0.00098446 -0.00034909 -0.001477 0.0011138 0.0014822 0.00017 0.00051691 -0.00055735 -0.0017677 -0.0009254 -0.00062429 -0.0022131 -0.00021966 0.00025265 -0.00077083 0.0013958 0.00020886 -0.0027187 -6.7676e-05 -0.00088334 -0.00018231 -0.00034977 0.0011023 -0.00039806 0.001216 -0.00030253 -0.00042771 -0.0021147 -3.2384e-05 -0.00034055 0.001493 -0.001111 -0.0012956 -0.0019298 -0.00079949 -0.00087556 -0.00090602 0.00069526 -0.00025802 0.00079694 -0.00014596 0.00056222 0.0013546 0.001751 -0.00064261 0.0015501 0.0019685 -0.00069933 0.0011422 -9.7172e-05 -0.00015858 -0.00055317 -0.00023656 -0.0013543 0.00022211 0.0017958 -0.0001312 0.000881 0.0014733 0.0024806 -0.0012722 0.0010945 -0.0005228 -0.00060283 0.0017171 4.5082e-05 7.0008e-06 0.0014109 0.0013552 0.00012578 -0.0010851 -5.7615e-05 -0.0020095 -5.3738e-05 
утюг 0.0030732 -7.6601e-05 -0.0018952 0.0021949 7.6489e-05 -0.001014 0.00048189 0.0018193 0.0028309 0.0018904 0.0013537 0.00031433 0.0016257 -0.0014384 -0.0025978 0.0014067 -0.00091748 0.000445 -0.0013273 0.00053133 -0.00065225 0.0013438 -0.0014552 0.0013737 -0.0001774 0.00026401 -0.0015392 0.00096452 -0.0021107 0.00015952 0.0009841 0.0033517 0.00018284 -0.0012215 -0.00077147 -0.00073431 -0.00086554 -4.7244e-05 -0.00017578 0.0014609 0.0019855 5.382e-05 -0.00072848 0.0020489 0.0012641 0.0012551 0.00050939 0.0011359 -0.0028736 -0.00087828 0.0010537 -0.0007664 -0.00076757 0.0017851 -0.00039706 -0.0024057 -0.0011175 0.0001099 -0.00012015 0.0019701 -0.0016423 -0.0013822 0.00051162 -3.8536e-05 0.0011212 -0.00073204 0.00090088 -0.0015743 0.0042913 -0.00016271 0.0023195 -0.0023967 -0.00020586 -0.00082567 0.00079389 -0.0008057 0.0017797 0.001635 0.0014095 0.00083526 0.00055303 0.0028637 0.0001242 0.0023254 0.00081397 -0.0018618 0.0011967 -0.0023014 0.0018586 0.00011108 -0.00099632 0.0024211 0.0013146 0.0011069 -0.0023663 0.0013461 0.00051829 0.0033896 0.00022979 -0.00042595 
документ -8.3154e-05 -0.0027484 -0.0015385 0.00024831 -7.934e-05 0.0010108 0.0013864 -0.0023577 0.0005883 0.00058122 -0.00046248 0.00060218 -0.00056669 -0.001133 0.00076399 0.00077274 -0.00011122 -0.0013329 -0.0007184 -0.0017636 -0.00087099 -0.00055679 9.2075e-05 3.7643e-05 0.0013617 -7.9841e-05 -0.0012624 0.0011023 -0.00054153 -0.0010787 0.00021038 0.0013348 0.00045111 0.00099147 -0.0010048 -9.9915e-05 0.00052138 0.0013286 0.0007335 -0.00095531 0.0018492 0.00048566 9.3819e-05 0.0010843 -0.0018837 -0.0018472 -0.00035298 0.00095658 0.0011468 -9.9027e-05 -0.0012481 0.00051134 -0.00015555 -0.00031071 0.00059948 -0.00091004 -0.0007556 0.00038583 -3.5234e-05 0.00070246 -0.00031963 -0.0013515 -0.00047112 -0.00055478 -2.8123e-06 0.0010081 -0.00034132 -0.00064488 0.0015706 -0.00031191 0.00081402 0.000139 0.0026019 -0.0012205 0.00017718 -5.8422e-06 -0.00010142 -0.00040725 -0.0006136 -0.0018416 0.00066585 0.0013254 0.00018018 -0.00028833 0.0013482 0.0017739 0.00049725 -5.3175e-05 -0.00022086 -0.00043845 0.00071075 0.0014085 0.0021257 0.00064746 0.0014624 0.001452 0.00037847 -0.00070444 -0.00052335 -0.00075348 
название -0.00013277 0.0002011 0.00036615 0.001503 -0.0011575 0.00054769 -0.00095585 0.0015897 -0.00018855 -0.00040444 -0.000437 0.00033163 0.00035274 -0.0016829 -0.00022696 0.00035128 -9.6101e-05 0.00066173 0.00067366 0.00050439 -6.9656e-05 -0.00034127 0.00049193 0.002213 0.00074431 0.0020536 -6.2205e-05 -0.0022341 -0.00023509 0.0012243 0.001253 0.0005373 -0.0021866 -0.0010339 -0.0011285 0.0001188 0.00017844 -0.0012969 0.00014279 0.00070412 1.218e-05 0.00085466 -0.00061455 0.00033393 0.00026809 -8.0583e-06 -0.00021899 0.0004422 -0.0015012 -0.0013483 0.00013931 -0.0014327 -0.0010192 -0.00044392 0.0003849 -0.0007337 -0.00018239 0.00016846 0.00082544 0.00062415 0.00012984 0.00098864 -0.001017 -0.00031528 -0.0018726 0.00030467 0.00041916 0.0043325 0.0014555 0.0012207 -0.00092065 -0.0015964 -0.0011124 0.00069419 0.00050666 -0.00086037 -0.00078839 0.00095299 0.001498 0.0003641 -0.00034599 0.0004952 0.00067746 0.0011054 -0.001465 -0.00048668 -0.0015626 -0.0036136 0.0011696 -0.0017397 -0.00054352 -0.00027316 -0.00012102 0.00046088 0.00067182 0.0009338 -3.874e-05 5.7758e-05 0.00014624 0.00087993 
последний 3.067e-06 0.00029642 0.0007378 0.0010706 -0.0003199 -0.0017925 0.00012942 -0.0011592 0.00013383 -0.00097348 0.0012551 -0.0013014 0.00027465 0.0013731 -0.00034507 -0.0013586 0.00026873 -0.0005547 0.00033357 0.0013014 0.00035397 -0.00010508 0.00067918 -0.00067368 3.1212e-05 0.0029915 -0.0014619 -0.00036686 0.00039546 0.00046776 -0.00024215 0.0014593 0.00022714 0.00071304 -0.0014389 -0.0013418 -0.00059096 0.00017324 0.00061733 0.00084823 0.00080618 0.00056284 0.0019409 0.00068411 -0.00047778 -0.00043427 -0.0026864 -0.001332 0.00075542 -0.00045273 -0.00021898 -0.00081207 0.0013562 0.00094765 -0.00095486 -0.00084243 0.0013919 -0.00046889 -0.00051853 0.001374 0.0014017 -0.0014435 -0.0010803 0.0010838 -0.00088521 -0.0021735 0.00089679 -0.00025315 -0.0013741 3.9001e-05 0.0008326 -0.0017819 -0.00061474 -0.00080095 1.5445e-05 -9.0059e-05 0.0022321 -0.0019022 -0.0008225 -0.00037085 -0.00035459 0.00087264 0.0010968 0.0001845 0.0014437 -0.00053473 0.0017657 -0.0002389 0.00085842 0.00024354 0.00048241 0.001127 8.9354e-05 -0.0018181 0.00052231 0.00056612 -0.0011867 -0.0011605 -0.0014257 0.00082174 
ктото -0.00093178 0.00094869 0.0027055 -0.0017902 0.0018415 -0.00097933 -0.00082755 -0.0014367 0.001461 -0.00036989 -0.00097034 0.0025229 0.00043323 0.00051532 -0.0012294 -0.00071146 -0.0012254 0.00082383 0.00098876 -0.0011705 -0.00049459 -8.9547e-05 0.0010318 0.00056216 -0.0027797 -0.002257 -0.0016947 -0.0014176 -0.0021149 0.0025493 0.00226 0.001124 0.0026508 0.00098438 0.00021389 -0.00063012 0.0028008 -0.00084766 0.00066107 -0.00078956 -0.0010559 -0.0010412 0.00055223 0.0031376 0.0011612 7.7143e-05 -0.00054966 0.0015742 -0.00112 -0.0014154 -0.00043892 -0.0019296 -0.0016489 -0.00022643 0.0019678 -0.0020341 -0.0002745 0.00011224 -0.0019664 -0.0003246 0.0013091 -0.0015088 0.00024867 -0.0025357 -0.0011797 -0.0018281 -0.00069506 -0.00014733 0.00052948 -0.00057942 0.00078741 0.00066536 0.00066545 -0.0031997 0.0013007 0.0013417 0.0021456 0.0009179 0.00036146 -0.0013603 -0.00039352 0.00027056 -0.0031368 0.0017468 0.00076094 0.00061039 0.00096018 -0.00047373 -0.00032108 -0.00077441 -0.00024948 -0.00065311 2.3958e-05 0.00094626 -0.0027964 -0.0015149 -0.00056587 -0.0021364 0.00023591 0.0030264 
завтра -0.0017251 0.00035114 0.0018154 -0.0013402 -0.0023363 -0.00057619 0.00087884 0.0002561 -0.0010652 0.00041805 -0.0014201 0.00026826 -0.00042576 -0.00048517 0.0023291 -0.00095337 -0.0011454 -0.00071094 0.0013125 0.0012972 0.0010202 -0.0001692 0.00087289 -0.00035177 -0.0015817 0.00086827 0.0005275 -0.00011629 -0.0024721 0.00088526 0.00054071 0.00025306 -0.00028876 -0.0010677 0.0016714 -0.000919 0.0010174 -0.00086711 0.00055275 0.0014966 -0.0029559 0.0007845 0.00020971 0.0013633 -0.00070139 -0.00028684 -0.0013549 0.0015112 -0.00042536 7.721e-05 -0.0016203 -0.00051031 0.002356 0.0012722 0.00041475 0.0004943 0.0012405 0.00039324 0.00079729 0.0026872 0.00010284 -0.0011251 -0.0016853 -0.0011462 0.00071656 0.00088727 0.0012746 -0.0011226 -0.0022015 0.0021136 0.001465 0.00070452 0.00058654 0.00017926 -0.0010219 -0.0019575 0.00039838 0.0016688 -0.00023757 0.0014343 -0.0033077 -0.0017557 -0.0018072 -0.00057871 0.00082359 -0.00073568 0.0030235 0.00095307 0.0030731 0.00013084 0.0012489 0.00042152 0.00011367 0.0033203 0.0012888 -0.00058028 -0.00011282 -0.0010545 0.0006316 0.00084739 
уведомление -0.0004151 -0.00048998 -0.00011082 0.00057725 -0.00082527 -0.00065176 -0.00027647 0.00069104 0.0020201 0.001717 0.00016456 -0.00019935 0.00042623 0.00061837 -0.00071563 -0.0011595 -0.00061907 0.00036059 -0.00076961 -0.0022185 -0.0012363 -0.00026119 0.00089406 -0.0010168 0.0013746 0.00060736 0.00013534 0.00075428 -0.0014616 -7.9013e-05 0.00064942 -0.001071 -0.00010374 -0.00045105 -0.0012153 0.00027666 -0.00070571 -0.00056199 -0.0011002 -0.00072762 -0.00039982 0.0017126 0.00032033 0.00022741 0.0014045 -0.0006058 -0.0008655 0.0015265 -0.0010358 -0.0013985 0.00054229 -0.0014827 -0.00060859 -0.00065201 -0.00095242 0.00088622 -0.00029303 0.00024409 -0.0029854 0.00053393 -6.9952e-05 -2.1517e-05 0.00075472 1.9931e-05 -0.00079309 -0.0003791 0.00077788 0.0017292 0.00091113 -0.00011168 0.0012079 0.00079759 0.0010308 -4.4089e-05 0.00090524 -0.00028929 0.0018115 0.00070376 -0.00098211 -0.00094337 -0.0003776 0.00040405 0.0008575 0.00015899 -0.00027328 -0.001549 -0.00090643 -0.0010839 -0.0008521 0.00097978 -0.001686 0.00085872 0.0016816 -0.00097855 0.001469 -0.0013382 0.00021695 -0.00069074 -0.0013509 0.00077865 
