177 100
</s> -0.0095415 0.0082054 -0.0084142 -0.00099636 0.008652 0.0012181 0.0053944 -0.0013566 0.011828 0.011355 -0.0026475 0.0043918 0.0087912 0.0070922 -0.0034748 -0.0010579 0.0014417 0.0085577 9.8446e-05 -0.008634 -0.0011673 0.0077185 0.0049884 -0.0071879 0.0070619 -0.0066189 0.002151 -0.0050167 -0.0022276 0.012983 -0.0078267 -0.002117 -0.0096349 -0.0092983 -0.012958 -0.0016926 0.0039188 -0.010948 -0.0026644 -0.0085168 0.011648 0.0095024 0.0037432 0.0020063 -0.0050647 0.00041148 -0.0058689 -0.0035514 -0.0082513 0.0031836 -0.0099229 0.011952 -0.012937 0.0069385 -0.0003273 -0.0052215 0.00096437 0.00090425 0.0057914 0.0022924 -0.0073684 0.0071469 0.008894 0.007522 -0.0045991 0.0021428 -0.01039 0.0075105 0.0083695 0.0080292 -0.01251 -0.00039691 -0.0035647 0.0013211 -0.00070253 -0.0063081 0.012679 0.01015 -0.00033414 -0.0062768 -0.011502 0.0080132 0.011864 -0.0092326 -0.0067896 -0.0099914 0.0033814 -0.00081197 -0.0042571 -0.0034346 0.01192 0.0063076 0.012512 -0.010331 -0.00090318 -0.010641 0.0076335 0.010971 -0.0081777 -0.0031452 
в -0.0018226 -0.0016303 8.7282e-05 -0.0087764 0.0030145 0.0090519 -0.0013366 -0.0028678 -0.0033944 -0.00081895 0.0031613 -0.00053596 -0.0075052 -0.002743 -0.0015517 -0.0077393 0.0021013 0.0082873 -0.0063876 0.0015777 -0.0035216 0.0064503 0.001692 0.0015154 -0.0057508 -0.0030946 -0.0065225 0.0016355 -0.0048252 -0.0022238 -0.0001665 0.0031436 -0.0014033 -0.00082605 -0.0019419 -0.00067226 0.0013212 -0.0015628 -0.001038 -0.0052397 -0.0067599 0.00785 -0.0029791 0.0010166 0.0069747 0.0038611 -0.00055862 0.00073654 -0.0044792 -0.002148 0.0024717 6.6553e-05 -0.0035979 0.0028203 -0.0028658 0.0045215 -0.0056276 -0.00086689 0.0093341 -0.0065121 0.0028945 0.0051513 0.0076803 0.0079736 0.0014644 -0.0025877 -0.0093363 0.0032879 -0.00068998 0.0010315 -0.0044878 0.004891 0.0049436 0.001233 0.00074149 -0.0056528 0.00464 0.004175 0.0082346 0.0055638 -0.0054162 -0.00073312 9.3792e-05 0.0050882 0.0023384 0.00075682 -0.0012155 -0.0099457 -0.0050623 0.0070136 0.0026258 0.0010467 0.0069384 -0.00062035 0.0033608 -0.0034758 -0.00040932 0.0057231 -0.0099529 -0.0064747 
на 0.001863 -0.0035078 -0.00069503 0.0024999 -0.00058842 -0.0053995 -0.0089762 -0.0034419 0.0038133 -0.00026979 0.0010053 0.00086634 -0.0046696 -0.0024332 -0.00046375 -0.00057085 0.0026032 0.00081405 -0.00067319 -1.8528e-05 -0.0020681 -0.0046696 -0.0032792 0.0014351 0.001001 8.0775e-05 -0.0011066 -0.0030005 -0.0067021 0.0035316 -0.0020331 0.0044741 -0.0038678 -0.0041785 -0.0007135 -0.0074848 0.0017037 0.00081335 0.0057944 0.0017891 -0.0031983 0.0017423 -0.00072627 -0.00057707 -0.003058 -0.00036048 -0.0012641 0.004581 0.0026529 -0.00063998 0.003387 -0.00047597 -0.0031573 -0.00068293 -0.0026575 0.0022312 -0.0004167 -0.0019432 -0.0024041 -0.0031524 0.0029977 0.0043438 0.00527 0.0037613 -0.00031317 -0.0039508 -0.0021037 0.0022962 -0.0025979 1.2782e-05 -0.0020736 -0.0015508 0.003361 -0.0050526 -0.0022605 0.0034078 0.0019632 -0.0046461 0.00078934 -0.003854 -0.0061834 0.0033385 -0.0010749 -0.0031363 0.00086795 -0.0054596 0.0012542 0.0024038 0.0015193 -0.0030675 0.0037898 -0.00035477 0.0026066 -0.00079623 -0.0047142 0.0017268 0.0022706 -0.00055783 -0.0035824 0.0050104 
если -0.002082 0.00089778 -0.0021427 0.00043717 0.0018831 0.0015422 -0.00024898 -0.0014441 0.0014028 0.0036069 -0.0013008 0.0022486 -0.00088835 0.00063811 -8.4225e-05 0.0003946 -0.00034874 -0.00027932 0.00065155 -0.0020165 -0.0025302 0.000219 0.00014033 -0.0020887 -0.0010237 0.0045986 0.00082082 -0.00042545 -0.00083296 -0.0032836 0.0014888 0.0012133 -0.0012413 -0.0011536 -0.0010181 0.0015278 0.0029789 -0.0034661 -0.0012694 -0.00054397 0.0014083 -0.00011496 -0.00248 -0.00017132 -0.00069228 -0.0029006 -0.002041 0.00066957 -0.00085181 0.0016297 -0.0029192 0.0045962 -0.00082507 0.0010575 0.00038546 -0.0014888 0.0015789 0.0025046 0.0036383 0.0014352 -0.0026642 -0.00020839 -0.00012479 0.00078221 0.0013675 -6.5281e-05 -0.0036608 0.00028736 0.001962 0.0028599 0.0011515 0.00047408 0.00019816 0.0027696 -0.00030442 -0.0035619 0.0030247 0.0013071 -0.00042969 -0.0026944 -0.00039447 0.002757 0.0028468 0.0010579 -0.0010223 -0.00073691 0.00050253 -0.00015812 -0.0020972 0.00050768 0.00037387 0.0025893 0.0014899 -0.00026648 -0.0010656 -0.0049181 -0.0031391 0.0027489 -0.0015793 -0.00036127 
я -0.0059196 0.0025295 -0.0057128 -0.0019786 0.0066083 0.0008947 0.0019648 -0.00062586 0.0043412 -0.0016399 -0.0015799 0.0014416 -0.0058634 0.0050293 0.0081548 0.0041858 -0.00027386 -0.00277 -0.0050033 0.0070086 0.0045246 -0.0033045 -0.0072131 -0.0014906 0.0055241 0.0043616 0.0043501 0.0010621 0.0084194 0.0080334 0.0016203 -0.0051673 -0.00014306 -0.0017876 -0.0025455 0.0024365 -0.0026496 0.00043164 -0.00033722 -0.0016305 0.0012465 0.0011093 0.0016696 0.008528 -0.00076295 -0.0018142 -0.004528 0.0086535 0.00039343 0.0022955 -0.001547 0.0026021 -0.0012529 0.0058829 0.0043059 0.0016275 -0.0042053 0.0026396 0.0010939 0.00015638 0.0044545 -0.00063802 -0.00014336 -0.00074487 0.0010266 0.0075493 -0.0078572 -3.69e-05 -0.0060149 0.0036717 -0.001198 -0.0048302 0.00096305 0.0023608 0.0010498 -0.0072551 -0.0055948 -0.0011534 0.0007851 -0.00053463 -0.0014746 0.0068423 0.004531 0.0057026 -0.0025824 -0.0067782 0.0036455 0.0061849 -0.0035252 0.0071898 0.0070894 0.0045245 0.0013776 -0.0033635 -0.0028087 0.0017721 -0.00018515 0.0004889 -0.0093855 -0.0035189 
и 0.00945 -0.0014175 0.0027497 -0.0015242 0.0012688 0.0063722 -0.0046182 -0.0015056 7.1828e-06 0.0060018 0.0012803 -0.0023049 -0.0053533 -0.00075767 -0.0032593 0.00025639 0.00092523 -0.0013096 0.00048528 -0.0041573 -0.00041105 -0.0021245 0.0064597 -0.0036928 0.0037063 0.00073323 -0.0018534 -0.005457 -0.0034989 -0.0068129 -0.0027725 0.0022863 -0.003865 0.00391 -0.0029698 -0.00072755 0.0014749 0.0010779 -0.0088241 0.0088126 0.0017828 -0.0013154 -0.0046482 0.00056949 0.0073566 -0.001789 -0.0053189 -0.0095522 0.0021241 0.0035218 -0.0033139 -0.0039938 -0.010112 0.0034712 0.0018406 -0.0007009 -0.0025458 -0.0028191 -0.00093529 -0.0058303 -0.0059424 -0.0046322 0.0039057 0.0032246 -0.0017987 -0.0025307 -0.008814 0.00087158 -6.8774e-06 -0.00060171 -0.0031153 0.0011957 0.0041253 -0.0031494 -0.0058307 -0.00066973 0.005283 -0.00080488 0.0013441 -0.0018941 0.0060105 0.0054 0.0064704 0.0087749 0.0062562 -0.0027349 -0.0075014 0.0039042 -0.0084646 0.0028648 0.0036791 0.0022985 -0.00056882 0.0024943 -0.0014924 0.0031409 -0.0054336 -0.0033654 -0.0023707 -0.0015219 
за 0.0011043 -0.0014178 0.0020716 -0.0018677 0.0026549 0.0011644 0.0021892 0.0026515 -0.0029737 -0.00070456 -0.0033069 0.0051793 -0.0048672 -0.0061556 0.0040595 0.0029533 -0.0027657 0.0018924 -0.0021951 -0.0016055 0.000799 -0.00087679 -0.0015111 0.0014401 -0.0038104 -0.0019608 -0.0018635 -0.0063594 -0.0015332 0.0042174 -0.0016363 -0.004313 -0.0037472 -0.0020801 0.0032932 0.0031308 0.00060948 -0.001389 0.00021235 0.0020488 0.0016883 0.0015191 -0.00052987 -0.0032164 0.0037872 -0.00076167 0.00092787 -0.00030407 0.0031236 -0.00087996 -0.001087 0.0036499 -0.0037077 0.0056501 0.0056082 -0.0019738 0.0033006 -0.0010992 0.0015835 -0.0016429 0.00021925 0.0010095 -0.0042692 0.0012749 -0.0029614 0.0067463 -0.0069579 0.00077895 -0.0030572 0.00028925 0.00079795 0.0015103 0.00058041 -0.0018493 0.0011844 -0.0024606 0.0053274 0.0015566 -0.00039592 -0.0020219 -0.0026399 0.00082308 0.0021046 -0.0015565 0.0022523 -0.00081319 0.0059988 -0.00029888 0.0043066 0.0009569 -0.0017958 -0.00048435 0.0066483 0.0016645 -0.0029529 -0.0024076 0.0057789 -0.001351 -0.0021699 -0.00067035 
когда -0.0018815 0.00086103 -0.0018382 -0.0011069 0.0017701 0.0022607 0.00011059 -0.00050531 0.00042609 0.0003938 -0.0032239 0.0010951 0.00072474 0.0020129 0.00016895 0.00035542 0.00010121 0.0022502 -0.00069832 0.0016342 0.00037863 0.0014558 -0.00086537 -0.00031401 0.0012513 -0.0006172 -0.0012801 -0.00051505 -0.00036816 0.0017244 -0.0019699 0.00092848 -0.00050297 -0.0018351 -0.00060773 -0.0021456 0.0016054 -0.002608 -3.6218e-05 -4.8689e-06 0.0012797 -2.5515e-05 0.0010243 0.00037436 0.002702 -0.0032912 -0.0015487 0.0020124 -0.0025296 0.00094947 -0.0045476 0.0041273 0.001584 0.0016329 0.0010635 0.0018749 0.00019836 -0.00011211 0.00014327 -0.00055201 -0.001485 0.00038911 0.0039191 -0.0027222 -0.0018039 0.0012041 -0.0015107 -0.00044119 -0.00089538 -0.00095095 -0.0013125 -0.00043953 0.00020245 0.0012689 0.00071302 -0.0010782 -0.0011297 0.00090881 -0.00094823 -0.00090361 -0.00077252 0.0012092 -0.00013685 0.0007755 -0.0011979 -0.00074733 0.0017125 -0.0001917 0.001227 7.1922e-06 0.0042505 -0.0019119 -0.00091544 -0.00070879 -0.00099629 -0.0033988 -0.00087925 0.00078527 -0.0004797 -0.00078281 
число -0.002125 -0.00065475 -0.00078022 -0.00067156 -8.8486e-05 -0.00030213 -0.0010577 -0.0029761 -0.0011037 0.0001913 -0.0013744 0.0016385 0.00032876 -0.00056006 0.0010856 0.00084034 0.00044866 0.0056812 0.0014852 -0.00013245 -0.0013691 0.00035135 -0.0020971 -0.0014872 0.00060783 -0.00026492 0.00033952 -0.0017683 0.00029157 0.001625 -0.0021296 0.0022352 0.0026519 -0.0036459 -0.0014886 0.0005485 0.0013218 -0.0020935 -0.0017085 -0.0024216 0.0029199 -0.00038262 0.00059699 -0.00010307 -4.4067e-05 -0.00081238 -0.00032082 0.0016985 0.0014089 1.3604e-05 -0.0023103 0.0019356 -0.0046799 0.00089938 0.0016684 -0.0020116 -0.0016092 -0.0029766 3.8772e-05 -0.0016216 -0.0025056 -0.0006588 0.0013783 0.0020995 0.00033711 0.0012771 -0.0026321 -0.00060861 0.0014696 6.0663e-05 -0.001369 -0.0019152 0.0028476 0.00078863 -0.00073405 -0.0010844 0.0024652 -0.00058404 -0.0010231 -0.0028553 -0.0015748 -0.0025834 0.0019541 -0.0019158 0.00021688 -0.0020208 0.00076167 -0.002344 0.001361 0.0022934 -0.00025438 0.0024533 0.0040391 -0.0012876 -0.0011736 -0.00032552 0.00067282 0.00053014 -0.0024185 -0.0012586 
свет -0.0013058 0.00056724 -0.0027252 -0.00060306 0.0031082 0.0016291 -0.00099686 -0.0029672 0.0016261 0.0041388 -0.0036315 0.0017725 -0.00191 -0.0049642 -9.0381e-05 0.00037926 0.00059624 0.0036295 0.00026398 0.00049596 -0.00068582 -0.00049646 0.0019605 -0.0020122 0.0043253 -0.0022863 0.00016801 -0.00061735 0.0010826 0.0017642 0.00018709 -0.0036651 -0.00036829 -0.0027859 -0.0037688 0.0007922 -0.0017885 0.0023141 -0.00068567 -0.0015459 0.00036469 0.0020285 -0.0019303 0.00040978 -0.0030745 0.0025813 0.0020194 0.00102 0.0013942 0.0011853 -0.0023087 0.0009279 -0.002313 0.0019101 -0.00073949 0.0014168 0.0019287 0.00081253 0.0041755 -0.0015402 -0.00022711 -0.0030941 -4.8263e-05 0.0018481 -0.0036193 -0.0037887 -0.0039789 0.0014709 0.0010162 0.0011575 -0.0020696 0.0023721 -0.0012693 0.00017498 0.00047671 0.0015686 -0.002591 -0.00021456 0.0018373 -0.0019556 0.0016385 -0.0012288 -0.00010239 -0.0031777 -0.0034633 0.0012833 0.000987 0.00035225 -0.0030239 -0.00215 -0.0015414 -0.00043557 0.0027761 -0.00088626 -0.0027213 0.00071585 -0.0014395 0.0016732 -0.00092189 -0.00022267 
включи 0.00099792 4.8407e-05 0.00052999 0.0025893 0.0023 -0.00049824 7.1558e-05 -9.0361e-05 0.0020641 0.0001554 -0.0013015 0.00087954 8.0598e-05 0.0015963 0.00073958 0.0016029 0.0021214 0.0030591 -0.0004981 0.001511 0.0022029 0.00071586 0.00068711 -0.00087342 0.00051349 -0.00059001 0.0019085 -0.00099018 -0.00021362 0.0023438 0.0025109 -0.00060944 -0.00042913 -0.00069915 -0.0022442 -0.001294 0.0016913 -0.00020218 -0.001359 -0.0014645 0.0018264 0.00018485 -0.0001755 -0.00059933 0.002298 -0.0015154 -0.001917 -0.0010154 0.00078189 -0.00050654 -0.0030621 0.00094337 -0.0034362 0.0012283 -0.001528 -0.0009287 0.0018222 -0.00059348 0.00078506 0.0014974 -0.0019128 0.00079288 0.0014495 0.0012155 -6.5375e-05 0.0024531 -0.0036868 0.0011168 -0.0020197 0.0019805 0.00023128 -0.0028647 0.0016689 -0.0013796 0.0010549 -0.0019146 0.0017466 0.00047142 -6.9516e-05 -0.0029316 -0.0015368 0.0013426 -0.00044984 -0.00059922 -0.0018993 -0.0018029 0.0037036 -0.00036039 -0.0011806 0.0010547 0.00010826 0.002781 0.0036211 3.0084e-05 -0.00075224 0.00029605 0.0021689 -0.00016941 -0.0029184 0.00088352 
сколько 0.0010078 -0.00022452 -0.0027304 0.0019147 0.00084995 0.001751 8.3071e-05 -0.0015831 0.0014733 -0.00042961 0.00045281 0.0027281 0.00049874 -0.0016202 0.0023966 0.00051297 -0.0015652 -0.0012397 0.00091426 -0.0011705 -0.0009987 0.0019855 0.0028131 -0.00057066 -0.00045665 -0.002726 1.2278e-05 0.00010895 -0.00035455 0.0040546 0.00097923 0.00011258 -0.0015739 -0.001344 -0.0040558 -0.00033474 0.00042031 -0.0025372 0.0012603 1.53e-05 0.0012553 5.8141e-05 -0.00014383 -0.00018332 2.12e-05 -0.00056851 -0.00068001 0.0018438 -0.00030704 -0.00030345 -0.00073451 0.00097921 0.0013427 0.0021254 0.0027644 0.0001971 0.00066791 -0.00068101 -0.00048362 -0.0025334 -0.0017749 -0.00015371 -0.00030166 0.0012853 0.00078468 0.00022483 -0.0018041 0.00055723 -0.00088912 -0.0011133 -0.00063169 0.00098205 9.0897e-05 -0.0019985 -0.0012507 0.00064458 0.00065805 0.0011948 0.00063798 -0.00025656 -0.0010547 0.0014538 -0.00018866 -0.00102 0.00045302 -0.00067963 0.0013112 0.0010704 9.1549e-05 -0.00031748 0.0006138 0.00029396 -0.00010946 0.00060518 0.00092498 -0.0021002 0.0021095 -0.00085674 -0.00062501 -0.0013694 
из 0.0009296 -0.0027757 -0.0075695 -0.0013308 0.0040651 -0.001393 0.0019261 -0.0060993 0.00077733 0.0012647 -0.00083214 0.00082676 0.0019636 -0.00040602 0.0040499 -0.00047039 0.0015688 0.00030526 -0.0028863 0.00014531 0.0028501 0.0038674 0.00263 0.0053685 -0.0032914 -0.0024684 0.0010948 0.0057347 0.0073862 0.0035345 -0.0031866 0.0039367 0.0017342 -0.0023798 -0.0060322 0.0013591 0.00013669 -0.0033574 -0.0046544 0.0039772 0.0074607 0.0035355 0.00483 -0.001362 0.0030418 -0.0031227 -0.0011855 0.001854 -0.0029241 -0.00014285 -0.0019557 0.00076612 -6.8393e-05 -0.0013851 -0.0010755 -0.0026928 -0.000883 -0.0048181 -0.0019263 -0.0023696 0.0026677 0.0042345 0.0040912 -0.0034114 -0.00064461 0.0073371 0.00096753 0.0057842 0.0060792 -0.0031241 -0.0017559 0.0053661 0.00039741 0.001197 -0.0025242 -0.0046832 0.0020757 -0.0028138 -0.0018177 0.00082914 0.0018113 0.0052632 0.0023578 0.0028754 0.0046485 0.0010251 0.0012153 -0.0051386 0.00028025 -0.0012775 0.0028551 -0.0048438 0.0020238 0.0010885 -0.0040144 -0.0036101 0.005472 -0.001915 -0.0013062 -0.0022945 
время -0.0016708 0.00085265 0.00049952 0.0011572 0.002269 -0.00053275 0.0016479 -0.00034567 0.002509 0.0042439 -0.0011723 -0.0005536 -0.0023168 -0.0003034 0.00049133 0.0015778 0.0015659 -0.00015596 -0.0017113 0.0030934 0.00078547 0.0027865 -0.003757 0.0015431 0.0022249 -0.0010369 0.00070029 -0.00092708 0.00067628 -0.0018605 0.0027388 0.0020767 -0.00080778 -0.0017201 -0.0020293 -6.8392e-05 -0.0024324 -0.0018837 0.00060972 0.00083809 -0.0017734 0.00069301 0.00069828 0.00026362 0.0012774 -0.0018668 -0.00093182 -0.00014234 -0.0010765 0.00052192 0.00044207 0.00072612 -0.0040334 0.0024455 5.109e-05 0.003687 -0.0016041 0.0020032 0.00022532 -0.0015299 0.0017596 0.00010878 0.0014347 0.0032706 -0.00080536 -0.0009325 0.0010821 -0.00048012 0.001492 0.0015115 -0.00082919 -0.0025596 0.0002511 0.00086477 -0.0016252 -0.0021234 0.0007966 0.00010117 0.00090841 -0.0033579 -0.00062369 0.0026203 0.0014084 -0.00098017 -0.00179 0.00028109 0.00055654 0.00088243 0.001002 0.0014757 -0.0011028 0.00087389 0.0010853 0.00056484 -0.00011973 -0.00037481 0.0016375 0.0016513 0.00037935 -0.0014674 
не 0.0013145 -0.0028782 -0.0008849 0.0043604 0.009879 -0.0021378 0.00061138 -0.00074117 0.0045075 0.00019396 -0.007598 0.0059818 -0.0026531 -0.0040416 0.0035519 0.0017686 -0.0011395 0.0097529 -0.00051312 0.000128 0.0020905 -0.0011959 -0.0025328 0.00068764 0.003689 0.0011298 0.0052737 -0.0027089 -0.001622 0.0034443 -0.0045231 0.0051305 -0.0023853 -0.0073234 -0.0025726 0.0030833 -0.001641 0.00072814 -0.0029049 -0.0015528 0.0013356 0.0072605 -0.0020126 -9.7819e-05 -0.0033888 -0.0015272 0.0022893 -0.0013545 0.0036413 -0.0046207 -0.00057371 -0.00021158 -0.0041418 0.0017368 0.00012106 -0.0010657 0.0012358 -0.0021405 0.0033199 -0.003084 -0.0050673 0.0065952 0.0013697 0.0039401 -0.00067032 0.00090789 -0.0016296 -0.00061105 -0.00021604 0.0040537 -0.0030758 -0.0044641 0.0039537 -0.00098981 -0.0053997 0.001365 -0.0021345 0.00034388 -0.0030095 -0.0043882 0.00048114 0.0021298 -0.0029387 0.0036028 -0.003759 -0.0036372 0.0046662 -0.0029305 -0.0017973 -0.00083139 0.0046521 0.0026834 0.0019369 -0.0045748 -0.0073083 -0.0021737 -0.0032212 0.002288 0.00093019 -0.0013938 
к 0.0013008 0.0021019 -0.0050494 -0.0071757 0.0064875 0.0019267 -0.003085 -0.0070487 -0.0046727 0.0018416 0.0062469 -0.00045472 0.0027499 0.0040611 0.0053241 0.0061006 0.00011962 -0.0020202 0.00041487 -0.0055888 0.00416 -0.008111 -0.0072184 0.0011058 -0.00032165 0.0055031 -0.0015293 0.0041757 -0.0072725 -0.0058761 0.00049991 0.0019901 0.0035331 -0.0076029 -0.0060461 -0.006551 -0.0051565 -0.005571 -0.0017584 0.0029888 0.0036236 0.0020492 0.0014508 0.0019104 -0.0013739 -0.0084739 0.0029355 0.0072594 -0.0015606 0.0039305 -0.0011926 0.0062318 -0.0036425 0.0023764 0.0044695 0.0064371 -0.0029227 -0.0043713 0.0062051 0.0015806 0.0055291 -0.0070105 -0.0028293 0.0045354 -0.0015377 -0.00028231 -0.00096363 0.0016014 0.0012008 0.0026584 -0.00014347 0.0070304 -0.0042554 -0.0061842 0.0044364 -0.0014165 0.0031188 0.00084127 -8.7647e-05 0.0055807 -0.0046273 0.002095 0.0010045 0.001414 7.0272e-05 -0.0011651 0.00027537 -0.0061622 0.0030983 -0.0072098 0.0006553 0.0062148 0.0046725 -0.0032967 -0.002874 0.00039417 -0.0061525 0.00048222 -0.00089762 0.0042499 
сделай 0.001579 -0.002523 -0.0021537 -0.002071 -0.00092263 -0.0008188 -0.0018117 -0.0011946 0.0003615 0.00048029 0.0015104 0.0026361 -0.0021769 0.00081448 0.00064889 0.0013093 0.0028125 -0.0011228 -0.001009 -0.00014373 -0.00026078 -0.0018469 0.00063451 -0.00051475 0.0010395 0.00066707 0.0040683 -0.0021813 7.5327e-05 -0.00037177 0.0016294 0.00010738 0.00060963 0.0010515 -2.5964e-05 0.00018537 -0.00029784 -0.00096699 0.0014133 -0.0024043 0.00048516 0.00084339 -0.00079169 0.0011124 0.0022585 0.00066078 -0.00056063 0.002147 0.0003158 -0.0013154 -0.00061369 0.0024717 -0.0006804 0.00017004 -0.00079161 0.00082362 0.0002517 -0.00065818 0.00092161 -0.00010747 0.0009973 0.00095916 0.00078419 0.0011352 0.0014128 0.0028226 -0.00032214 -0.0013796 -0.0017845 -0.0019508 -0.0020637 0.0002802 0.00076894 0.00048222 -0.00047567 -0.0020537 0.001213 -0.00063921 -0.0026073 0.00045991 -0.0024145 0.0025374 -0.00026767 -1.171e-05 -0.00050412 -0.00151 0.0018062 -0.0010109 -0.00083486 0.0014052 0.0019109 0.0013386 -0.00095333 0.0015531 -0.0019742 -0.0019772 -0.00032956 0.00075423 -0.0017678 -0.001514 
включай -0.00093437 -0.0011761 -0.00070938 0.003779 0.0010941 -0.0017877 0.00065939 0.0016598 0.0010175 0.0021061 -0.00099933 0.00070669 -4.9906e-05 0.00091826 0.0008349 0.0023507 0.0019037 0.0037748 -0.00099079 -0.00047898 0.00078032 0.00030856 0.00083896 -4.2357e-05 0.0012503 -0.00095818 0.00026827 -0.0025307 0.00070258 0.0043552 0.0021005 -4.9666e-05 -0.00034508 -0.0017422 -0.0022996 0.00099148 0.00096722 -0.0019325 -0.00061035 -1.3064e-05 0.0018497 0.0013074 0.0010215 -0.00064535 0.0015466 -0.00079836 0.00036173 -0.00028873 -0.00032715 8.3087e-05 -0.0038112 0.0011646 -0.0049968 0.0014263 -0.00064938 0.0010247 -0.00060635 -0.0017014 0.0006777 0.0014261 -0.0016164 0.0011464 0.002921 0.002383 0.00055741 0.0024515 -0.002234 0.0023664 -0.0007153 0.0015077 -0.0010246 -0.0022526 0.0011479 -0.00099674 -0.0013413 0.00058041 0.0024671 0.0012615 0.00084607 -0.0027144 0.00016981 0.0009208 0.00024987 5.9233e-05 -0.0029125 -0.0010865 0.0024686 -0.0028049 0.00022259 -0.0004628 0.002007 0.0021958 0.0054424 0.0012082 0.00062495 0.0020481 0.0011235 0.00017172 -0.0032959 0.00072334 
выключи 0.00098901 -0.0013384 -7.4975e-05 0.00033425 0.0023959 -0.0016208 -0.0014475 0.0020192 0.00064206 -0.00031507 -0.0009723 0.00087333 -0.00031986 5.0517e-05 0.00041856 0.0014183 0.00082605 0.001565 -0.00025001 0.0029206 -0.00046559 0.00045911 7.6711e-05 -0.00063698 0.0018113 -2.5466e-05 0.0022463 -0.0010516 0.00032743 -0.00038352 -0.00095044 0.00021406 -0.00031646 -0.001817 -0.0016986 0.00017788 0.0013068 -0.001685 -0.00023946 -0.001132 0.001053 0.00055458 0.0016976 -0.0020323 0.0014563 -0.00080543 -0.0022311 -9.0678e-05 0.0020452 -0.00011381 -0.0019671 0.0012374 -0.0033663 -0.00020774 -0.0014431 0.00017563 -0.0015483 0.00132 0.00073922 -0.00087295 -0.00052811 0.001117 0.0015452 0.0024944 0.00012148 0.00076803 -0.002557 0.00085184 -0.00038757 -0.00078508 -0.0012939 -0.001673 0.00049964 -0.00042148 0.0017139 0.0005118 8.3024e-05 0.00063629 -0.00019431 -0.00065026 -0.0014465 0.0016696 0.0015149 0.00017873 -6.6109e-05 0.00033213 0.0022632 -0.0013598 -0.00029392 0.0029486 -0.00032839 0.0026628 0.00024727 -0.0011187 -0.0026485 -0.0004502 0.00060757 0.00014823 0.00068123 -0.00069946 
комнате -0.00069549 -0.0014811 0.00020752 0.0010309 0.0032139 -0.00046794 -0.0021627 -0.0010793 0.0028976 -0.00053414 -0.0013945 -0.00039692 0.0001108 0.00020937 0.00099428 -0.00022986 0.0023149 0.0027436 0.00044426 5.2433e-06 -0.00055528 -0.0016489 0.0015243 -0.0034789 -0.00066567 -0.0021602 0.0022629 -0.0026409 0.00053263 0.0039494 -0.00073428 0.0012636 -0.00057443 -0.0012269 -0.003703 -0.0011001 -0.00030795 0.00024081 0.0001644 9.838e-05 0.0012418 0.0028701 -0.00036357 0.0013421 -0.00084466 0.00021885 0.001077 0.00063569 0.0010601 0.00061424 -0.0023957 0.0014888 -0.00028325 0.002158 0.00020152 0.00028849 -0.00027118 0.00019376 0.0025748 -0.00044204 -0.0039676 0.0027489 0.0034855 0.0010636 -0.00086098 -0.00084294 -0.0022434 0.0017395 -0.0020088 0.0028524 -0.00011283 -0.00081187 0.00094625 0.0018568 0.00040804 -0.0019722 0.0022447 0.00098683 0.0014727 -0.00014735 -0.0011212 0.0031533 0.00060555 -0.00060206 0.00057669 -0.00034902 0.0010872 -0.0033099 0.0014073 0.00018551 0.0010053 0.0017275 0.0021631 -0.001283 -0.0023309 -0.0017351 0.0013034 0.0030732 -0.0014895 -0.0028566 
будет -0.00095533 0.00032259 -0.00099532 -0.00096562 0.00018113 -0.0014889 -0.00069271 0.00039288 0.0024061 0.00012763 0.00094252 -0.00031755 0.0016048 0.0012645 0.0019185 1.3623e-05 -1.6676e-06 -0.0031099 0.0011022 -0.00037655 -0.00056669 0.0049218 0.00071022 -0.00040648 0.00217 0.0013289 -1.7102e-06 -0.00017663 0.0002234 0.00098718 -0.0011316 -0.00053448 0.00012818 -0.00045634 -0.0017318 0.00086825 0.00092917 0.0015942 0.00083813 0.0010234 -0.00045294 -0.0020927 -0.0029802 0.00069928 -0.0010969 0.00052029 -0.0010543 0.00032921 -0.00043014 0.0032485 -0.0019412 -0.0010544 0.00014345 -0.0014869 0.0029109 -0.0019901 0.0028935 0.0014068 0.0010617 4.7191e-05 -0.0023086 0.00022692 0.00034773 0.0025747 -0.00067661 -0.00094295 -0.0021446 0.0019847 0.00040682 0.001379 -0.0018456 -0.00013377 -0.00031945 0.0020932 0.0026336 -0.00059304 0.002227 -0.0013855 0.00070802 0.00096055 0.0011446 0.0001024 -0.00096854 -0.0021686 2.1e-05 -0.0021217 0.0004812 -0.00024142 -0.0023513 -0.0010992 0.0011993 0.0013807 -0.000497 -0.0018682 -0.0034826 -2.7888e-05 -0.0017347 -0.00045182 -0.0009236 -0.00075125 
слишком 0.00028403 -0.0010539 -0.00032817 0.00037187 0.0018682 7.3639e-05 -0.0010037 -0.0011567 -0.00045654 0.0018135 0.00031709 0.0029662 -0.0013983 0.0019375 0.00057779 0.0015567 -0.002054 -0.00029406 0.0016299 -0.00077415 0.00018177 -0.00023557 9.554e-05 0.00011426 0.0018733 -0.0012222 0.0017397 -0.00076372 -0.00010057 0.0012932 -0.00054854 0.0028016 0.00060838 -0.0016591 -0.00090004 -0.00011672 -0.00021483 0.00078276 -0.0010274 -0.0020255 -0.00071123 -0.0008321 -0.00027628 -0.0012706 -0.00054584 -0.0018301 -0.0003351 0.00082959 0.0008527 0.00021245 -0.0018176 0.0027795 -0.0013957 -0.00027249 -0.0007067 0.00029122 -0.0003553 -2.4132e-05 -0.00095672 -0.00054436 -0.00098146 0.00094136 0.00097752 -0.00072542 -0.00067173 0.0011594 -0.0019573 -0.00069515 0.00032291 -0.00028914 -0.002659 -0.0012373 -0.0017866 0.00018538 -0.00061683 -0.0014283 0.00065193 0.0016995 0.0011287 -0.00086222 -0.00043199 -0.000696 0.0043049 0.003012 -0.0017951 0.00029394 3.5743e-05 -0.0011815 -0.0018598 -4.0847e-05 0.0010771 -0.0010018 0.001335 -0.00078154 -0.00045476 -0.00030796 -0.0010309 -0.001346 -0.0016231 -0.0013681 
мне 0.0011757 -0.0035268 0.0023459 0.0018804 6.5962e-05 0.0014287 -0.00051822 0.0017286 0.003487 0.0028553 0.0010856 0.00037441 0.0028601 0.0018003 0.0005027 0.0030998 0.0011582 0.0059551 -0.0031981 0.00054001 0.00022297 -0.00089245 -0.0020778 -0.0037393 0.0038871 -0.0013395 0.003679 0.003118 -0.0011284 0.00010953 0.001404 0.00038973 0.00044662 -0.0041915 -0.0018852 0.0035845 0.00046908 0.00053492 -0.0012647 0.0021898 -0.00054697 -0.00029751 0.0041247 0.0019074 -0.00028147 0.0031113 2.4272e-05 -0.0044669 -0.0016543 -0.0034708 0.0015678 0.0017545 -0.0021216 0.0018608 0.0014345 -0.0023943 0.0021809 0.00085676 0.0015616 -0.0019147 0.00090502 0.0021362 -0.00070897 0.00082564 -0.0039728 -0.0024211 -0.00099323 0.001917 0.0012219 0.0023058 0.0015289 -0.0014585 -0.00031073 0.0016397 0.0018279 -0.00038931 -0.002761 0.00057553 0.0035464 -0.0017414 -0.0022391 2.3765e-06 -0.00056223 0.0014566 -0.0037746 -0.00019612 -0.00078792 -0.0013106 -2.2371e-05 -0.00098573 0.0039238 -0.005374 0.0018543 -0.0037493 -0.0013392 0.00066867 0.0014506 0.002846 0.0015777 -0.0044663 
выключай -0.00042893 -0.0012946 -0.00089726 0.0027449 0.0019005 -0.0019483 0.00011206 0.0020248 -9.3493e-05 0.0016246 -0.00045252 0.00062244 -0.00082595 -0.00018672 -0.00042796 0.001631 0.00071475 0.0027371 -0.00077586 0.0015133 -0.0016701 -0.00013078 0.00051553 -0.00032947 0.0021532 -0.0012607 -5.8735e-05 -0.0016363 0.0016586 0.0013062 0.00012219 0.0009755 -0.00033649 -0.001857 -0.0016912 0.00075812 0.00076777 -0.0025689 -0.00049732 -0.00084393 0.00067258 0.0012878 0.001688 -0.0010942 0.0013196 0.00055121 0.00036104 0.00043747 0.0012604 5.7875e-05 -0.00275 0.0010089 -0.0031429 -0.0001236 -0.00057768 0.001729 -0.0028547 -0.00016295 0.0006593 -0.00032103 -6.1854e-06 0.0021828 0.0025916 0.0029193 -0.00013874 0.00045324 -0.0020221 0.0015899 0.00060944 -0.00056655 -0.0013195 -0.00069047 0.00034736 -0.00029188 -2.5714e-05 0.0019897 0.0013289 0.001305 3.6369e-05 -0.00067752 -0.00070842 0.0022698 0.0017188 0.0018245 -0.00047519 -0.00040623 0.0017912 -0.0027135 -0.0003158 0.0013509 -1.2296e-05 0.0018139 0.0019049 -0.00022839 -0.0017359 0.0021295 0.00080612 0.00072097 -0.00069034 -0.0010813 
окно 0.0009375 0.0041563 -0.0017958 -0.0016857 0.002265 -0.0013748 -0.00038593 -0.00073942 -0.00021041 -0.00025016 -0.00025416 0.00053951 0.00096544 -0.0016197 0.0032812 0.00023143 -0.00020929 0.0030082 0.0015109 -0.0024211 0.0010388 0.0019878 0.0012637 -0.0018159 0.0029487 0.00048408 -0.0003206 -0.00079518 0.00022807 0.0043102 5.9513e-05 -0.0020015 0.00103 0.00070494 -0.0046392 0.00098685 0.0019143 -0.0005299 -0.0010739 -0.00072279 -9.7608e-05 0.0010453 0.0026746 -0.00039263 -0.00024538 -0.00070709 -0.0026819 -0.00059069 -0.0020262 0.0013846 0.0013691 0.0024105 -0.00052346 -0.0021207 0.0012378 -0.00034776 0.0015816 -0.0043658 0.00061853 -0.0015571 0.0020708 0.00054724 0.0043496 0.0032099 -0.0011372 0.0031272 0.0011591 -0.0006235 0.0017196 6.1343e-05 0.00033915 -0.0011091 0.0014889 0.0021855 0.00065527 -0.004438 0.0035746 -0.0018874 0.0014646 -0.002251 -0.0028644 6.7023e-05 0.0017332 0.0003155 0.0032462 0.0011457 0.00063726 -0.00053298 0.00030759 -0.0014239 0.0027987 0.0019247 0.000514 -0.0009394 0.00066798 0.0001575 0.00095193 -0.0030255 -0.00061003 -0.0012341 
с 0.0059488 -0.0042119 0.0029834 0.0050587 -0.0033782 -0.0047115 -0.0024597 -0.0028584 0.0035811 -0.0043945 -0.0068578 0.00060905 -0.0066459 -0.008523 -0.0026084 0.0024083 0.0037252 0.001412 -0.003852 0.0078851 -0.0032599 -0.00095083 0.0037838 0.0025164 0.0035245 -0.0030732 0.0030552 -0.0091774 -0.0048677 0.0017941 0.0048204 0.0023474 0.00015125 -0.0042029 -0.0070173 0.0017413 -0.007999 -0.0097368 0.0026092 0.0017724 -0.0042422 0.0066007 -0.0016936 -0.00089188 -0.0091811 -0.00016587 -0.0065003 -0.0080418 0.0018568 -0.0040697 0.00061027 0.0016515 0.0076675 0.0088148 0.0058745 0.0012546 -0.0043931 0.00091752 0.0019653 -0.001266 -0.0011001 -0.0085468 -0.0027219 0.0056315 -0.009051 -0.0047517 0.0060028 0.0042597 -0.003457 -0.0053264 -0.005056 -0.0023239 -0.0046307 0.0076075 0.0054113 -0.0031825 0.0035621 0.00010769 0.0017402 0.0042167 -0.0044879 -0.00070598 0.0043235 0.00050367 -0.00058604 -0.0011357 0.0014634 -0.0034153 -0.0073002 -0.0079571 -0.0021876 -0.0044938 -0.0044518 0.0050198 0.0013157 -0.0027374 0.0018188 0.0049381 -0.0045875 0.00079802 
меня 0.0024649 0.0025172 0.00083455 0.0013215 0.0011574 0.0023141 -0.0013755 -0.00178 -0.0031422 7.315e-05 0.00069547 0.0027422 2.6774e-05 0.0016329 -0.0016086 -0.0027953 0.00036309 -0.0014433 0.00079167 -0.0017498 0.00041261 0.0018273 -0.0015646 0.0024164 -0.00043274 -0.0015591 0.0010073 -0.0012103 -2.5486e-05 -0.0014622 -0.0018775 -0.0020666 0.0016312 0.0038152 -0.00044003 -0.0014631 -0.00031769 -0.0012256 0.0022272 0.0012703 -0.00089271 0.0015605 0.0021374 0.0015547 -0.0023567 0.0019115 -0.0032115 0.00080025 -0.0011635 0.0034716 -0.0029174 0.0026573 0.0006277 0.00050481 -2.062e-05 0.0013811 0.00057298 -0.0034239 0.00027924 0.0012264 0.0031554 0.0027503 -0.00032722 0.0023364 0.00055495 0.00176 -0.0013077 0.00077106 -0.00026089 0.001788 -0.0027121 -7.9087e-06 0.00056756 -0.0012034 0.00021645 0.0017929 0.0013354 0.00034189 0.0018895 3.6261e-05 0.0051132 0.00097359 -8.6369e-05 -0.0012496 -0.00032578 -0.00036802 0.0024619 0.0019685 2.8712e-05 0.0015453 -0.0029145 0.0036059 0.0014013 0.0024979 0.00010425 -0.0018688 0.00065777 0.00023856 0.0012005 -0.0042803 
по 0.00095017 -0.0018046 -0.00019496 0.00080272 0.0042937 0.0051864 0.0043495 -0.006045 -0.0001412 0.0085459 -0.0010905 -0.0020955 -0.00017885 0.0018515 2.4652e-05 -0.0063767 0.0029946 -0.0030015 4.8872e-05 -0.0008989 -0.00047024 0.0033171 0.0010915 0.00075058 -0.0018043 0.0043147 -0.0019367 0.00069928 -0.001534 0.0010439 -0.0010518 0.0042054 -0.0035968 -0.0038646 0.0047061 -0.0017547 -0.0050317 -0.0030418 0.0047825 -0.0036695 0.0015198 -0.0015424 -0.0044291 0.0071681 -0.0011115 -0.0037136 -0.0029578 0.0034609 0.00394 0.0035433 -0.00029681 0.00077374 -0.00030927 -0.002184 -0.0027893 -0.0018057 -0.0068478 -0.0051547 -0.0017094 0.0032495 0.0020688 0.0044962 -7.1262e-05 -0.0025887 -0.0041006 -0.00029825 -0.0046686 -0.00058173 -0.0065899 0.0028683 -0.0020582 0.00069286 -0.0023093 -0.003957 -0.004852 -0.00067918 0.0065238 -0.0047124 -0.0030301 0.0061495 -6.6534e-06 0.00092107 0.0015415 0.0022857 -0.0044963 0.00097623 0.0014629 -0.0035006 -0.00037496 -0.0034391 -0.0033621 -0.0018512 0.0012464 0.0026297 0.0015994 2.0632e-05 -0.00031892 0.0010686 0.0054961 -0.0070346 
до 0.0006154 0.0042974 -0.0024357 0.00062197 0.0039698 0.00025358 -0.0019668 0.0010968 -0.0014682 0.0031177 0.0011217 0.0038382 0.00091377 -0.0022138 -0.001519 0.0003298 -0.00303 0.0031961 -0.0056172 -0.0051956 -0.0017057 0.0041727 -0.0041917 -0.00027571 -0.0037541 0.00065004 0.0020221 -0.0020215 0.0026947 0.00061003 -0.00080396 -0.004694 0.00077178 0.00057688 -0.00082511 0.00052228 -0.0021699 -0.0041657 -0.0011255 -0.005604 0.0064034 0.0050288 -3.9816e-05 0.00019083 -0.0053679 -0.0012196 -0.0032368 -0.0018309 -0.0028338 0.0010803 -0.0033019 -0.0042862 -0.0007412 0.0025699 -0.00055661 0.0051982 -0.0018168 -0.0042258 0.0021291 -0.0028259 -0.0016257 -0.0011226 -0.0027616 0.0058562 0.0051897 -0.0023476 -0.00012226 0.0053383 0.0019929 -0.0016901 0.0014645 -0.0013597 -0.0028059 -0.00057306 0.0026373 -0.0018218 0.007716 0.0046335 0.0012446 -0.0050758 -0.0077158 0.0012195 0.0026388 0.00083028 -0.0010358 0.00022899 -0.00073997 -0.00052929 0.00063985 0.0017573 0.00028151 0.0012769 0.0017648 0.003612 -0.0033148 -0.0045883 0.0049185 -0.0042734 -0.0043301 -0.0064904 
закрой -0.00097294 0.00056467 -0.0010651 0.0013912 0.00062948 0.00060991 -0.001216 0.0018701 -0.00034653 0.0027859 -0.0020091 -0.00065072 -2.2681e-05 0.00011127 0.0016348 0.0031626 0.00061748 0.0007075 -0.0018539 -0.0016517 -0.0002743 -0.00023435 -0.0010619 0.00069182 0.00052336 0.0008871 0.0020947 -0.00085278 -0.00042632 0.0035953 -0.0028347 -0.0011641 0.00052877 -0.00097437 -0.0016516 -0.0017387 0.00013188 0.00015043 -0.0017685 -0.0015014 -0.0013008 0.0020382 0.00097943 0.0009102 -0.0013201 -0.0019655 -0.0022246 0.001114 4.9464e-05 0.00030954 -0.0015858 0.0010037 -0.0026645 0.0032485 0.0010447 -0.0022964 -0.0016322 -0.0022275 -0.00059795 -0.0013363 -0.001341 0.0008581 0.00075084 0.0030338 -0.0026599 0.0029259 -0.0030822 0.0012304 0.0013504 0.0017444 -0.0016917 0.0003032 0.0011759 -0.0012719 -0.0007821 0.00067442 0.0021848 0.0015418 -0.0010334 -0.0011775 -0.0019385 0.0019729 0.0040043 -0.0042466 9.4468e-05 -0.0016399 0.0018815 -0.00025043 0.0015005 0.0010744 0.00099729 -0.00043226 -0.00012151 -0.0019641 -0.0020289 5.1894e-05 0.0004615 -0.0007036 -0.00092295 -0.0019254 
здесь 0.0010497 -0.0032786 0.0031021 -0.00049275 -0.00064095 0.00047822 -0.0026409 0.00098686 -0.00078707 -0.00069669 0.0003036 0.0019845 -0.0015782 -0.00011969 0.0020741 -0.00018908 0.00047413 -0.00059984 -1.5934e-05 0.0006239 -0.0012735 0.0018748 0.0011083 0.00052939 -0.00085808 0.0020274 9.1064e-05 0.0021778 -0.0015324 0.00033318 0.00020691 -4.8387e-05 0.0031224 -0.00094115 0.0015347 -0.001269 -0.0013989 0.0017088 0.0024811 0.0012858 -0.00042951 0.00072292 0.0012874 0.00078164 0.00048709 -0.0012837 -0.0012746 0.00011598 -0.00047933 1.2475e-05 0.0022201 0.0015727 -0.0004544 -0.0032978 0.0010073 -0.00049934 -0.0006829 0.0016443 0.00051123 -0.0019946 0.0012317 -0.00019549 -0.0015179 -0.0012213 0.0011742 -0.0022248 -0.00059457 -0.00097113 0.00035836 -0.0015603 0.00042887 0.00060946 0.0010111 0.0022056 0.0021871 -0.00047619 0.0009282 -0.00063134 0.0020904 -0.0012034 0.0025404 -0.0030573 0.00056184 -0.0004199 0.00025498 0.00012965 -0.00085573 -0.0013878 -0.00057557 0.0016955 0.0016194 0.001296 0.0011459 -0.0021696 -0.0026557 -0.00076519 -0.0012432 -0.00064923 -0.0013022 0.0013149 
холодно -0.00096958 0.0019328 0.00017637 0.0020867 -0.0012272 -0.0011889 -0.00036619 0.0021885 -0.0010196 0.00024054 -0.0019419 0.00073693 -0.00018011 -0.0014105 -0.00015474 0.0014131 -0.00073049 0.00080261 0.00088664 -0.00071403 -0.00021197 0.00032809 0.00016372 -0.0011042 0.0019572 -0.0020554 -0.0015356 -0.00088305 0.0018252 -2.0711e-05 0.00084441 0.0010317 -0.0016994 0.00055986 -0.0020848 -0.0018305 -0.00010042 -0.00040402 -0.0026228 -2.9699e-07 -0.00039996 0.0011402 0.0017936 -0.0017629 -0.0007114 -0.00021723 -0.0016076 0.00064331 0.0018172 -9.3964e-05 -0.00095225 0.0001267 -0.0011512 0.00033864 0.0010247 -0.002086 0.0003817 -0.0016996 0.0016544 0.0016922 -0.0016899 0.00092476 0.0014673 -0.0012855 0.00087912 0.00047967 0.0006969 -0.0010839 -0.0011627 -0.00078548 0.00033984 -0.00047554 0.00046372 -0.00031522 5.4017e-05 -0.0029082 -0.00062967 -0.00073468 0.0013129 0.00034346 1.4808e-05 0.0016401 -0.00058017 0.0011325 0.00088207 0.00012043 0.00089696 0.00069538 0.00068814 0.0016629 -0.00091189 0.0013041 0.0017904 -0.0017354 -0.0017176 -0.0022355 -0.00075029 0.0030656 0.0017217 0.0022789 
то 0.0054414 0.00050952 -0.001899 0.0019075 0.0053698 -0.00025545 -0.0007854 -0.0025801 0.00055391 0.0017505 0.00015338 0.0016546 -0.0023515 0.0025947 -0.0041035 0.0014816 -0.0063873 -0.00073742 0.00021918 0.00053165 -0.0021803 0.0060917 -0.0011027 -0.0058405 -0.0064375 0.0012065 -0.00055391 0.0021795 0.0037633 0.0014245 0.0033229 0.00026813 -0.0027323 -0.0041117 -0.0019194 -0.000467 0.0055364 -0.0018381 0.0020466 -0.0033665 -0.0012736 0.0019805 -0.0002315 0.0032837 -0.0025554 -0.0057313 0.0026433 -0.0014929 0.0022048 -0.004212 -0.00088559 0.001086 -0.0039539 0.0015083 0.0022352 -0.0043845 -0.002538 0.0073274 0.00020657 -0.0012978 0.0063041 -0.00047416 0.0049803 -0.0044824 0.0010624 0.0023845 0.00069091 0.0034258 -0.0028843 -0.00010598 0.0027473 0.00069295 0.001086 0.00022416 0.0014616 -0.0013953 0.0079232 0.0035897 0.003684 -0.00062832 0.00013985 0.003723 0.00074782 0.0027635 -0.0033688 0.0006483 0.0062539 -0.00017498 0.00092295 0.002444 -0.00037588 -0.0028912 -0.0014768 -0.0035221 -0.0013462 0.0012124 0.00034768 0.0017185 -0.005516 -0.0032458 
открой 0.00072414 0.00083751 -0.0021015 0.0034815 0.0021829 -0.00021403 -0.00046776 -0.001598 0.002259 0.0017123 -0.00011257 -0.00045292 0.00066791 0.00027122 0.0024624 0.0036359 -0.0011348 4.4942e-05 -0.0014952 0.00023542 -9.1583e-05 0.0013173 0.0010359 -0.00064758 0.0010834 -0.0024038 0.00052749 -0.0010957 0.00078142 0.0025926 8.0749e-05 0.0021763 0.0018916 -0.00070824 -0.0042081 -0.0034427 0.00083294 -0.0008752 -0.00031961 -0.0017074 -0.00090674 0.001083 0.00070354 0.0029126 -0.0005607 -0.001968 -0.00026828 0.0017328 -0.0028911 4.5694e-06 -0.00037391 0.0015741 -0.0011551 0.0043552 0.00023524 0.001631 -0.0014346 -2.9623e-05 0.0011105 0.00025954 -0.00018406 -0.00074371 0.00027164 0.0017613 -0.0024361 0.0013167 -0.0029368 0.0014664 0.00033358 0.0017645 -0.0030463 -0.00074745 7.9169e-05 0.0023692 -0.0014813 -0.002647 0.0010885 0.00072866 0.00044834 -0.0017853 -0.00045882 6.0332e-05 0.0029594 -0.0013679 -0.0017992 -0.0020343 0.0011207 -0.002823 0.00075154 0.0010408 -0.00023803 0.0013006 0.0017881 -0.0020012 -0.0027803 -0.00018161 0.0020939 0.0018353 -0.0015743 -0.0008449 
улице -0.0013815 -0.001469 -0.001301 0.0012691 0.0013119 -0.00058308 0.0015043 0.00050697 0.00017295 -1.5118e-05 0.00080865 0.0016177 0.0015692 -0.00097853 0.00023957 0.0010051 -0.0013434 0.00078739 -0.0012814 4.1478e-05 -0.0011179 -0.00014011 0.0020194 0.0012831 -0.00013876 0.0010299 0.0022184 -0.00079987 -0.00038564 0.0027236 0.00017922 -0.001374 0.00059983 -0.00039386 -0.0018807 -0.0010946 0.0013979 -0.0039125 -0.0013186 -0.00027804 8.1602e-05 -0.00057931 -0.00087365 -0.0014317 -0.0021037 -0.0010088 -0.00075752 0.0019156 -0.00033895 -0.0011699 0.00086982 0.0011168 -0.0027513 0.00061034 0.0019993 -0.001543 -0.0011869 -0.00054262 -5.6873e-05 0.0014336 0.00065475 0.00093224 0.00086988 0.001907 0.00079825 -0.002334 -0.0010934 0.00067276 -0.0012316 0.0032579 -0.0028728 0.00012585 0.0026121 -0.0016343 -0.0014944 -0.00077149 0.00046419 -0.0014396 0.0029913 0.00025758 0.00037423 -0.0014025 -0.0016095 -0.0014455 -0.0028473 -0.0011913 -0.00021651 -5.66e-05 -0.0019212 -8.1987e-07 -0.0013035 -0.0012993 0.00065987 -0.0022219 -0.00098962 0.00046358 -0.00018749 -0.0013737 -5.3055e-05 -0.00032654 
шторы 0.00039697 0.00045245 -0.0011393 0.0018629 0.00087498 0.0034005 0.0019354 8.8845e-05 0.00024756 0.0020332 -0.00079349 0.0015867 0.00071653 0.0025576 0.00067268 0.0013619 0.0016011 -0.0022931 0.001047 0.0010656 -0.0019392 -0.0007318 -0.0026957 0.0021354 -0.0015559 -0.00014526 -0.00049846 0.0015588 -0.00078961 0.002008 -7.071e-05 0.00073845 -0.0026555 -0.0027253 6.9205e-05 0.0011884 0.0023245 0.00024587 0.0010871 0.00061563 -0.00048547 0.0013106 0.00029795 -0.0015391 0.001655 -0.00063735 -0.0032332 0.0022253 0.0028655 0.0029313 -0.00019957 0.002157 -0.00092398 8.4223e-05 0.00067257 0.001727 -0.0023276 -0.0010646 5.9999e-05 -0.0021061 0.0005341 -0.0020755 0.001502 0.0018226 0.001164 -0.0012908 0.00043899 -0.0011648 -0.0011966 0.00098862 4.136e-05 -0.0014758 -0.0013165 0.0011113 -0.00093808 0.00036848 -0.0015257 -0.0009686 -0.0015094 -8.3521e-05 0.0013904 -0.0029274 -0.0011421 -0.0019822 -0.0002482 -0.0016501 0.00028531 -0.00055868 -0.000646 -0.00071018 -0.0019787 0.0028118 0.0017466 -0.00085423 8.2779e-05 0.0012058 -0.00071972 -0.00084872 0.00050478 -0.0022256 
кухне 0.0011818 -0.00096952 -0.0028144 0.00062228 0.0015943 0.00025489 0.00062738 0.0009588 0.0017729 0.0041814 0.0013351 0.0023833 -0.00044878 -0.0014736 0.00064647 -0.00096218 0.0026012 0.00018775 -0.0016673 -0.00023174 -0.0025338 -0.0016654 0.00050467 0.0021151 0.00052657 -0.00075162 0.0034437 9.0682e-05 -0.0029902 0.00088583 0.0017604 0.0020953 -0.003311 -0.0023957 -0.00044167 -0.00026655 0.0011992 -0.0021996 -0.00057586 -0.0011524 0.0012035 -0.00036448 0.0014195 -0.0012455 0.00098449 -0.00096408 -7.91e-05 0.0017354 0.00043285 0.0035911 -0.00068714 -0.00081628 -0.0026071 0.0021076 5.8202e-05 0.00052092 0.00082196 -0.00048854 0.00066556 -0.00031254 0.0016156 0.0027319 0.0017304 -0.0019055 -0.0025163 -0.00015026 -0.0022329 -0.00044976 0.0027301 -0.0021666 -0.0011225 -0.00038258 -0.0030969 0.00092736 0.00031704 0.001168 0.0014035 -0.0018228 0.001555 0.0011306 0.0021562 0.0023401 -9.1869e-05 0.0015068 -0.00018262 0.0010771 0.0031323 -0.00037494 0.00025921 -0.00078506 0.0022094 0.0010539 -0.00022121 -0.001146 0.00010288 -0.00033548 -0.001383 -0.001288 -0.0014277 -0.00037718 
дома -0.00016669 0.0012331 -0.0011316 0.0015529 0.0030204 0.0015636 -0.0027084 -0.0037274 -0.0015956 0.00095851 0.00033372 0.0018659 -0.0050607 -0.00038167 -0.00053458 0.00085133 0.0017498 0.00051157 -0.0040855 0.00033245 0.0018452 0.0030558 -0.00066612 0.00055257 0.0014944 0.00054719 -0.00044591 -0.00020642 0.0022606 -0.0023889 0.00027854 -0.00084958 -6.8834e-05 -0.0019257 4.9997e-05 -0.00074458 -0.0012546 0.00026349 -0.0034778 -0.0012525 0.00065895 9.0001e-05 0.0005541 0.0016891 -6.3609e-05 -0.0023642 -0.0019032 0.00065512 -0.0027954 0.001046 -0.00079536 -0.0022861 -0.0012495 -0.00024482 0.00098699 0.0018144 -0.0018953 -0.0012768 0.0016856 0.0017477 0.00071035 0.00099816 0.00074184 -0.00053666 0.0034243 0.00091567 -0.001514 -0.00042045 0.0018873 -0.00097711 0.0029489 -0.0040427 0.0014666 -0.00025907 0.00029055 -0.00049468 0.0034283 -0.00058782 0.0020922 -0.001313 -0.0003301 -0.0020592 0.0014846 -0.0024607 -0.0022273 0.0013653 0.0032659 -0.0029347 -0.00033952 0.0024491 -0.00096573 0.0012017 0.00026709 0.0027698 -0.0011724 0.00034851 0.00028779 0.0023748 -0.00076338 -0.0015496 
буду 0.0017994 0.0011016 0.00086934 0.00083263 0.0022268 -0.0010111 -0.00085539 -0.00063179 0.0019884 -0.0028224 -0.0015136 0.00054593 0.00098661 0.0026059 0.00086826 -0.00070662 -0.0011534 0.00060786 -0.00067747 0.0024988 0.00070615 0.0035586 -0.0020183 -0.00068923 0.0013589 0.00092419 -0.00072238 0.0012184 0.0018584 0.0021847 -0.00095476 0.00045591 0.0014229 -0.0028113 0.00039955 0.00049846 -0.001749 0.00037038 -0.0016245 0.0011685 -0.0020614 -0.0025823 -0.00043419 -0.004095 0.0004578 -0.0005433 0.00010166 -0.00077959 -0.0011849 0.0019744 -0.0025566 -0.00066053 0.0017316 0.00084913 -0.00085515 -0.00074074 0.0025028 0.0012437 -0.0016114 -0.0024013 -0.0029895 0.0023147 9.134e-06 -0.0019635 0.0005085 0.00049146 -3.2061e-05 -0.0023869 -0.0017221 -0.0001245 -0.004799 0.0011156 0.00069141 -0.00038385 -0.0027779 -0.00043264 0.00282 -0.00092882 -0.00062965 9.6045e-05 0.0006539 -0.0032939 0.00031438 -0.00013678 0.00084536 -0.0028481 -0.00047465 -0.0022048 -0.0016003 0.00083326 -0.0019137 0.0039604 0.00071481 -0.0017555 -0.0051674 0.00021956 -0.001502 0.0018974 -0.0015403 -0.0026013 
раз -0.0021361 0.00085806 -0.002252 -0.0037666 0.0047337 0.0054069 -0.0026827 0.00059823 0.00049196 0.0021657 0.0010686 -0.0017715 -0.0047796 0.0004412 0.0036681 -0.00099061 -0.00062792 -0.00081801 -0.0011515 0.0024863 0.0029407 -0.0002056 0.0033464 -0.00010565 0.00055972 0.0058605 0.0026228 0.0045072 -0.0021166 0.0010692 -0.0038111 0.0017941 -0.00017366 0.0012823 -0.00045423 0.0036931 -0.0016048 -0.0041435 0.0032566 -0.0030813 -0.00055572 0.0015111 0.0018749 -0.0043854 0.00055494 -0.0049097 -0.0010526 0.0012287 0.00037508 -0.00044815 0.00055237 0.0033127 -0.00050634 -0.0012065 -0.0039674 0.0044699 -0.0013264 -0.0027002 0.003225 -0.003718 -0.0032706 0.00058037 -9.5961e-05 0.0026426 -0.0029282 -0.0019165 -0.00070566 0.003411 0.0029932 0.00064621 -0.001603 -0.0025496 0.0031058 -0.0024512 -0.00095381 -0.0032545 0.0034556 -0.0021177 -0.0024712 0.00010137 -0.0027029 0.0023811 -0.0030169 -0.0036573 0.0018045 0.0010659 -0.00018481 0.0026939 0.00069904 0.00062301 0.0020885 -0.00013664 -0.0027546 0.0020157 0.0014227 0.0018485 0.0017347 -0.00022061 0.00075812 -0.0037765 
его 0.0048972 -0.00070905 -0.006771 0.0018555 -0.0011183 -0.00066609 -0.0001102 -0.0020553 0.00068212 -0.0010241 0.0014528 -0.00066654 -0.0007629 -0.0019192 0.003313 0.0033975 0.00046516 0.0020563 -0.002871 0.0035857 0.0033798 0.0012926 -0.00033421 -0.0019682 -0.0042378 0.0020054 0.0039618 -0.0008106 -0.00104 0.0040294 0.001414 0.0016936 -0.00063697 -0.0047378 -0.0028416 -0.00017991 -0.0010681 0.00058999 -0.00047397 -0.00066744 0.00072081 -0.0032825 0.0026359 0.00095107 -0.0042613 0.00069614 0.001384 -0.00037195 -0.0010732 0.0052423 -0.0018671 0.00036022 0.0015737 0.0052031 0.0022701 -0.0010628 -0.0037877 0.0031876 -7.7868e-05 0.0002233 -0.0013842 0.0026747 0.0010999 -0.00029674 -0.0022992 -0.00069904 -0.0032462 0.0025057 0.0019246 0.004134 0.00037434 -0.00080664 0.0025713 0.0049759 -0.0011356 -0.0061667 0.0018028 0.00051544 -0.0018268 -0.0025022 -0.0058169 0.00032987 0.0010834 0.0019589 0.0031124 -0.00163 0.00055344 -0.0027655 -8.9805e-05 0.0037667 -0.00054801 -0.00051592 0.00056152 -0.002291 -0.0010797 -0.0025279 -0.0009801 -0.0024349 -0.0002701 0.002448 
домой -0.0010221 0.00041354 -0.0026277 0.00022717 0.0028057 0.00030384 -0.0024862 -0.0016166 0.00099652 0.00060238 0.00095166 -3.2219e-05 -0.0011435 -0.001496 0.0024756 0.0022609 0.00015774 0.0003661 0.0013187 -0.0024586 0.00071374 0.0027427 7.2696e-05 0.00059896 -0.00042542 -0.00045198 0.00091872 0.00040249 0.0018895 -0.0017799 0.00029794 0.00054206 -0.00048859 -0.00075797 -0.0015317 -0.0019128 -0.0018902 -0.0027982 -0.0021106 -0.0019199 0.0011718 0.00014806 0.00023843 0.00032057 7.1723e-05 -0.0013597 7.795e-06 0.0023821 -0.0013704 0.0019636 -0.0027649 0.00046446 -0.00060947 -0.0011402 0.00040506 0.0018698 -3.0237e-05 -0.0016677 0.002159 -0.0028101 -0.00079963 7.928e-05 -2.5408e-05 0.00064016 0.0010684 -0.00022958 -0.0028638 -0.00013978 0.00067176 0.00027749 0.00014361 -0.0038251 0.0030592 -0.00069441 -0.001823 -0.00099914 0.0031097 0.00079763 -0.00033838 -0.0016925 -0.0030886 -0.003366 0.0020519 0.00073004 -0.00064025 0.0016593 0.0016991 0.0003904 -0.00013784 0.0029256 0.0016958 0.00036519 0.0011616 -0.00032245 -0.00066715 -0.0021939 0.0010442 -0.0013216 -0.003066 -0.0011305 
каждый 0.00012186 -0.00064074 -0.00072806 0.0010397 0.0029843 -0.00041175 0.0021769 0.0011044 0.0031671 -0.0017843 0.00016689 -0.00055605 -0.0019073 -0.00051482 0.00050829 0.0011761 0.00043297 -0.001069 0.0003987 0.00016837 0.00038484 0.00038742 0.0024025 0.0014703 0.0024158 0.00056103 0.0011562 -0.0034733 0.00074942 -0.00040028 -0.00053382 0.00062194 -0.0022807 -0.0012833 -0.0012587 -0.002691 0.00042083 -0.00053485 1.6088e-05 -0.0003339 -7.0028e-05 8.4458e-05 -0.00024864 -0.00040563 -0.00025052 -0.0011392 9.0014e-05 -0.0025938 -0.0030074 0.0011005 4.255e-05 0.0016133 -0.00098558 0.00040135 0.00092779 0.00036694 0.00036696 0.0010075 0.0015832 -9.4625e-05 0.00064516 -0.001466 -0.0013823 0.00063779 0.00043033 -0.000488 -0.00098319 0.00037223 0.0017548 -0.00056795 -0.0015982 0.0020227 -2.3035e-05 0.0012765 -0.00054544 -0.0015288 0.0016223 -0.003176 0.0014811 -0.0023606 -0.0016425 0.00039629 0.0013543 -0.0005342 -0.00063122 -0.0018522 0.001997 0.00031129 -0.00069562 0.0010831 -0.001571 0.00079203 -0.0013756 0.0012313 -0.00060531 -0.0010347 0.00056905 0.0018216 0.00059122 0.0039535 
пока 0.00067124 0.00069142 0.00032288 0.0014527 0.0021764 0.0015115 0.00089779 -0.00021856 0.00086248 0.00020379 -0.0013447 -0.00085028 7.4577e-05 -0.0030378 -0.00019614 -0.00045069 0.00026911 0.00064638 -0.0022561 0.0019441 -0.00071161 0.0014781 -0.0010138 -0.00025751 0.001022 -0.0019324 -0.0020257 0.0012172 0.00030824 -0.0006422 0.0012878 -0.0022258 -0.0018745 -4.5222e-05 -0.0015702 0.00098106 0.00058391 0.00075173 0.001406 -0.0018004 0.00071234 -0.0017964 -0.0017028 0.0013761 0.0013513 0.00015262 -0.0013604 0.0015518 0.0024062 0.003765 -0.00076771 0.0010724 -0.0006114 0.00054947 0.0011763 0.0021077 -0.00036591 -0.0019125 0.00055514 -0.0011649 -0.00032056 0.0029471 0.0030657 0.0026744 -0.0022655 0.002454 0.0020316 -0.0002996 -0.0021528 0.00063537 0.00087671 0.00069954 -0.00037671 -0.00022146 0.0010597 -0.0017276 0.0036008 -0.0020377 -0.00016539 -0.00035281 -0.0032397 0.00023104 0.0014923 -0.0022601 -0.0027656 -0.0022478 0.0027785 0.0016163 -0.00032913 -0.00055893 0.00060995 -0.00016939 0.0015053 0.0030185 0.00028588 -0.001691 -0.00086062 -2.3668e-06 -0.00013343 -0.000777 
электричество 0.00093459 -1.966e-05 -0.0017446 0.00027632 0.0015073 -0.00039921 -0.00039606 -0.00065712 0.0001785 0.00012172 -0.00069672 0.00067204 0.00036651 0.0013067 0.00042616 -0.0017707 -0.00019424 0.00026759 -6.6231e-05 -0.00074838 -0.00047577 0.00038666 0.00084081 -0.00039799 -0.00055515 0.00026948 0.00033183 0.0004057 -0.00058734 0.002731 -2.6461e-05 0.00085362 -0.00051658 -0.0017497 -0.0011696 -0.0016522 0.0011092 -0.0016479 0.00063158 -0.0013774 -7.9464e-05 0.00086862 2.6715e-06 -7.6167e-05 -0.001107 -0.0007433 0.0022496 0.00063744 -0.00049227 -0.00073281 -0.0021428 -0.00011433 -0.00041536 0.0011603 0.00026982 0.0010069 0.0015215 -0.00051225 0.0011006 -0.00016065 0.00035167 -0.0012928 -0.00035146 6.7217e-05 -0.00075936 4.098e-05 0.00030786 0.00038488 -0.00037063 -0.0004157 -0.0014643 -0.001036 -0.0018129 0.0011203 -0.0009608 -0.002079 0.00016582 0.00037374 0.0001795 -0.00083764 -0.0016588 0.0012754 -0.001342 -0.0011158 -0.00081235 -0.0015269 -0.00077103 -0.00081933 -0.0010265 -0.00026967 -0.0012648 0.00099858 0.00071389 -0.00082799 -0.00091719 0.00067048 -0.0015163 -0.00093955 -0.0012046 0.00073073 
день -7.7015e-05 0.00076699 -0.0013704 -0.00029456 0.0019144 -0.0019734 -0.0017997 -0.0034004 0.002008 -0.00054577 0.0019545 -0.0028566 -0.0019743 -0.00023372 0.0011977 -0.0027735 0.00011957 0.00058809 -0.00074628 -0.00039626 -0.00018662 0.0008058 -0.0010349 0.0013223 -5.4233e-05 -0.0012328 0.0019775 0.0010471 -0.00069613 -6.5717e-05 -0.00027639 0.00098038 0.0021861 0.00026615 -0.00033455 -0.0021081 0.0003266 0.0018567 0.00062321 0.00066659 -0.0030251 0.00020528 -0.0030595 -4.119e-05 0.0038858 -0.00032946 0.0010641 0.00073578 0.00078394 -0.0026094 -0.0023173 0.00012324 -0.00066565 0.001048 0.00037921 -0.0011085 -0.0035391 0.0027203 -0.001273 0.0011122 -0.00080494 0.00062282 0.0035592 0.0018228 -0.00031395 0.0012328 0.001408 -0.0030994 -0.0012857 -0.00071713 -0.0010985 0.00045947 -0.0025238 -0.002379 -0.0027876 -0.0024621 0.0013555 0.001356 -0.00066244 -0.00065389 -0.00038559 0.0041513 0.0013691 0.0020957 -0.00041381 -0.0031263 0.0015693 -0.0012241 0.0015913 -0.0010095 -0.0025155 0.00081632 -0.0004893 -0.00064872 0.00052383 0.0020567 -0.0013526 0.00080571 -7.0749e-05 -0.00086739 
сейчас -0.0014419 0.0022154 -0.0027791 -0.00057409 0.00069081 -0.00027259 -0.0019495 0.00044891 -0.00050494 0.00074649 -0.00091852 0.00076624 -0.0015567 0.0013726 -0.0020075 0.0040114 0.0006989 -0.00065698 -0.00020143 -0.00060112 -0.0021168 -0.00099787 -0.0023076 -0.0010833 0.0014312 0.0020543 -0.00031907 0.0016877 0.00025286 0.00010288 -0.0013152 0.00010424 -0.0028081 -0.00053579 0.0017917 -0.00019375 0.00046316 -0.00013795 -0.0028023 -0.0013998 -0.00015791 0.0017724 -0.00047031 -0.00046463 -0.001241 -0.0012141 0.00073677 0.00075798 -0.0028513 -0.00057273 -0.00065157 -0.0010772 -0.0020459 0.0018302 -0.00075549 3.4986e-05 -7.8644e-05 0.0022804 0.00023628 0.0015301 0.001102 0.0013193 0.00088148 0.0018699 -0.0008306 -0.0010382 0.00039722 -0.00093639 0.00054518 -0.002862 -0.0023637 0.0013215 -0.0030479 0.00029966 9.1538e-05 -0.0011519 -0.00081363 -0.0020115 0.00078858 -0.00022671 -0.0017902 0.00030798 -3.3508e-05 -0.0011074 0.0008142 0.001977 0.00037875 -0.00058195 0.00072548 -0.0004552 -0.0010985 -2.0396e-05 0.00073847 0.0022185 -0.00039607 0.00053925 -0.0026123 0.0020314 -0.00033796 -0.00070351 
как -0.0031524 0.0015347 -0.00037052 -0.00016449 0.0024562 -0.0037599 -0.00019071 -0.0033597 -0.0032757 0.0012088 0.00049784 0.0002654 0.0035327 0.000905 -0.0015404 -0.0030597 0.0024926 0.0020484 0.0014888 -0.002273 0.001459 -0.0017676 0.0037394 0.00076673 -0.00049793 0.0029323 -0.0026677 -0.0023229 -0.001555 0.0042139 0.0002949 -0.00030473 -0.00052633 0.00056178 -0.0025001 -0.0022356 0.0025055 -0.00312 -0.001284 -0.00061647 -0.0022804 0.00070005 -0.0031276 0.00011778 -0.0026332 -0.0014953 0.0020361 0.00096138 -0.0010348 -0.00056363 -0.0033117 0.0077598 -0.00079238 0.0013768 0.0031309 -0.0018847 0.00084596 -0.00011866 0.00026105 0.0034437 0.0013905 0.0014796 0.00051852 0.00011049 0.00088009 -0.0027653 -0.00058797 0.0029827 0.0019189 0.0022003 -0.00076088 -0.0018125 -3.0551e-06 0.0023157 0.00018367 -0.00045742 -0.001591 -0.0014996 -0.0011692 0.001967 -0.0022794 0.0028275 0.0010521 0.0019688 -0.0018397 -0.0035811 0.0037746 -0.0046964 -0.0011257 0.0015984 0.0022006 -0.00025285 -0.0025947 0.0011296 -0.00037221 0.0016376 0.00058715 0.0031 0.00020921 -0.0017187 
нет 0.002057 0.0034299 4.2825e-05 0.0042226 0.0032024 -0.00014834 -0.0012207 -0.0034925 0.00012946 0.0021306 -0.00086429 0.00065228 -0.0002768 -0.0020854 -0.00075153 0.0022427 0.0016552 0.00046043 -1.411e-05 -0.0067279 -0.00056671 0.0021825 0.00014026 -0.0021736 0.0015205 -0.0020787 0.0039481 0.0029068 -0.00035289 0.00051186 -0.0035193 0.0012603 0.0047024 -0.0030208 -0.0058515 -0.00036701 0.0013098 -0.0024306 -0.0018443 0.0012981 0.0032295 -0.00080748 0.0017781 0.0028902 -0.0019273 0.0027002 0.0025766 -0.0014029 0.0029541 -0.0018502 -0.00091313 -0.001121 -0.00028228 -8.1566e-06 0.00044842 0.003306 -0.0019678 0.0016994 0.0024536 -0.0016087 -0.00041687 0.0019349 -0.0023175 0.00067226 0.00094861 0.0028733 -0.0010567 0.0027965 -0.00030542 0.0019787 -0.0015213 -0.0014054 0.0026069 0.0023256 -0.0020747 -0.0020012 0.001833 -0.00022927 0.0020256 0.0017696 -4.5621e-05 0.0013144 -0.0028368 -0.00065673 -0.0033759 -0.00108 0.0011043 -0.00025935 0.00021306 0.0010076 0.00056504 -0.0014319 0.0017765 -0.0017662 -0.001812 0.00044193 -0.0005362 -0.0033718 -0.002014 0.0026466 
песню 2.7091e-05 -0.00071598 -0.00062692 -0.0010262 -0.00013289 0.0013077 -0.00094258 0.0019413 0.00151 -0.00020235 0.00031604 0.0029163 -0.00017847 -0.002015 -0.00075448 -0.00016071 -0.0018804 -0.0019198 -0.00091426 -0.00084587 -0.00011161 -0.0027033 0.00086233 5.4791e-05 0.00068404 0.0017869 0.0003283 -0.00028667 -0.00096341 0.0009744 0.0018363 -0.0018886 -0.0023208 -0.00012015 0.00034896 -6.1056e-05 0.0030941 0.0013134 -3.6094e-05 -0.0018216 0.00084309 0.0013854 0.0020492 2.9281e-05 -0.00038785 -0.00077705 -0.0018919 -0.0015236 -0.0010413 0.0015238 0.00090387 -8.4833e-05 0.0011796 0.0008893 -3.2866e-05 -0.0018816 0.0021679 -0.00037592 -0.0012163 0.00092398 0.00036998 -0.0016496 0.0016209 0.0017094 -0.0020799 -0.0012485 0.0012049 0.00083898 -4.4486e-05 7.7483e-05 -0.0021423 -0.00116 -0.0014181 -0.00066619 -0.00096646 -0.00027451 -0.00031308 0.0012258 -0.0014076 0.0023281 0.00076181 -0.00079828 -0.00048236 0.00073248 0.00051858 -0.0021656 0.00018453 -0.00036248 0.0018296 0.002772 -0.00036846 -0.0005235 -0.0012257 -0.00047179 -0.00094129 -0.0014335 -0.0017126 -0.00063602 -0.00069638 -0.00097854 
температуру -0.00054754 -0.00015592 -0.00038972 0.00070878 0.00066872 -0.0011719 -0.00045504 -0.0019796 0.00056882 -8.3202e-05 7.8648e-05 0.001169 -0.00023089 0.0010713 0.00012944 0.0015406 0.0010371 0.0028561 -6.826e-06 0.0011974 0.00070869 0.00095786 8.2485e-05 -0.0011043 0.00045716 -0.0010463 0.00076938 0.00080133 0.00089047 0.0017786 -5.1521e-06 -0.00035401 0.00036925 0.00091518 -0.0030255 -0.0017112 0.00018054 -0.00017907 -2.2068e-05 -0.00092385 -3.2226e-05 -0.0014685 -0.0001521 0.00020475 0.00015349 -0.00106 -0.00043372 -8.9342e-05 -0.0018312 -0.00079974 0.00018552 -4.3818e-05 -0.00095971 -0.0012222 -0.0011827 -3.6381e-05 -0.00047046 -0.0010586 0.0014231 -0.00027199 0.0005573 -0.00041772 0.00024805 0.00070216 0.00042374 -0.00010889 -0.0011098 -0.00022471 -0.0016128 -0.00040155 0.0025074 0.0011608 0.00090269 -0.00050021 -0.00059327 0.00014282 0.0014937 -0.00036028 0.001852 -0.0021017 -0.00080832 -0.001346 0.00084896 0.00039643 -0.00078995 9.092e-05 0.0012107 -0.0010644 -0.00018689 -0.0011 -0.00067975 9.3711e-05 0.0020419 0.001105 -0.00044073 0.00023962 0.0010165 0.00023576 -0.0014072 -0.00031063 
от 0.00092704 0.0042709 -0.00017287 -0.0028536 0.00010652 0.0019098 0.00067614 -0.0013267 0.003846 8.102e-05 0.0050982 0.0025676 -0.0024106 -0.0038766 -0.0021657 -0.0050468 -0.0027941 -0.0059102 0.00052155 -0.0002941 -0.0053415 -0.0019718 -0.00036368 0.00013758 0.0017787 -0.00027808 0.0036715 0.0032486 0.0078936 0.0013181 -0.0031221 0.0032729 0.0015192 -0.0033585 0.00084264 0.00031305 0.0010883 0.002028 0.0015463 -0.0049234 0.0012371 0.0052253 -0.0044873 0.0043836 0.00079511 -0.0027775 -0.0052345 -0.0033082 0.001727 0.0051796 -0.0045234 0.0045862 0.00067362 0.0012492 0.003573 0.0013774 -0.0014746 -0.0050618 0.0012575 -0.0044248 0.0010761 -0.0010389 0.0048136 -0.0014779 0.00049156 -0.00083156 -0.002833 0.0015295 -0.0042736 -0.0019571 -0.00065477 0.0046326 0.0013197 0.0012528 0.0015316 0.0033253 -0.00077269 0.0012974 -0.0029251 -0.00066442 -0.002947 -0.0011052 0.00066893 0.001316 0.00080548 0.00062958 -0.00040727 -0.0013215 -0.0037021 0.0058388 -0.0026292 -0.0015271 -0.00058034 0.0038474 -0.0024645 -0.00085229 -0.0011753 0.0012126 -0.0042407 0.0014437 
сегодня 0.00024797 0.00038711 -0.00060668 -0.00052366 -0.00036941 0.00068502 -0.0003451 -0.0028375 -0.00055816 -0.00089853 0.00038768 -0.00099242 -0.00049703 0.0020133 0.0011021 0.0024145 0.00043469 0.00059712 -0.0013605 0.00042129 0.00032309 0.00083202 0.0012914 -0.00085741 -0.00066848 0.00068552 -0.00028812 0.00098481 -0.0019388 -0.0013078 -0.0017056 0.0012348 -0.0017417 -0.0020141 -0.0037013 0.00074188 -0.0013452 -0.00083208 -0.00087732 -6.4523e-05 3.1137e-05 -4.0504e-05 0.0005946 -2.5564e-07 -0.0011463 -0.00043945 0.00027521 0.0011916 -0.00017512 0.0010011 -0.00058166 0.0010498 -0.00070066 -0.00073887 0.00079136 -0.00055209 -0.0013815 -0.001828 -0.00013623 -0.00090851 2.4197e-05 -0.0018182 0.0030939 0.00012822 -0.00060221 0.00038977 -0.0012863 -0.0012295 0.00061698 0.00018212 -0.00088012 -0.00014647 -0.00066731 0.00099717 -9.4491e-05 -0.0041437 0.0012758 -0.0014593 0.0016098 0.00057366 0.0012816 0.00078585 -0.00026815 0.00062001 0.0017202 -0.0024413 0.0012619 -0.00013413 -0.0007902 0.0017263 -0.00086328 -0.0010611 0.00079437 -0.00089179 -0.0048752 -0.0023094 0.0030016 0.0016488 -0.00020704 -0.00016205 
градусов -0.00089423 0.00079283 -0.0019001 5.2459e-05 0.0024334 -0.00024326 0.0013518 -0.00065164 -0.00043838 0.00047717 0.0014874 -0.0021255 -0.00089536 -0.00091852 0.0019757 0.00084359 -0.00024837 0.0036615 -0.0014874 0.00017601 -0.00064943 0.0010718 -0.0011708 0.00065665 0.001971 0.00093504 -0.00040804 -0.00083747 -0.0010969 0.00074438 0.0018611 0.0011504 0.00013762 -0.0011703 -0.0034476 -0.00037469 0.0016892 -0.002297 -0.00061706 -0.0012662 0.00105 0.00014493 6.3587e-05 -0.00023582 -0.0013835 0.00013953 0.0002709 0.00085198 0.00058033 0.00083882 -0.0013922 0.00087966 -0.00016727 0.0005657 -0.0024546 0.00082691 0.0020505 -0.00062889 0.0014208 -0.00076925 0.001904 0.0016466 -0.002397 0.0010153 0.0017399 0.00094662 -0.0026778 0.00031841 4.5045e-05 0.0012589 -0.00028457 -0.0004441 0.00023703 -0.0012496 0.00023511 -0.00080576 0.0012731 -0.00031239 -0.00054353 -0.00092366 -0.00037034 -0.0012534 -0.00070042 0.0029528 -0.0022774 0.00016988 0.0026341 -2.0232e-05 -0.0010318 -0.00038983 -7.4725e-05 0.001061 -0.0003908 -0.00012752 -0.00046094 -2.4311e-06 -0.00091786 0.00049778 0.00038789 0.0001245 
а -0.0029702 0.0017641 -0.0051225 -0.00051063 -0.00060503 0.0059442 -0.0040275 -0.0044134 0.0019355 0.00038915 0.005519 -0.0014262 0.0039711 0.00095015 -0.0064078 -0.0068918 0.00057953 0.00058032 -0.004007 -0.0057343 -0.0033547 -0.0043886 -0.0078335 -0.006417 0.0075918 -0.0091051 0.0065844 0.0017853 0.0046867 0.0037252 -0.0032228 0.0072331 0.002662 0.0014299 0.0026309 0.0016799 0.0080649 -3.478e-05 0.0032361 0.0041529 0.0034106 0.0075961 0.0084021 -0.0037538 -6.7388e-05 0.0023717 0.0030706 0.0016194 0.0020685 0.001988 -0.0017225 -0.0059003 -0.0050049 -0.00056583 0.0012176 0.0054282 -0.0038646 -0.0074317 0.0043106 0.003944 -0.002622 0.0051314 0.0039615 0.0071989 -0.0021841 -0.0036663 0.00618 -0.0032583 0.0030051 0.00033886 0.0061237 -0.001287 -0.0092576 0.0039977 -0.0089682 -0.002752 -0.003882 -0.00017288 -0.0014629 0.0010864 -0.0037177 -0.0006807 0.0045228 0.0041718 -0.0019826 -0.0053384 0.0024824 -0.00094974 -0.0021909 0.0045258 -5.1808e-05 -0.0048944 -0.0021497 -0.00016164 -0.0012627 -0.0070261 0.0052277 0.002204 0.00259 -0.001327 
приготовь -0.0001002 -0.00040908 -0.0022369 0.00083238 -0.00016239 0.00073966 -0.00077829 0.0018481 -0.00017505 -0.0024156 -0.0011362 -0.00021638 0.0013587 -0.0014436 0.00069972 -0.00050588 0.00085651 0.00080533 -0.0017775 0.00054823 -0.0012582 0.00026406 0.00092198 0.0022554 0.00049924 -0.0011448 -0.00094267 -0.0011686 -0.00043819 0.00054089 -3.9481e-05 -0.00041097 -0.0027607 -0.00091446 -8.0872e-05 0.00040354 0.00043516 -0.0010912 0.00071613 -0.0020211 -0.0015241 -0.0014707 0.0013695 0.0016593 -0.00017961 -0.0014172 0.0003742 6.2446e-05 -0.0018459 0.0026466 -2.1943e-05 -0.0012501 -0.00085685 0.00081087 0.0014508 0.00095377 0.00022252 -0.00039689 0.0015036 0.0010318 -0.00055717 0.0012846 -0.00082118 0.00067969 -0.0019044 -0.00067253 -0.00030166 0.00015765 0.0012975 0.0002751 -0.0012234 -0.0010077 -0.00096262 1.2484e-05 -0.00098968 0.00024216 0.00080208 0.0012549 0.00018159 0.00031797 -0.0016118 0.00096823 0.00074718 0.0016273 -0.00085793 -0.0021064 0.001269 0.0015259 0.00051017 -0.0002452 0.0016036 -0.0010337 0.00065391 0.0013404 -0.00078878 0.00077475 -0.00020925 0.0013686 -0.0011501 0.00066025 
ли -0.0014522 -0.0025607 -0.0019775 0.0013144 -0.0031816 -0.00049218 -0.0026117 0.0022017 -0.0061697 0.00058008 -0.0021917 0.0086424 7.5881e-05 0.001284 -0.0003819 -0.0019195 -0.0040878 0.00041928 0.00078821 -0.0028055 -0.0016803 -0.0034379 -0.0017625 -0.0004056 -0.00071931 0.00092403 -0.0025753 -0.0018918 0.0024269 0.0011739 0.0022872 0.00065674 -0.00037669 0.0032005 -0.00077706 0.0030183 0.0018122 0.00050329 -0.00020069 -0.0049768 0.00090184 0.0031612 -0.0051961 -0.0019272 0.0029866 0.0011849 -0.002452 0.0054697 0.00030196 0.0021329 0.00022598 -0.0019157 -0.0022398 0.0049556 0.0021051 7.4533e-05 0.001557 0.0050284 0.0010689 0.002981 0.0026178 0.0067541 0.003986 0.0019839 0.00029208 0.0031407 -0.0018899 0.0014319 0.0024983 0.0014949 -0.00053872 0.0013474 -0.0014137 -0.0021184 -0.0037425 0.0038642 -0.00041688 0.0027549 0.0006559 -0.0062018 0.0014575 -0.00088015 0.0047215 -0.0023266 -0.0050515 0.0042044 0.005256 -0.0040663 -8.3964e-05 0.0024173 0.00058041 0.0040878 0.0085267 -0.0011467 -0.0024454 -0.0020727 -0.00014668 -0.0015261 -0.0028997 0.0027612 
кофе 0.0021717 0.0021123 -0.00043218 0.0020291 0.0026031 0.0031233 0.0001813 -0.0023122 0.00017918 0.00056086 0.0029032 -0.00075583 -0.00093247 -0.00060386 -0.00029692 0.0012854 0.0024312 0.0029195 0.0024323 0.00051429 -0.00033841 -0.00010943 -0.0012253 -0.0032144 0.00016542 0.0015071 -0.0014407 -0.0015523 0.00079037 -0.00081728 0.00018704 0.00090296 -0.00044734 -0.0019381 0.0024191 -0.00066345 -0.00022489 -0.00098505 0.0011313 -0.0020661 0.00079848 0.0018326 -0.00023931 -0.00072118 0.00096086 -0.0031128 0.0011609 0.0019872 -0.0016427 -0.00083515 -0.00050292 0.0011837 -0.0039252 0.0036525 -3.9087e-05 -0.001822 0.00067757 0.0011216 0.00050149 -0.0035748 0.00033436 0.0014711 0.0017668 -0.00053515 -0.00065344 0.0020672 -0.0020137 -0.0013052 -0.0013708 0.0010926 -0.00045222 -0.00029461 -0.00035654 -0.0024414 -0.0017495 -0.0014536 0.0013119 0.00079095 0.0005455 -0.0022301 0.0020147 -0.00081648 0.0019209 -3.2379e-05 0.0022536 0.00027229 -0.0017461 0.00011241 -0.0011419 0.0024024 0.0013321 0.0026494 0.001274 0.00031564 -0.0018674 -0.0013878 0.00016085 0.0020799 0.0011275 -0.0017064 
он 0.00052646 0.0013505 -0.004189 0.0024513 0.0024964 -0.0013962 -0.001029 0.0008906 -0.00059196 -0.0047626 0.00079309 -0.0024562 -0.0019317 -0.0047276 -0.0010143 -0.0026996 0.0067029 0.00031414 0.00068542 0.0054509 -0.0042517 0.0012352 -0.00135 0.0012289 -0.00068933 -4.6351e-05 0.001809 -0.0031528 0.0025505 -0.0024255 0.004364 -0.0043901 -0.0047927 -7.547e-05 0.0013151 0.0019847 -0.0017698 0.0033796 -0.003842 0.0022715 -0.0017786 -0.0027501 -0.0025335 0.0015676 0.00029189 0.0025866 -0.0011859 -0.0056919 -0.0024987 -0.0018164 -3.1219e-05 0.0027267 -0.00095134 0.0074704 -0.0014137 -0.0001046 0.0020828 -0.00067627 -0.0054307 -0.0056239 0.0074696 -0.0010235 0.0017495 -0.00092496 0.0031549 -0.00044551 0.0060062 0.00091972 -0.0030396 0.0011494 -0.0013119 -0.0036046 -0.00029959 0.0020164 -0.0031348 -0.001191 0.0045781 -0.00034458 -0.0043419 -0.00027336 -0.0012823 -0.0024863 0.004386 -0.0023901 0.0032102 0.002507 0.0036908 0.002938 -0.005552 0.0030586 0.0049672 0.0063269 -0.0012197 0.00069108 0.0041435 0.0039976 0.005932 0.00058392 -0.0074841 0.0014765 
музыку -0.0016765 0.00092345 0.0034976 -0.0015967 0.0018649 -0.00017729 -4.0956e-05 -0.0014331 0.00061639 -7.5658e-05 -0.00078391 0.00049871 -0.00023563 3.1695e-05 -0.0018043 -0.00041257 0.0012326 -0.0013863 -0.0016998 -0.0010513 -0.0010663 -0.0024772 0.00012614 -0.00038312 0.00050003 0.0012301 -0.00015665 0.0012305 -0.0021559 -0.00084707 -0.00084111 -0.0013501 -0.0012406 0.0003245 0.00043328 -0.00039149 0.00061638 0.0010258 -0.0027071 -0.0010183 -0.0020834 0.00042757 -0.00098883 -0.00013836 -0.0017308 0.00046023 0.00092015 0.00086687 0.0025952 0.00096203 -0.0015554 -0.00064507 -0.00091025 -0.0015956 0.00067805 -0.00062311 -0.0024687 -8.3742e-05 5.5316e-05 -0.0011984 0.0012366 0.00070735 -0.00085899 -0.0005143 -0.0022364 0.0029398 -0.0011172 -0.00047917 -0.00066024 0.0015414 -0.00041836 0.0020223 -0.00040969 -9.4898e-05 -0.00060681 -0.00022428 0.0036754 0.0016829 0.00085515 -0.00029179 -0.00091659 -0.0010864 -0.0030506 0.00016898 -0.00065171 -7.0498e-05 -0.0017819 0.0011509 -0.00039718 -0.00023203 -0.00049708 -0.00076241 0.0018712 0.00026272 0.00048425 -0.0016401 0.00077012 -0.0023455 -0.00091064 -0.00062261 
комнату -0.001581 -0.0012331 0.00013519 0.0011558 0.0031011 -0.00051876 -0.001615 0.00040727 0.00077721 -0.00059662 -0.00059666 -0.0022936 0.0018277 0.00101 0.00039195 0.00022874 0.00068702 0.0026378 0.0010107 0.00038445 2.8268e-05 -1.3718e-05 -3.2588e-05 -0.0035149 -0.00011989 -0.0012537 0.0028503 -0.0023729 -0.0007128 0.0021858 -0.0020076 0.0001944 -0.00076371 -0.00096555 -0.0034275 -0.00067291 0.00060755 0.00035875 0.00035129 -0.00086152 0.0011788 0.00084924 0.00036778 -0.00022865 -0.0012346 -0.00041527 0.0013325 0.00071377 0.0015166 0.0010384 -9.8319e-05 0.00127 0.0011517 -3.8287e-05 2.0983e-05 2.9e-05 -0.00016276 -0.00040135 0.0025539 0.00040716 -0.0042052 0.0012896 0.0036741 0.002749 0.00026883 -6.7334e-05 -0.0029086 0.00063386 -9.8615e-05 0.0030476 -0.0010291 0.00064393 3.8573e-05 0.0014965 0.00095501 -0.0021217 0.0014319 0.0010131 0.0023002 -0.00080348 -0.0024685 0.002827 0.0012619 0.00040089 0.00045827 -0.00082302 0.0012313 -0.0025072 0.0013767 -0.0020394 0.0010532 0.0021918 0.00072845 0.00025824 -0.0015489 -0.0023742 0.0002511 0.0021168 -0.0013833 -0.0027855 
жарко 9.6221e-05 0.0024782 -0.00090304 5.5148e-05 -0.00074607 0.00025416 0.00097263 -0.00059992 0.0021237 0.00034964 0.0011499 -0.0010395 0.0017837 0.00052546 0.00075257 -0.00066993 -0.0014171 0.0015353 -0.0014399 -0.0026133 -0.003169 -0.00096658 0.00011606 0.0024317 -0.00013738 -0.00097719 -0.0010032 -0.0019967 0.0010474 0.0012535 -0.0013032 -0.0010773 -0.0006546 -0.0033386 -0.0005085 -0.0004435 -0.00052866 -0.0013345 0.003069 -0.0015682 -0.00044254 0.003371 -0.00076664 -0.00095578 0.00038853 -0.00019443 -0.0029332 -0.00027541 0.00028976 0.00036394 -0.0020635 0.0015104 0.0012625 0.0014421 -0.0010883 0.0013729 -0.0004204 -0.0017517 -0.00082233 -0.00041085 -0.00072402 0.00067708 0.00078455 0.0042038 -0.0015717 -0.00091141 -0.0020682 0.0011477 -0.00011707 -0.0027601 0.00040867 -0.0014904 -0.0014214 0.0016138 0.00063145 -0.00027619 0.0010069 -0.00019406 -0.0019326 -8.2592e-05 -0.0021739 0.0021944 0.00051206 -0.00014986 0.0011091 -0.0011096 0.00039634 0.0018393 -0.00036707 -0.0010897 -0.00053451 0.0033878 0.0024033 6.6571e-05 -0.003762 0.00042568 0.00074666 0.0010412 -0.0040995 -0.0034996 
во -0.00074366 0.0043329 -0.0012506 0.0047591 -0.00093796 -6.0637e-05 0.0033711 0.002272 0.0040903 -0.0023962 0.0013731 -0.00085708 0.0013228 -0.0012017 0.0015464 0.0042728 0.0022177 0.0039815 0.002817 -0.00275 -0.0022121 0.002219 0.0014323 -0.0012243 0.00047164 0.0015557 0.00093233 0.0040033 -0.0085796 -0.0027521 -0.003151 0.00050208 0.00087404 -0.001161 -0.00096134 4.0857e-06 -0.00050168 0.0015095 -0.0033915 0.0012175 0.0017083 0.0014309 -0.0023021 -0.0020368 -0.0046957 0.0037097 -0.0014889 0.0023282 -0.0044494 0.0010944 0.00012301 0.0018851 -0.00096289 0.0050718 0.0010066 0.001824 0.0044743 0.00057545 -0.0018184 -0.00086662 -0.003844 0.0014436 0.0028677 -0.0050823 -0.0042206 0.0032673 -0.00093758 -0.0020461 -0.0010328 0.0016406 -0.0044641 -0.0034615 -0.0029491 -0.00051991 -0.0023221 -0.0017722 -0.005114 0.0014498 0.00096438 -0.0039356 -0.0039912 0.0048899 0.001948 -0.0054924 -0.0040534 0.0040423 0.001823 -0.00041193 -0.00013549 -0.0048051 -0.0055593 0.0020272 -0.0012917 -0.00091032 -0.00062792 -0.0049455 -0.0014244 -0.00058399 -0.0028286 -0.0027646 
минут -0.00027826 -0.00013945 -0.0022464 0.00057083 0.0012678 0.0019197 -0.0028207 -0.0005429 -0.00086897 -0.00030948 -0.0004949 0.0014797 -0.0006866 -0.000334 0.00070164 0.00027577 0.0001951 -0.0010083 -0.0014109 0.0030246 -0.0012537 -0.0014818 0.00037456 0.00046964 -0.00014559 -0.0021647 0.00023367 -0.0012151 -0.00039246 0.00026982 -0.00053822 -2.8865e-05 0.0010663 0.0011176 -0.0025929 -0.0011096 0.00051936 0.0014076 0.0010896 -0.0014062 -0.0013232 -0.00079187 -0.0016125 -0.0018217 0.0015474 0.00043016 -0.0012938 0.001068 -0.00092135 -0.00088867 -0.0016479 0.0036464 0.0010249 0.0012511 -0.0010408 -0.00099836 -0.00192 -0.0013917 -0.0012063 0.00098089 0.000449 0.0012655 -0.00020906 0.0018052 0.0014063 0.00062478 -0.0020609 -0.0017301 -0.0019371 -0.00028011 0.00037968 -0.0014506 -0.00070906 -0.0003045 0.00083097 0.00096328 0.0016306 0.00037709 0.0021554 -0.0023279 0.00037356 -0.00098929 0.0013482 0.0002996 -0.0012536 -0.00065477 -0.0012722 0.0011422 -8.006e-05 0.001746 0.0020774 0.0031725 0.0037564 3.1026e-05 -0.00067696 0.00024177 0.0007227 0.0012584 -0.0020797 -0.00031567 
через 0.00039418 -0.0023741 -3.1848e-05 -0.0013155 0.0044438 -0.0033002 -0.0017705 -0.0019627 -0.0030086 -0.00039229 0.00020449 0.0009555 -0.001191 0.0013266 0.00036813 8.4899e-05 0.0014956 0.00199 -0.00098287 -0.00053213 -0.0028817 -0.0039623 -0.00083793 -0.00099945 -0.0020168 0.0033565 0.0001725 -0.00039573 0.0017607 0.0011864 0.00090622 0.00083737 -0.00093557 -0.0043883 -0.0014011 0.0010317 0.00040852 -0.0010466 -0.0015952 0.00037527 -0.0012845 0.00021637 -0.0013207 0.0016108 0.001809 0.00020592 0.00078626 -0.0016181 -0.00019954 0.0011627 -0.0029132 0.004006 -0.001845 0.0019659 0.00071069 -0.0023367 0.001454 -0.0021394 -0.001086 -0.00089085 0.0016034 0.00090577 0.0010054 -0.0027616 0.0023353 0.0031521 0.0003968 0.0019953 0.0011668 0.00093219 -0.0003644 0.0017338 -0.0026579 0.0010424 -5.5913e-05 0.00078859 0.0021105 -8.6118e-05 -0.0018592 -0.0038463 -0.0017352 0.0021296 0.0021448 -0.0010375 -0.001053 -0.00023065 0.0015533 -0.00076178 0.0023765 0.00057168 0.0033908 -0.0019533 4.1543e-05 0.0007797 -0.0010866 -0.00075624 0.00048189 0.0012805 -0.00040665 -0.0021413 
спальне -0.0016315 -0.00027125 -0.0012414 0.0013962 0.0021503 0.00088334 -0.0019258 -0.00054803 0.0033176 -0.00049588 -0.0011864 0.0026116 0.003123 0.0020016 0.0003261 0.0010693 -0.0015323 0.00011099 -0.00030984 0.0011887 0.0003084 0.00095764 0.00093887 6.3722e-05 -0.0005839 0.0033892 0.0017451 -0.0018975 -0.0016909 0.0010756 0.00068897 0.0016476 -0.00020003 -0.0017595 -0.0014599 -0.00071025 -0.00064898 -3.7946e-05 -0.00040865 0.00038793 0.0013036 1.1349e-05 -0.00053193 -0.00032928 -0.00055454 -0.00030664 -0.00023353 0.00062904 0.0010438 -0.00055309 -0.0013172 0.00082779 -0.0018681 0.0003545 -0.0015897 -0.00037293 -0.0012465 0.00099421 0.0011305 -9.0226e-05 -0.00032191 0.00045288 0.00050201 1.2296e-06 -0.00027217 -0.0011647 0.00085917 -1.1136e-05 -0.0029406 0.00048709 0.00020384 -0.00052249 0.00096763 -0.0010066 0.00013175 0.00018183 0.0026085 -0.0010283 -0.0011358 -2.8572e-05 0.00031873 -9.5822e-05 0.0010311 -0.00064509 -0.0022687 -0.001541 0.00065505 6.5068e-05 -0.0026794 9.9049e-05 -0.0022487 0.001626 0.0008046 -0.00029667 0.00041447 0.001976 -0.001481 0.00090203 0.00029629 -8.5325e-06 
температура -0.00079874 -0.0009421 0.00056277 0.00072567 0.00046624 -0.00064421 -0.0002894 -0.0015728 0.00048095 0.00096987 0.00028401 0.0021701 0.00038234 0.00082758 -0.00034828 0.0025491 0.0010865 0.0022046 -0.00020921 0.00039362 0.001233 0.00012116 -0.00058322 -0.00056731 0.00090411 -0.00039343 0.0010724 0.00054248 0.00064854 0.0011674 0.00038903 -0.0006258 -8.401e-05 0.001226 -0.0017227 -0.0019074 -0.00052741 0.00025486 -0.00032159 -0.0015839 -0.00052534 -0.0011661 0.00067561 0.00068092 -0.00063918 -0.0012317 -0.0013338 -0.00025154 -0.0021731 0.00012459 -0.00035962 0.00095672 -0.00070675 -0.0018705 -0.00061216 -0.0010091 -8.7547e-05 -0.00039443 0.0015201 0.00033649 -0.00053863 -3.6091e-05 0.0011569 -9.2134e-05 4.5254e-05 0.00046075 -0.001973 -0.00019401 -0.00065609 -0.00017653 0.0014384 0.0022038 0.0008709 -0.00071895 0.0002312 -0.00067908 0.00077483 -0.00090672 0.0015509 -0.001074 -0.0012882 -0.00063935 0.0022848 0.00047406 -0.00040791 0.00030283 0.0014776 -0.0010262 9.1343e-05 -0.001802 -0.00010774 7.6235e-05 0.0028848 0.0011747 0.00011553 0.0010828 0.0012729 -0.00011093 -0.00059034 0.0004449 
доме 0.00034817 0.0013165 -0.0035029 0.0024651 0.0027718 0.0010232 -0.0036435 0.0001501 -0.0015399 0.0012576 0.00031695 0.00091583 -0.0013433 -0.00253 -0.00086674 0.00059173 0.00021683 3.218e-05 -0.00097833 -0.0029086 0.00090689 0.0015533 -0.00038712 0.0018647 -4.0869e-05 -0.00072678 -0.0019692 0.001133 0.00059619 -0.0013892 0.0015885 8.8357e-05 -0.0020336 0.0008953 -0.00051943 -0.0025409 -0.0025323 -0.0021325 3.3624e-05 0.0013692 0.0013134 0.00023288 0.00017525 0.0011692 -0.0010594 -0.0010636 -0.00083261 -0.00065305 -0.0022716 0.0042252 -0.0039375 -0.0010241 -0.0014433 -0.00076159 0.00072924 0.0010113 0.00042066 0.00011082 0.00015515 -0.00013321 0.0017257 0.00046022 -0.0013878 -0.0007078 0.00015971 0.0011373 -0.0029509 -0.0006646 0.0011083 0.0037087 0.00080973 -0.0011834 0.0011825 0.00062994 -0.00095293 0.00091258 0.0011015 -3.3596e-05 0.00034194 -0.0024245 0.00025015 -0.0012261 4.7037e-05 0.0018194 -0.0024776 0.00074149 0.00077864 -0.0016316 -0.0016955 0.0014453 -0.00082326 0.0037344 0.0031734 0.0012315 -0.0022424 -0.0023247 0.001607 -0.0031051 -0.0023145 -0.0030705 
окном 0.0017339 0.0016128 -0.0012068 -0.00064248 0.0013857 -0.0031175 0.0018647 -0.0018978 -0.00047745 0.00090023 0.0019178 0.00021523 0.001947 0.00065608 0.0011306 -0.0003087 -0.00059672 -0.00093048 -0.001314 -0.0011085 -0.0012012 0.0017426 0.00080813 -0.00089034 0.0022135 0.0007307 0.0023841 -0.0001098 -0.00044851 0.002814 0.0024167 -0.0019583 0.00027326 -0.0028779 -0.0014219 0.00069288 -0.0012124 -0.0010731 -0.00034587 -0.00082591 -0.00060574 1.2927e-05 0.0032107 0.0016371 0.00055296 0.0022543 3.9188e-05 -0.003084 -0.00043028 0.00063395 -0.0014959 0.0025297 -0.00021334 0.00031572 -0.0017296 -0.0015873 -0.00053981 -0.00028275 0.0016003 -0.00070114 0.00066391 0.00070469 0.0030269 0.0016924 0.00010202 0.0041941 -0.0018099 0.0011701 -0.00083935 -0.0010674 0.0023596 -0.0024154 0.00090527 0.0013031 -0.00042329 -0.0012863 0.0038878 -0.00071478 -0.00096764 -0.00060744 -0.0010003 -0.00064326 0.001317 0.00060096 0.00056945 -4.236e-05 0.0014608 -0.0010774 0.00052436 0.0010556 0.003839 0.00026702 0.00013394 -2.6289e-05 -0.0019837 -0.0016195 -0.0002269 -0.0013719 -0.0027916 -0.0019282 
дверь -0.0018979 -0.0015826 -0.002183 0.00080676 0.0028518 -0.00042733 -0.0027385 -0.0012387 0.0023401 0.0021775 -0.0047459 0.00028633 -0.0036188 -0.002137 -0.00052949 0.00061503 0.0013204 0.0033537 0.0019835 0.0016514 0.00093285 -0.00017194 -0.0012716 -0.00058286 0.00061802 -0.0014961 -0.00016228 1.4234e-06 0.00069296 0.0019527 0.00090206 0.00072151 -0.0012801 0.00057294 -0.00032455 -0.0017451 4.3486e-05 -0.00098275 0.0019172 -0.0015652 0.0011989 0.002352 0.00061878 0.0023664 0.001502 6.5966e-05 -0.0026523 0.0010322 0.0012567 0.00021672 -0.002395 -0.00059354 -0.0025679 -0.00058843 0.0031703 -0.0014716 0.0012303 0.0013689 0.0006859 0.00058214 0.001203 0.0001678 0.00058669 0.0013385 -0.00081497 0.0031812 0.0011099 -6.2391e-05 -0.00040572 0.0017418 -0.0012336 -0.0024676 0.0011631 0.00020292 0.00065816 -0.0045176 0.00096873 0.00083936 0.0022672 7.572e-06 -0.003431 0.00084933 -0.00019514 0.0023891 -0.0011288 0.00079585 0.003557 0.00018817 0.0001806 -7.5783e-05 0.0038262 0.0025026 0.0025589 -0.0013206 -0.0010784 -0.0020662 0.00075861 0.002 -0.00082557 0.0010435 
проветри -0.0024093 -0.00018468 0.00031168 0.00016047 0.00010325 0.00058613 -0.0021754 0.00047736 0.00064344 0.00056569 -0.0016468 0.00036539 -0.00013167 0.00048224 -0.0011506 0.00013743 -3.3297e-05 0.00048689 0.00092863 0.0029324 0.00081458 -0.00074164 0.0028771 -0.00013224 0.00010168 0.0009599 -0.00095483 2.0783e-05 0.00098218 -0.00014014 0.0011665 -0.0011887 -0.0010037 -0.0011058 0.0003184 0.00044172 -0.00024773 -0.0017002 0.00060092 -0.00021725 0.0012494 0.0002083 -0.00038164 -0.0015582 -0.00066736 -0.00018546 -0.00053632 -0.0017283 -5.1835e-05 0.000418 -0.00014784 -0.0010659 -0.0015986 0.00073307 0.0013184 -0.00080569 0.0012136 -0.0016238 -0.0014381 0.00063505 0.00088357 0.0011265 0.00058189 0.0016912 -0.0021235 -0.00045961 -0.0014245 0.00060927 0.00022395 -0.00019515 6.4585e-05 -0.00026527 0.0004767 0.0014975 -0.00013863 -0.00043091 -0.00076758 -0.00098083 0.0012814 -0.00076012 -0.0016925 -0.00071914 0.00037675 -3.5938e-05 -0.00071088 -0.00055145 0.00029329 0.0018944 0.00029495 -0.00046205 0.00099736 0.0010521 -0.00085872 -0.0013455 -0.0024337 -0.00060944 -0.0017548 -0.00071032 0.0010369 0.0011625 
влажность -0.0010367 -0.00041553 -0.0010493 0.00094622 0.0022788 0.00092754 -0.00044961 -0.0011587 -0.00066193 -0.002602 -2.2813e-05 -0.00015124 0.0011711 0.0004922 -0.001064 -0.00028729 0.0014741 -0.0017636 0.0011968 0.00018558 0.0013643 0.00074707 -0.00067255 0.0018817 -0.001112 0.00054667 0.00018622 -0.00042762 -0.00016815 0.0005343 -0.00042734 0.0010615 -0.0018285 -0.0019753 -0.0017095 -0.000766 0.00090427 -0.0012394 -0.00037529 0.00097001 0.0008113 0.0011117 8.5932e-05 0.00075681 -0.00093888 -0.00084727 -0.00031364 -0.00019044 0.00071598 -0.00033354 1.0852e-05 -0.00034451 -0.0011534 0.00065786 0.001732 0.00056436 -0.0012514 0.00029989 0.00052744 0.00094405 -9.8188e-05 -0.00065703 0.001719 -0.0010382 -0.0033797 0.00074378 -9.0456e-05 0.00023991 -0.00078119 0.0010287 9.5591e-05 0.00014221 -0.00034476 0.0010013 -0.0002596 -0.0017358 0.0017469 -0.00012288 -0.0013599 -0.00096571 0.00033306 -0.0001125 0.00069016 0.00023136 -0.00014088 9.4683e-05 -7.5167e-05 0.00015287 -0.0011366 0.00014983 -0.0010685 0.00026391 -9.3078e-05 -0.00030348 -0.0016244 0.00061982 0.0011277 0.00054097 2.9625e-05 -0.00021598 
было -0.0011563 -0.0027206 -0.003782 -0.0012644 0.0011776 0.00028212 -0.00035694 -0.0029508 -0.0010491 -0.0016754 4.4088e-05 -0.00085495 0.0011152 0.0030874 -0.00042949 0.00017773 0.00088189 -0.0049187 0.00031338 0.0016095 0.0029755 0.0030422 -0.0037864 -0.001017 -0.0017843 -0.0028653 0.00098649 -3.6864e-05 -0.00049094 0.0024992 -0.0003425 0.0003128 -0.00058542 -0.002032 -0.0044932 -0.0010001 0.000583 0.0010221 8.162e-05 -0.0019901 0.0044902 0.001594 -0.0024633 1.7794e-05 -0.00019673 -0.0014326 0.0031891 -0.0016556 0.0017189 0.00051745 -0.0006491 0.0031363 -0.0020174 -0.00012182 -0.00016683 0.0011774 -0.0020238 0.00031402 -0.0022986 0.00060776 -0.00027564 -0.0023971 -0.0014073 0.0015442 0.00057955 -0.0027772 -0.00082361 0.0012128 -0.001577 0.00064297 0.0012797 -0.0015645 -0.0018403 -0.0023072 -0.0012144 -0.0018538 0.00034064 -0.0028219 -0.0010026 -0.00076834 -0.0015046 0.0025866 0.0011669 -0.0027279 0.00088601 -0.00056174 0.0018499 2.7708e-05 -0.00012821 -0.0026317 -0.0017108 0.00046114 0.0023291 -0.00090495 -0.00032499 0.0030911 -0.0010693 -0.00011128 -0.002966 -0.00026835 
проверь 0.0011885 -0.0012096 -0.00060166 -0.0018864 0.001293 0.00023254 -0.0023146 0.00077735 -9.5478e-05 0.0013988 -0.0029774 0.00050472 -0.00079388 -0.0015164 0.0010305 0.0011152 0.00046451 0.00097972 0.0012376 0.0031759 0.00044505 0.0003055 0.0013256 -6.5686e-06 -0.00044593 0.00042493 0.00019165 -0.00023213 0.00026808 -0.0011331 0.0029209 -0.00055859 -0.001096 0.00042288 0.00082243 -0.0017815 0.00043623 -5.394e-05 -0.00034711 0.00044162 0.0030077 0.00048294 -0.00027168 -0.00011156 7.2923e-05 -0.0002975 -7.4982e-05 -4.9665e-05 0.00087267 0.00018625 -0.0026706 -0.0018224 -0.00094584 0.00056564 0.001589 -0.001118 0.00072752 3.609e-05 -0.0013949 -0.00080075 0.00038269 0.0014578 -0.00020067 0.0009977 0.0010668 0.0030007 -0.0018791 -0.00074357 0.00022183 -6.5307e-05 -0.0002406 -0.00082875 3.309e-05 0.0020862 0.0004834 -0.0013433 0.00052712 0.00057518 0.0001342 -0.00067996 -0.0022256 -0.00053109 -0.0014529 0.00023233 -0.0014781 0.00029293 -0.0024466 -0.00092597 -0.0014866 0.00076873 0.0033151 3.061e-05 0.00092074 -0.0008815 -0.00061123 0.0013011 -0.00012646 -0.00077494 -5.1735e-05 0.0016426 
приду -0.00028075 -1.247e-05 -0.0016931 0.00022282 -0.0001408 -0.001711 -0.0018664 -0.00030431 0.0014004 0.00027249 -0.00033437 -0.00010325 -0.0018061 0.00032243 -0.00063245 -0.0024358 0.0023095 0.0032665 0.0013818 -0.00061386 -0.00055782 0.0042229 -4.3927e-06 -0.0012042 0.0014976 0.00010935 0.00063173 -0.0010932 -0.0013516 0.00057858 0.00085184 0.0013335 -0.00093269 0.00040873 -0.00031166 -0.0018616 0.0009596 0.00063824 -0.00048562 0.0018527 -0.0030213 -0.0012 0.00016257 0.0012033 -0.00057077 -0.0028155 -0.0010517 0.00082811 0.00055652 0.0012044 -0.0013068 0.0020651 -0.00079536 0.0009928 -0.00035881 -0.00089491 0.0019043 -0.0014898 -0.00014718 0.0023 -0.0011052 0.0024281 0.00084699 0.0035063 -0.0020285 -0.002106 -0.00047123 -0.0023178 -0.0025534 -0.0002126 -0.00017072 0.00028007 0.0016185 0.00022772 -0.0015635 0.0017406 0.0012602 0.0033969 0.0021277 0.001314 -0.0015865 -0.0019559 0.00086626 5.5363e-05 -0.0016071 -0.0030494 0.0023603 0.003072 -1.8016e-06 -0.00011027 0.0031071 6.6632e-05 0.0035579 -0.00096747 6.9519e-05 -0.0008013 -0.00017407 0.0017691 0.00052529 0.0018285 
какие -0.001136 -0.0012053 -0.00073605 0.0027662 -0.0002008 0.00069634 -0.0012782 -0.0015187 -0.00074827 -0.00048669 -0.0019207 0.0016808 -0.00091148 -0.00049427 -0.0029635 -0.0010501 0.00050231 0.0021547 3.5885e-05 0.00039402 0.00066863 0.00058941 0.00047029 -0.00024909 0.00066793 2.0743e-05 0.0002033 -0.0008148 0.0031383 0.0025976 -1.4045e-05 0.0010138 0.00036759 -0.0023136 -0.00096267 -0.0022758 -0.0032698 6.1595e-05 0.0007435 0.0023191 -0.0018846 -0.0015949 -0.0010996 0.0024376 0.00040712 -0.00087522 -0.0018741 -0.00086444 0.0013975 -0.00070908 -0.00059737 0.0035978 -0.0012721 0.00039633 0.00378 9.4092e-05 0.00032622 -0.00082149 8.6749e-05 0.00061434 0.0027527 0.0022011 0.00031006 0.0027983 0.0022946 0.00077651 -0.0010082 0.00065188 0.00034 0.00085148 -0.0011392 0.00054405 -0.0020611 0.0014997 0.00030817 -0.00091574 0.0024788 0.0020509 -0.00067833 -0.0012792 -0.0031625 0.0016646 0.0025503 0.00071962 -0.0011066 -0.0020164 0.00076486 -0.0039329 -0.0031609 -0.0021038 0.0042194 0.00056442 -0.0015952 -0.0029484 -0.0044539 -0.002538 0.0010435 0.003296 0.00093726 -0.00011988 
темно 0.0025541 0.0027667 -0.0020894 0.00014547 0.0011497 0.00060065 -0.00041592 0.002964 -0.00067793 0.0014929 -0.0010985 0.001452 -0.0017767 0.0012204 0.0017841 0.0011352 -1.7546e-05 0.0005482 0.00025708 0.0019527 0.00061315 0.00069167 5.606e-05 -0.0015353 0.0035918 0.0012956 0.0036534 0.0015204 0.00061979 0.0013391 -0.00010232 0.0023191 0.00041064 0.0015343 -0.00046392 -0.0015912 0.00050038 -0.0020096 -0.0024148 0.0017893 0.00066476 -0.00015383 8.295e-05 0.001165 0.0012774 0.0002387 -0.00077059 0.0011778 0.0031962 0.00012418 -0.0005241 0.0022609 -0.0005661 0.00083122 0.00061725 -0.00063276 -0.00058392 -0.00073508 0.00033887 -0.0035297 -0.0015457 0.0015502 0.0017355 -0.0026671 -0.001527 0.0010767 -0.0020744 0.0017761 -0.0019502 -0.00012337 0.0011372 -0.00076783 -0.0030013 -0.0012436 0.00013786 -0.0014259 -0.00082752 -0.0002162 -0.00096215 -0.003965 -0.0004194 0.0017672 1.1969e-05 0.00085001 -0.00022992 -0.0014946 0.001121 -0.00011949 0.0010929 -0.0001582 -1.419e-05 0.0003311 0.00051148 -0.00093716 -0.0013565 -0.00039995 -0.00040786 -0.00065138 -0.0029587 0.001108 
этом 0.0014336 -0.00047163 0.0023905 0.0010999 0.001028 0.00080967 -0.00021001 0.0015276 -0.0021338 -0.0010237 -0.00015963 -0.0022019 -0.0014787 -0.00055828 0.0020852 -0.0012462 0.00025004 -0.001569 -0.0031109 0.00016838 -0.001421 0.0026687 -0.00058785 0.0030522 -0.00075821 7.7498e-06 0.00094041 -0.0014642 0.00039022 0.00037161 0.001432 -0.0008322 -0.00022944 -0.0016179 0.00072743 0.0028835 -9.4221e-06 -0.00050825 -0.00018732 0.00044138 -0.0011222 0.0017451 2.09e-05 0.0015625 -0.0017455 0.00021329 0.0003067 0.0020987 7.6331e-05 -0.0024568 -0.0012824 6.1056e-05 -0.00062843 -0.0012363 -0.0013719 7.6168e-05 -0.0016829 -0.00097918 -0.0018459 4.5062e-05 -0.00064701 0.0022625 0.0019148 0.0016136 0.0001867 0.0015556 -0.00041185 0.0011487 0.0016235 0.001701 0.00032543 0.0013867 0.001401 -0.0022511 0.0025236 -6.4595e-05 -0.0042161 0.00054881 -0.0015191 -0.0013733 0.00069069 -5.7152e-05 -3.3991e-05 -0.0015408 -0.00081306 4.7282e-05 0.0026874 0.0012933 -0.00072841 -0.002242 0.00069968 -0.0014844 0.0042324 -0.00013945 0.00091184 -0.00046342 0.001467 -5.787e-05 -0.00027289 -0.00022651 
чтобы -0.0012343 0.00057454 -0.0025548 0.00041375 -0.00075848 0.001076 0.00066566 -0.001171 -0.00029132 -0.0011506 -0.0027712 0.0038402 0.00081173 -0.0022191 0.0026678 -0.0017402 0.0014266 0.0014277 -0.0021302 -0.0014678 0.00040514 -0.00094305 0.0013628 -0.0026761 -0.0013506 0.0028581 -0.0010514 -0.0020501 -0.00060959 0.00045357 0.00084074 0.0025165 -0.00031389 -0.0021808 -0.0021196 -0.0016986 -0.00024177 -0.0014052 -0.00036247 -0.00086043 -4.1059e-05 -0.0012977 0.0038526 -0.0013476 -0.00019126 -0.0025006 -0.00029439 0.0030471 0.0022902 -0.00077969 -0.0019508 0.00062826 -0.00077958 0.00079371 -0.0021004 -0.0015532 -0.0019602 -0.00021974 0.00041672 -0.00028162 0.0013899 0.0019102 0.0014822 -1.8074e-05 -0.00065311 0.00163 0.00088475 0.00079284 0.00024462 0.0016256 -0.0010546 0.0017055 0.0026374 0.0005513 -0.0013646 -0.0022841 0.0025271 -0.0025275 0.0020146 -0.0007867 2.6175e-05 0.00255 0.00096555 -0.000152 -0.0015314 0.0013934 -0.0018698 -0.0012 0.0011081 0.0018917 0.0030169 -0.0026561 0.00046593 0.0011845 -0.0020447 -0.0017788 -0.0028411 -0.00011583 0.00089008 -0.00012926 
увеличь -0.0014835 -0.00098262 -0.0010781 -0.00087598 0.00058749 -0.0002164 0.00041 -0.0010048 0.00077227 0.00048269 0.00060004 0.0010293 -0.00037322 -0.001818 0.00066913 -0.00028934 0.0004079 0.00057064 0.0015832 -0.0002254 -0.0011236 0.00042319 0.00087631 0.0022959 0.0034304 -0.0012902 -0.00034669 0.00013994 -0.00084544 -9.2825e-06 -0.00072721 0.00098846 9.7603e-06 -0.00073457 -0.00074504 -0.0025538 -0.00050487 -0.00051998 0.00077237 0.00086157 -0.0003015 0.0015084 -0.0019619 0.00020694 0.00050184 -0.0008988 0.0024478 0.0013069 0.00028802 -8.3079e-05 -0.0013728 0.0018953 -0.0034714 -0.0011598 -7.2615e-05 -0.0016068 -0.00010172 0.0007997 0.00036894 -0.00085528 -0.0022216 -0.00014903 -0.00034712 0.000184 -0.00043126 0.00052428 -0.0017968 0.0014066 -0.00062521 0.0019532 -0.0018971 0.00061817 0.00095449 0.00021013 -0.00079833 -0.0013246 -0.00064887 0.00045016 0.001522 -0.001233 0.0010798 8.4271e-05 0.0015783 0.0011217 -0.002812 0.0013397 0.00016465 -0.0010207 -0.001582 1.8312e-05 -0.00098571 0.0010005 0.00090939 -0.00029006 0.00093776 -0.00020623 -0.00040319 0.0036951 9.224e-05 0.00014334 
для 0.0014933 0.0048426 -0.0019723 -0.00020047 -0.0014952 -0.004084 -0.0014321 -8.0267e-05 -0.001275 -0.0012024 -0.0012357 0.0011479 -0.00097863 -0.0014566 -0.00098797 -0.0034463 0.0022335 -0.0019108 0.0010131 -0.00086023 -0.00099949 -0.002012 -0.00043861 0.0052914 -0.0032026 0.0012142 0.001996 0.0015728 -0.0019329 0.0011577 -3.8843e-07 0.0022567 0.0021763 0.0010178 0.0023943 -8.5943e-05 -0.0037182 0.0039925 0.0027935 -0.00024035 -0.00047209 0.0026202 -0.0026019 -0.0037088 0.00056607 -0.005008 -0.0020942 0.002309 -0.002189 0.0025419 -0.0023991 -0.0047222 -0.0016257 -0.0049255 0.00090998 0.0023871 -0.0026099 -0.001962 -0.0035954 0.00072964 -0.00049467 -0.0019219 -0.0032998 -0.00099021 -0.00079293 -0.0020395 0.00053405 0.00023796 0.0017072 0.0045313 0.0015612 -0.00078684 0.00055885 -0.0017133 0.00028924 -0.0020441 -0.0022675 -0.0016497 -0.0014892 3.8144e-05 -0.003841 -0.0024274 0.00018279 0.003851 0.0011938 0.0025362 -0.00049483 -0.00060755 0.00028396 -0.0012672 -0.00039749 0.0011953 0.00082263 0.00098458 -0.0017215 -0.00047406 0.00082412 -0.0010173 -0.0022534 0.0026071 
что 0.00077822 -0.0011133 -0.0029816 0.0012225 0.0017459 0.00070425 0.0013469 -0.0011689 0.0023604 -0.0016272 -0.0010061 1.588e-05 0.0018206 -0.0012992 0.0030745 -0.0029203 0.0023953 0.00079951 -0.00018464 0.0021949 0.004519 0.0010381 -0.002184 -4.7047e-05 -0.0010956 -0.0002982 -0.001045 -0.0063544 6.5683e-05 -0.0022064 -0.0020929 0.0016129 0.00116 -0.0031929 0.003141 -0.0047885 -0.0013753 -0.0031941 0.0022368 -0.0028316 -0.0018896 -0.00073142 -0.00051526 2.6563e-05 -0.0046076 0.00022596 -0.00188 7.0374e-05 0.0041072 -0.001379 -0.0027051 -0.0004981 -0.0035982 0.0016878 -0.0025876 -0.0032603 -0.00086117 -0.00028151 0.0041726 -0.0031612 0.001246 0.0034845 0.004771 -0.0030224 -0.0013074 0.0043817 0.0026254 0.0043215 0.0022609 0.0037281 -0.0021128 0.00048536 -0.001741 -0.0010271 -0.0017505 0.00051069 -0.0010033 -0.00066932 0.0012342 0.00032491 0.0037052 0.002277 0.0015399 9.6831e-05 7.749e-05 -0.00052445 0.0027039 -0.0031119 0.001026 0.0038735 0.0013228 -0.0041751 -0.0017795 6.9743e-05 0.0017287 -0.0019283 -0.00396 -0.0012959 -0.00072887 -0.00089366 
установи 0.00076561 0.00094594 -0.00037824 0.0023062 0.0004148 0.001171 -0.00076205 -0.00014012 2.9745e-05 -0.00034693 0.00053995 -0.00072441 -0.0017691 0.00025773 -0.0016909 0.0012632 0.00024751 -0.00038057 -0.0010736 -0.000518 0.00036825 0.00060314 0.00095948 -0.00065457 -0.00041116 -0.00048347 -0.0033796 0.0013586 0.0012155 0.0011681 -0.00067295 0.00011254 -0.0007887 -0.0012367 -0.0016946 -0.0013126 -0.001739 -0.0018112 0.00010445 -0.00035512 -0.0020621 -0.00021072 -4.4958e-05 -0.00031137 -0.0021466 -0.00076066 0.00025542 0.0010272 -0.00028851 -0.0020332 0.00029269 0.00075559 4.3932e-05 0.0002962 -0.0010098 0.0011063 0.0011178 -0.002445 0.0017853 0.001035 0.00014622 -2.0967e-05 0.0014086 0.0018663 -0.0014065 0.00071406 0.00077371 -0.00015137 -0.000677 -0.00015363 8.1825e-05 0.00091021 7.4386e-05 -0.00052088 -0.0022171 -0.00027509 0.0014554 0.00091562 0.0032242 -0.00020726 0.00059342 0.0011771 0.00025145 0.0012064 1.4023e-05 0.00135 0.00041094 -0.00014528 -0.00066781 -0.00097355 0.00029617 0.00094782 0.00070093 0.00099195 0.0014422 -0.0025086 0.0012318 -0.001497 0.00032651 -0.00023114 
распечатай 0.00013415 0.00022006 -0.0019893 0.0019374 0.0013303 0.0010003 -0.0010413 -0.0014632 0.0012302 0.0020069 -0.00033821 -0.00013131 -0.0012084 0.00085995 -0.0016379 0.00079259 0.0010449 0.0018717 -0.0014803 0.00051694 0.0011372 -0.00035328 -0.00098443 -0.00095394 0.00034454 0.00026701 -0.00099794 0.00025463 -4.058e-05 0.00054146 -0.00075935 0.00050357 0.00017496 -0.00073704 -0.00036536 0.00035706 -0.0009147 -0.00071882 0.00063378 -0.0019974 0.0030835 0.00087635 0.00018902 -0.00055795 0.00049348 -0.002421 0.0022087 0.00078847 0.00051368 -0.00080929 -0.0008201 0.0021292 -0.0024448 0.000373 -0.00093223 0.00055953 -0.0010109 -0.00089906 5.5921e-05 -0.0010132 0.00044633 -0.00055558 0.00052885 -0.00093744 -0.00051677 0.00050153 -0.00016067 0.00080674 -0.00050647 0.0017244 -0.0029483 0.00088051 -0.0010563 -0.001969 -0.00042265 0.00031609 0.00050352 -0.00039454 0.0004372 -6.8447e-05 -0.0014103 -6.2473e-05 0.00052547 -0.0026682 7.3822e-06 -2.2728e-05 0.0025968 -0.0006473 -0.0016088 -0.00099155 -0.0001183 0.00065685 0.00027585 0.0003991 0.0011883 0.00095462 0.0015268 -0.0013706 -0.0022727 0.00011214 
покорми -0.0001677 0.00046199 0.00059438 0.0021879 0.0015147 0.0017136 -0.0012798 0.00149 0.00029501 0.00045265 -0.00042155 -0.0010231 0.00058417 -0.00048223 0.0010826 -0.0015447 -0.00087099 0.0012664 0.00023543 -0.0012557 0.00085498 0.0013307 0.0013479 1.3721e-05 0.0018327 -0.00042525 0.00074694 -0.00044729 -0.00089216 0.0018604 0.0010499 -0.00025518 -0.0011759 -0.00018832 0.00055448 -0.00042891 -0.00031051 0.0015629 0.0010392 -0.00018648 0.00050348 0.0021413 -0.0001056 -0.0011764 -0.00074263 0.00025898 -0.001246 -0.00031918 -0.0020753 0.0011972 -0.0015537 -0.00020753 -0.0016013 -0.0010812 0.00048184 0.0011612 -0.00057877 -0.0018606 -0.001217 0.0018855 -0.00083052 0.0012383 -0.00043125 0.0017129 0.00073121 -0.00021038 0.00019399 -0.0025014 0.0016304 -0.00020122 -0.0005491 -0.00027514 -0.00064968 -0.001207 0.0010461 0.00027109 0.00039429 -0.00074896 -0.00081172 -0.00036951 -0.0013317 -0.00062427 0.0017429 0.00081687 -2.1694e-05 -0.00026523 0.00049191 0.00039493 -0.0018135 0.00074965 0.001643 -0.00082905 0.00029681 0.001542 0.00055914 -0.0016196 0.00070071 -0.00029644 -0.00045817 -0.0024862 
обогреватель -0.00092427 -0.00010503 -0.00065409 -9.9906e-05 0.00071117 0.0010553 -0.00083392 0.00018126 0.0010208 0.00091345 -0.00070482 0.00041237 1.9287e-05 2.7309e-05 0.0010899 0.00057822 -0.0012352 0.00077502 0.00050881 -0.0012918 0.0013876 0.00077503 -0.00021774 -0.0002727 0.0015489 -0.00055694 -0.00038197 -0.00072818 -0.00058276 0.0018148 -0.00091777 0.001544 5.0924e-05 0.00067118 -0.00049925 -0.00097027 -0.00039287 -0.001467 -0.0018214 -0.00044724 0.00042374 0.0012243 -0.0007125 0.0012272 -0.0004658 0.00068484 9.9683e-05 0.0010158 0.0016695 0.00038545 -0.0020482 -0.00024173 0.00053693 4.0119e-06 0.0019223 -0.00094451 0.00064655 -0.00086532 0.00097964 -0.0014081 0.00061818 -0.00048485 -0.00031603 0.0011307 -2.4643e-05 0.00061111 -0.00072574 0.00015807 -0.00087857 0.0011406 -0.0011033 0.00024498 -0.00087993 -0.0019798 0.0001975 7.3198e-05 0.001556 -0.0020518 0.00063579 -0.00042652 -7.5442e-05 -0.0018023 -2.7166e-05 -0.00054953 -0.0019774 -0.00096636 0.00044322 -0.0013856 -9.9613e-05 0.0015194 0.00053386 -1.9613e-05 0.0016164 0.00075098 0.00094907 -0.00096365 4.2786e-05 -7.5273e-05 0.001148 -0.00033664 
холодильнике -0.00024946 0.0005007 0.0012776 0.0013488 0.00098621 -0.00061536 -2.1278e-05 -0.00039396 -0.00028136 0.00028982 -0.0020282 3.0264e-05 0.00029405 0.00021161 -0.00082602 0.0020297 0.0010297 -5.7958e-05 0.0010412 -0.00038092 -8.7268e-06 0.00087022 -0.00096153 -0.0013122 0.00053906 -0.00063477 -0.00024159 0.00026593 0.0011669 -0.00041895 -0.00017722 3.1445e-05 -0.0016466 6.1977e-05 -0.00044204 0.0004655 0.00032287 -0.001302 -0.0011771 -0.00019884 0.00075991 0.00033028 0.0010745 0.00038764 0.001493 0.00013753 -0.001273 1.8411e-05 0.0011125 -0.00018076 -0.00071721 0.00045972 -0.00085921 0.0017764 -7.4382e-05 0.0012197 -0.000434 -0.0012346 0.0010006 0.0016608 -0.0010066 -0.00049001 0.00085682 -0.00084728 -0.00026434 -0.0010567 -0.00094857 -6.2747e-05 -0.0010424 -0.0004177 -0.0015175 -6.5526e-05 0.00039664 -0.00031418 -0.00071522 -0.00073451 -0.00086698 -0.00047069 2.3905e-05 0.00024531 -0.00052471 0.00036348 0.00085644 0.00089009 0.00065918 -0.00085481 -0.00021642 4.9386e-06 -9.4579e-05 -0.0012712 0.00027518 0.00034111 0.0021651 0.00056139 -8.6328e-05 -0.0015123 -0.00020093 0.0014058 7.3404e-05 0.0013645 
месяце 0.0010309 -0.0026713 -0.0015542 0.001425 -0.00026707 0.00059103 -0.0013208 0.00048018 0.001169 0.00081711 -1.6337e-05 0.00072515 0.00084227 -0.00028099 -0.001596 -0.0029936 -0.00084129 -7.5256e-07 -0.00010024 -0.0010444 -0.0012929 -0.0001592 0.0002619 0.0013108 0.00028623 0.0016346 -0.0015768 -0.00079939 -0.001072 -0.00080902 0.0021164 0.00037041 3.5097e-05 0.00097099 -0.00022892 -0.00060264 0.00059491 0.0012993 -0.0010327 -0.00078603 -0.0011202 0.0010339 0.0018331 -0.0016606 -0.0018906 -0.0013894 -0.00086736 -0.00011925 -0.0010156 0.00070551 9.2849e-05 0.0024597 -0.0017888 -6.8954e-05 0.0017009 0.00083773 0.00075989 -0.00048777 -0.0012334 -0.0010578 -0.0014101 -0.00010341 0.00032585 -0.0010726 0.0023941 0.0022267 0.00059629 0.0016397 -1.2546e-05 0.0016127 0.00037197 0.00039898 0.0015985 0.0013089 0.0010262 -0.00054484 0.00086648 0.00070571 -4.6653e-05 -0.00079908 -0.00078308 8.7411e-05 -0.0020698 0.0017043 -0.00028576 -0.00022738 -0.0026789 -0.00021532 -0.00073335 -0.0021255 -0.0035123 -0.00060714 0.00045896 -0.0033612 -0.00075765 -0.001608 0.00094205 0.00041535 0.00031734 -0.00086332 
отключи -0.00092428 3.658e-05 -0.00088614 0.00013963 0.002403 -0.00013295 0.00061494 -0.0023181 0.0012818 -0.00031396 -0.0012532 0.00018809 -0.00088861 -0.00095835 7.3451e-06 0.0019218 0.0027218 0.00062938 -0.00017589 0.0003134 0.001025 -0.002022 0.00048916 -0.001244 -0.00083916 0.0021857 0.00060019 -0.0012082 0.0011137 0.0021919 0.00063739 0.00097307 -0.0018024 -0.00020722 -0.0031996 -0.0013528 0.0004399 -0.0016226 0.00015741 -0.00070062 0.0013047 -0.0015396 -0.00039957 -0.00071143 0.001758 -0.00031527 0.0004364 3.9024e-05 0.0015058 -3.5022e-05 -0.00052328 0.00073027 -0.0017091 0.0033808 -0.0016745 -0.0015704 -0.00069475 0.00042467 -0.00024072 0.00079141 -0.0007585 0.0014925 0.0017584 0.0015455 0.00067122 0.0020294 -0.0012204 0.0027116 -0.0020226 0.00057737 -0.0021358 -0.0020995 -6.8831e-05 0.0014155 0.0028015 -0.0016713 0.0006449 0.00053242 -0.00073192 4.3231e-05 -0.00094847 0.00023661 -6.5755e-05 -0.00045065 -0.0016413 -0.0014979 0.0025847 -0.0025833 -0.0015957 0.0013293 0.0001832 0.0023717 0.00084884 0.00050349 -0.0021483 0.00070401 0.0011287 -0.00031132 -0.0002511 0.00036544 
часов -0.00086882 0.00093343 -0.0015275 0.0010378 0.0020053 0.0018084 -0.00033063 0.0024343 -0.0029731 9.0695e-05 9.2281e-05 -0.0038622 -0.00050917 0.0006817 -3.4871e-05 0.0008308 0.00059778 0.0016728 0.00037501 -0.00085062 -0.00042004 -0.0010449 -4.2715e-05 0.0013536 0.00079171 0.00089858 -2.596e-05 -0.0026857 -0.0007357 0.0025429 -0.0022015 -0.00047643 -0.001314 -0.00088269 -0.0017259 -0.0012003 0.00056885 -0.0011008 -0.001076 -0.00069006 0.0021197 -0.00022876 4.7043e-05 0.00033492 -0.0019686 -0.001936 0.0026956 0.0012519 -0.0006092 0.0020528 0.00063996 0.0011846 -0.0037693 0.0012523 -0.001206 0.0010256 0.00041563 0.00012912 -0.0018159 0.0012198 0.00065718 0.0012541 -0.0014548 0.0018074 0.00059445 0.0026289 -0.0014471 -0.00054917 -0.00083144 -0.00020425 -0.0018753 0.0010717 -0.00035118 -0.00020073 -0.0018568 0.0002365 -0.00064089 0.0022762 0.00022526 -0.000429 -0.00097863 -0.00046609 -0.0011976 -0.0012645 8.3034e-05 -0.00036908 0.0028847 0.0015337 -0.00043518 0.0020875 -0.0012631 -5.6061e-05 0.0012407 0.001214 0.001203 -0.0013839 0.0011269 -5.6885e-05 -0.0012468 -0.00084434 
приходу -0.002811 -0.00045738 -0.0021809 0.00039233 8.5078e-05 0.00088106 -0.00023762 0.00023499 0.00025591 0.0012675 -0.00050593 -0.00036939 -0.0007804 -0.00022738 0.00058182 -0.0014721 -0.00067504 0.0021692 -0.0024123 0.0018157 -0.00082913 0.00042449 0.00012492 -0.00083316 -0.0013335 -0.0010428 -0.00027778 0.00063801 -0.00027841 0.0014564 0.00012784 0.00072374 -0.00084924 -0.0012086 -0.00028182 -0.00080616 0.00015987 -0.000146 0.0005302 -0.001428 0.00090357 -0.0011159 4.9382e-05 -0.0011302 -0.00066721 -0.0011599 0.0017856 0.00015721 0.0019925 0.0011526 0.00024686 0.0015764 -0.00086161 0.0023774 -6.5154e-05 -0.0016772 -0.0014435 -0.00074454 0.0026378 -0.0017383 -0.0013163 0.00041368 0.0012522 0.00051657 -0.0013898 -0.0027434 0.0010751 -0.0019831 0.00049261 -9.203e-05 0.00026244 -0.00021833 0.0008203 -0.00081394 0.00042269 -0.0014704 -0.00079778 7.2718e-05 0.0011623 0.0026039 0.00042041 -0.0021487 0.002136 0.00097676 -0.00089941 0.00098311 0.0014736 0.00021955 0.00079066 -0.001695 0.0013373 0.00026379 0.0016539 0.00030483 0.0016202 -0.00102 0.00076511 0.00049115 -0.00018968 -0.00086031 
