844 10
число -0.044147536 0.019674655 -0.0048298794 -0.04054094 -0.0120443 0.018951 -0.012167662 0.0027234117 -0.03639542 -0.014743111
включи 0.04753142 -0.048956223 -0.04675745 -0.010061589 0.034638483 0.03148782 0.03607159 -0.029644424 -0.029901166 0.008419635
сколько -0.01802475 -0.030640122 -0.023474978 -0.01582161 -0.034876097 0.04797588 -0.021190498 -0.031975668 0.012291062 -0.015498942
свет 0.019594926 0.0362785 -0.009042459 0.002613587 0.044282712 0.049046244 0.0019946515 0.04837141 0.021265713 -0.00406431
время -0.025701342 -0.043358847 0.01633393 0.012411891 -0.035383873 -0.004968525 0.04642284 -0.04017372 -0.030647917 -0.012374194
сделай 0.0077367383 -0.016842853 -0.030717654 -0.032030467 -0.008909764 0.026190553 0.011989233 -0.027371794 0.019666031 -0.047781136
включай -0.035733525 0.042735945 -0.022654038 -0.034258436 0.027703153 0.038845774 0.041990865 -0.040206164 -0.022798244 0.04763629
выключи 0.02697806 0.024162386 0.040251788 -0.038909193 -0.032832503 -0.03837494 0.04650913 -0.037479628 -0.04519573 0.0049008387
слишком 0.046468735 0.007626859 0.031907268 0.035804026 -0.00038961307 0.017236093 -0.020830149 -0.036719512 -0.026241027 -0.027555747
комнате 0.035998832 -0.020490866 0.018056324 0.028374676 -0.045861337 -0.009973357 0.011061554 0.020865854 0.013097733 -0.0077635986
дома -0.015538912 0.022067219 -0.035028037 -0.04059685 -0.037349157 -0.026200505 -0.030974194 0.02232324 0.036633015 0.031503867
электричество 0.031162051 -0.02667759 0.026497023 0.012862283 0.04866286 0.019159518 -0.009410217 0.037386756 -0.0044821417 0.026226202
закрой 0.01691348 0.038510643 0.027578162 0.013357363 -0.030786622 0.016481172 0.008218566 -0.033473965 0.044605013 -0.029273903
шторы 0.010628542 -0.02485255 0.04661827 -0.012740723 -0.005467764 -0.002353678 -0.024380876 0.0026400832 0.0015699185 0.04613572
минут -0.033987634 0.042486425 -0.039004374 -0.010310055 0.0061054174 -0.040960506 0.028507298 -0.02176675 -0.04260778 0.0126338005
каждый -0.017268462 -0.04329689 -0.021935366 0.005387757 0.033867884 0.00717768 -0.04928543 -0.003045507 0.029661044 -0.04817035
буду 0.002604848 0.0007185917 0.023055088 0.012562503 0.013904246 0.021753235 0.03138125 0.027937934 -0.044811007 0.040552273
сегодня -0.00026076395 0.0026245306 -0.043131568 -0.022325387 -0.0031860643 0.016935648 -0.017240485 0.010444794 -0.047867972 -0.0422818
день 0.032772418 0.048765037 0.024158755 -0.007903584 0.046085704 0.00917097 -0.00569461 0.0009377142 0.009330366 0.030396288
пока 0.037635688 0.024588836 0.012644638 0.03870315 -0.004551679 0.042380143 -0.01590355 0.017417189 0.01425614 -0.017021654
холодно -0.03296366 -0.008917676 0.037889224 0.01644899 0.049477674 -0.04612454 -0.0050925417 0.003151697 -0.031682756 0.038695972
музыку -0.039733734 0.037019722 -0.013348938 0.04448017 0.005454832 0.028904296 -0.018503569 0.015026995 0.049780764 0.0061799306
кухне -0.043849237 0.016534274 0.011873802 0.025150053 0.007952167 0.03911533 0.037561648 0.0075024865 -0.033737276 0.006352624
приготовь -0.035748698 -0.013202621 -0.025064375 0.017081581 -0.0065531814 0.009748803 0.021678552 -0.033145834 0.04158183 0.034500845
месяце -0.003450159 -0.011724691 -0.024446096 -0.0011989324 0.03804154 -0.008905031 -0.008879806 0.03692697 -0.043476153 0.023095662
покорми 0.003071764 -0.003840834 0.034274966 -0.010142596 -0.0005575041 -0.011534358 0.008985163 0.04606405 0.018769158 -0.019535819
комнату 0.044091493 0.024708675 -0.03235512 0.04234255 0.046769794 0.03253979 0.032507386 -0.012861203 0.03564862 -0.0034265888
окно -0.04902268 -0.021765774 0.047368325 0.0021034107 -0.041742172 -0.045905247 0.025483344 0.042416066 0.019248081 -0.025904492
температуру -0.041881394 0.037765745 -0.02952476 -0.0151565885 0.005664223 0.00715591 0.014108521 -0.013270414 0.03954702 -0.01356492
градусов 0.019196521 0.010367524 0.0016628691 0.0144012775 0.00085006334 0.049300455 0.050476078 -0.03867192 -0.016106738 -0.007895696
дверь 0.040020004 -0.04297526 -0.024350561 -0.0014988044 -0.037801817 -0.04809206 0.04784395 0.0027228484 -0.037512362 0.01513701
выключай -0.011470706 -0.017844342 0.04646988 0.020049583 0.042473137 -0.000120161654 0.032851093 -0.027532138 -0.021322157 -0.033173244
машину 0.046342894 -0.015197256 0.049851798 0.04632201 0.043702897 -0.036015693 0.006770453 0.006730233 -0.020159272 -0.004062742
домой -0.030069087 -0.045813072 0.022487732 -0.018115142 0.041928712 -0.022765744 -0.015443781 -0.013463032 0.014567609 0.014585899
проветри 0.028634284 -0.026385484 0.020683758 0.009531639 -0.010957355 0.028629633 -0.039966196 0.010454716 0.0016780891 -0.043071426
кот -0.036094 -0.037666317 0.03829722 -0.011814906 -0.047583222 0.0404762 0.033231657 -0.034432095 -0.020306969 0.014458852
обогреватель 0.019530484 -0.032105524 -0.027813619 0.002222134 0.035551377 -0.0016192973 -0.012877968 -0.0133683765 -0.023587717 0.008936982
песню -0.034536533 -0.023729313 0.017420508 -0.01945289 0.006527561 0.0045938925 0.025971675 0.039081857 -0.022309143 -0.027693518
уведомление 0.014283123 0.034879003 0.026660323 -0.025491036 -0.0215599 -0.012148219 0.01872126 -0.046940062 -0.019200206 -0.022123419
приходу -0.046687074 0.0251246 -0.042197257 -0.01183668 0.046092648 0.010201645 0.04626514 0.034071807 0.019673353 0.03545528
убирайте -0.017906437 -0.017340457 -0.032043833 0.049244016 -0.043192957 -0.023445673 0.03243381 0.009880478 -0.038296547 0.028753558
нужно -0.022650234 -0.031762313 0.033749465 -0.010039651 0.0028969708 0.031129124 -0.036518652 0.017682647 0.026340323 0.01215088
улице -0.024871795 -0.018097507 -0.017025767 0.03803152 0.04993103 0.0020095832 0.011814757 -0.044876102 0.005993159 0.02208897
кофе -0.018056761 0.0053337035 0.010535577 0.04616379 -0.012048513 -0.008531099 -0.04803988 -0.023144519 -0.00022378718 -0.020422168
телефон 0.045865472 0.008888963 -0.018887544 0.01184754 -0.042346574 -0.00985025 -0.024108296 -0.0056017917 -0.008294862 -0.005866571
доме -0.032795522 0.029478665 0.014230946 0.039662328 0.012983072 0.0031343338 -0.004007671 0.009250579 0.0054299626 -0.019602614
открой -0.047631994 0.0071580275 -0.0038446402 -0.029473882 -0.041067258 0.034360923 -0.0185951 0.02386974 0.018817417 0.048294507
мою 0.0364289 -0.009984598 -0.03919498 0.009509006 -0.014393797 0.043781906 0.005368065 -0.021629252 0.021167627 0.0059377383
стоит -0.016301513 0.048872508 -0.045658506 0.008321839 0.0032969178 -0.022981292 -0.01878544 -0.0154208345 -0.04637872 0.04789609
утра 0.020688096 0.039995935 -0.008016783 -0.008527124 0.031835176 0.035746317 0.026311986 0.0013503825 -0.020024603 -0.039135106
сообщи 0.0043899515 -0.019629948 -0.039127477 0.0028152084 -0.042400125 0.01465106 -0.025481887 0.035446867 0.014862439 -0.015935514
моему 0.037732027 0.04121656 -0.030238682 -0.018038902 -0.02045201 -0.030189857 -0.047492713 0.022699984 -0.0073087304 0.037583835
листву -0.027298525 -0.009170556 0.019977152 -0.011589722 0.027948426 -0.029980564 -0.016572619 0.017603666 0.008382843 -0.03312757
ктото 0.041956462 0.04008364 0.031721387 -0.027905926 -0.034238905 -0.034714267 0.0038440414 0.00093578803 -0.0047421074 -0.025347896
влажность -0.00152272 0.037776195 -0.024452314 -0.036085203 0.024381205 -0.012236208 -0.008285811 -0.029928328 0.008974898 0.029780861
холодильнике -5.8142832e-05 0.025766559 -0.02188963 0.02331498 -0.016494004 0.023877779 -0.03825121 0.03253068 0.031116653 -0.013069066
последний 0.005256279 -0.02056774 -0.0033783747 0.03089392 0.03779297 0.0031813201 0.03935171 0.03804373 -0.050187524 -0.0027037016
ванной 0.0029868726 -0.034980804 0.03254334 -0.03590178 0.006738757 -0.031112246 0.010074599 -0.015585488 0.023631783 0.027997581
снег 0.048523106 0.025333561 -0.017801698 0.018976279 -0.01744307 0.04086785 0.03958862 0.00068196014 -0.026070163 0.033758942
окном 0.008992325 0.036552653 -0.014029501 0.04923336 0.0129882675 -0.024289297 -0.021124484 -0.024046216 0.044349845 -0.044584133
какие -0.0034071007 0.03173093 0.021916067 -0.03382346 0.048408717 -0.012924289 -0.017240623 -0.030923333 0.02980169 0.04004485
дождь -0.007133351 -0.033882808 -0.007659443 0.045981 -0.025004338 0.017135037 -0.018343763 -0.026420804 0.047640994 -0.0016465184
завтра -0.007319458 -0.018645843 0.010021494 -0.03693266 0.020990891 -0.020420276 0.03259061 -0.04960743 -0.04374571 -0.022097629
часов 0.0441159 -0.03527313 0.041434277 0.0013346409 0.01958825 -0.030991439 0.015026459 0.00849984 -0.007909516 0.015968094
света 0.015676858 -0.044524167 0.029721899 -0.035661742 -0.004918078 0.012560424 -0.0020166123 0.03625077 0.03992866 -0.01949006
темно -0.044320658 -0.026274445 -0.042907186 -0.016843775 0.01788813 -0.020902265 0.0016533015 -0.028993558 0.0020020294 0.030285118
осталось 0.008958447 -0.030092679 0.025820486 -0.0032013908 0.04398108 -0.023291126 0.027684767 0.008749505 0.014682489 0.040705614
обстановку 0.027328664 -0.036404826 0.04491044 -0.007989801 -0.026800737 -0.042167652 0.0051002717 0.035235368 0.035329882 0.040477544
воду -0.01854522 0.045442462 0.005943636 -0.014718183 -0.020406203 0.010823185 0.045903746 0.016832223 0.040921245 0.02332673
установи -0.033515785 0.009682583 0.010060361 0.024926104 0.01381674 0.0385616 -0.04372933 -0.03662803 0.042097658 -0.021965899
жарко -0.035037454 -0.03692595 0.016076965 0.028673517 0.03559108 0.016707245 0.015429851 -0.017711803 0.030813508 -0.019117313
вечера 0.032167852 0.041419055 -0.007838335 -0.041889917 0.04358863 0.02020777 0.017188476 -0.041527938 0.0064856894 -0.0020140551
воды -0.0046357033 -0.034198508 -0.011950425 -0.010888011 0.046711933 0.015094734 -0.0071921623 0.011650881 -0.0014112585 0.03274363
включить 0.031944342 0.010583874 0.004496542 -0.013315239 -0.026647875 0.01394015 0.037780836 -0.0022640876 0.0121270325 0.012281712
поле -0.012683597 -0.02564323 0.04620899 0.034942217 -0.044878416 0.035803452 -0.015002902 -0.04090249 -0.004420161 -0.04171998
подогрев -0.04739193 0.00021836108 -0.03477714 -0.0017765367 0.010499822 -0.025323996 0.034109607 0.016012704 0.04825874 0.036954068
кондиционер -0.014426269 -0.026293669 0.014614522 -0.010522021 -0.013609336 -0.008656479 0.0035707653 0.020377362 0.03651222 0.01693625
хлеб -0.018444724 -0.028417319 0.03503374 0.040701598 -0.026017966 -0.011023321 -0.040318463 0.035768118 0.01168702 -0.0324619
чай -0.042402007 -0.016156286 0.006874097 -0.020552019 -0.019667605 0.046013605 -0.022025904 0.036334973 -0.028038513 0.0090395305
температура -0.03784579 -0.04164144 0.028142456 0.027144205 -0.020749962 -0.023781119 0.02208936 0.01747793 -0.036831222 0.017769221
каждые 0.044837877 -0.043587983 0.013992335 0.009859035 -0.034286 0.018000478 -0.0030466 0.005467378 -0.0013977772 -0.039453268
ктонибудь -0.013262486 0.00411748 -0.013995542 -0.0147321345 -0.042572092 0.011395167 0.0472349 -0.04454079 -0.0010453088 0.021340037
снимай -0.045044985 -0.028042056 0.008330895 0.014356929 0.04364793 -0.032947052 0.04249996 0.0283829 0.0075086104 -0.04938207
кота -0.019533679 0.03264416 -0.022338491 -0.028548729 0.033328716 -0.045149006 0.02863086 -0.02037587 -0.024807198 0.0004120562
отключи -0.00561603 -0.01906475 0.040592715 0.018336888 0.005501059 0.04381235 -0.047215175 -0.0122185135 -0.048327643 0.030780496
отопление 0.008769085 0.026342236 0.008252044 0.015595975 -0.00798226 -0.032759704 0.021884141 0.0269689 0.030893933 0.020509837
громкость 0.0025079309 -0.00019606171 -0.044664916 -0.045912586 -0.036349945 0.0037137824 0.0067466344 0.048925173 -0.027070338 0.023852708
стригите 0.01001369 0.008867549 0.014232184 0.015172749 -0.018374313 0.023474166 -0.009440287 -0.03994278 0.0011598227 0.020418467
распечатай -0.009584824 0.04886554 -0.0040729726 0.013557543 -0.041957956 -0.0073733274 -0.006048503 0.015106157 -0.033840094 -0.01990618
проверяй 0.026403677 -0.02560744 0.041862767 0.033073813 0.036583196 0.04288863 0.03697783 -0.031435315 0.03590013 -0.0091005815
помидоры 0.047184426 -0.03484355 0.013385838 0.013110421 -0.014903037 -0.020119522 0.024455411 0.02838094 -0.012756534 -0.017817043
ванную 0.032676347 -0.018403718 -0.044347666 -0.0066252556 -0.05052712 -0.044512775 0.04571004 -0.015602794 -0.028783787 0.03302063
проверь -0.032392967 -0.008191766 -0.02254407 0.03240318 0.04856497 0.03553762 -0.024547393 0.002860707 0.028731298 -0.018460672
утюг -0.024192058 -0.035617642 -0.009290637 -0.029481707 -0.0128764445 -0.009056736 0.030096157 -0.042899724 -0.019013485 -0.00017744198
подготовить 2.1911135e-05 0.012625687 0.02364777 -0.008583302 -0.02265819 -0.040510517 -0.014465981 -0.031058814 -0.032122366 0.0062037404
подсветку 0.011466514 0.00044488197 -0.042356186 0.030834362 -0.031678192 0.025897069 -0.02713825 -0.0073316884 0.006555586 -0.0153743
документ -0.046018697 0.0151662575 0.016101878 0.038303144 0.0063562957 0.013098732 -0.029753527 -0.003100708 -0.039668016 -0.0027049794
суп 0.012601941 -0.0013846449 -0.022147205 0.047541156 -0.022161817 -0.02472586 -0.04885318 -0.03383297 0.0069378032 0.046848424
кухню -0.024701316 0.03475249 -0.03788844 0.019915696 -0.049501847 -0.013872365 -0.004102288 -0.0069076144 -0.009366894 -0.006533191
времени -0.03889731 -0.033407725 -0.0295745 -0.012901807 -0.043620035 0.041765157 -0.030929016 -0.038134377 -0.023236316 0.021652782
перекрой -0.013796838 0.05009124 -0.0070944647 0.044677496 0.015067598 -0.034608852 -0.042273615 -0.0065487707 0.034534257 -0.028300628
установить 0.047362752 0.030428184 -0.032877408 0.04431452 0.003181287 -0.032210335 0.04310091 -0.017842848 0.017676478 -0.028908195
засну 0.0377757 -0.023102783 -0.016043404 -0.037973277 0.020981623 0.0050717224 0.008206765 -0.043660905 -0.020436302 0.009852502
градуса 0.04964718 -0.011045844 0.028264541 -0.041999195 0.017362747 0.0034381151 -0.040680982 0.043041784 -0.0061494885 -0.041016184
спальне -0.04370462 0.032814372 -0.038747326 -0.023210555 -0.03223419 0.0056572254 -0.047944956 0.049636 0.0018942256 -0.027407803
еды 0.022265136 0.021219285 -0.046743862 0.0026163904 -0.034547064 -0.0020089603 -0.023973428 0.01206023 0.0411983 0.041251518
хочу 0.0077121165 -0.039916273 -0.036206283 -0.04904489 0.030888591 -0.006613822 -0.04462794 0.017621059 0.016116954 0.0464556
дней 0.043023814 0.020116683 -0.022629108 0.040088635 -0.019430134 0.03328917 -0.040205814 0.029920358 0.045376267 -0.021331184
ванну 0.04518103 0.038308673 0.0053255726 0.012934161 0.023670476 0.016229715 0.046662197 -0.032880314 -0.0041430024 0.02681224
ел 0.023686044 0.038253803 0.047928486 0.030288998 -0.02622072 0.04116706 0.007862729 -0.03765337 -0.023709163 -0.042435694
усну 0.008427407 0.04791966 0.03445039 0.03961064 0.0063362727 -0.014388293 -0.02699791 0.018464504 -0.011508965 0.017718712
светло -0.012843453 -0.013098782 0.026518159 0.015766669 -0.015297577 -0.036273442 -0.003440075 0.039406076 0.035265222 0.037542943
запусти 0.045351647 0.038401023 0.03656781 0.044285905 0.023682404 -0.043877054 -0.03098834 -0.0066563156 0.03342839 -0.008239346
меньше -0.01207091 -0.039598208 0.046687122 0.029291643 0.04877752 0.0023674069 0.046513926 0.043182272 -0.022634074 -0.008497445
увидишь 0.01533631 -0.046048485 -0.022907855 -0.018148592 -0.045988172 0.008941321 0.014184825 0.013670951 -0.01308768 -0.037337527
неделю 0.022977697 0.009987837 0.046672534 -0.0010901805 0.021943463 -0.01905424 -0.019803142 -0.019595958 -0.047419403 -0.0033754571
проветривай 0.035448056 -0.04013642 -0.03309318 -0.020067375 -0.020537172 -0.044067327 -0.04730987 -0.023020813 -0.0127357235 -0.010118021
течение -0.011395997 -0.04557137 -0.04017308 -0.01827639 0.036047675 0.027826127 0.035674058 0.04249194 0.037885007 0.008898794
брал 0.025926657 0.004482562 -0.015987976 -0.045691088 -0.048655536 -0.028400267 0.020436853 0.026013644 -0.016886346 -0.010372673
воспроизведи -0.002648243 -0.02801291 -0.025135856 -0.027998677 -0.04574398 0.034975834 -0.046446417 -0.019324945 -0.03378663 -0.028201438
стол 0.023874074 0.047528047 -0.03262998 -0.028374221 -0.025290076 0.022954004 0.031491563 0.040047895 0.0073608826 -0.008162842
увеличь 0.04196315 -0.00808025 -0.004420409 0.007268482 0.04988605 0.015063248 -0.049055062 -0.008187055 0.03396871 -0.006755774
траву -0.035050772 -0.039742924 0.034880176 -0.04394283 0.035425607 0.049847297 0.018705038 -0.04365676 0.02224222 0.008922161
солнце -0.004348286 0.047117677 -0.015773041 -0.04851047 -0.012760118 0.036500506 -0.030919874 0.031932656 -0.022787293 0.037106745
могу 0.03772379 0.01946326 -0.044209477 0.041941397 -0.022936676 -0.014225107 0.01617398 -0.011328164 -0.0012084597 0.04626886
стирку 0.024787348 0.049109958 -0.026628094 0.020718437 -0.0038082586 0.011974173 0.028227046 -0.029264009 0.04960139 -0.005863247
спиртное 0.01837493 0.0042758523 -0.033399228 0.043829948 0.02148388 -0.028815128 0.048469786 0.033209447 0.045916285 -0.03860928
купить 0.0036020007 0.021300644 -0.037366178 0.04888229 -0.046775684 0.026038166 0.0024199584 0.02921526 -0.03432356 0.034076314
машина -0.022565037 -0.02622182 0.047672305 -0.023670757 0.014931687 0.003396199 -0.01523891 0.020304136 -0.010868014 -0.029532406
поставь -0.025537359 0.047467433 -0.0036135565 -0.022017328 0.046842225 -0.049704045 0.009634453 -0.02527604 0.0023971715 0.0021740512
поливай -0.0055717058 0.0026138388 -0.033189114 -0.046742853 -0.04549647 -0.04206811 0.045510575 0.024400044 -0.031496603 -0.014395653
следи -0.012552721 0.043023333 0.0056106495 -0.04517748 0.004770802 0.019252896 -0.02137774 -0.007153467 0.0058481162 0.008480401
получали -0.02875238 -0.012806998 0.010205969 0.009412737 -0.033183407 0.0045961514 -0.02068248 -0.0044913623 0.04031722 -0.039496336
напор -0.01738119 -0.034093548 0.0016193101 0.012322087 0.040170185 0.02372595 -0.0069607003 -0.038446646 0.0073394296 0.028163303
часа 0.017681895 -0.04605122 0.023333691 0.032336064 0.046503417 -0.010556127 0.050181344 0.021909641 0.014218175 -0.041434485
кажется 0.040093437 0.048231624 0.03886898 0.045068048 -0.015762964 -0.012426166 0.0055400603 -0.021045249 -0.048170164 0.032082178
энергии -0.026514377 0.0004888803 -0.045027565 0.016325897 0.013061205 -0.014268319 -0.044135477 0.002225911 0.024475615 0.042912297
корми -0.02227499 0.034777775 0.027369646 -0.025979323 -0.04157395 0.030951869 -0.02913112 -0.049727775 0.039436087 0.005098483
раза -0.004770539 0.011546348 0.040279448 0.045417737 -0.0040909806 0.045689348 -0.029568093 0.016050627 0.038453206 -0.02471762
чаще -0.045412727 0.04245518 -0.008240906 -0.010585749 0.010161214 -0.0045667817 -0.0054980367 -0.0145348795 -0.007919371 -0.045409836
холодильник -0.029754562 -0.011750313 0.030663872 0.025764192 0.013689644 0.0017060784 -0.00018542279 -0.013653586 0.046218067 -0.0071950722
духовку 0.036416635 -0.042457025 -0.011785963 0.017831994 -0.018055957 0.010388322 -0.005042484 -0.031872373 -0.0039466238 0.00579866
зал -0.03751496 0.031095523 0.017327452 -0.008469194 -0.03857939 0.023338955 -0.031385075 0.043541744 -0.031995714 0.03557181
стиральную 0.0031059154 0.008797722 0.028524626 -0.0011225205 0.028267935 0.013372481 -0.020030385 0.032967012 -0.014275067 -0.005780269
прихожу -0.042689722 0.04555836 -0.015317858 -0.03123041 -0.033040263 -0.04430405 -0.014779898 -0.03601286 -0.013348223 0.014646854
полностью -0.0092882635 0.008918928 -0.040122565 -0.024974981 0.04174461 -0.050225284 -0.0021227316 -0.00034240543 -0.005665855 0.008262498
хватит -0.020656085 0.035670646 0.033534054 -0.046459876 0.0014520496 -0.03419158 -0.038744513 -0.04423359 -0.0027707077 -0.042573113
топлива 0.033713922 -0.047627967 0.017661896 -0.045821194 0.039621 -0.031511348 0.038982652 0.01829612 -0.049687713 0.013590863
выключить -0.015801078 -0.01834628 -0.010846306 0.030987944 -0.042951513 0.0464552 -0.017680615 0.008410874 0.030352991 -0.0023825255
разогрей -0.015814874 -0.03615898 -0.026122833 0.007019302 0.03275591 -0.022370197 -0.044907548 -0.021581996 -0.045874834 0.034170352
захожу -0.021824399 -0.024984878 0.0097269695 -0.044969045 0.046080165 0.03360649 0.036532763 -0.024238363 0.013900519 -0.030448925
жалюзи 0.01275068 0.032154918 -0.010040283 0.039377585 -0.04379833 -0.018100126 -0.015003244 -0.01696806 -0.028870614 0.028051004
выведи 0.017407974 0.015493717 0.014721525 -0.0020315843 -0.023882788 -0.0114064 -0.03438594 0.03972297 0.042075668 -0.039359033
ко -0.04015263 0.029412854 0.02353256 -0.009262461 0.032502037 -0.03743172 -0.027703114 -0.03537548 -0.012009743 -0.017805928
какиенибудь -0.012963331 0.025418421 0.009113705 0.042887434 0.020750608 -0.038599953 -0.012100523 -0.03245625 0.04599358 0.0007000328
месяц 0.0009724842 -0.027039932 0.037177693 0.00015283498 -0.015908407 0.041602153 0.028591536 0.016263565 -0.008862888 0.04699326
принять 0.028100595 0.03981554 0.009931569 -0.019317148 -0.0087724235 -0.01681108 0.0010973046 0.0061238026 0.042896427 -0.019956412
занавески 0.017089378 0.02443827 -0.00069120305 0.00018080458 0.037743483 -0.030021153 -0.04331738 0.02626027 -0.00071621145 -0.0437769
ослабь -0.0042243083 0.014269526 0.00022953618 -0.031280216 0.030252226 0.038413037 0.016683389 0.017919587 -0.013450343 0.029119177
набери -0.008091132 0.019536098 -0.040416118 -0.036153533 -0.006984467 -0.049810506 -0.04897573 -0.024420414 -0.04510979 0.033761036
иду -0.03466263 -0.04749026 0.026720732 -0.039700426 -0.033255406 -0.034923565 0.027782498 0.02317897 0.031428136 -0.032289956
передачи -0.007891581 -0.04077766 -0.04049657 -0.026022106 -0.006444508 0.0065670228 0.038569205 0.020225665 0.045136258 0.041781813
днем -0.031746443 -0.04652404 -0.013102678 0.042833343 0.026541784 0.008566121 -0.008985242 -0.039407413 -0.018358205 -0.043967843
запиши -0.034843642 0.027480837 0.02302143 0.020884655 0.019967955 0.034247033 0.030913241 -0.02685631 -0.033316698 -0.030860208
добавь 0.017199975 -0.026121775 0.039285492 0.043509267 0.020744609 -0.007693778 -0.023126207 0.008198755 0.01763247 0.022517161
коллекцию -0.039900396 0.029710356 0.04130048 0.0010099215 -0.022561094 -0.0012076731 -0.020599764 -0.033057913 -0.034577046 -0.038730066
плейлист 0.030181855 -0.019046836 -0.028008783 -0.029734103 -0.022505695 -0.0021695406 -0.04310025 -0.045292497 -0.04888832 0.0026693316
музыкой 0.018486783 -0.014565818 0.029574165 0.004101039 -0.015455292 0.012013187 -0.012976813 0.03154483 0.02819261 -0.016430296
влажности -0.026534002 0.049410645 -0.010916333 -0.010207123 -0.04958659 0.010410414 0.037891023 0.007935515 0.009677903 -0.036431592
увлажнитель -0.0031740612 -0.006107482 5.3781238e-05 0.026181707 -0.022106422 -0.023602955 -0.017120505 -0.049827274 -0.008771886 0.033655707
кофемашину 0.018792363 -0.026141508 -0.044314798 -0.04441521 0.048878644 -0.018125383 0.049245015 -0.0077140476 -0.032987446 0.04715947
минуты -0.046384566 0.03608989 -0.048175897 -0.040627863 0.014256505 0.010043466 -0.011558832 -0.0145314615 -0.02765366 -0.04371977
будильника -0.049573556 -0.006931203 -0.013545533 -0.034508046 -0.0029324081 -0.0016483624 -0.022586621 -0.031511273 0.04981044 -0.014907178
осмотри -0.030927798 -0.01725305 -0.024721785 -0.023505285 -0.01526121 -0.034630526 -0.01205345 0.018494407 -0.0068661016 0.007963894
убери -0.016976235 0.0071735103 -0.044089474 0.030426456 0.017500822 -0.04511505 -0.04726468 0.0056020753 0.021415975 -0.013498684
дорожек 0.016404005 0.03224182 0.019366177 0.0153385755 -0.013438671 0.038485803 0.006446254 -0.029565351 0.044257227 -0.022512494
пульт 0.0060852347 -0.03380181 0.044948205 -0.033435237 -0.044902492 0.0007660042 -0.026991874 -0.007840017 -0.002663275 -0.019062908
телевизора 0.034482744 0.013882284 0.0353756 0.015734464 -0.02546135 0.029027432 0.008716561 0.022578312 0.049423132 0.0054391953
датчик 0.026246866 0.03680661 0.013723018 -0.021134403 -0.012489688 -0.04789366 0.0124269845 -0.0070170728 0.039249524 0.025900155
двери -0.042030632 0.0071961037 -0.03292384 -0.019929944 0.016127096 0.037687007 -0.026754005 -0.041515846 0.022717481 -0.026973244
отправить -0.049703393 -0.02073899 -0.026755795 -0.042333458 0.012793358 -0.038690705 -0.01993275 -0.00012299165 -0.017167106 -0.008334463
зафиксировано -0.013201363 -0.0023859243 0.040406033 -0.036216922 -0.046259113 0.021246882 -0.03269473 0.0025024223 0.0016394487 -0.0028904804
приду -0.025091277 -0.01782824 0.049680017 0.008469118 0.046607383 0.033705514 0.033104178 0.019970566 0.03889798 -0.01447077
прошлом -0.048127886 0.046071153 0.025789352 0.019341335 -0.0062849424 0.02523378 -0.0077319317 0.045809012 0.020214254 -0.032089237
воздуха -0.032804504 0.032803565 -0.015003838 0.007121653 0.008793259 0.034974214 0.022180483 0.032347117 -0.010308377 0.050161213
ниже -0.008953367 0.03523454 0.04855909 0.03320618 -0.04289064 0.037326626 0.020582383 -0.015350473 0.049581364 0.048534863
льда -0.049475934 0.028382337 -0.0065557538 0.030986803 0.0070899995 0.05011669 0.02280141 -0.027097797 0.0070886225 0.036428753
предупреди 0.04779467 -0.007119274 0.011990936 0.01828056 0.022624549 0.021398976 -0.04690243 0.043738957 0.011979635 0.018417984
автомобиль 0.007729234 -0.024367278 -0.026739921 -0.046535578 0.022746116 0.0050139087 -0.039042845 0.031006964 0.0004645628 0.045961484
сзади 0.044513658 0.03654814 0.02719116 -0.012662391 0.044048265 0.017054776 -0.006536891 -0.008122487 0.020602645 0.003830414
помещение 0.03765526 -0.038406905 -0.011814212 -0.017590357 0.04479425 -0.040085763 -0.019319547 0.014223455 -0.0154000055 -0.008884923
выхожу 0.0023018722 0.02023304 0.034743838 0.032489657 0.04737263 0.040480286 0.00775204 0.015217498 0.016044274 -0.017568147
комнаты -0.018055473 0.049060278 0.034469504 0.037913643 0.044868387 0.029995976 0.022693407 0.006911132 0.036390133 0.035806116
песни -0.013191504 -0.014736768 0.008966309 0.0067258235 -0.003218881 0.004789073 0.0103069935 -0.047256023 -0.02481839 0.019569837
освети 0.0048200605 -0.036864173 0.014305622 -0.020018192 -0.02827502 -0.008528349 -0.038288496 -0.02969585 0.021723978 0.009143775
местность -0.019356523 -0.011729681 -0.0013259149 0.011990782 -0.008336756 0.0017724434 -0.020021692 0.009602846 0.033986848 0.009132966
экран 0.031569086 -0.034406446 0.0042160954 -0.017270777 0.0046918024 -0.036284015 -0.046769705 0.0144286975 0.037500728 0.018179795
рабочий -0.030106027 -0.013173672 0.03066006 -0.042903867 -0.026638456 0.045592103 -0.02979684 0.0065817176 0.007894682 -0.030717209
просыпаюсь 0.032967217 -0.01227187 -0.015098474 0.02915048 -0.0033503112 -0.005648503 0.005824724 0.046015695 -0.023412762 0.00077195244
пункта -0.016273456 0.007850358 0.036589343 -0.04525402 0.049035996 -0.016977536 0.013549594 -0.030514624 0.015261547 -0.049127087
входная 0.012542147 0.024607755 -0.03353068 -0.03523319 0.0023316338 0.018831227 0.04364994 0.03386864 0.008195861 0.045592893
пол -0.028230784 -0.048500452 0.049653668 0.027594797 0.045629397 0.041256674 -0.015934404 0.020082004 -0.007780749 -0.011994539
лампочки -0.0051286137 0.021187922 -0.03932164 -0.030774454 0.014496967 -0.0010157871 -0.0046908795 0.030572224 0.0035031284 0.03849007
включены -0.015753327 0.03612553 -0.036557797 -0.040864564 0.017386561 -0.016350787 -0.04756883 -0.04630129 -0.034330934 0.01931155
доехать 0.049791005 0.044529673 0.033391364 0.044053797 -0.033648096 0.024148287 -0.035592757 0.009840558 -0.039524473 0.021763522
поликлиники 0.015843414 -0.026798245 0.015368265 -0.02648148 -0.037509836 0.045282446 0.02496765 -0.026220059 -0.021377202 -0.049505904
взять 0.039511785 -0.024327666 -0.042180095 0.01055951 0.020330064 0.0104770325 0.010794001 -0.02771501 -0.024573192 0.029622553
зонт 0.010020933 -0.0053979466 -0.03886667 0.002921429 -0.03234107 0.00017921078 -0.047433734 -0.017297149 0.002816602 -0.032841124
взято 0.02934413 -0.0075191585 -0.018585643 0.0033828227 -0.020077072 0.0018211548 0.011647466 0.009507088 -0.00247679 -0.017808508
билет 0.0025201966 -0.003144395 0.038533513 -0.009248985 -0.020012936 -0.039773382 0.023607327 -0.025268812 -0.0088650575 0.0113610085
показания 0.0046865777 0.049111478 0.0076858727 0.046453048 -0.029447079 -0.0043973075 0.03141521 -0.016441042 -0.024723416 -0.049877778
счетчиков -0.047093008 -0.029150987 0.01589741 0.023375085 0.014495673 -0.0050087734 0.003299226 0.02260314 -0.009820769 -0.049141545
готова 0.0046617244 0.011452072 0.039994545 0.03782826 -0.03127127 -0.037375085 -0.030964574 -0.04005032 -0.048895866 -0.045372188
проветрить 0.04463666 0.019173596 -0.016388085 0.02387161 -0.030550025 -0.03527768 -0.0071502985 -0.0026400776 0.034334857 -0.014596772
чайник -0.010137834 -0.00586634 -0.038358103 -0.013261775 0.032389544 -0.012218525 0.0023722197 0.04557972 -0.048319433 -0.015670193
полей -0.049315188 0.02568157 0.044057604 0.033619966 -0.006380269 -0.03570476 0.044428576 0.010974596 -0.036743924 0.039026327
наполни 0.02647657 0.0352826 0.02414358 -0.03884107 -0.003909086 -0.0029687919 0.03352817 -0.018931974 0.019048275 0.0059189405
горячую -0.008867571 -0.018128637 -0.0024026148 0.010669347 -0.009872548 0.017249428 -0.013138752 -0.022241376 0.011224886 0.019170929
будильник 0.018479355 -0.045395646 -0.042845525 0.036511615 0.010851122 -0.0029508995 -0.047875028 0.022321261 -0.03725543 -0.043395795
шум 0.036700733 0.004252993 0.04175901 0.029009653 -0.013071624 0.041629124 0.019666696 -0.0048336578 -0.002155043 0.04601552
дождя -0.001270332 -0.024964768 -0.0033494385 0.0030186947 0.016367532 0.022047326 0.045146145 -0.010511584 -0.015579513 -0.018840816
достаточно -0.048911005 0.031654343 -0.018159568 -0.04901896 -0.0064523276 0.027573917 0.005467717 0.043954264 -0.029139746 -0.035836194
исправность -0.014076905 0.026306834 -0.0011319232 -0.008610317 0.02827758 0.046001483 0.021768365 0.032786194 -0.040774353 0.0026491627
всё 0.002842529 0.027998326 -0.02572794 -0.01691867 0.00043508917 0.010166127 0.0028247053 -0.017816866 0.015657129 0.0072114808
включен 0.019059109 -0.009462626 0.036647428 -0.047081612 0.003762984 0.040741526 0.03163295 -0.030366614 0.015588419 -0.0262706
выпадет -0.017641284 -0.033894416 -0.04586505 -0.014392394 0.037556395 0.02778552 0.023929529 0.0043357867 0.04388399 -0.0120932795
душно 0.011099475 -0.031096596 0.016452337 0.013481534 -0.02098752 -0.04573722 0.028336596 0.036639098 0.026248952 -0.04962139
тише 0.046485603 -0.01883348 0.0012853468 -0.02257976 -0.023535734 -0.024104392 0.009620541 0.0147729525 0.0443735 -0.022348098
году -0.033266746 -0.0009172584 0.046724968 0.0071441405 -0.020068597 -0.042879514 -0.013308078 -0.027809689 0.044012915 0.017787615
заплатил -0.036753926 0.027210379 0.03509995 -0.0019526592 -0.03444409 -0.0131314965 0.01884942 -0.0007963099 0.015255474 -0.032276735
дорожку -0.009870698 0.047078 -0.0060508763 -0.049382787 0.040031277 0.049392905 0.0018149088 -0.04568456 0.010308448 -0.00883014
домом -0.017930808 0.031738322 -0.04089719 0.017585384 0.046832096 0.0008025253 -0.029859815 0.033158615 -0.00076486357 0.020050716
разбуди -0.035600815 -0.008816042 -0.017636433 0.034550317 -0.030479684 0.017994389 -0.047749355 0.030560872 -0.03578433 0.0055093914
имитируй -0.037656873 -0.02873846 0.025633335 -0.04849875 0.02534693 -0.009703593 0.031461317 0.04746437 -0.03807815 -0.006977527
освещение -0.033841062 0.012389576 -0.024357328 0.022569234 -0.031513218 0.031076416 0.02806008 -0.013498725 -0.011283791 -0.040920705
потребляют 0.0039660684 -0.004546424 0.021912003 -0.036613055 0.004246181 -0.029475925 0.0057604564 0.014785036 -0.014434298 0.020735782
вода 0.0042596087 0.007579642 -0.00435461 0.012027764 -0.002362253 -0.017401988 -0.0063852603 0.04770029 0.035916664 -0.040976524
осматривай 0.023791833 -0.049957156 -0.034240853 0.00738888 0.00073274935 0.018351445 -0.026056273 0.0139006125 0.00038580265 -0.02787542
показывай -0.013618728 -0.029295327 0.022561762 0.035014365 -0.018567262 -0.023042245 0.04281358 0.008775247 0.032484945 -0.04809787
видео -0.019516047 -0.023480762 0.006552468 -0.017430468 0.0025784462 -0.0009502034 0.04124241 -0.03577942 -0.032741155 0.048465155
пса 0.04708784 0.017901774 0.009189365 0.02546825 -0.02137185 -0.016350495 -0.044934772 0.0016575864 -0.03989949 0.026817903
лампочек 0.03399999 -0.02675567 -0.03292587 -0.0498451 0.041669402 0.015063958 -0.041520897 -0.012202579 0.04418841 -0.03415039
отключай 0.04836698 -0.03538965 -0.0048360405 0.046859134 0.01889314 -0.008086359 -0.033970784 -0.012675107 0.0006541809 0.009417007
слушал 0.024811976 -0.028550973 -0.0415001 -0.039034624 -0.0143105695 -0.042640477 0.035927337 -0.04179403 -0.013032575 -0.0029179587
гостинной -0.015331344 -0.0033315807 -0.013930461 0.0031634113 0.0020064567 -0.046983805 -0.029332891 0.019005356 -0.04362465 0.025560904
закрыть 0.00091666565 0.022194697 0.023755 0.0062956763 -0.03232527 -0.037998036 -0.02281106 0.029145092 0.041424103 -0.001624857
начался 0.000858668 0.036503688 0.02874744 0.027583105 -0.031615477 -0.0034124274 -0.0058626267 -0.011887148 -0.012648859 -0.026846202
газа 0.01862215 0.01793839 -0.02815736 -0.013976316 0.00858303 -0.0010118998 -0.03934972 -0.0153673 -0.00843218 -0.01645725
выше 0.049512077 0.001108378 0.03930827 0.0277244 0.03264747 -0.0057760226 -0.01627401 -0.03889568 -0.018494405 -0.0410865
часто -0.01757634 -0.0051471977 -0.029485961 0.012708239 -0.00965918 0.039721802 0.02784724 0.026757983 0.036188252 -0.04603476
осмотр -0.018855728 0.025707977 -0.03276721 0.022017857 0.01969837 0.015448363 -0.01269875 -0.03711909 0.018928925 0.030130044
недели 0.049063604 0.0034096753 0.034466248 -0.02473509 -0.004663415 -0.01629313 -0.003974447 0.02506337 0.02211411 0.020626806
немного 0.03727867 -0.03151713 0.035487983 -0.04765302 -0.029523024 -0.049248856 -0.048261754 -0.028699256 0.03482051 -0.020103103
телевизор 0.0377381 0.04691504 -0.030438766 -0.043089062 -0.02505364 -0.048994523 -0.007752947 0.012517113 -0.020749213 -0.045589663
каждое 0.0017762335 -0.015796663 -0.03621675 -0.015258852 0.022932705 0.0047986745 0.046202496 0.011745699 -0.009571937 -0.025833042
четное 0.049332403 -0.019762209 0.0387623 -0.016403133 -0.02461095 0.0149791865 -0.020098833 0.01701917 -0.028998708 -0.0027865502
месяца -0.043735404 -0.032240216 0.020660197 -0.008321429 -0.031500038 0.04854154 0.01756114 0.032515727 0.030992629 -0.0007606811
морозилке -0.03633849 0.01610292 0.025105368 -3.5561396e-05 -0.0048655355 0.023688814 0.026929796 0.0150931375 0.03518748 -0.021167457
лети -0.02392425 -0.0029816723 0.014835902 0.029828373 0.024324367 -0.031873327 -0.034603085 -0.04077802 -0.043156378 0.045480736
мной -0.026393 -0.046753578 -0.009338236 0.022132777 -0.02160236 -0.01301823 -0.031354785 0.033365212 0.026614541 -0.024200838
подсвети -0.029876668 0.01379071 -0.021202601 0.028772727 -0.036666375 -0.007076936 0.006611557 -0.03071488 -0.038023952 0.037216637
путь -0.018288586 0.022864074 -0.016235206 -0.027721554 -0.036325123 -0.0039580613 0.040552508 -0.0411114 0.028973961 -0.045545384
активировать 0.031514622 0.049894687 0.04273136 0.042977266 0.031488635 0.008356973 0.035140265 0.04436922 0.009837424 -0.045661803
устройства 0.04659965 0.01621239 0.047990285 -0.010383712 -0.045091413 0.0031787816 -0.03962453 0.0133643495 0.024342619 -0.019311957
данный 0.046369445 0.04308293 0.018512262 -0.012168304 -0.0072586103 -0.027053013 0.0012138063 0.032437067 -0.037564397 0.033195652
количество 0.05041803 0.0012406061 0.02947544 -0.030342204 0.021760449 0.042319845 0.004602201 0.026246166 0.023674954 0.0488
дня -0.044736262 0.0076936316 0.03974867 0.0069866776 0.0065140217 -0.006189588 -0.028848486 -0.040818904 -0.017513502 -0.027300071
чтото -0.036885478 -0.00020921041 -0.0032560052 -0.046928514 -0.031827446 0.031961985 -0.04407068 0.043407198 0.04015962 -0.0055986904
расчищай 0.030082528 -0.040309373 0.004189362 -0.0366147 0.04587445 -0.048627388 -0.021506237 0.015599122 0.004501161 0.03920039
закончится -0.011582837 0.041068543 0.03164281 -0.04335576 -0.019726252 0.030822223 -0.03468754 -0.020582806 -0.0037509012 -0.024209155
зарядную 0.036121402 -0.011041805 -0.012355636 0.005753519 -0.04024265 -0.015809026 -0.0014259081 0.0012035591 -0.008017993 -0.018729787
станцию 0.048931073 0.0424421 -0.037207533 -0.012614057 -0.021628229 -0.002679776 0.009986823 -0.046359044 -0.024774004 0.018773513
мешал -0.013796047 0.015245716 -0.010384424 -0.005131057 0.036043532 -0.023183448 0.017303817 -0.0018896492 -0.007903319 0.013711751
помой -0.006329285 -0.013633046 0.011637666 -0.03601418 -0.02423859 -0.024814399 -0.036774755 0.022522878 -0.036493227 0.016635012
электроэнергии -0.03820409 0.020800298 0.020397296 -0.034502655 0.009028138 0.044521898 -0.036470905 -0.046987053 -0.047017492 0.027356248
начни 0.033534154 -0.04019909 -0.026893687 0.009357375 0.017376998 0.025782598 0.012794589 -0.04101569 -0.009960187 0.04061641
уборку 0.045410026 -0.034485504 -0.047093596 -0.009218051 -0.045452688 -0.02046281 0.009879403 0.041365437 0.048167843 0.03398928
открыты 0.049279746 0.031628072 0.042514633 -0.024869842 -0.04416613 -0.0011668743 -0.0060231085 -0.003611657 0.02004937 0.030771855
подготовь -0.017996483 0.014072718 -0.04089156 0.030085191 0.006702164 0.048723042 0.049001668 -0.010129022 0.01955641 -0.039748702
танцам 0.04212117 -0.044768292 0.015291996 0.04277408 -0.0026058152 0.037891258 0.042006835 -0.036973838 -0.018135555 -0.00424301
статистику 0.024637617 -0.030400071 0.020452159 -0.0074717794 -0.04087669 0.023212047 0.001178717 0.004588041 0.011823685 -0.017393397
прослушиваний -0.000663606 -0.014764452 -0.007207381 0.0105893025 0.024785755 -0.0036866518 0.02535593 0.0061422493 0.026393846 0.015736861
покажи 0.03380307 -0.02071051 -0.042007994 -0.008677268 -0.049248345 0.025649456 -0.024290623 -0.0072554974 0.023950407 -0.0060974564
средний -0.00027861926 -0.002495731 -0.035759952 0.008007709 -0.003734695 -0.023603162 -0.046104476 -0.04585035 -0.039110262 0.013509666
расход -0.045035426 0.04729308 0.041478273 -0.037980746 -0.042076986 0.03313346 -0.034969665 -0.007249588 -0.045229584 0.031413224
бензина 0.030292578 0.005420831 -0.020096488 -0.021935206 -0.012967416 -0.008874377 0.031767912 -0.029300533 -0.010381181 0.013392227
зависимости -0.03462584 0.019479359 -0.006199637 -0.010741462 0.012081463 0.040369164 -0.026898464 -0.006185673 -0.04963574 -0.020510497
заправки 0.021975415 -0.04223573 -0.039484046 0.048903864 -0.022776106 -0.02065311 0.008551081 0.019683797 0.017884308 0.038005542
последние -0.020062016 0.028126683 0.033420645 -0.025028706 -0.027573379 0.04698017 0.03528054 0.0032075518 0.029168673 -0.020085068
полгода -0.015525853 -0.03493223 -0.032400575 -0.01024264 -0.009715907 0.0062235957 0.007467146 -0.020418255 0.04442852 -0.0030970676
делай -0.030842189 -0.032460913 0.008097868 0.049227517 -0.028932448 0.038842324 0.026133295 -0.009901704 -0.030038668 -0.048129965
пола 0.042461265 -0.028545925 -0.027319672 0.038841814 0.024864664 -0.009349538 -0.03714444 0.042537093 -0.017754331 -0.0015358289
сервер 0.009073335 0.0060655903 -0.028502963 -0.04789354 0.021489028 -0.046146616 0.030139947 0.014826638 0.029007366 0.03559226
доложи 0.04927763 0.019984929 -0.022802185 0.014320449 -0.0012258497 -0.0003792208 0.012664507 0.023579214 -0.04462315 0.021915842
комнатах -0.030066254 0.0077000316 0.010334394 0.029272595 -0.04652801 -0.009246985 0.009085797 -0.007961263 -0.04992543 0.00908858
никого -0.0038446926 0.04148928 0.01736062 -0.04848702 0.035722937 0.010056271 0.014435974 0.035590976 0.037312288 -0.02029765
просмотру -0.0015291832 0.044119846 -0.011060166 0.044600397 -0.008917354 -0.010041168 0.032845277 -0.020089246 -0.026931988 0.040931117
фильма -0.044415228 -0.032201514 0.04481038 0.038792647 -0.026005737 0.049024336 -0.046629824 0.02453686 -0.03864189 -0.016029235
поддерживай 0.0143176485 -0.03789472 0.019239185 0.016833419 0.032551564 -0.036191598 0.040767286 0.03655993 -0.014179828 0.03486109
подогрей 0.04690794 0.030333757 -0.047013164 -0.031317983 0.039449673 -0.0055766525 -0.03135927 0.029772783 0.024409031 -0.008674821
ест -0.043262135 -0.042402014 0.04731134 0.014016139 0.009595563 -0.017923951 0.032350782 0.04027342 0.023104586 -0.03058974
потребляй 0.008755749 0.050354216 -0.010077045 -0.03818408 -0.00027491 0.023426175 0.023558076 -0.013727159 0.02440295 -0.049786154
отправь 0.014164386 -0.04513978 0.028155291 -0.014933015 0.0036641634 -0.047119938 -0.03929996 0.040314727 -0.047889393 0.031749193
четвергам 0.031557705 -0.0010923799 0.005834063 0.0020619107 0.012767132 -0.044414174 0.03592789 -0.04003362 -0.024540298 -0.048451785
уровне 0.047938377 0.04348038 -0.0116841225 -0.033779144 0.024139937 -0.004501755 0.042530257 0.031208644 -0.02128535 0.025855023
пропылесось 0.0431277 0.04741043 0.014605779 -0.027586017 0.041514423 0.03524825 0.004971543 -0.0035688374 0.020677537 -0.003250263
километров 0.024328746 0.0041890023 -0.00039148354 -0.04119152 0.018373543 -0.011503866 -0.0151495095 0.034981653 -0.010462173 -0.0331983
еду -0.021717424 -0.01153022 -0.02432524 0.023824215 0.033806175 -0.0047330004 0.0041715866 -0.042746793 -0.03344944 -0.009777434
микроволновке -0.027838418 0.0045035495 -0.037340544 -0.035597604 -0.037022218 -0.037595887 -0.040833227 -0.04628358 0.010037442 0.0008068965
газон 0.0073140715 0.043985143 0.046079896 0.015515978 0.025560025 -0.035442393 0.038027797 -0.016332023 -0.030395554 -0.0022666561
ягоды -0.008691659 0.018061887 0.03346171 0.027146732 0.039831486 0.03771296 -0.03178826 0.011938152 -0.010974714 0.017446805
огурцы 0.021758981 0.048138514 0.049709722 -0.016068734 -0.04254135 0.005380729 0.008161698 0.014695029 -0.019229734 0.043689948
вернись 0.02617888 0.021670632 -0.020140456 -0.0015799142 -0.026559185 -0.02814675 0.021373095 -0.036996007 0.04722753 0.045882173
требует -0.042891487 -0.014967577 -0.039307427 -0.008473194 -0.04000481 -0.031579573 0.007662658 -0.021596834 0.020221692 0.04726844
выйду -0.011528046 -0.032282636 0.034417503 0.017241472 0.040292714 -0.018909104 -0.04480349 0.025628535 0.028712576 -0.017714152
ухожу -0.02129978 -0.04821863 -0.03432788 -0.0016952996 -0.012717567 -0.04043278 0.016030272 -0.001872506 0.018620692 -0.038272552
подачу 0.024254458 -0.037054304 0.03568286 -0.04311123 -0.027507104 -0.043444164 0.012379987 0.03727371 0.033168416 -0.008167382
альбом -0.024420524 -0.03930098 0.043142643 -0.012704724 -0.011126642 -0.03685896 0.03401751 0.01614946 -0.027886566 -0.025493717
потрачено 0.035289492 -0.0249376 0.049024243 0.015648639 -0.008559106 0.025588294 -0.038807396 -0.00036952103 -0.047953155 -0.04073119
тост 0.021517683 0.04930383 0.0086249765 0.0033008312 -0.047465827 -0.034687143 0.005682972 0.0016728657 -0.028248083 -0.018555257
рассвет -0.04756348 0.010443921 -0.047531858 -0.014696464 -0.03717234 -0.027607175 0.043661598 -0.03264031 0.008954165 0.03648586
давно 0.037560623 -0.014729343 0.012777016 -0.04193046 -0.0065930053 -0.031859122 -0.04842671 0.020439086 0.0020965724 0.0034757552
покупать 0.012557611 -0.019901715 0.030196955 0.019254709 -0.011689549 -0.01419374 0.040514965 -0.02503209 -0.019196058 0.030604722
продукты -0.022769801 -0.031953607 -0.017846141 -0.046360116 -0.046275795 0.006552145 -0.017430745 0.039993852 0.012899028 -0.010189128
успокаивающую -0.025682364 -0.04552698 0.007923989 0.038315486 0.029168608 0.03821438 -0.02864074 -0.043857735 -0.024838388 0.04771514
сильнее 0.031513248 0.026225364 0.006558959 0.0007415848 -0.0036505417 -0.010356641 0.027604975 -0.047821864 0.04026427 -0.010544222
ставь -0.035538975 0.016483752 0.021108339 0.047187537 -0.0074243336 -0.038272686 0.026482258 0.031000452 -0.00025512336 0.011545525
теплее -0.044249624 0.03306121 0.033756945 0.02146109 -0.011300468 -0.030144794 0.0434299 -0.015473786 0.03513092 -0.03020512
стирал 0.014981544 -0.046506353 0.0019199967 -0.008508457 -0.049869794 0.029477166 -0.0482275 0.00012022612 -0.025977978 -0.033749845
зайду 0.045535702 -0.024600448 0.016959785 -0.048364818 0.008432787 -0.0039953054 -0.0022850945 -0.02142773 -0.026907569 -0.01438491
спальню 0.019777307 0.039622232 -0.03647766 0.0013576429 0.01516189 -0.040743947 -0.03711738 -0.04626423 0.0067136856 -0.019128077
прочитай -0.04770942 -0.019145088 -0.018371636 0.00894018 -0.046659682 0.0013298342 0.012586712 0.03211135 -0.034894418 0.027942294
овощи 0.017772082 -0.02288262 0.019087024 0.043512933 0.010133059 -0.0012911961 -0.032927234 -0.021371178 -0.0006725788 0.031063994
передачу 0.047866683 -0.03611808 0.028684175 0.03363069 -0.022022204 0.022283515 0.0034505466 0.028524658 0.035566106 0.011639201
заполнен 0.035797425 0.0040223994 0.005640286 -0.01374296 -0.047350965 0.00028787542 0.032035887 0.0026764502 0.0035083597 -0.025088789
мусорный -0.037041485 -0.023292588 -0.028470797 0.039291732 -0.039680857 0.0029630307 0.034493018 0.009161373 0.00613117 0.0005843467
отсек -0.006618937 0.00444419 -0.02925963 0.005293864 0.04482054 -0.046437528 -0.030103743 0.047507454 -0.02019616 0.015685275
кофемашина -0.029201886 -0.048064113 -0.017093057 0.036347587 -0.018751448 -0.036927912 0.016717926 0.016481746 -0.007790773 -0.023796106
танцевальной -0.024811866 0.016984237 0.033354383 0.021983694 -0.008287508 0.046020575 0.03908178 0.007788019 0.026332341 0.03223686
уровень -0.025654746 0.043007627 0.013925146 0.024561806 0.024490273 0.04213409 0.03997626 -0.005049418 0.004438174 0.002094062
следующее -0.031218456 0.044894658 -0.04937547 -0.046653274 0.012230838 0.009485714 0.014728783 0.031792186 0.002530684 -0.02157543
мусор -0.013582141 -0.022032583 -0.049953237 0.004931489 -0.026629508 0.018212551 0.005426037 0.04798018 0.016922355 -0.03555535
напечатай 0.025093092 -0.037861034 0.013610869 -0.0045188335 0.041617062 0.0062441276 0.014334655 -0.04107041 -0.015738629 0.012347438
свежий 0.0040492164 0.0419346 0.013104882 0.012320015 0.04978909 -0.04911009 0.012936695 -0.041596387 0.01920478 0.028349178
выпуск -0.0009830446 -0.004752935 0.022533907 0.043986835 0.014211288 -0.030787593 0.03140349 -0.009560012 -0.0057672383 0.02262673
новостей -0.036008883 0.03439888 -0.019160664 -0.026997836 -0.020047091 -0.009774578 -0.022081446 0.022770695 0.022086564 0.0019669195
прибавь 0.019721564 -0.013200804 0.013417244 -0.038283557 -0.030553643 -0.0049211886 -0.010486187 -0.009286385 -0.008226695 0.007909212
яркости -0.02574206 0.037680555 -0.048090026 0.024185065 0.046311602 0.027404757 0.047552183 0.015820704 0.047447544 0.019221898
панорамный 0.02949547 0.034199767 0.033674166 -0.049682695 -0.041037712 -0.04158005 0.020711586 0.032534406 -0.009403383 -0.042406607
снимок -0.018909156 0.024544168 0.0053948592 -0.005419598 0.04338533 0.02930478 0.037355937 0.041341193 0.02532553 0.0073630973
летай 0.0015540929 -0.036086746 0.011557413 -0.0051848064 -0.005876508 -0.017952383 -0.01765745 -0.044356376 -0.018928843 0.0038096928
местностью -0.02707501 0.010884665 0.015950514 -0.013005493 -0.021872692 -0.032601003 0.01314944 0.027138425 -0.028876904 0.006540629
сработает -0.008679345 0.025933614 0.013037606 -0.0124334935 0.033897303 -0.04304441 -0.0153879775 0.03661593 -0.011218196 -0.035585582
дыма 0.0016670155 -0.004300289 -0.019949753 -0.040958643 0.0010829726 0.026368553 -0.010594612 0.020465411 -0.033642728 -0.0016159308
позвони -0.037363585 -0.03283215 0.0022791936 -0.0275903 0.015300708 -0.011048509 -0.005528945 0.008273672 0.013680964 0.0435364
мастеру 0.017509662 0.030059911 -0.024829209 -0.009651774 0.02188298 0.03250714 0.030405771 -0.019709822 0.028377451 -0.020781854
заблокируй 0.04998599 -0.046040285 -0.007584258 -0.046687655 -0.039946493 0.018793628 -0.005800433 -0.011406218 -0.019399326 0.04222189
вход 0.04405039 0.043632008 0.009842756 -0.03326205 0.005804767 0.012297154 0.045165036 -0.047320172 -0.04773352 0.025837816
движение 0.010651407 0.015192125 0.03573868 -0.030795252 -0.014646476 0.0009948204 0.02938809 -0.008478563 0.02153798 0.04667988
период 0.0038613614 -0.005046077 0.008034717 0.007928902 -0.019809978 -0.02869109 -0.026548428 0.02744739 -0.019361753 0.009888796
будни 0.03717787 0.031298246 0.016893383 -0.0056266296 -0.02726258 -0.03529303 -0.011695763 0.046832845 -0.026095973 -0.024640586
погаси 0.028612744 -0.031571228 -0.02344495 -0.015530791 -0.035796456 -0.047808833 0.00035887727 -0.01903662 -0.027565137 -0.035878092
основной 0.04280426 -0.0074186204 -0.046311114 -0.014224077 -0.04504364 0.0375179 -0.02692148 0.014180356 -0.024051445 -0.018918447
каждую 0.029908193 0.046017 -0.010672255 0.046427753 -0.03565867 -0.037669506 -0.047535274 0.04270122 -0.011992004 0.037437614
заплатить 0.0032731588 0.029966716 0.03665652 -0.039153676 0.013700762 0.0028244185 -0.021241454 -0.033105154 0.044679467 -0.004291966
киловат -0.03374399 0.01853683 0.044998594 -0.017124176 0.034216836 0.005469472 -0.0066583054 -0.026688904 -0.0220715 -0.024181077
помоему 0.0027920553 0.01692474 0.042981114 0.047972467 0.007521899 -0.044390842 0.012498325 0.019101411 0.018068824 -0.027681697
определяется -0.014704023 -0.01796248 0.03386341 0.018052995 -0.0033953157 0.048673876 -0.0021578015 0.046520937 -0.032451566 0.039126743
неверно 0.02606082 -0.020115476 0.040895894 0.044918954 -0.0010248186 -0.028685326 -0.016570598 -0.00823791 0.04667648 -0.038049664
рыбок -0.009682759 0.050021224 -0.035908695 0.026815657 -0.0076612392 0.0010762224 0.0070150397 0.01144023 0.02426886 0.04150421
испорченного 0.019927736 -0.037291378 -0.019072508 0.030463522 0.044068534 -0.02271953 -0.00864651 -0.0017909158 0.042158812 -0.007479797
очень 0.014307474 0.029846597 -0.037464634 -0.038856413 -0.033992343 -0.032292083 -0.039455034 -0.010762225 -0.047759894 0.013879701
близко -0.017257752 -0.01929693 -0.040848885 0.045547947 -0.032110605 0.036574498 0.03145323 -0.03861502 -0.008527229 -0.028689547
открывалась 0.01731391 -0.04992169 0.04367808 -0.032883223 0.025929105 -0.01733176 -0.027488535 -0.037071675 -0.0028439036 -0.004852834
избегая 0.029533774 0.027408727 0.038541604 -0.04585487 0.038460508 -0.02497128 -0.0477717 -0.014485213 0.00477666 -0.037184134
сквозняков 0.0054823724 -0.029804185 0.03724371 -0.030368846 -0.037513148 0.0382138 0.049029935 -0.031178426 0.017282637 0.035007272
подбирай 0.026011141 -0.029097738 -0.019542277 -0.02571828 -0.043799974 0.010643848 0.0015802255 -0.046072237 -0.025684498 0.0065000933
ритм -0.0037446672 -0.036910463 0.04422132 0.03771717 -0.008275968 0.040913913 0.043855265 -0.046169475 -0.03586245 -0.035153937
бега 0.01163355 -0.018782016 0.027450481 0.040217265 -0.049274717 -0.045905508 -0.026722742 0.01288982 0.048755333 0.048563745
дым -0.04297891 -0.0139599275 0.046856735 -0.0038595316 -0.025365148 0.03704957 0.0477829 -0.044840846 0.03335857 -0.0011071968
кормила 0.044760976 -0.029804612 -0.035365745 -0.036530647 0.03177731 -0.041939102 -0.01873619 -0.049794666 0.005746842 -0.023477752
найди -0.02523237 -0.022323368 -0.0049465867 0.014636701 0.04740034 -0.031852532 0.009079884 -0.034432754 -0.0004694628 0.024951879
клип 0.020144152 0.03941439 -0.006860423 -0.030319955 -0.047087952 0.032379653 0.023818357 0.033951815 -0.029827252 -0.022725873
песне 0.021260016 0.04118056 -0.032629803 -0.009862962 0.016459635 0.023273725 -0.023902012 0.012187156 -0.043726508 -0.03512903
телефоне 0.00017802345 0.009208479 0.027129116 -0.0059091356 0.00409214 -0.04349284 -0.003149609 -0.013231825 0.01342975 -0.0057187527
солнечный -0.017582368 -0.009692588 -0.011949871 -0.020625954 -0.034039892 -0.0046168016 0.004539864 -0.011154912 0.0014518764 -0.046006482
попадает 0.0313099 -0.0411771 -0.022049539 -0.02503732 -0.022021344 0.042348567 -0.020688541 -0.033496205 0.007992792 -0.040045645
компьютера -0.0070500313 0.021760335 0.036332935 -0.022927864 -0.015693648 -0.02591704 -0.04724807 0.045550387 0.016516086 0.027494898
вари 0.028091773 0.03476939 0.047864772 0.0073381574 0.02407269 0.012045853 -0.035294306 -0.03898575 -0.03438678 -0.030496502
открывается -0.0032957152 0.027750868 -0.0068163113 0.016052295 -0.003835099 0.045673065 -0.0058167004 0.046624642 -0.0026362508 0.024343893
грей -0.0024234916 -0.019657915 -0.037509687 -0.015266638 -0.019062309 -0.0079415 0.0023869772 0.022629997 0.019026631 0.04315394
дворе 0.03688338 0.0023521557 -0.0047025667 0.019686976 0.0005185876 0.044735283 0.04369297 -0.020529153 -0.010505595 -0.046955414
приборы -0.03621739 -0.03041419 0.0070269727 -0.033320595 -0.025505537 -0.048574496 0.01661914 -0.040921822 -0.012045423 -0.020332947
отжим -0.005973519 0.0025382296 0.0129275825 -0.03189597 0.032187473 -0.010067602 -0.04410244 0.007537195 -0.049436167 -0.0069420133
напомнить 0.028348085 0.023017768 0.030448109 0.03398769 0.019001931 0.04246984 0.042620033 -0.015690733 0.015970983 -0.03783978
выходом -0.043352988 0.016651265 0.045503195 0.016033033 -0.015195409 -0.02170223 -0.037503127 0.030037355 -0.049116842 0.012113812
прислать -0.013975791 0.02731829 0.012758721 0.04230734 -0.049405705 -0.034371357 0.019674212 -0.023093725 0.02305418 -0.038089994
водителя 0.04395878 0.016269986 -0.01570042 -0.03574601 0.017885184 -0.04356181 -0.011010318 0.002059968 -0.0024882457 0.008413314
еда 0.020826103 -0.00042751446 -0.006021828 -0.025361653 -0.024198959 0.041983545 0.007367724 -0.033876944 0.027713599 -0.017789057
пароварке 0.014711077 -0.03054282 0.032896034 -0.038954876 0.014700198 0.047828358 0.020429041 0.046420235 -0.009224089 0.013432057
разрешай -0.02086647 0.02047495 -0.04882303 -0.015112221 0.004267817 0.03260912 0.03277145 0.0029602326 0.012205169 0.04552827
детям 0.045492373 -0.014871089 0.009171554 -0.014148028 -0.00047942012 0.043410607 -0.04912532 -0.04670903 0.015233199 -0.030029975
брать -0.042393528 0.018836964 -0.021765325 -0.040980075 -0.03534131 0.04949711 -0.011437988 0.036052927 0.0036956319 -0.0051408405
начинай -0.020800944 0.0024568897 -0.04281462 0.034894135 -0.023124395 0.018987337 -0.04412557 -0.010090291 0.01187788 0.0054757725
пылесосить -0.025053369 -0.026324574 0.007424641 0.044671327 0.02367386 0.02966944 0.035062205 0.033219844 -0.007386242 0.016783796
днём 0.008507757 0.028711833 0.036408037 0.014475351 0.016376143 0.04396673 0.04505816 0.046366557 -0.018761324 0.022681663
резервное 0.00539006 0.03895403 0.038880352 0.015023364 -0.011843363 -0.01633567 0.0122156255 -0.005284318 -0.021754308 -0.025880253
питание -0.046540536 0.033025514 -0.029069897 0.01734113 0.020826334 0.018062755 -0.042010933 -0.032048568 0.039608773 -0.03649934
протечки -0.04059155 -0.0040906654 -0.003206493 0.041322675 -0.010353098 -0.0055051944 0.010472682 -0.042984646 0.043684326 0.031445377
включена 0.022212492 -0.013791408 -0.0097742025 0.027925797 -0.020028012 0.018165426 0.023559868 0.04518194 -0.02356185 -0.039765947
посудомоечная -0.03802874 0.03331085 -0.001039017 -0.038480375 -0.020034185 -0.030798972 -0.0038746318 0.036399778 -0.00033614418 0.00752942
приходить 0.046923622 0.031525712 0.01850174 -0.009488297 -0.011585006 -0.026058134 0.036974587 -0.013926996 -0.0076954877 0.029147487
прихожей 0.039619323 -0.04103845 0.04730974 0.022208534 0.024868362 -0.026861433 -0.020998398 0.040953822 -0.008437258 0.0073513254
убирай 0.010301573 -0.0020640488 -0.014912307 -0.0013607609 -0.040959194 0.018023482 0.0014519542 0.03243022 0.040959567 -0.011514662
псом 0.0313335 -0.02986207 -0.048919726 0.022981275 0.010086946 -0.030809127 0.003454101 -0.031129895 -0.036001902 0.0037246912
сходит -0.04389579 -0.027610164 -0.0041213925 -0.016366836 -0.024992837 -0.031835783 0.014949902 0.036752444 -0.0136982445 -0.018290434
туалет 0.043024257 0.0061171637 0.017075717 0.0057713864 0.01389389 -0.01751974 -0.013516914 0.009047611 -0.035665404 -0.0009344925
качестве -0.04240959 0.022697747 -0.045717634 -0.018935489 -0.04966952 0.009153346 0.042961866 0.016733553 0.0008274391 0.045638286
мелодии 0.0064007705 -0.0076284697 0.022863695 0.038744662 0.027445925 0.009036859 0.042890213 -0.033713687 0.021155117 -0.0348571
используй -0.02027028 0.049413472 -0.04500029 0.03497123 0.017787062 -0.014934864 -0.008790348 -0.040610455 -0.023459898 0.021929983
постепенным -0.017437017 -0.0054096836 -0.0023202302 0.028100654 -0.0070070853 -0.008943881 0.04586156 -0.005017089 0.037578493 -0.012863777
увеличением -0.029467385 -0.032468725 0.023112118 0.021872504 -0.041915797 -0.035304133 -0.03568195 -0.017609904 0.029115045 -0.009955844
громкости 0.0035043338 0.03249064 -0.01698923 0.0061065117 -0.0075897137 0.047353156 0.036791615 -0.027397763 0.037523184 -0.04111521
течении -0.0021941983 -0.043599866 -0.04382178 0.00997241 0.021118335 0.023347411 0.01855442 -0.021037515 0.0015896842 0.036703058
получаса -0.014949779 0.012116586 -0.048950415 -0.009165548 -0.014773547 0.04551269 -0.038362127 0.004573443 -0.011636546 -0.015196786
датчиков -0.0072752167 -0.04127194 0.018119246 0.02215549 -0.029753271 -0.03462546 -0.005608863 -0.040546227 -0.0070695365 -0.038659893
устройств 0.03829444 0.003256107 -0.048234712 -0.026719535 0.026385231 -0.032537643 0.027458755 0.02534704 -0.0061917165 -0.03761231
переключи -0.00565147 0.03932406 -0.025819259 0.014916439 -0.020600412 -0.038704284 0.020973898 -0.019771887 -0.04588529 0.025923952
трек 0.027525699 0.031792585 -0.012365817 -0.00332605 -0.028358547 0.0024335568 0.025755428 -0.000677001 -0.006386288 0.033649314
отключить -0.016166182 0.009994942 -0.0024557265 -0.008078306 0.035734717 0.04528066 0.039149713 0.013374735 -0.04010207 -0.026463512
мясо -0.01776734 0.045668848 -0.040648077 0.025914272 -0.0067017665 0.03956097 -0.04700437 0.028120026 -0.032737955 -0.041411426
смогу -0.0033477477 0.033806704 -0.0081110215 0.003190475 0.0212874 0.017372752 0.047191832 0.027069604 -0.0057587833 0.020829674
ашана -0.017712235 0.007363627 -0.016939508 0.038836014 -0.039600175 -0.031429287 -0.04150651 -0.0036360465 -0.049710322 0.0027568478
слабый 0.0012142146 0.030096276 0.048448488 0.019644672 0.037554555 0.013660796 0.018883994 -0.019004367 0.04997292 0.036987737
секцию 0.049473096 0.026763113 -0.020035371 -0.024577111 -0.017190738 0.018901285 -0.022347432 -0.012792532 -0.007965007 0.04913264
пять 0.033299945 0.0441715 0.014810997 -0.0136985285 0.0018262262 -0.04404018 -0.030982709 -0.04653276 0.01569648 -0.020060487
проигрывай 0.03635538 0.008188063 -0.014552835 -0.0019445257 -0.016074942 -0.03748574 0.045700394 -0.032503624 0.026037853 0.025252424
случайном 0.024977757 0.016574312 -0.00155598 0.004909334 0.032882515 -0.018872 -0.015819276 0.039544348 -0.009711993 -0.025712185
порядке -0.0368782 -0.00068735034 -0.008516936 0.028726095 0.019003108 -0.0015723783 -0.008280839 0.010041625 -0.020551885 0.027843524
листья -0.00031877475 0.02852053 -0.002563056 -0.04507795 0.049017455 -0.021687375 0.0014385192 -0.0039872937 0.019262506 -0.04326639
обеду -0.017396213 -0.04603785 0.008568006 0.047622927 -0.03604993 0.016090218 -0.014975841 -0.04956329 0.009791797 0.021947203
сухо -0.02058447 0.019251496 0.02359974 0.004798997 0.01842716 0.0032729472 -0.027306806 -0.030632297 0.01985284 0.019935822
зазвонит 0.049784742 -0.026837494 -0.034775563 -0.047042195 -0.0143346125 0.0121906875 -0.008113967 0.041727234 0.042392224 -0.011368791
позвонят -0.009065628 0.036740948 -0.021792948 -0.015491685 -0.032972347 0.03586057 -0.045117885 0.0141962 0.038302787 -0.0383025
денег 0.0059682694 -0.021930654 0.014059175 0.0086454265 0.0021902774 -0.021175304 -0.008931932 0.043577798 -0.048417263 -0.0137191545
потратил 0.0142549155 0.024178145 0.042189267 -0.047217708 -0.0092020705 -0.040041175 -0.025158355 0.029683582 0.049596645 -0.031496935
коммунальные 0.01144655 -0.012070529 0.019463347 0.00035884924 -0.047442563 0.00926837 0.025885481 0.025116298 0.03368339 0.026323197
услуги -0.035902247 -0.005311898 0.029616045 -0.027960896 -0.039582137 -0.03904567 0.043961678 -0.04472032 0.012147063 -0.040083747
расчистить 0.04230235 0.029466916 -0.044585258 0.014553072 0.034186024 -0.0064455154 -0.03902057 0.005128122 -0.045987733 0.033872865
выходной -0.031003373 0.02719252 0.022948574 -0.013695306 0.032058377 -0.0009091085 0.032934695 0.011816777 -0.01720225 -0.0415601
выключения -0.041195624 -0.004050587 -0.0009363082 0.015121102 0.03528149 -0.04287697 0.038639203 0.03151904 -0.029571783 0.013635063
попугая -0.00031164254 -0.034684468 0.021093933 0.027715221 0.01197606 -0.02113402 0.046682734 0.009010746 0.0073885596 -0.0018695473
температуры -0.03993124 -0.028754268 0.00961688 0.049953092 0.039847415 -0.042035144 -0.044548094 0.025576249 -0.0015664797 -0.040745117
вышел -0.005551784 0.027036114 0.04611716 0.04435326 0.0006289029 -0.04119038 0.01415904 -0.033932168 -0.01091832 -0.0074298605
строя -0.0344236 -0.03845406 0.01263582 -0.036408164 -0.034236446 -0.029810293 0.02941453 0.03676733 -0.02336766 -0.030778155
повседневное -0.0089126155 -0.025638089 -0.011981308 0.04198988 0.021425974 0.028698402 -0.047583498 -0.010156331 0.016096694 0.017918494
лампы 0.046962973 0.03560978 -0.047089666 0.045936003 -0.026192252 -0.0018847077 0.04609229 -0.023205386 0.037495773 0.00243427
будням 0.039230354 -0.0068238513 0.04500941 0.045505013 0.008183745 -0.018559776 0.0069620404 -0.03498857 -0.03364136 0.042074878
буди -0.0087799905 -0.026700538 0.03182819 0.038556114 -0.018708749 0.045556847 -0.03757387 -0.049403254 -0.03868253 -0.00080217526
перекрыть 0.04106178 0.03431161 0.015567227 0.04198584 -0.029925233 0.045740124 -0.03727879 0.048212856 -0.007155199 0.013576274
водоснабжение 0.016332958 -0.045164775 -0.040679324 0.024768576 0.0015961042 0.044244442 0.007244252 -0.0029062808 0.048155777 0.041752577
полу 4.2044143e-05 -0.027255137 0.030629968 -0.0049341726 -0.036776476 0.0069463467 -0.03683644 0.04205337 0.0374473 -0.032994226
обнаружена -0.029877976 0.029578065 0.026512109 0.03823865 0.03841817 -0.047222737 0.026702054 -0.025874285 0.023933478 -0.025083149
движения -3.889588e-05 0.0013689024 0.03944711 -0.0018450983 -0.01222217 0.013573597 0.013726409 -0.032218743 -0.037667952 -0.01269421
оператору 0.010268881 -0.028314475 -0.049873635 -0.04571004 0.025405988 -3.4783996e-05 0.028728263 0.004194938 -0.03864106 -0.046770275
перегорело -0.01803973 0.028507711 -0.009437707 0.043643918 0.044014916 0.026657138 0.012978603 0.016741345 0.04570628 0.047711488
прихода -0.040173154 -0.007478422 -0.025042633 -0.027110634 0.03178661 -0.001593019 0.008854168 -0.0212217 -0.049677208 0.011181368
выходе 0.0326389 0.0047175717 -0.0049494486 -0.048126683 0.04635701 0.045558307 0.011866795 0.005837015 0.034399495 -0.005406622
кажду 0.025987133 0.04589361 0.03688194 -0.025795197 0.012665018 -0.041887328 0.04820376 -0.013428042 0.03268401 -0.048855647
квартире 0.015896237 0.03270651 0.039421137 0.016891574 -0.031121815 0.049610432 0.046938185 0.037610505 0.0003887335 0.038321774
название 0.037438415 0.018459368 -0.010425949 0.044270452 0.049576726 0.029977335 0.02386004 0.0038830468 0.026086083 -0.008752831
какого -0.03579366 -0.037903838 -0.025127582 0.048020516 -0.018494233 -0.019076416 0.017626515 -0.029368596 0.023389135 0.021295318
исполнителя 0.02789238 -0.027743459 0.03616069 -0.010136903 0.047227588 0.03156722 -0.046906386 0.031523455 0.027034491 -0.033429943
неделе 0.049629766 -0.028449193 -0.018765619 -0.008511837 -0.028409587 -0.018764969 -0.045791358 -0.026594674 0.020571545 -0.0019970536
присутствие -0.023143789 0.03757811 0.04338009 0.03302979 0.045948803 -0.01547103 0.03218087 -0.02474763 0.012031925 -0.027759075
людей 0.02811235 0.023119159 0.024217682 0.038186394 0.009526157 0.020436868 0.002092645 0.0029464564 0.024888486 -0.01998135
июня -0.018167771 -0.0033485426 -0.03910161 -0.04527308 -0.023019081 0.011073722 0.026619187 -0.019326838 -0.040362265 0.049991526
июля -0.012960698 -0.0035690197 0.009100955 0.041503076 -0.039318647 -0.026288638 0.013151209 0.029443404 -0.046488106 -0.032110997
динамики -0.008192142 -0.018977173 0.0009566819 -0.006766784 0.04622821 0.045879353 0.03078086 -0.023376552 0.012093195 0.04878498
её -0.026692497 -0.0020247935 0.023225045 -0.045781955 -0.035389114 0.00025913442 0.04982768 -0.02865398 -0.030822434 -0.020768696
содержание 0.020681 0.049951416 -0.000759425 -0.011506248 0.0058543393 0.03646762 -0.035925943 -0.018555224 -0.03374657 0.00310631
углекислого -0.022283826 -0.0033897911 0.03754499 -0.044015154 -0.044127494 0.0318322 -0.018401973 0.037460823 -0.038426995 -0.019726427
отпуск 0.015090123 -0.013412722 -0.020731945 0.049482904 -0.033486057 0.012934643 0.04224696 -0.007151368 0.0017805765 -0.004004788
последняя -0.02923921 -0.017763088 0.027767299 -0.000861691 0.02070493 0.014229823 -0.020013763 -0.046906583 0.044839635 -0.041117463
уборка -0.004889882 0.021731224 -0.022218337 -0.041341852 0.025603572 -0.01396695 -0.033189353 -0.027410163 0.026257966 0.049886722
ставлю -0.004328439 0.032135814 0.023329167 0.0022790937 -0.03724598 0.004480079 0.04870936 -0.001019788 0.014465456 0.016622767
следующий 0.02529141 -0.035633 -0.019116938 0.03653009 0.04714584 -0.0003974315 0.042698782 -0.047745604 0.024270084 -0.049834743
технический -0.02187515 0.008910922 -0.03512412 0.008561854 0.0012753876 -0.03295927 0.010912808 0.043455057 -0.04655549 -0.026113551
теплица 0.019211967 -0.04540094 0.044022642 0.01559711 -0.016620569 0.023431273 0.013180458 -0.029046878 -0.028099738 0.022383763
первые 0.046394505 0.0044437503 0.0050515854 -0.022090452 -0.010220852 0.009254862 -0.049423378 -0.0006184383 0.01571089 0.034032587
две -0.03856407 -0.030166158 -0.01306702 0.018598953 -0.023271214 0.028023107 0.019346138 0.009938556 -0.025371332 0.042286124
уф 0.0315377 -0.046294123 0.04213794 0.009555227 0.041652765 -0.027347188 -0.01955547 -0.031879388 -0.019129002 0.040610477
ик 0.030616393 0.017730882 -0.005079761 0.048000462 0.041729372 -0.004568121 -0.0134730665 -0.008488682 -0.0030821795 -0.041615378
посадить 0.04920944 -0.027052725 0.0026104439 -0.032930166 0.034540005 -0.0033971579 0.026800193 -0.044279784 -0.0075038015 -0.014074861
розы -0.039098285 -0.036931526 0.020790625 -0.0151933 0.027882371 -0.029416634 0.027007492 -0.018842185 0.038465388 -0.01031637
запрыгнет -0.034023453 0.029144857 -0.03360197 8.838199e-05 -0.006427003 -0.015402429 0.031477936 -0.019521983 -0.009965631 0.047938984
шкаф -0.038031656 0.019132836 0.04806619 0.014697393 0.04785207 0.033051774 -0.0368291 -0.031295307 0.024850963 -0.03606173
спугни 0.02400409 0.03571759 0.013091 0.02735201 -0.020858346 0.041899297 -0.01896791 -0.0152666345 -0.04408972 0.016302407
включив 0.023202678 -0.000946781 0.043935843 0.022633612 -0.027567485 -0.018589059 0.015041862 -0.03853709 0.008298432 -0.04497439
быструю 0.030594898 0.034793586 -0.008343629 -0.014918431 -0.024565982 0.0104091475 0.04810803 0.0048030615 -0.020367958 0.02957116
заморозку 0.011348784 0.025474165 0.033349376 0.015027711 0.03825048 -0.033312727 0.0013397514 0.005216531 -0.01372458 -0.0028227696
позволяй 0.010228833 -0.01299103 0.048487928 0.015118399 0.0014099048 -0.01903432 0.025144981 -0.036598917 0.020294508 0.038546026
коту 0.016038723 -0.025063332 0.04039522 0.002508175 -0.03584821 0.045277327 0.020748096 -0.005710796 -0.04619179 0.03338393
запрыгивать -0.008857599 -0.0033249639 -0.0038449746 0.02338663 -0.023603652 0.048981268 -0.019821938 0.011657354 -0.027681557 -0.04494485
аудиосистему 0.026915032 -0.018196275 0.039474897 0.0037231771 0.037356995 -0.030733578 0.042642076 -0.003245387 0.024446042 0.02935012
займет 0.033357795 -0.019958375 -0.018607702 -0.036515623 0.005100717 -0.019803712 0.034256592 0.018348608 -0.025834562 0.02475189
дорога 0.025138233 0.04112906 0.0136728 -0.045369603 0.0326824 -0.038636018 -0.014965725 0.0065123313 0.030989027 0.04185613
б 0.028062496 -0.01228049 -0.0018773018 0.047910795 -0.01689156 -0.048926868 -0.017887007 0.018022986 0.025070535 -0.018866016
учетом -0.011173458 -0.04835855 0.047471765 0.026673697 0.034475 -0.007974614 0.03187644 0.027644614 0.04347049 0.026379528
пробок 0.005773999 -0.046206135 0.03954918 -0.005867256 -0.011400377 -0.020591062 -0.006664085 0.048731267 0.025254706 0.043900736
романтическую 9.083974e-05 -0.0005341425 -0.04885656 -0.02241539 -0.027518328 0.033695493 -0.012870037 -0.039257344 -0.031372324 0.04850602
атмосферу 0.008083391 -0.021756632 0.0047856406 0.036727443 -0.0101487 -0.045510463 -0.03736055 -0.038968153 -0.008296278 -0.038605683
мяса 0.012646792 -0.047441803 0.008554586 0.027286552 0.004193014 0.042146623 -0.0065237167 -0.025367212 -0.021784559 0.009485355
перечисли 0.014697747 0.03933672 0.046984646 0.039094493 0.0431902 -0.027790986 0.034736227 0.015066696 0.0067759617 0.0022626827
которые 0.011064962 -0.029916948 -0.006758755 0.04338507 0.04440358 -0.04907217 0.01592694 -0.031606562 -0.018773014 -0.008514453
момент -0.041991137 0.036541477 0.03123027 0.02570938 -0.006829196 0.008299523 0.03165292 0.04982702 0.013367428 0.029364556
наибольшее 0.031349506 0.03698765 0.00364639 -0.031491555 -0.012663847 0.049152795 0.04757467 -0.047604267 -0.03932605 0.034416273
романтики -0.041779045 -0.048349895 -0.002961997 -0.045075193 -0.032459736 -0.024804702 0.012886841 0.03817646 -0.012346549 -0.04863918
подгорит 0.033720855 0.039057992 -0.016331088 -0.029465394 -0.047866598 -0.02000669 -0.021475183 0.042370237 0.0048958617 0.048132997
плите -0.010753929 0.039094638 0.0288446 0.03195483 -0.007642383 0.015985586 -0.0108754095 -0.017559767 -0.03276955 0.049469084
вытяжку 0.02669523 -0.008804684 0.031816006 -0.0053167 -0.022282047 -0.030657569 0.016693184 -0.0017120405 0.027057894 0.023018803
максимальный -0.046978574 0.04269394 -0.024895173 -0.010898029 0.013960439 0.031711508 0.032347243 0.023262737 0.010894648 0.015081538
режим 0.010133072 -0.014027795 0.0362653 0.0011519202 -7.508074e-05 0.0043312353 0.028700564 0.02199477 0.019388853 -0.014881931
заряд -0.043333095 0.041129544 -0.048589442 0.042803552 -0.041332215 0.042792276 0.025880875 -0.029456066 -0.026596867 0.00053943915
подзарядки -0.014863898 -0.023896065 -0.03329304 -0.029573644 -0.0057592476 0.0035408535 -0.030186791 -0.024453213 -0.04577143 0.04631552
продолжай -0.03281383 -0.04037086 0.029076066 0.022169521 -0.0070010154 -0.030361248 0.022585915 0.03675856 -0.011708979 0.048248596
светлее 0.004512221 -0.014199094 0.049254525 0.04107748 0.004690091 0.042041097 -0.008415066 0.041475546 0.011972406 0.02989213
закрыты -0.032205537 0.025085086 0.034245852 -0.0040729735 0.041545372 -0.033138297 0.022795029 0.029635306 0.04003466 0.047413114
ворота 0.04366661 -0.021811469 -0.0066608624 -0.0062421476 0.045952227 -0.020661773 0.015555202 -0.030707967 0.00113842 -0.026873883
гаража 0.044722468 -0.023095828 0.033398423 -0.011336411 0.034062155 0.012502149 -0.04406955 0.001108274 0.024608808 0.038594164
станет 0.0046419213 0.017128423 -0.034668498 -0.04131256 0.038706247 0.007832201 0.025176477 0.036963172 -0.014174109 0.046261188
необходимые 0.049512435 -0.02040793 -0.049061105 -0.032599207 0.020768631 -0.0104168095 0.027540587 0.0002923632 -0.03850116 -0.031595662
условия -0.036521267 0.043004826 0.030016016 0.040879756 0.003571586 -0.01603047 -0.017463906 0.038048226 -0.03808426 -0.00037583758
роз 0.0035445057 -0.035047065 -0.011543928 -0.020439325 -0.044847842 0.011170405 0.027269268 0.049025252 0.0137838535 0.049502816
зажги 0.048336614 0.025272572 -0.021630548 -0.00882719 0.014807038 0.0192075 -0.04299488 0.03732176 -0.021250864 0.048960995
фонарики 0.021354191 0.032593355 -0.010542398 0.027968109 0.0046651745 -0.038513746 0.015636163 0.032261528 -0.037837185 0.023625173
навесом 0.043219533 -0.013968486 -0.006314751 0.043417037 0.029731667 0.036394414 0.015228721 -0.0489624 0.007008037 -0.008598134
часам -0.04733989 0.037390444 -0.035155077 -0.0041461824 0.01810867 -0.010279567 -0.048101574 0.027150689 0.027555965 -0.006461978
почему -0.04321786 0.043604404 -0.008334641 -0.03640606 0.026308639 0.00871949 -0.025356336 0.030723445 0.0023432102 -0.00015284188
окна 0.037138056 -0.01558259 0.04778362 -0.024353081 0.014136306 -0.036406852 0.042463977 -0.039485883 -0.043795183 -0.035081007
контролируй 0.049051125 0.022499006 0.005611309 0.024624396 0.005398703 -0.0057870764 -0.03146158 -0.021882052 0.028372176 -0.028381165
климат 0.041569103 -0.021522952 0.0396692 0.045502067 -0.045268577 -0.038775094 0.012379987 -0.029076379 -0.032357283 -0.045989133
какое 0.040119585 0.043903083 0.019199787 -0.011535359 0.0071358373 -0.047368996 -0.022886602 -0.041963346 0.012922369 0.008115546
затрачено 0.040489968 0.017328255 -0.027582921 0.043305974 -0.024835516 -0.027365066 -0.01637222 0.048479278 0.006931857 -0.0251027
водонагревателем 0.0048353635 0.023136996 0.00012591004 0.048628617 0.042996965 5.4585213e-05 -0.01675458 0.022297291 0.020322759 0.022500992
найти -0.03991341 0.00039169437 -0.03081837 0.048807964 0.020986553 0.04775099 0.0072493833 0.0376336 0.0064460407 -0.032767262
место -0.0037204777 0.030827777 -0.03947275 0.029480208 -0.034166623 -0.024160376 -0.035762213 0.008198719 0.020207489 0.016369011
припарковаться -0.028386274 0.042907048 0.04858588 0.032179803 -0.0075847465 0.049754523 0.023500556 -0.0071840733 -0.032469332 -0.026390098
потеплее -0.0054378803 -0.017922038 0.03659377 -0.013392056 0.032553356 0.009746923 -0.0032758645 -0.027887326 -0.02176345 0.028373424
оплатить 0.049894564 -0.0048593516 0.025517907 0.03987676 0.04937466 -0.0007501351 0.04731682 -0.02778228 -0.046131466 0.00061325944
проезд -0.008434786 -0.011211028 -0.009047444 0.02982657 -0.010699035 0.03174218 -0.027169961 0.036120024 -0.003733367 0.010700236
занавесь -0.03198153 -0.015110343 -0.007898956 -0.014341814 0.020587241 0.020746047 -0.019873718 -0.0045760563 0.023788974 -0.041604023
грамм -0.011674077 0.026694993 -0.009197198 0.014826523 -0.017141907 0.012165605 0.01845149 -0.022948524 0.044073444 -0.008901718
корма -0.04526353 -0.037834987 0.009423511 0.028954895 -0.011699654 0.029744621 0.0017555027 0.03019864 -0.02654617 0.010415206
уйду -0.0427438 0.031647954 -0.0012731242 -0.03247724 -0.018206151 -0.0063092615 0.03817994 0.043417882 -0.0057241744 -0.022723552
дверей -0.019921865 0.04769151 -0.017035868 -0.018414173 -0.018639741 0.022476632 -0.048140682 0.026436519 0.02740088 -0.035535075
опусти 0.028816342 -0.037442293 -0.036106326 0.007715334 0.009425583 -0.0017327558 -0.019960614 -0.044439122 -0.010530073 0.016052429
начать -0.02836654 -0.0017013814 -0.028401574 -0.032556962 0.04766021 -0.049206495 -0.02554662 0.019921966 -0.026140923 0.032983523
звонить 0.03877689 -0.026516007 0.029143581 -0.022524407 0.0037856775 -0.00067792763 0.005335146 -0.0041198065 -0.012893133 0.01908295
вышли 0.034415875 -0.027338427 -0.019896232 -0.0069232695 -0.024997082 -0.018658502 0.042394068 -0.04182791 0.03357627 -0.036621142
фото 0.04787283 -0.037440915 -0.006916061 -0.010037512 0.028608741 -0.0021717644 -0.008035363 0.0044943565 0.032386 -0.04701762
список 0.0011212082 -0.007444107 -0.016287213 0.041031457 0.04377703 0.02412437 0.045375563 -0.03668417 -0.0009606532 -0.03717814
продуктов 0.017192442 -0.040341098 -0.03473508 -0.01426661 0.042283684 0.023254624 0.03186299 -0.043841004 -0.024389265 -0.017361106
потуши 0.01026669 0.03471625 0.041365203 0.017011302 0.03938865 -0.017717235 0.019940596 -0.025492812 0.034930117 -0.031119062
необычное 0.017854586 0.011289705 0.038145617 -0.028858054 0.038054828 0.016796093 -0.036218897 0.04298143 -0.03734529 -0.03702286
следуй -0.034861766 -0.008165193 -0.011367007 -0.011554595 0.00046543672 0.012605587 -0.028963756 -0.04955573 0.01315849 0.038396567
командам -0.033958014 -0.046942115 0.018717036 -0.00012655821 0.021845704 0.014592263 0.027733985 0.018492213 0.04598583 -0.021733731
сервера 0.02040717 0.02887733 -0.011615836 -0.011706034 -0.007782832 -0.007309643 -0.041441206 0.028293265 -0.04125429 0.02718343
скажу -0.04210408 0.04700752 -0.01183298 0.0040536537 0.01762576 0.03548345 -0.016296877 -0.048846755 -0.04253748 -0.0021802858
возвращаться -0.018393602 -0.04215607 0.012709775 0.01755283 0.006800928 -0.017669996 -0.04387856 0.020544019 0.02330583 0.01204277
недоступен -0.031337142 -0.009960363 -0.04718502 0.016832044 -0.030046025 -0.043950718 -0.031974725 -0.028342543 0.03486647 -0.033342164
возвращайся 0.03713498 -0.045251515 -0.0015142212 0.0055968375 -0.008380491 -0.03333973 0.019623142 -0.03004928 0.045418277 -0.038189527
плюс 0.012607362 -0.032512855 -0.004690325 0.017582601 0.026148107 -0.038373273 -0.0068139923 -0.039420284 0.01367199 -0.010810919
минус 0.013532385 0.034268126 0.03745982 -4.4271575e-05 0.029140443 -0.021648947 0.04324408 0.001974907 -0.014109562 -0.03428977
состоянии -0.04800158 -0.047083195 0.0459502 -0.025420818 0.047808155 -0.033483006 -0.04326673 0.0034029204 -0.043956306 -0.002680812
урожая -0.029114563 0.026869388 -0.026796537 -0.04880994 -0.020458374 -0.020343777 0.013814908 0.042128853 0.0048149163 0.037909012
чайнике -0.016741976 -0.00045650642 0.02528629 -0.029727014 -0.034951113 -0.020552527 0.046943307 0.045779236 -0.0063701835 0.021901075
остыла 0.045825366 0.008462317 -0.028996166 0.035582747 0.038292516 0.04801757 -0.007432052 -0.046787437 0.039812114 -0.01608323
вечер -0.03775531 -0.0053791734 -0.015999237 -0.010167514 0.034408107 -0.014108676 -0.0419328 0.04936277 -0.021637756 -0.0049471464
плеере 0.023371266 0.0033612896 0.01943213 -0.025077157 0.031105218 -0.015820885 0.004070363 -0.042175706 -0.042815 0.043529667
вечернее -0.005442101 0.027850483 0.022279132 0.02087768 0.01798284 0.02153803 0.020187216 0.028636105 -0.041600138 0.04074202
напомни -0.023617331 -0.048500087 -0.016730921 0.014727915 0.046601575 -0.0036297238 0.037685685 0.0070816986 0.0008081468 0.010045163
поливались 0.02258566 0.045971878 -0.038252547 -0.042276062 0.025132883 0.015161273 0.037134446 -0.013233722 -0.024402622 -0.031335127
цветы 0.025394702 -0.01183475 0.047967725 -0.04322713 0.008484422 0.035318274 0.018186005 -0.04105726 -0.036689017 0.049605917
чтонибудь 0.04831427 0.027195994 -0.038606722 0.045836702 -0.035439197 0.030683206 0.030244876 0.020897085 -0.019392084 0.035658102
погромче 0.020833502 0.021712063 0.026778832 -0.043401428 -0.029181631 0.029201718 -0.014382317 0.038344495 0.008177832 0.007594116
ночное 0.017926758 0.017889187 -0.04795069 0.044352423 0.04963113 -0.040031284 0.020502038 -0.0004079149 0.035101533 0.013100789
спать 0.027205784 -0.00086979003 0.019030925 -0.022996075 -0.027236687 -0.0052591916 0.02165988 -0.038746346 -0.00043061335 -0.04433453
фрукты -0.0026983896 -0.024898272 0.029391307 0.04706839 0.026513182 0.031633016 0.023479994 0.0065386873 -0.032340348 -0.02842178
процентов 0.02481724 0.02763245 0.026790965 0.04108985 0.015598391 -0.041635185 -0.03748077 0.044830643 -0.04309436 0.015382338
тихо 0.037755027 -0.003513786 0.030532867 0.006316489 -0.02141696 0.024288068 -0.033636037 0.0065803877 0.048508804 0.022381674
час 0.010033307 0.036551446 0.021573763 0.04601757 -0.014681826 0.047829475 -0.005688095 0.02489351 0.038397886 -0.018665865
полотенца -0.011136065 -0.02147403 0.049893882 0.04537377 -0.013966054 -0.007207681 -0.01766705 -0.014513017 -0.001972538 0.032278083
тому 0.006823194 -0.0036801365 -0.037702344 0.022149282 0.012640493 -0.046641 -0.01574886 0.030387621 0.033778917 -0.04686581
моменту -0.023255266 0.014476433 -0.044929657 0.032626737 0.01824869 -0.04246254 -0.039809067 0.0040329373 0.012113064 0.014910341
закончу -0.035303846 0.030863661 -0.034729935 -0.032830052 -0.025089769 -0.03537789 -0.04886603 -0.043257542 -0.007421166 0.047396466
принимать 0.028537786 -0.03962813 0.0031900865 0.03227324 0.041102447 0.035751007 -0.009530147 -0.0075180028 0.011497898 -0.030208537
душ 0.024633009 0.007194412 0.015018888 0.011240064 -0.00581439 0.013940373 -0.031327408 -0.0075017074 -0.0028965287 -0.028932426
готовку 0.0079613775 -0.006385437 0.00078829145 -0.01838883 -0.00015015848 -0.04474333 0.036103602 -0.047562357 0.014522847 -0.023717916
дальнейшие -0.025191542 -0.006913437 -0.035549324 -0.009099681 0.013038736 -0.026453903 0.015670847 -0.0038957132 -0.019073281 -0.01779156
команды 0.044848856 -0.046724584 -0.021545578 -0.008846076 0.027790077 0.0008727619 -0.022236658 -0.03920935 -0.007524614 0.04529622
получай -0.043126326 0.019219885 0.044563804 -0.015951753 -0.009971319 -0.035824556 -0.010305945 0.009940847 0.029167427 -0.046846095
текст -0.030106587 0.012946311 -0.028375423 0.04544913 -0.026253153 -0.030028675 -0.024253234 0.011348953 0.049132254 -0.041034427
телефона -0.011891899 -0.040053885 0.01937536 -0.0087667145 0.0017409571 -0.046864834 -0.0289515 -0.031240463 -0.034189608 0.02306632
кого 0.04812099 0.005915301 0.00984867 -0.041199658 0.0082978085 0.022613458 -0.038084634 -0.01946564 0.039338164 0.024805294
санузле 0.019841311 0.011039779 -0.043712284 -0.029938985 0.032858677 -0.01743221 0.015367215 0.044366896 0.004878763 0.022121413
наличии 0.025852632 -0.004729239 0.031100407 -0.03542054 0.0022680548 -0.00568681 -0.013308921 -0.010720155 0.027068153 -0.0420471
внутри 0.036289997 -0.02747825 0.02446767 -0.046808373 0.0014853133 -0.03703111 0.05025455 -0.015981149 0.04329925 -0.022976778
коголибо -0.043398824 -0.008896235 -0.0049710455 -0.015822412 0.012001816 0.0049781892 -0.024719408 0.01797288 -0.045127723 -0.010335595
бассейне 0.010424138 0.046909086 0.00902993 -0.04741404 -0.050022867 -0.0016389563 0.00046498366 -0.038194396 0.029343985 -0.028973162
выполнить 0.01687352 -0.018427875 -0.034889802 -0.0360492 -0.025935866 0.033219356 -0.0070544253 0.029478593 0.031262062 0.025244897
очистку 0.01597994 -0.0024362423 0.021025132 -0.04186627 0.03982656 -0.038256716 -0.007238153 -0.04729093 0.02446161 0.0029277923
мусора -0.035357956 5.438428e-05 0.044586673 -0.04065647 -0.039449584 -0.0029155926 -0.036667813 -0.043960687 0.028505076 0.0033888503
растения 0.026462788 -0.05008826 0.030421045 0.020410007 -0.0030658692 0.028368829 -0.03603618 0.011187194 0.040322904 0.023870662
энергию -0.03627695 0.021590205 -0.018871238 0.008107149 0.036339737 -0.009977818 -0.0038487068 0.034091238 0.0011389513 -0.031611975
аккумуляторов -0.049604554 -0.03577936 0.012068822 -0.015507595 -0.0015271785 -0.005915085 0.034608293 -0.040827096 -0.013227366 -0.042262614
электросети 0.023318551 -0.01599984 0.024002956 0.047824837 -0.018378241 -0.04738036 0.020683713 0.0014325796 0.014731812 0.047726233
углу -0.036935184 -0.004956975 -0.04940185 -0.026491454 0.003857735 -0.024322128 -0.0010776031 -0.002950566 -0.04150819 0.03437338
столом -0.016817465 0.046344157 -0.018115317 -0.015955357 -0.042950448 -0.014555205 -0.044364262 0.015035825 -0.004854421 -0.017850848
осталась -0.016016155 -0.00947941 -0.0031396137 -0.012704161 -0.006592494 -0.043703306 0.015368654 0.023976352 -0.03325016 -0.03775877
пыль 0.009176935 -0.0056193476 0.03744885 -0.006209886 0.0036117306 0.035235543 -0.012163605 -0.0088332845 -0.045416124 -0.041125815
заменить 0.023947164 -0.024926113 0.035353918 0.004718334 -0.04195119 0.022845492 -0.009942804 0.017631734 0.021347038 0.012587415
заплати -0.034231823 -0.040865414 0.04002216 -0.006701381 -0.00061189284 0.014512555 0.044446 -0.0060707396 0.031317044 0.043678664
позитивную -0.022677748 -0.0032676137 0.0026514197 0.021942915 -0.04164498 -0.04899021 0.049563482 -0.022213629 0.01578898 0.03750755
добраться -0.029090025 0.017997138 0.026988382 -0.047508806 -0.035602678 -0.016116502 0.035092372 0.006173611 0.025017492 -0.009250133
громче -0.004142685 -0.032956026 0.022510288 0.04868234 -0.0042031696 0.040606957 0.011161971 0.025144761 -0.023603098 -0.028299667
гараже 0.012840469 0.008248911 -0.017124431 -0.032661658 -0.013156511 -0.04661021 -0.0043606735 0.016361974 -0.04855929 -0.023675064
опустится 0.035864435 0.03052391 0.041596998 -0.049473625 0.02109908 -0.039163884 -0.022147924 0.009670049 -0.022330876 0.015974365
нуля 0.043720275 -0.03171503 0.031059105 0.00043649285 0.033545364 -0.011881512 -0.049004264 0.039172538 0.044614792 0.018276142
пусть 0.016351178 8.7095956e-05 0.017025901 -0.018776238 -0.048106972 0.029981928 0.026048893 0.026103131 0.016862448 0.012396304
музыка -0.028207827 0.0034545413 -0.03892059 -0.025514025 0.008822562 -0.042173196 -0.012850058 -0.014868273 -0.04342091 0.019450504
следует 0.0011191674 0.04671845 -0.025767297 -0.034060545 0.015246444 0.031485915 0.024287058 -0.0041124006 -0.040487345 -0.014023416
затем -0.0035910795 0.03775341 -0.022871887 -0.0042322534 0.013500089 -0.008106193 -0.028781923 -0.03436009 -0.017568562 0.0224999
аккумуляторах -0.029240077 -0.026907811 -0.0404755 -0.045773756 -0.023063993 -0.023252856 0.03138 -0.046236884 0.0017549556 -0.024460891
проедет -0.048588634 0.028088244 -0.039439447 0.018937502 0.042115044 -0.03207383 -0.041033033 0.017023485 -0.010838845 0.046261948
стиральная 0.0393411 -0.037784792 0.0055987923 -0.039520957 -0.04557722 -0.047789767 0.0038952504 -0.047823027 0.027595809 0.019522268
закончит 0.02276694 -0.0065470003 0.006717043 0.016811155 0.0043281615 0.037854075 0.030281546 0.0072434884 0.016943695 0.029568765
мужу 0.022688283 -0.006058539 0.02172975 -0.040065296 -0.017065316 -0.04464452 -0.0070666955 -0.04899759 0.047782183 -0.032222934
прогревать 0.03640201 0.018269595 -0.043764718 0.03230281 -0.009363871 -0.028946443 0.007001574 -0.040192798 0.022523148 -0.024494937
собаку 0.007999884 0.04720301 -0.011190231 -0.02749396 -0.022856591 -0.032446735 -0.041962445 -0.015851537 -0.042714864 -0.025664363
гаси -0.0052605323 -0.020779999 0.015914103 -0.024735067 -0.026027525 0.028009616 -0.0440101 -0.01939509 -0.025760572 -0.011233088
билеты -0.0140732005 -0.041454826 0.008429421 0.023580596 0.012444045 0.028347703 -0.034687277 0.03438703 0.01826407 -0.0057659433
лебединое -0.018081632 0.037009377 0.043226313 -0.012855995 -0.049494725 0.048026428 -0.02574028 0.04848225 0.012116621 0.03377613
озеро 0.03527752 -0.018441983 0.015553019 0.0030259958 0.028629033 0.040634025 -0.031589337 -0.0457481 -0.025893915 0.033028595
мариинке -0.04697261 0.047279183 -0.019877747 -0.041448653 0.019373255 0.037696254 0.014287462 0.03393954 -0.025541935 -0.0226423
наличие -0.007282198 -0.031007396 0.03496635 0.01602717 -0.010714899 0.04780922 -0.045783903 -0.025853269 -0.016041288 -0.0036354833
спокойной -0.04697348 -0.02172902 0.016427636 -0.018855643 -0.023121152 0.044864994 -0.013899715 0.019985924 0.021584295 0.03740276
ночи -0.019109162 -0.009627961 -0.0023653153 0.022530427 0.012827613 -0.011191722 -0.015337802 0.004815511 -0.017742546 -0.002546324
какую 0.047683366 -0.003971253 0.04958679 0.036110517 -0.040489558 -0.025236532 -0.032989133 -0.034381945 0.028791165 0.045303825
слушаю -0.022833647 0.021863304 0.041744757 0.041081168 -0.04388528 -0.004609457 0.049769294 0.0032274353 -0.03855486 0.0026297832
реже -0.03322708 -0.017835112 -0.02727206 0.034146056 0.02093455 0.02136086 -0.0035890213 0.019467829 -0.049868163 0.025498267
сильный -0.00961039 0.020673633 -0.0017063629 -0.045920283 0.011900499 0.03778106 0.027592685 -0.03514163 -0.03907652 -0.042672403
ветер -0.020626742 -0.018790647 0.0468565 0.012132509 0.045109063 0.03403974 -0.025350312 0.0056298687 -0.042094577 -0.012554949
входил -0.016110308 0.042635288 -0.0051542018 -0.023709675 0.03267205 0.010645338 -0.00042505702 0.03186782 0.030081715 -0.0051849955
хватает -0.036978696 -0.028898299 -0.02426966 0.03526884 0.0027258017 0.010649418 0.014521604 -0.029800631 -0.042369448 -0.04286512
заряда 0.014413907 -0.03558606 -0.018756356 0.022650514 0.03140622 0.022313442 -0.033908814 -0.04063947 0.019786943 0.000118376556
батареи -0.009806763 0.049573507 -0.04700419 0.04982143 0.03662319 0.020555783 0.03116841 -0.033710133 -0.031705894 -0.020347774
моего 0.03648227 0.024420552 -0.0184479 -0.0057073208 0.018229298 0.011421227 -0.037823766 0.019551234 0.028699774 -0.0148259625
сна 0.022196991 -0.025497051 0.03182233 0.021367278 -0.03792045 -0.032394305 0.0017360228 0.041935325 -0.02182011 0.03559645
громко -0.0064863088 -0.0028202147 -0.035615753 -0.00021843931 0.0016570184 0.043680064 -0.014185902 -0.019859692 -0.026931593 0.03167898
зашло 0.03460418 -0.016933404 -0.04622675 -0.013733264 -0.031486616 0.036583807 -0.04846471 -0.04929052 0.031121686 0.002385334
домашнее 0.03473222 0.008431087 0.041058697 0.048578054 -0.029466817 0.0025412084 0.04873785 -0.037417546 0.021691175 -0.049082723
животное 0.040965214 -0.0056323376 -0.037364773 0.041206818 0.0016342433 -0.034197487 -0.017976504 0.03215806 -0.004649201 -0.048808403
собака -0.011552689 0.02847665 0.01355954 -0.013654308 0.031617887 -0.04048694 0.048717454 0.03234476 -0.043855023 0.003240194
залезет 0.018924564 0.033744037 0.012526845 0.00018617098 -0.01051309 0.00997166 0.034185827 0.032945577 0.021483794 0.025303522
кухонный -0.046418868 0.01111666 -0.028981768 -0.0350568 0.035757817 -0.047863074 -0.017140077 -0.048963357 0.01590962 0.002111465
издай -0.028268525 0.047493584 -0.014810759 0.044066645 -0.048414942 0.024525361 0.0049909274 0.013453122 0.04634086 0.041922335
неприятный -0.02439007 -0.033232786 -0.04037294 0.009248658 -0.024793988 0.018365828 0.03454459 -0.047683224 -0.018055754 -0.03869858
звук 0.012912882 0.017022483 0.019361978 6.870128e-05 -0.01545107 -0.03653187 0.021084175 0.015654767 -0.011227047 0.042266615
потерял 0.042386647 0.04458443 -0.022641636 -0.004888578 0.047040716 0.04315226 -0.01442693 -0.020845452 -0.020025253 0.026847618
расчистите -0.017583847 0.0148681095 -0.0077420813 -0.026286984 0.0079967845 0.023645058 0.0023945898 0.046298776 -0.018861331 0.017161394
пью -0.038693476 -0.045219153 -0.00020330858 0.04616981 -0.033931453 -0.0070650224 0.030872278 0.013596137 0.0076750517 0.003473604
чайника -0.043967742 -0.0010240634 -0.026339013 -0.015105312 -0.020972947 -0.0038136696 -0.038586855 -0.01004111 -0.043542042 -0.040151577
погрей 0.033440467 0.0066794106 -0.02368734 -0.022850603 -0.0076507214 0.028748348 0.002032002 0.020480655 -0.0053983293 0.02708061
разморозки -0.03633923 0.015525834 -0.0001791379 -0.020275582 -0.04055886 0.0034098239 -0.012208168 0.035951007 -0.0052621984 -0.005009976
размораживать 0.040811762 -0.0062787235 0.030128196 0.045881253 0.0058098678 -0.006798538 -0.008342036 0.022727821 -0.0074724965 -0.036326487
сливочное 0.0012450542 -0.008509021 0.010090239 -0.0030297749 -0.046976823 0.03250568 0.047124583 0.0065359045 0.0033107281 -0.034494475
масло -0.026470587 -0.021729447 0.04233075 0.042146288 0.04979026 -0.030176388 0.010911642 -0.0029621585 0.031367693 0.024036516
разожги -0.002433941 0.039658707 -0.03979001 0.041390527 -0.036074776 0.015221157 0.016352827 0.01572268 -0.007953139 0.00564965
камин 0.0027529893 -0.01631989 0.035061598 0.034260135 -0.012379311 0.0418304 0.021355178 0.034660008 0.03632485 0.042019915
разойдутся -0.020305403 -0.021928094 0.03711719 -0.02594771 -0.011016766 -0.044480015 0.0062454036 -0.0030612329 0.0018407134 -0.023260858
фонтан -0.038479097 0.017893178 0.03527422 0.009328921 0.021395091 0.027783014 0.046149075 0.0031676963 -0.021273661 0.019251926
снимали -0.012389336 0.004631323 -0.029021082 0.048512314 -0.045461327 -0.013407094 -0.028049463 0.030773293 0.0015201669 0.030985145
пропусти 0.04407513 -0.018801844 -0.0030377374 -0.030628579 0.0047722463 -0.026052866 0.030142609 -0.025186542 -0.033283915 -0.021107607
квартиры -0.044283252 0.010249567 0.036878977 -0.039215 0.032280583 -0.0067732423 -0.0053228205 -0.010725359 0.022380142 -0.029164806
блокировку 0.012063353 -0.014024541 -0.0064645233 0.030829534 0.04527433 -0.0014377906 -0.0013367006 0.032675486 -0.01200121 -0.026702821
входной 0.027040837 -0.021909945 -0.022844287 -0.021439824 -0.025091063 -0.016344775 0.020840207 0.02264895 -0.0006141943 -0.024298929
звонит -0.011171702 0.02644938 0.041800663 0.04036372 -0.038669493 -0.018989079 0.012705455 0.0040158425 0.009797904 0.04746834
незнакомец 0.045130134 -0.019417686 -0.027841944 -0.035673752 0.042415977 0.0070545855 -0.038703103 -0.030603714 0.029408034 -0.0063286247
также 0.026242355 -0.046084274 -0.032204814 -0.023355901 0.014604604 0.0041425033 0.018540034 0.012948996 -0.03588319 -0.02350364
выслать 0.041601453 0.008325836 -0.03978844 -0.040476453 -0.022341374 -0.02806639 0.04700023 0.031527966 -0.015593392 0.012768248
фотографией -0.008345076 0.040401738 -0.040467553 0.024869878 0.031709157 -0.005972458 0.0038083843 0.032403618 0.025042133 0.016078759
успокаивающей 0.03331448 0.004410778 -0.006367655 -0.00042565042 0.029089747 0.01385649 -0.043662805 0.032511346 -0.049936403 0.030868376
посчитай -0.04407976 -0.013670485 -0.01669059 -0.03427208 0.020359896 0.046706036 0.026863515 0.017233726 -0.0137931295 -0.04118144
уменьшился -0.037926286 -0.00012035385 0.030426152 -0.043467402 -0.031096222 -0.042780105 0.015449523 0.041688304 -0.039517585 -0.040751424
вес -0.029781282 -0.026690118 0.029394392 0.008853875 -0.041961826 -0.025517512 -0.036127787 -0.04260148 0.011137221 0.034132607
каждой 0.032594446 -0.0013781401 0.04125927 0.045153756 0.03808584 -0.00021217474 0.050116736 -0.009052305 -0.04612993 -0.032867886
бутылки 0.049312532 0.010102459 0.020692885 0.042742763 -0.019747054 0.008763627 0.010441333 -0.014503332 -0.01064223 0.033107627
слив 0.032031808 -0.011388139 0.014498913 -0.017792197 -0.037716277 -0.04911279 0.018936103 -0.028420249 0.016597096 -0.0048398385
бассейн -0.038971234 -0.00013017583 0.0016398864 -0.033111893 -0.043701857 -0.037779585 -0.034342073 0.0367748 -0.033575483 0.042719252
наполнится -0.012319486 -0.028459707 -0.004538033 0.0017638329 0.008643097 0.007964895 0.003139017 0.035915647 -0.04065299 -0.0115534915
заданного -0.010248432 0.028273411 0.004966569 -0.04890124 -0.005788983 0.0387261 0.014009521 -0.019614536 0.047631003 -0.030349383
уровня -0.033787414 0.019133678 0.047117256 -0.016742101 0.03180875 0.048314787 -0.028789142 -0.014402733 0.012019227 -0.027609937
ежедневную 0.02661852 0.0058740857 -0.039531622 -0.0024414244 0.019404521 0.0041345144 0.046057325 -0.043750174 -0.0038874552 0.030561756
подборку 0.004698364 -0.020544302 0.0032826527 0.0036179363 -0.04960436 0.015010517 -0.03834053 -0.030498156 0.040067356 -0.023812411
музыки -0.00040323357 0.0073365625 0.046218973 -8.541958e-05 -0.023249907 0.012326061 0.03717617 0.025425322 -0.0071283514 -0.038321182
вышло 0.047464967 0.04442445 0.028233463 0.03569278 -0.049531497 0.022293616 -0.043849565 -0.040759895 0.007466901 0.03024471
сильном -0.03746928 0.006339829 -0.02146961 0.029983211 0.0017276682 0.018212937 0.022298314 0.02756984 -0.036723968 0.04991001
ветре -0.013042907 0.030144121 0.0020594778 0.00041980192 0.035854626 0.04864703 -0.040416766 -0.025432946 0.04421159 0.047310125
уходить 0.04877257 0.048516233 -0.033053547 -0.0266754 0.042311523 0.002806702 0.007743792 -0.00042058816 -0.036427163 0.022069488
работу -0.0028466117 0.017854504 -0.00941984 -0.03964029 -0.035075646 0.0012877448 0.04765372 -0.023131428 -0.008990002 0.020245453
открыть -0.04604201 0.021675907 0.041710734 -0.013730159 -0.0015694529 0.0035696912 -0.0007757315 -0.047791228 -0.014287628 -0.004225282
гараж 0.044329155 -0.010660316 0.0027559577 -0.035643127 -0.029508334 -0.03779581 -0.012660939 -0.04620619 0.039711088 0.014467961
выгнать 0.041618176 -0.031588092 -0.011012424 0.043382857 0.027271017 0.0065601575 0.026286526 0.040984802 -0.04676822 -0.04610854
оставить 0.0009210364 0.020230955 0.027957086 -0.027312122 -0.039843023 0.03428985 0.032140773 0.032782555 0.011873392 -0.01396822
двигатель -0.014890709 -0.04328451 -0.01967324 0.028095976 0.038969714 -0.042469274 0.01785117 -0.028504698 0.011161035 0.01865389
работающим -0.011345976 -0.019665351 -0.021917334 0.0013020282 -0.035075482 -0.020303851 0.045168996 0.024686644 -0.03317373 -0.048036795
построй 0.028609304 -0.030083308 0.03490231 0.007515525 -0.0018609012 0.040271446 -0.028437339 0.047494996 -0.008695722 0.0033071483
маршрут -0.016207844 0.0010690852 0.003735274 -0.042989988 0.0029038216 0.033154245 -0.021637231 -0.04705652 0.04720799 0.022085294
москвы -0.026163848 0.04824197 -0.026403278 0.014039976 -0.004841512 -0.047781177 -0.037602946 0.019602476 0.03865985 0.041961808
санктпетербург 0.022423051 -0.02251496 -0.04684598 0.02243205 0.004444965 -0.013614618 0.045805372 0.03854137 0.0046108915 0.028106937
подсказывай 0.03263999 -0.0011763156 0.004027505 0.026360365 -0.021686327 -0.021888161 0.027731517 -0.005804578 -0.00014916106 -0.03418221
дорогу -0.030440178 -0.02253396 0.04090723 0.048489645 -0.032792427 -0.027883507 -0.04499487 0.03396934 0.018897537 -0.0037051858
киловатт -0.033879507 -0.02285455 -0.021049032 -0.019963607 -0.016366357 -0.049017243 0.03432237 0.025548702 -0.030352188 0.04150426
машине 0.04364585 -0.01381481 -0.0019370713 -0.013853091 -0.025651785 -0.013676324 0.0020907435 -0.02796323 -0.00710355 0.032289222
пришел 0.04410667 -0.012831084 0.006385153 -0.015518214 0.0047139055 -0.029892186 -0.03266412 -0.014195351 0.007278437 0.031057203
автоматически -0.018675802 0.04484919 0.036946364 0.006465514 -0.036787417 0.023049567 0.01840294 0.040052805 0.038925033 -0.022351198
умного 0.043187913 -0.042120032 0.030496322 -0.00367926 0.010820874 0.035833143 -0.034753826 0.020640455 -0.028956149 -0.047665868
снега 0.04187055 0.0071793795 -0.027673025 0.0008434438 0.022929644 -0.037971754 -0.0050372304 0.031155627 0.04400311 0.003974582
расчисти 0.03416576 0.035809588 -0.00507328 0.007504847 -0.03862233 -0.03378996 0.04035179 0.03933103 0.01871834 0.03350117
начнет 0.030848159 -0.02495074 -0.04046604 -0.01418083 -0.0074002324 -0.014303998 -0.009135146 0.049859386 0.04716718 0.047386214
темнеть 0.018209562 0.026850397 0.02779063 0.0056390013 -0.022132179 0.04696819 -0.046385508 0.02914673 0.049532317 -0.017274648
колько 0.045789648 0.026445787 -0.047118984 0.01793767 0.0036425565 0.036933996 -0.03170069 0.039543234 0.02105094 -0.020879293
подними -0.04493945 -0.029260648 -0.003690672 0.005825732 0.006169785 -0.04727552 -0.003257404 0.0026143123 0.04061012 0.0013007931
карту -0.021116383 -0.028368322 -0.028690666 -0.02618375 -0.013805008 -0.0022045579 0.008023376 -0.034153312 0.0155583965 -0.010309272
температур 0.0067060357 -0.041053016 0.021544613 0.0041311956 -0.025050992 -0.036455538 -0.014625037 -0.022996357 0.048070107 -0.035625488
фонтанчик -0.04225473 0.012717174 0.009642965 0.028811812 0.029082235 0.04460588 -0.0027720607 0.026899967 0.039565466 -0.009114166
заперта 0.0027328394 0.039032 0.014908701 -0.013443989 0.01108629 0.023796566 0.007630053 -0.019297699 0.023867007 -0.007910507
придет 0.03411327 -0.0007765829 0.01850101 -0.014470594 -0.04339096 -0.01823674 0.027825242 -0.04918406 0.04810941 0.03737056
автобус -0.004707881 -0.006946933 0.006103996 -0.0011897212 0.045491878 0.0076634856 -0.012495107 -0.02606494 -0.043025196 0.026698919
номер 0.024384048 -0.0006434172 -0.049701735 0.0012448414 0.020407958 -0.0005226522 -0.017190019 -0.015458101 -0.02001801 0.0014656279
ехать 0.018277958 0.049908567 0.032657504 0.017360138 -0.018344684 -0.045905136 -0.03888134 -0.02905477 0.02471619 -0.008610942
ст -0.012749356 -0.02630434 -0.0048620827 0.02452206 -0.0019366031 -0.0016426471 -0.046285354 0.041137084 0.0292724 -0.035889756
метро -0.041191716 -0.04643112 -0.015175358 0.02186518 0.0007909888 0.043262474 -0.027211355 0.0035089387 0.02121656 -0.011678926
горьковская 0.03207795 0.0073143844 0.04441329 0.02164508 -0.036799867 -0.04950907 0.043729994 0.04594815 0.04073615 -0.015502207
утечка -0.029038342 0.024974843 -0.0158122 -0.039248344 -0.043103144 0.041682985 -0.029514093 -0.020445285 0.034561213 -0.03101026
кофемашине 0.0071868184 -0.005030959 0.033264816 0.009925363 0.03055652 0.004592598 -0.03959122 -0.011977656 -0.022149112 0.04037088
останется 0.03699777 -0.042558044 0.046196792 -0.0050483844 -0.009184084 -0.035660055 -0.034872226 -0.032127067 0.016065532 -0.021957893
отнеси -0.0071473825 -0.038095046 -0.03506847 -0.033443738 -0.0286622 0.007360098 -0.020204931 0.009919251 -0.03557899 0.030508379
это 0.0028928204 -0.019879261 0.018721633 0.014186781 -0.013121889 -0.029572682 0.0321865 0.00053115434 -0.03996525 0.0063208123
слабее 0.04902923 0.04062571 -0.009796915 -0.018938383 -0.009813512 -0.019126454 0.036104817 -0.006719294 -0.0063099023 -0.014709133
влажно 0.011779892 0.023930617 0.011456119 0.0031237043 -0.04424832 -0.010905867 0.010036044 0.031387202 0.037648015 -0.041421898
стемнеет 0.04159351 -0.023439698 -0.009903142 0.035099827 -0.03751408 0.04239182 -0.029328022 -0.035670046 -0.047683887 -0.03971584
фонтана -0.0019473723 0.038173195 0.018412737 -0.03732125 -0.029501075 -0.009477135 -0.0058398494 0.019971216 0.036800243 -0.013913735
светомузыку -0.01559509 0.01355376 -0.028385164 -0.01387422 0.043090396 -0.04211655 -0.027578956 0.010701702 0.022430975 0.030277682
проехал 0.012680682 0.018837605 -0.021955123 0.044482432 0.035237435 -0.044458993 -0.042102166 0.04582414 0.020573925 -0.04290724
свари -0.029137673 0.0022996422 -0.026157364 -0.0048152 0.032255646 -0.017087922 0.04162579 -0.013418579 0.031356357 0.041882355
работе 0.04525414 0.010813495 -0.011034501 -0.03281993 0.013707609 -0.0009703524 0.018362394 -0.034884486 0.014024099 0.021451103
