723 10
включи 0.04047815 0.010202646 -0.041159682 -0.019047158 -0.013880237 0.037025195 0.025560487 -0.015621692 0.031949654 0.034085114
сколько -0.0042222873 0.03880741 -0.02715496 -0.030863525 -0.010484519 -0.0034284878 -0.008646339 -0.04326467 -0.04733022 -0.014750555
свет 0.006403098 -0.018610297 0.0039887 -0.0378696 0.038987376 0.04727467 -0.049444936 -0.018079761 -0.0026809152 -0.027408011
сделай -0.04061256 0.0065753628 0.040544923 0.0005379348 0.014018363 -0.030317625 -0.029203132 -0.047698654 0.024871305 0.02211767
выключи 0.0026968315 -0.034829758 -0.034055002 -0.00044735643 -0.017111769 0.018354086 -0.005828142 -0.014720407 0.044182353 -0.04152874
слишком 0.0172806 -0.04414911 0.011404853 5.898723e-05 0.003156265 0.009257969 0.036252677 -0.014638671 0.009159885 0.03700863
комнате -0.044059034 0.014951368 -0.041736573 0.006000073 -0.0010454596 -0.033664625 0.018086737 -0.006632227 -0.02532054 -0.01697824
дома 0.011052928 -0.030954024 0.040845457 -0.038461 -0.01982507 -0.04293826 0.0074601662 0.01996814 0.02986853 -0.041483723
минут -0.02985487 0.01979537 0.025945056 -0.0010604304 0.032277968 -0.011683905 0.040754344 0.008998293 -0.0027360916 -0.001325763
включай 0.0051468536 0.013801363 -0.023451427 -0.032250192 -0.027722077 -0.011254602 0.037383966 -0.02146692 0.023134686 0.044083327
комнату -0.015230592 0.020131275 -0.038521416 -0.016876707 0.009330705 -0.011698284 -0.018793764 0.0024810575 -0.045415606 0.03161887
убирайте 0.046861697 0.028334627 -0.007559527 0.031934362 -0.038639612 -0.019414483 0.0017932293 0.0035085226 0.0024466042 -0.050502963
электричество 0.020386497 0.03860218 0.0038660637 -0.041696317 -0.001131092 0.008329956 -0.013922938 0.046203975 -0.04288883 -0.04850021
дверь -0.03608597 -0.010238681 0.017053755 0.026302446 0.027239377 -0.03198847 0.018059984 -0.028331688 -0.035826202 -0.02793364
сегодня -0.037298933 0.017298844 -0.0014343158 0.042483438 0.014815842 0.015984714 0.0046936097 0.03696779 -0.018473241 0.024508683
каждый -0.0039349343 -0.0011613596 -0.006456385 0.0029779673 -0.011165701 0.031171516 0.01117595 0.0049521024 0.003169326 -0.041713476
сообщи 0.027093723 -0.01431318 9.865768e-05 -0.048119195 -0.0323029 -0.028167842 0.04887577 0.03948433 -0.035914663 0.008379531
уведомление 0.032412082 0.02579586 -0.023370342 0.043969102 -0.021531405 0.03304829 0.037972182 -0.029995788 0.035143547 -0.0425483
снег 0.0070687872 0.025957081 -0.0071752546 0.037633535 -0.034171674 0.013643633 -0.046729818 0.028150281 0.02242391 -0.031697396
нужно -0.02908671 -0.046418488 -0.01433767 0.02353651 -0.037262965 -0.020698424 -0.0018119804 0.0148834735 -0.025901256 0.030813742
месяце -0.008210064 0.032418773 -0.041371517 -0.01173643 0.04480974 0.02936213 0.030352551 0.032037947 0.046241857 0.042376168
покорми 0.011017752 0.011652589 -0.03946245 0.008941638 -0.0024125474 0.041310024 0.04726395 0.045876905 0.020263046 -0.015346609
телефон 0.0075060916 -0.0038360653 -0.04717259 -0.01371972 0.0061646905 -0.02037599 -0.027687166 -0.02046197 0.046274863 -0.023197196
пока -0.023111384 -0.036182784 -0.03490084 -0.0067440406 0.009607986 0.009420324 0.047333024 0.0061497693 0.014976116 0.006067602
света -0.02132208 -0.04008707 -0.037388764 0.008146274 0.009007205 0.043191273 0.03565361 -0.0051693264 -0.024783365 0.026266713
листву 0.0024258662 -0.046100717 0.01890691 0.028355205 -0.042593703 0.041396346 0.03248681 0.039806504 0.046398032 -0.04162329
утра 0.0028745737 -0.024465019 -0.00032690752 0.018300131 0.032122042 0.044819005 0.010645502 0.02407163 0.029353091 -0.023800762
мою -0.0016415791 0.028393814 -0.048981685 -0.006021376 -0.041840106 -0.0084613655 -0.022535834 0.037379056 -0.046998598 0.008355976
включить -0.007654695 0.049403958 -0.0118776895 0.037343927 -0.04184335 -0.031277925 0.008919118 0.00589266 -0.042099882 -0.0037775536
поле 0.041762467 0.046312667 -0.037138063 0.0059710345 0.005620919 0.046343695 0.0381161 -0.01629991 0.008575647 0.008215741
стригите 0.01606839 0.046190396 0.0063359654 0.027946306 -0.007378993 -0.018444313 -0.0047073825 -0.03048072 0.04423716 -0.038402706
ктото 0.044678953 -0.021807706 -0.00980047 0.0013834041 -0.044081006 -0.044208784 0.02995779 -0.048641447 -0.01694574 -0.020311631
холодильнике -0.009493071 -0.013526715 -0.006966922 0.02932232 -0.015734196 -0.03036795 -0.013622498 -0.02690123 0.011601513 -0.0031109662
последний -0.019742547 -0.029656941 -0.0375583 0.004204361 -0.016964007 0.021247268 -0.041277625 0.042817794 -0.018784404 -0.04875081
каждые 0.028040012 -0.017239729 -0.016015433 0.0042345645 -0.0315137 -0.044410955 0.03190604 -0.010851461 0.01418639 -0.01947827
день -0.033961363 -0.046052538 0.024747856 0.01960973 0.025107747 0.021504175 -0.026986327 -0.049167704 0.007402416 0.019739361
шторы -0.0012177342 0.010407268 0.0027584229 -0.036168866 -0.0042348565 0.038963653 0.03600612 -0.048804604 0.0012293482 0.018784259
буду 0.03529954 0.045940526 0.045733076 0.042917456 -0.025573151 -0.016648334 0.013830367 -0.004920603 -0.035884384 -0.0017110001
помидоры -0.008414815 -0.003930784 0.023534395 -0.004431373 -0.02879193 0.0041826726 0.004333493 0.023854656 -0.047459576 0.014835481
проверь 0.032650452 0.04678588 0.02712068 0.044088025 -0.016186625 0.027529808 -0.0041180584 -0.0025364489 -0.045245424 -0.046713475
машину -0.017036078 0.02512438 0.035267007 -0.019896157 0.03794654 0.010972272 -0.0010174838 0.042124867 0.04776664 -0.03779529
музыку 0.011808914 -0.030546106 0.034838647 0.025306761 -0.030886887 -0.038271535 0.013936297 -0.004064643 -0.0387202 -0.01510375
градусов 0.0020866557 0.016600937 -0.045683105 -0.023216307 0.020852225 0.007478359 -0.040588338 0.013173783 0.013512742 -0.007755144
окно -0.013018616 0.029750317 -0.009272459 -0.033679187 -0.041713607 -0.0015817649 0.038695388 0.04111245 0.0020156768 -0.008600787
кот 0.018634038 -0.0036976833 0.03649381 0.039849445 -0.018686658 0.037595745 0.019960605 0.034162015 -0.03977739 -0.018436464
времени 0.030713597 -0.04959849 0.021357767 -0.037202768 0.014815877 0.004933419 -0.044211667 0.0020457888 -0.03962382 -0.04167371
окна -0.0075483476 -0.022919461 -0.009272429 -0.031034386 0.034563642 0.026448209 -0.042312752 0.0058772047 0.029981706 -0.008085205
светло 0.0027297328 0.039507467 -0.0033841718 0.018785864 0.03683848 0.0337541 -0.020242365 -0.00792982 0.0219134 0.01735728
песню 0.0046538347 -0.037674807 -0.032262813 0.047343355 0.0006425551 0.031293172 0.04347107 -0.03860149 0.02236925 0.015686063
спиртное -0.036835678 0.044656653 -0.016870284 -0.029899571 0.03472359 0.01934074 -0.007052493 -0.021207772 0.015819281 -0.04996342
увидишь -0.011078062 0.048033793 0.022757564 -0.037309766 0.003811703 0.032151513 -0.007182979 0.006161117 0.04973369 0.02633962
подогрев 0.041164644 0.049886633 0.012956975 0.0010382662 0.018218525 -0.027959654 -0.006124354 -0.00052060175 -0.02182536 0.038910694
траву 0.03709166 0.046784077 -0.046904184 -0.014881591 0.025057958 -0.0005437499 -0.01582176 0.036693115 -0.010766401 0.009416477
температура 0.049692165 0.033292357 0.023896802 -0.034394074 0.014345472 -0.012868792 -0.0075725224 -0.03704142 -0.016966159 -0.04802083
влажность 0.013438583 -0.012439328 0.012285151 -0.024511425 -0.037189458 -0.016265508 -0.029512608 -0.029889518 0.03535646 0.04434616
проветривай 0.0140796015 -0.029544339 -0.04336327 -0.006720997 0.040296692 0.026404649 -0.04144764 -0.0044111074 0.040361714 0.04949339
течение -0.0026154118 0.045997277 0.020454468 0.03382387 -0.032514334 0.048222534 -0.0459201 -0.013068396 0.018936127 0.03334509
топлива 0.024927 -0.04978069 0.030624377 0.021604775 0.040181242 -0.0021420433 0.014784261 -0.04381201 0.049776804 -0.04744873
темно -0.043946892 0.011486054 -0.0042530876 0.01733057 -0.04405206 0.02162771 0.003344829 0.0082103005 0.03944135 -0.039252058
кота -0.011568828 -0.037980437 0.007605986 -0.04424203 0.008665059 0.041241154 0.042991165 0.04201334 -0.025927072 0.00479875
воспроизведи 0.043332793 0.026525158 0.015005028 0.04451601 0.040727686 -0.03858509 0.039064165 0.04061435 0.02574384 0.029109564
стол -0.035833385 -0.042330418 0.047044575 -0.041296985 -0.0020641661 -0.03399102 0.0060759326 0.02593567 0.039513092 0.013747818
поливай -0.019918248 -0.006446274 -0.0021186306 0.035229307 -0.047903538 -0.033637073 0.007937918 -0.012079229 0.02511385 0.031696618
выключить 0.043330517 0.00731584 -0.048780296 -0.030786455 0.018187901 0.049884632 0.037300255 0.0037983088 -0.01726073 -0.035672776
время -0.033228118 -0.023512606 0.011545222 0.010766907 0.035836346 -0.014072231 -0.006047853 -0.036211114 0.02485122 0.010065837
вечера -0.033571757 -0.034059435 0.03125066 -0.04570775 -0.04993183 -0.011737997 -0.027709173 0.0064465995 -0.02804267 -0.03993164
ктонибудь -0.047766943 -0.01874212 -0.004298063 0.044486057 -0.042509478 0.03817692 -0.042554986 0.020494964 -0.033603698 -0.019778835
кухне 0.024282638 0.0224429 -0.029770032 0.032415017 -0.047808662 0.04348128 0.015657676 -0.038971853 -0.030136753 -0.04667362
следи -0.020485515 0.03432986 -0.003961701 0.00050397037 0.0482716 -0.0021599415 0.022941576 -0.007110378 -0.040462635 -0.043443553
получали -0.019902036 0.02478471 0.047786944 -0.0033682554 -0.037529185 -0.0007149941 -0.041233264 0.0006646253 -0.04328461 0.045355663
моему -0.001276473 -0.008996047 0.026832135 0.022993226 0.00311678 0.020112207 -0.0060191997 0.002550904 -0.0075255753 -0.035387315
приходу -0.00799369 -0.003780556 -0.037016544 -0.0042742044 0.010175521 0.04234724 -0.03675767 0.030612774 -0.031318393 -0.02680906
завтра -0.03256697 0.012608859 -0.018686265 -0.021738939 0.022413205 0.04294341 0.025654957 0.03414527 0.03550891 -0.04912625
часов 0.047884814 -0.01751368 -0.016478498 -0.041209724 0.039831597 -0.015586573 0.031757604 0.044833012 0.028638072 -0.0042494065
осталось -0.032744054 -0.0055846763 -0.043847047 0.04470332 -0.031820018 0.020078456 0.031656347 0.03050444 0.036435563 0.024088385
проветри -0.029455714 0.03291445 0.019540777 0.043897755 -0.0065496014 -0.033744372 0.026115494 0.03324908 -0.03101121 -0.006587398
подготовить -0.024556102 -0.015929323 -0.041765198 0.01512414 -0.026089361 -0.00032288686 0.00059522054 0.031663258 0.03041377 0.027436614
обстановку -0.043315977 0.029082041 -0.040152732 -0.00895014 -0.039563794 0.007944488 0.004746605 0.035632208 -0.0063732965 -0.032596767
холодно 0.036512207 -0.02512014 -0.009947296 0.0383885 0.019113984 0.010307822 -0.029319884 -0.03900261 -0.015625698 -0.030517695
отопление -0.039014596 -0.01523631 0.015472894 0.0014625435 -0.008663569 0.022850687 0.02390156 0.001038959 -0.014330698 -0.04267691
энергии 0.029685719 -0.04669766 -0.009224259 0.0103832185 0.024857255 0.0071972865 -0.0044412664 0.034469545 0.027136251 0.023505738
могу -0.01967539 -0.043785024 -0.0097051505 -0.048815235 -0.034843747 -0.018498672 -0.018152038 0.024514256 -0.0263325 -0.048339512
купить -0.025180116 0.018195556 0.0009364401 -0.040740002 -0.045416784 -0.012284215 0.02668421 0.04857836 -0.024145314 -0.04654714
дождь 0.030930204 -0.02601598 -0.022910077 -0.012755065 -0.0021559948 0.0032207086 -0.009075725 -0.025843186 0.016110547 0.008345954
холодильник -0.01486905 -0.009167254 0.038917203 0.015549989 0.041353278 0.007829213 -0.0061741136 -0.04837138 0.026114956 0.026652912
домой -0.031658437 0.039993465 -0.033291243 0.0055103856 0.039329454 0.0312493 -0.03741474 -0.031783585 -0.01816972 0.021888213
перекрой -0.022805465 -0.018127523 0.038096365 0.031682845 -0.02108675 -0.019541334 0.03931188 0.028330786 -0.011684171 -0.0025434555
хватит -0.0023917402 0.00613057 0.026522236 0.0032942712 -0.022549702 0.009512629 -0.036343697 -0.0003344932 -0.0002457156 -0.016813854
доме -0.03759452 -0.016153153 -0.0018500926 -0.013537518 -0.040743753 -0.042566743 0.03827444 -0.036178596 0.012290257 -0.039022777
какие 0.017208187 0.009793402 0.047184188 0.042044543 0.02978464 -0.02147856 0.011784812 0.044425674 -0.035168007 0.010055131
открой -0.049516298 0.010284022 -0.01150478 -0.04813755 0.044530254 0.03411614 0.024487706 0.026409218 -0.025829332 0.001553099
установить -0.002827314 0.024933591 0.0042111985 0.0144100925 -0.048771963 -0.008126875 0.025066027 0.03319051 0.028129196 -0.033609297
обогреватель -0.020925375 0.015989399 -0.014129813 0.024303388 0.0053254487 -0.008303341 0.0073750173 0.048735343 -0.034737345 0.047835443
приглуши -0.004462622 -0.04655113 -0.036613494 0.030359406 0.006737163 0.024968177 -0.02800441 0.016208926 -0.00042137038 0.021292744
температуру -0.012807342 0.03295854 0.0023572606 -0.013892227 0.014508768 0.011140286 -0.028721327 -0.020591814 0.030114826 0.012865788
подсветку -0.043629542 -0.010338457 0.029887673 0.02587493 -0.016972646 0.007139068 -0.0015562122 0.02451861 -0.03130604 -0.022330223
месяц -0.04625886 -0.026290305 -0.046916235 0.040942352 -0.04448787 -0.028200604 -0.014825953 -0.01576591 -0.041093003 -0.012550581
усну 0.008251594 0.022853808 0.0065667145 -0.00025756357 0.037455387 -0.018672587 -0.02005454 -0.0030585697 0.023901338 -0.028784538
зашторь -0.035599284 0.017121933 -0.041914087 -0.015585521 0.02347625 0.023577886 -0.04365452 0.038083136 -0.03478337 -0.013609175
добавь -0.009461194 0.022608746 0.011039668 0.0010595254 0.043418154 -0.04959822 0.020206003 0.03131366 -0.027977824 -0.012277865
взято -0.019343467 -0.04143397 -0.042821463 -0.007282495 0.004184835 -0.032429352 0.009367431 0.047051888 0.024781235 -0.03323328
влажности 0.032592464 0.046733513 -0.03481238 -0.03443265 -0.0190326 -0.013349624 -0.042103276 -0.00046066943 -0.018739587 -0.029103436
меньше 0.009951633 0.007522177 0.0014455566 -0.03985176 -0.045717753 -0.033382133 -0.0003491606 0.0058120633 0.028694276 -0.016419325
увлажнитель -0.03686293 0.0029428622 0.0069840457 -0.024141401 -0.046912774 -0.039333295 0.01134289 -0.042339787 -0.04399513 -0.030088115
минуты 0.047370344 -0.0022145493 -0.0061134235 0.042461414 -0.030854264 0.04820148 0.009184524 0.017225342 0.015781328 -0.006103672
будильника -0.045147102 0.03359423 -0.008621611 -0.0025492248 0.048295375 0.035060275 -0.019296208 -0.011634469 -0.04932324 0.003051551
автомобиль 0.032130808 0.018835587 -0.0372923 0.0448042 0.019853633 -0.04065598 -0.04332578 0.03305585 -0.00983228 0.004326812
осмотри 0.04793614 -0.047958948 -0.01098579 -0.028315468 -0.03975796 0.044730294 0.039634947 -0.013503103 -0.022711864 0.023346063
убери -0.023331832 -0.028612774 0.04603386 0.02649223 0.041483723 -0.029984761 0.043414254 0.049815 -0.04558932 -0.01496628
дорожек -0.022578169 -0.04300455 0.03030946 0.007977615 0.04605834 0.041213945 0.0036471596 -0.042142063 -0.036313206 0.027206516
пульт 0.041901823 -0.03234066 -0.00035740208 -0.03518604 -0.0095924875 0.04352158 0.011719252 -0.024977833 -0.010578776 0.013403171
телевизора -0.036590397 -0.028990231 0.014436868 0.037767243 0.029111585 -0.036760226 0.03963227 0.033936597 -0.01859436 -0.03368159
датчик -0.02482828 0.035163213 -0.049349785 0.005818056 -0.036619056 0.016791772 0.004432611 0.03649619 -0.0075547793 0.044697165
двери 0.014083313 0.023554359 -0.01586298 -0.03048286 -0.013295894 0.031230344 -0.048750557 0.007711986 -0.008866545 -0.037652273
отправить 0.0197365 -0.0049688253 0.032351736 0.011524531 0.0007815423 -0.002292217 -0.035296783 -0.036474477 -0.042910703 -0.02954916
зафиксировано 0.018025769 -0.04722972 0.018812062 -0.046896376 -0.020132905 -0.04628237 0.0021122936 -0.012135572 0.040094607 0.0071663014
льда 0.0053404337 -0.042094875 0.028967055 -0.025359144 -0.02289515 0.018346649 -0.017964019 0.041463345 0.030042993 0.036378294
вода 0.034112215 -0.047116004 0.017424125 -0.045149967 -0.034440745 -0.0014704409 -0.039465237 -0.030203827 0.017389297 -0.030565837
разогрей 0.04579531 0.04965321 0.00505525 0.03934431 0.015044652 0.039561443 -0.0325992 -0.00063786516 -0.0072524985 -0.013198841
выпадет 0.03157387 -0.022001933 -0.03188078 -0.041972928 -0.031875733 -0.005247786 0.039177425 -0.04213955 0.023312356 -0.043840162
стоит -0.008751508 0.04460481 -0.01636846 -0.0063213874 0.014215524 0.037107714 -0.008789548 0.011171393 0.03773764 0.010896712
воздуха -0.010272396 -0.022092713 -0.044526145 -0.021468027 -0.04898019 0.012254333 -0.021541538 -0.0043004556 0.024345411 0.038225066
ниже 0.006706035 0.04379263 -0.0033479286 -0.010343198 -0.010354425 -0.034179814 0.014778562 0.008335679 -0.009998325 -0.019946534
помещение -0.00026622062 0.038390525 0.017134927 0.005762586 0.04027093 -0.030039415 0.0023896496 -0.0369018 0.024812942 -0.042161837
подготовь -0.030102737 -0.019439926 0.04655179 -0.026983533 0.0454441 0.0386892 -0.035159193 -0.035324972 0.022102192 0.038840417
танцам 0.0039854185 -0.006248105 0.021900306 -0.00091536046 0.0429874 -0.036990236 0.009912149 -0.045167807 -0.0061173425 -0.044608716
песни -0.023092952 0.025075646 0.02349199 0.027710347 0.0011349935 -0.04541541 -0.04992782 -0.007951896 -0.014905928 0.04246793
снимай 0.02474607 0.006538793 -0.034790225 0.024428327 -0.049195856 -0.03510414 0.010249318 -0.0445432 0.013515222 -0.023694605
местность 0.04736274 -0.03368232 0.022334026 0.04093811 -0.008128986 -0.009394536 0.007028421 0.0010407749 -0.029387604 0.040674124
дождя 0.03018416 -0.00020014979 -0.009300109 -0.006454961 0.04563104 0.021277793 0.013083244 0.0052729286 -0.043704804 -0.0065198806
экран -0.02289825 -0.038164318 0.035215016 0.029162254 -0.03981348 -0.024933843 -0.037623625 0.032118924 -0.039278947 -0.042930458
рабочий 0.0053411038 -0.041731272 0.0042786174 0.042331226 0.032368954 -0.030873153 -0.02575846 0.006665794 0.012534003 -0.04085306
кофе 0.006141726 0.023442242 -0.04565053 0.013863036 -0.024628652 -0.047047067 -0.029155618 -0.03477037 -0.023484927 0.04290011
увеличь -0.0019826826 -0.030371157 0.011415848 0.007891255 -0.020235727 -0.025707496 0.005413885 0.0060135843 -0.038557764 -0.01898011
громкость -0.04538218 -0.012857005 0.008616076 0.04709726 -0.014728072 0.01947087 -0.048958752 0.04986472 0.00492503 -0.008746631
входная -0.04562102 -0.019288952 -0.0033165878 0.023836797 -0.017869346 0.006864843 0.021912832 -0.024698177 0.04748667 -0.04640007
дорожку 0.03636985 -0.009034523 -0.00843327 -0.02713508 -0.015255402 -0.010482229 -0.014902744 0.01905512 -0.046980903 -0.028503466
домом -0.020335827 0.037853435 -0.022308728 -0.00060068374 -0.02409576 0.048854414 0.03173624 0.025916627 -0.033720426 0.0017086319
окном -0.023129186 -0.006072797 -0.031875797 -0.03900874 0.009811153 0.04314534 0.030366527 0.0030308191 -0.012370301 0.0133266775
закрой -0.022950282 0.043361183 0.023165679 -0.018563667 -0.04830875 -0.011167241 0.0075469026 0.029406292 0.046440132 0.029969404
доехать 0.03608276 -0.029167619 -0.034190938 0.0269947 -0.0054042838 -0.027416922 -0.009904713 0.022468425 0.04314073 -0.030533269
стирку 0.039920945 0.03475479 0.0351274 -0.04348426 -0.029801402 0.04977256 0.03459285 -0.047746424 0.044283316 0.004793276
освещение -0.0409896 -0.045998897 -0.023586186 0.031706903 -0.036679115 -0.014634047 0.021771492 0.02711643 -0.03668468 -0.009897227
никого -0.038065806 -0.02005226 0.0076617496 -0.04840701 0.0002148184 -0.031108622 0.041058723 -0.045051236 -0.0070371283 -0.04467859
проветрить 0.0038423112 0.035061363 0.046920396 -0.022762572 0.04751722 -0.036851086 0.0016009824 0.015325377 -0.046477478 -0.02677406
проверяй 0.029540291 0.042268734 -0.024766216 0.034103546 0.031366184 0.0362272 -0.021053996 -0.04854742 0.021216273 -0.0028704195
машина -0.040985685 0.033281215 -0.038829595 0.025921438 -0.04386242 0.017246554 0.016148979 0.0052298987 -0.029888079 0.0076641995
запусти -6.534653e-05 -0.0077280677 -0.015757045 -0.007394837 -0.035416964 -0.023302536 -0.009651837 -0.03530416 0.004153347 -0.046105433
плейлист -0.049743477 -0.024104815 0.031036144 0.044089995 -0.009758466 -0.017535787 0.010934203 -0.036008433 -0.010987827 0.032472946
музыкой -0.036807 -0.0038248291 0.04789857 -0.03263956 0.0017851242 0.004841763 0.016340612 -0.04331678 0.0068759825 -0.005167848
немного -0.02596095 -0.031971734 0.029852293 -0.033797633 0.017437175 -0.0087878425 -0.045310203 0.0064326264 0.04904832 0.015558349
шум -0.028456256 0.043837555 -0.006182142 0.020095855 -0.026602712 0.022104464 0.024134532 -0.019148493 0.009194076 -0.031331573
исправность 0.007920095 -0.042910792 -0.0068597514 0.01830413 -0.016694166 -0.002957733 0.026385026 0.04773427 0.0066092936 -0.03067788
начни 0.035643212 0.010379923 0.035472345 0.03955713 -0.0046512852 -0.036114525 0.03172765 -0.013090778 -0.001323555 -0.036819905
приготовь 0.0178242 -0.046879396 0.014362821 -0.019484712 0.0039462107 0.017401038 0.026964562 0.041788824 -0.037360027 -0.029741846
хлеб 0.0030668683 0.007872808 -0.02824855 0.024712978 0.014705532 0.010066817 0.045171447 -0.04630817 -0.022689128 -0.021662196
напор -0.009172575 -0.012567261 -0.017494828 0.03162863 -0.012295178 -0.008042614 0.029363496 -0.028598644 0.0057535917 0.03995869
достаточно -0.022867827 -0.0053045605 -0.029616931 0.0072247363 0.040821854 0.014737461 0.028318157 -0.033891067 -0.032817386 -0.007294962
тише 0.021853192 0.03813464 0.02297563 -0.012068144 0.034580622 0.029492477 0.004536283 -0.036454592 -0.009049437 -0.028438095
часа 0.017596899 -0.035901543 0.020754656 0.0015793607 0.019626975 -0.014495149 -0.011077045 -0.04538055 0.011182838 0.019426417
разбуди -0.027147977 0.044456266 -0.008144334 -0.0005166998 -0.011030567 0.012459287 0.017764071 -0.018205697 -0.044217285 -0.009959591
кажется -0.0082463715 -0.035801936 0.035266556 -0.041785385 0.013197023 0.027771762 0.010964175 0.048310447 -0.03802705 0.015930979
осматривай -0.040172603 0.0018492803 -0.017364671 0.01939999 0.01616507 -0.0013423037 -0.023474272 0.004450206 0.0334192 0.036468454
транслируй 0.026992468 0.029741844 -0.039426185 -0.047687918 -0.026500128 -0.014448441 0.019526342 -0.032121293 -0.013860271 -0.047191106
видео 0.0017077685 -0.0002303366 0.02695824 -0.035736345 0.0009610881 0.023104351 0.026779203 -0.03692045 -0.041687053 -0.043644372
корми 0.008403298 0.04287951 0.0032046323 0.015307163 0.015608133 -0.047667008 0.044648148 -0.04162356 -0.01460959 0.02898965
лампочек -0.02197974 -0.019905439 0.025758352 0.039915774 0.006959434 -0.04958202 0.0104631195 0.04430401 0.021045554 0.012286656
билет -0.024878934 -0.030895846 -0.04697657 0.007471518 -0.029300336 0.030130487 0.03870143 -0.01903552 -0.029872706 0.027967148
улице -0.047039688 -0.027505659 0.0067136325 -0.0025289778 -0.029033773 0.045230612 0.0019185878 0.0319714 -0.00095818326 0.041861404
отключи -0.04832486 -0.002847804 -0.02818067 0.0010086675 -0.030917885 -0.033478566 0.039630838 0.045299318 0.005950725 -0.047532707
слушал -0.018436188 -0.0037725996 -5.681222e-05 -0.015093305 -0.03625614 -0.00723557 -0.033439815 0.024507802 0.032610547 0.011545054
чаще -0.013004445 0.04801199 -0.03976202 0.019036595 0.012264053 0.048836272 -0.03126797 3.35765e-05 0.028464958 -0.010592158
имитируй 0.045484904 -0.013505549 0.009881968 0.011527938 0.010448596 0.030741299 0.026719872 -0.0017535856 -0.044858135 -0.014525579
газа 0.037853945 0.045956273 0.026046762 -0.0016848018 -0.021894528 0.012964243 0.04989705 -0.025536904 -0.037867527 0.007845861
выше -0.01761693 0.0006214178 -0.049434826 -0.007689632 -0.03009405 0.037227042 0.013429326 -0.028487623 0.03633142 0.020393535
часто -0.02625769 0.0050555565 -0.02467549 0.029927153 0.0017057694 -0.010326038 -0.01990979 0.048375953 -0.008240993 0.01926768
суп -0.00227347 -0.039870832 0.041383244 -0.0269144 -0.04969397 -0.01057216 -0.019031588 0.039265104 0.009249036 0.0048126713
средний -0.01180514 0.029856324 0.022332432 -0.045568775 -0.005476271 0.050056566 -0.0017250946 0.0048928233 0.034624785 0.00059951993
расход 0.011143218 -0.024110226 -0.0014804655 0.049276777 0.043045852 -0.0425147 0.026089953 0.017450506 0.029736977 0.04586529
бензина -0.0071392707 0.030923706 0.005170257 -0.022050222 0.008019713 0.046615224 -0.0375137 -0.03057111 -0.03813085 -0.0219748
зависимости -0.049345437 0.0064397445 0.028560339 -0.041905656 0.018767873 0.004167076 0.0019506585 -0.001145711 -0.022846421 0.026859602
заправки 0.023781171 -0.04313231 0.0393454 0.020557625 -0.022909144 0.015670877 -0.022059329 0.03434105 -0.03570396 0.0223947
последние 0.027408531 0.0054653236 0.017975783 -0.033935454 0.034673747 -0.019415062 0.03964746 -0.04881716 0.03934492 0.0009998041
полгода 0.025635583 -0.026859831 -0.024178665 -2.911226e-05 -0.03208901 0.011445706 -0.03353262 0.021923035 -0.006332138 0.042647157
полей -0.035751764 0.046212636 -0.0031903256 -0.0096430015 -0.03277914 0.0048420904 -0.0027167085 0.04083403 0.014310117 0.004233036
зал -0.016367184 0.039285842 0.011690553 0.001446234 0.02612362 0.03515241 -0.039025847 0.0442169 0.041314024 0.038103923
кухню 0.01780551 0.03486261 -0.042841442 -0.029398285 0.010176357 -0.017729755 -0.005211713 0.035611887 -0.036806457 -0.046238173
морозилке 0.0038405198 0.0066207387 0.017820407 0.011048961 -0.019625196 -0.011590597 -0.0020044406 0.030444115 -0.019076828 0.018375862
лети -0.009779866 -0.011189526 -0.00914201 0.009463359 -0.009481286 -0.01786008 0.04581865 0.014624031 0.023948038 0.04672325
мной 0.047693048 0.031851266 0.021663252 -0.023335706 0.03027478 -0.02293481 0.00110335 0.03553788 -0.028564071 -0.042376526
полностью -0.0062136753 0.033361614 0.045647766 0.016226098 0.027991725 0.047042966 -0.029814743 0.04904441 -0.00873991 -0.024370294
воду 0.008460692 -0.04558024 -0.039469495 -0.0027322234 0.020558042 0.038849343 -0.0072391015 0.04909613 -0.030694146 -0.033829886
активировать 0.0037948769 0.011460791 -0.04989461 -0.027324818 0.016857348 0.02058795 -0.033924714 -0.0490089 -0.02650517 0.048663244
устройства 0.0012196737 -0.024432635 0.013065239 0.0028600732 0.0020771988 8.569364e-05 0.039626133 0.01871639 0.020364609 -0.04041074
включены 0.03926522 -0.0010539186 -0.032244723 -0.04952947 -0.016318941 0.03831239 0.010506784 0.02022788 -0.040959872 -0.028983733
данный 0.026572153 -0.0074597434 0.03161532 -0.032055005 0.027743533 0.012819638 -0.047682386 0.0007695898 0.026313389 -0.004469783
количество -0.048189715 -0.04587822 0.028242912 0.007980048 -0.0058673 -0.0155696 0.041465037 -0.013345057 0.00415572 -0.031516284
дня 0.02624983 -0.036840282 0.027566968 -0.019974345 0.023459049 0.010020618 0.04207345 -0.015691869 0.04690053 0.011364864
расчищай -0.040295277 -0.020070609 -0.0176699 -0.020540431 -0.029018242 0.043527488 0.04661296 -0.028098451 0.03653781 -0.022828756
закончится -0.023551768 -0.030826526 0.025461322 0.015107393 0.010026374 0.02568965 -0.00045485186 0.030762691 -0.028349137 0.046158705
зарядную -0.026158882 0.014952974 0.049640052 -0.017110502 0.049290337 0.016636979 0.03877991 -0.014577302 0.0022647236 0.011061612
станцию -0.013549671 0.008890374 -0.01751501 -0.027809352 0.024766017 0.03573147 -0.048625946 0.021651624 0.01982639 0.033199176
освети -0.0071870163 -0.032992028 -0.03737689 -0.011143615 0.024092255 -0.022413438 -0.026578983 -0.0071295337 -0.00665789 0.008647526
жарко -0.032269463 -0.047226995 -0.020372327 0.011334922 0.01240443 -0.029193182 -0.010427474 -0.04486773 0.0029838034 -0.014561078
духовку -0.03580748 0.04904257 0.004099981 0.04048471 0.04327716 0.022844246 -0.0034097834 -0.04061363 0.037097115 -0.037148308
чтото -0.02538756 0.005308888 0.022623168 -0.023019368 -0.006976439 0.03234596 0.036065243 -0.032578852 0.047699414 0.0073471162
электроэнергии 0.019891528 -0.045653865 -0.023480438 -0.048099328 -0.008451925 0.009322773 -0.03893584 -0.0487549 0.003526982 -0.0046108114
уборку 0.004404211 -0.04626838 0.019969493 0.037641227 0.016640358 -0.027619718 0.00080553844 0.019687982 0.005108604 0.025468055
жалюзи -0.03224015 -0.0034265243 0.043149937 -0.011953378 -0.03416318 -0.039375033 -0.045500968 0.035080165 -0.013477305 0.0020085727
выведи -0.019011684 -0.04861505 0.006867756 -0.035174772 -0.046664946 0.026502008 -0.0075112325 -0.031557716 -0.033012792 -0.024500737
покажи -0.02012871 0.04049289 0.0040085143 0.025771977 -0.0070609767 0.0010721217 0.03975255 0.0010013557 -0.029164951 -0.02066315
сервер -0.0116755925 -0.03623052 -0.009396939 0.009749232 0.04110456 0.010971354 -0.023954468 0.021634614 0.04143511 0.046080887
ко -0.03798687 0.04903599 -0.02373095 0.01075202 0.04331459 -0.00859762 0.0012318894 0.042453337 0.0037275585 -0.006569031
установи -0.020062685 -0.038169067 -0.04290272 0.007165916 0.035177596 -0.017454375 0.009945942 0.015471495 0.001554456 0.03989878
чайник 0.040615123 -0.008865293 -0.037650578 -0.012382989 -0.007205984 0.0070324712 0.048780117 0.022529557 -0.024549922 0.00266547
поликлиники -0.015801657 0.02411651 0.020212973 0.0253844 0.0071859946 0.033013217 -0.041898564 -0.019402824 0.044211484 0.027589306
засну -0.011670354 0.025217043 0.021313442 0.02690644 0.016239598 0.011441963 0.025938595 -0.014852777 -0.036474697 0.030649044
градуса 0.027517874 0.02242757 0.0061722794 0.04849856 -0.030217294 0.028492743 -0.048061572 -0.030765828 2.0928279e-05 0.008630534
поддерживай -0.036423 -0.008161721 0.016770827 -0.023638455 -0.004719503 -0.04530175 -0.017519623 0.00893406 0.03476899 0.033456806
подачу -0.0063360734 0.0480403 -0.015239152 -0.0022716504 -0.0023308145 -0.019101225 -0.00038429888 -0.031533133 0.013223654 0.031501196
воды 0.04427342 0.025955396 -0.029047374 -0.012169774 0.012933719 0.008163003 -0.038664576 0.02999594 -0.043772753 -0.01357606
брал -0.009600275 -0.038493767 -0.025535624 0.022909356 0.0009707917 0.010139197 -0.042742044 -0.02599318 0.038421 -0.029615715
лампочки -0.023370117 -0.024384296 -0.03565689 -0.03958584 -0.018861523 0.042232398 0.008622163 0.005717913 -0.044433337 -0.040675163
потребляй 0.033149067 0.013682508 -0.0018985829 0.00023530898 0.013788977 0.0120618995 -0.01882933 0.0019030804 0.017492678 0.0041117873
вернись 0.003873117 -0.018612688 -0.013725895 0.004861913 0.03698962 -0.025238732 0.018365644 0.044314384 -0.011128518 0.016422357
хочу -0.028578369 0.04013392 -0.023580179 -0.0008985433 -0.037642363 0.010570447 -0.0009909224 -0.027261117 -0.04261082 -0.019781562
ванну -0.04564999 -0.03353787 -0.034377687 -0.043101855 -0.0025403115 0.030034026 -0.03432017 -0.024673196 -0.03021502 -0.008241846
газон -0.03302852 -0.02196057 -0.015387801 0.008442811 0.03795698 0.041372497 -0.0006780844 -0.042092793 0.013843893 0.026573712
требует 0.045865405 0.0013038601 -0.025610203 -0.007360532 0.047799394 -0.043115836 -0.009865307 -0.0016796396 -0.026768887 -0.0145328315
альбом 0.033152867 -0.023947785 0.027783489 0.04106051 0.009610543 0.04665964 0.0101560345 0.0023555895 -0.031246647 0.036014814
ел 0.025456987 -0.010091047 -0.0054164715 -0.010686152 0.025611328 0.03716694 -0.011038122 0.0029969364 0.01655898 -0.042082466
запиши -0.039809044 0.023595104 0.036021993 0.041627824 -0.0013163803 -0.040959615 0.020922031 0.025255226 0.043121442 0.026701715
передачу 0.021713095 0.016742384 -0.007428553 -0.03229568 0.019314403 0.04848381 0.0005273515 -0.019475954 0.018861817 0.045304462
заполнен -0.023254966 -0.041176986 0.015216018 0.023338975 -0.0075660693 -0.023372341 -0.0017207931 -0.02030646 0.0018401885 0.010482317
мусорный -0.0072411154 -0.048205934 -0.02816525 0.005704653 -0.0070867366 0.03688492 -0.040295333 -0.0435832 -0.03841524 -0.0077530434
отсек -0.012000736 -0.029709658 0.0016046314 0.042286836 -0.038503572 -0.0019520333 -0.037613843 0.014844497 0.024823591 0.034652427
коллекцию -0.018687874 -0.029129937 0.0282335 0.01873975 0.038003616 0.017860476 -0.044046473 -0.006405434 -0.045106433 -0.026797496
посчитай -0.03388066 0.04307879 0.020501118 -0.01261565 -0.038494624 0.036150444 -0.040988777 -0.017882727 -0.03231553 -0.022292135
уменьшился -0.03041998 0.0065534078 -0.049226522 0.0045890296 -0.019017324 0.038155325 0.031736754 0.007945085 0.022995811 -0.033532616
вес -0.029759096 0.012194186 0.026031986 -0.005095976 -0.025738692 0.025147848 -0.024968166 0.037736002 0.023097964 -0.022468619
каждой 0.0153811835 0.012934423 -0.0007493116 0.029615967 -0.04768076 0.001539943 0.014980021 0.024685333 -0.03124545 0.022282537
бутылки -0.03517988 -0.040586166 -0.0135308765 0.021341084 0.023965018 -0.037137613 -0.034602202 0.02278578 -0.019367015 -0.029404735
уровень -0.02282911 -0.0074589206 0.01187149 -0.02476225 0.02340638 -0.029542897 0.02993859 -0.013234011 -0.0035493362 -0.045423787
кофемашину 0.03154206 -0.045420226 0.01754477 -0.003801328 -0.009355248 -0.020081395 -0.01756782 0.048529867 -0.042556565 0.034903053
предупреди -0.044249408 -0.049417343 -0.039929908 -0.03782336 0.03404757 0.010999341 -0.029151171 -0.017921027 0.041947156 0.04904466
сзади -0.035722017 -0.027867611 -0.027009973 -0.0020502347 0.035052393 0.007619549 -0.0450709 -0.030146781 -0.026437728 0.048904125
очень -0.0015617517 0.015631093 0.005935719 -0.04343341 0.032049824 -0.004075452 -0.013370324 0.0427417 0.008575162 -0.00874959
близко -0.02246092 -0.031015119 0.030575817 0.046081297 -0.0115498025 0.030238373 -0.0012663736 0.0447259 0.030167798 0.017423943
мусор -0.014229713 -0.038320918 -0.043904364 -0.0168604 0.007740306 0.040464897 -0.023775142 0.00447618 -0.032691196 0.0058509796
романтики 0.013445171 0.017719867 0.03737004 0.018036474 -0.017240478 0.026199246 0.013574645 0.03504115 -0.0016868596 0.0005537479
потуши -0.040120497 0.034715302 0.01843781 0.035478923 0.015146278 0.02635456 -0.005654791 -0.024660865 0.006082942 -0.0058492674
панорамный -0.030747252 -0.012396417 -0.046745624 0.028880889 0.016682228 0.021749707 -0.008191464 -0.024706636 0.01599518 0.028601008
снимок 0.045957968 0.048624147 0.03634823 -0.04776794 0.005264009 0.014717937 -0.047322728 0.038133964 0.016273838 -0.02754573
летай 0.027098235 -0.035249915 0.010112122 0.02056658 -0.024071928 -0.038822133 0.028430771 -0.030909091 0.015667649 0.020858891
местностью -0.016045969 -0.029462954 0.04784658 -0.01590035 0.0425249 0.045963813 0.018363941 -0.03478051 -0.047090977 -0.0027249318
сработает 0.04254419 0.0138691515 -0.01196304 0.04709154 -0.0025593536 -0.016303878 -0.01666055 0.028155904 -0.011472272 0.018223803
дыма -0.007848435 0.019938856 -0.04183772 -0.04805363 -0.049796592 -0.010474549 0.013036678 0.03935005 -0.014877462 0.020550871
заблокируй 0.028204927 -0.0041157003 -0.039400235 0.04253131 -0.00939654 -0.030485343 0.0319876 0.008087921 -0.031808343 -0.007824567
вход -0.020760402 0.0032773868 0.045518376 0.0144706145 0.03391237 -0.03763058 0.001973868 0.00559532 -0.004852669 0.040936157
движение -0.036710866 0.049720794 -0.034779813 -0.049358986 -0.01321778 0.04923334 0.014849107 -0.0065687927 -0.0052509103 -0.047519706
период 0.0093410425 0.049795285 -0.009758972 -0.033781104 -0.009899853 -0.030377656 0.004786834 -0.01884214 0.04258532 0.040653013
будни -0.0380956 0.017490707 -0.0050832746 0.017477501 -0.024189025 -0.020281872 0.011648485 -0.018502682 0.017131714 -0.03144346
делай -0.0401541 -0.007667128 0.041493922 0.0022835033 0.041839212 -0.040377285 0.00035917622 -0.019879868 0.042975873 -0.03447042
чайнике -0.015464659 0.04744653 -0.006624886 0.032313894 -0.0034235194 0.007843025 -0.030979658 0.024268853 -0.04955156 -0.046304654
остыла 0.0072595472 0.040813375 -0.005341251 -0.047706407 -0.02003374 0.03541368 0.032429203 0.036770653 -0.043979395 -0.0048666843
листья 0.034219015 0.006176066 0.008087912 -0.0021346528 -0.040671024 -0.037261143 0.023903815 0.039086346 0.031578925 -0.042698212
заплатить 0.04240877 -0.005794547 0.01883113 -0.0006171358 -0.0027420428 0.018261993 0.04069115 -0.04082449 0.007665253 -0.02194192
киловат -0.0053154514 0.008277215 -0.04878468 -0.049411174 0.048150726 -0.03186418 -0.047579087 -0.018021133 -0.008830442 0.013041096
прошлом -0.0068640923 -0.016162682 -0.045627795 0.046014734 0.030207373 0.0028375234 0.0452606 0.015918806 -0.006749984 -0.040964983
помоему -0.045469016 -0.043532945 0.042428568 0.021807859 0.032463145 -0.022307437 0.033085536 -0.02689527 0.04170532 0.03196933
определяется 0.018131536 0.049378876 -0.04037132 -0.0038268385 -0.040771168 0.006687816 0.01460852 -0.012577636 0.03392107 0.04596159
неверно -0.04269063 -0.04557889 0.041980423 -0.04505867 -0.022436567 -0.01256441 -0.04422439 -0.018789329 -0.0474431 -0.024987765
рыбок -0.032745913 -0.04880431 -0.018368408 0.044891726 0.009481985 0.014786287 0.047627218 0.01034504 0.00036272357 -0.049529754
испорченного -0.021277951 0.017439958 -0.0253078 0.023282692 0.047772013 0.030201636 0.027153011 0.014865876 -0.039167155 -0.047254544
спокойной -0.011751328 0.04656752 -0.03927079 -0.045594823 0.018769585 0.0074390555 0.034559414 -0.048193157 0.03404924 0.007864044
ночи -0.047880314 -0.03306136 -0.01743828 0.026215192 0.04059018 -0.02028314 0.02795238 0.011951184 0.024949096 0.0068526478
открывалась -0.041563552 0.042139314 -0.040415812 0.022874951 -0.014279904 -0.021863015 0.045523472 0.004904853 0.0008547018 -0.04234845
избегая -0.049339946 0.019257426 0.026207926 0.0045134677 -0.035692398 -0.040003497 0.025934415 0.024680356 -0.037882827 0.037061572
сквозняков -0.03093884 -0.03987787 0.03554087 0.030925376 -0.041962218 -0.008158549 0.042688247 0.045397673 0.041549787 0.0025563855
машине -0.04786311 0.0310404 0.04344339 0.029370759 -0.02036295 -0.0019760232 0.030182661 0.042628277 -0.038226683 0.032320224
подбирай -0.034660507 0.018848086 -0.0011364263 0.027666938 -0.041141085 0.03710979 0.025236199 -0.019350313 0.026673429 0.011845552
ритм 0.03138049 -0.016244423 0.0060404856 -0.048250206 0.039108504 0.0021704775 0.0033857916 -0.022397086 0.010539452 -0.02959531
бега 0.034559004 0.037608054 0.041617144 -0.023631612 0.0018861531 0.04925609 -0.042477038 -0.004718698 -0.004441336 -0.030735528
дым 0.028822463 0.046430103 0.033068582 -0.010324017 -0.006943122 0.00017743897 -0.036742393 0.024090117 0.011045793 0.03741231
кормила 0.028356045 -0.016149642 0.012979427 0.039686102 -0.0106418785 -0.033314705 -0.01540109 -0.03485605 -0.012983326 0.012775764
помой 0.02577434 -0.015637556 0.017733086 0.016586607 -0.047367796 0.036628976 0.037821677 -0.046117276 0.04470408 0.04757551
найди 0.0001803245 0.018436031 0.0014387296 0.038428266 0.008097631 -0.007973285 -0.049306322 -0.039481796 0.034165435 0.006059785
клип -0.008807528 -0.022232328 -0.008466279 0.013411071 -0.037986558 -0.023316076 0.00056222413 -0.009637857 0.043767564 -0.040812984
песне 0.037193786 -0.040297817 0.025152132 -0.012475378 -0.030653795 0.039117657 -0.010354197 0.04180253 -0.013735105 0.03119996
телефоне -0.024576893 0.0028439332 0.010733694 0.010982133 0.005884061 -0.0016441417 0.008049227 0.0077995784 -0.023381216 0.042725105
ванной -0.037441947 -0.046409085 0.045438107 0.0419787 0.025055917 0.03684382 0.0081178425 0.03691174 0.039421853 -0.0033417172
солнечный -0.021286938 0.02548161 0.047318198 -0.029873896 0.013920758 0.015036795 -0.034186296 0.025538454 0.029717384 -0.031376798
попадает 0.046864904 -0.04702861 -0.0051626386 -0.038569525 -0.036764976 0.014900977 -0.001672503 0.04296813 0.046482757 0.0036194827
компьютера -0.03703468 0.03696162 0.016994447 -0.022171792 -0.021793842 -0.01723683 -0.01897275 0.045702882 0.012895248 -0.03980406
вари -0.017746303 0.006660173 -0.016616503 0.039104924 0.03726052 0.031535238 0.02411475 0.005175837 -0.032770935 -0.040775724
просыпаюсь -0.02339491 -0.04889844 3.7996855e-05 0.045165062 0.03900584 -0.04240556 0.0019818777 -0.027950082 0.025601137 -0.039567377
пункта 0.03614815 -0.010663754 -0.006717567 -0.0015914191 -0.014556666 0.047710776 -0.020785255 0.04804536 -0.038341757 0.04941254
открывается -0.021887816 -0.014371828 -0.008184786 -0.008312047 0.012048576 0.04628942 0.032248344 0.003799718 -0.02893406 -0.015273506
подогревай 0.017958697 -0.04170264 -0.01773086 -0.02646574 -0.042423964 0.0057027503 0.03773275 -0.013136064 0.038235404 0.019744897
пол -0.032422226 -0.0055809873 0.0016262667 -0.00028800464 0.0030639474 -0.00020468175 -0.026878102 -0.014585657 -0.015276823 0.024005538
расчистить -0.041383773 0.042523548 -0.03506592 0.00083903334 0.023328992 0.024168557 -0.025234167 -0.0055110753 -0.043745015 0.031079393
солнце -0.015572717 0.049472857 -0.047723312 0.0036302833 0.030090684 0.034027018 -0.02593274 -0.04217051 0.04979609 0.04145148
прибавь 0.020395035 -0.018220684 0.0251062 0.022460472 0.024882216 0.043533165 0.034605853 0.041736286 0.007299473 -0.0460785
яркости -0.023628533 -0.0011705089 0.009063416 0.024254441 -0.026624506 -0.035225675 -0.02860509 0.029627804 0.023407852 0.020727191
секцию -0.035903536 0.04365024 -0.011784434 0.033161853 -0.006658685 -0.02241729 -0.04555841 0.022426495 -0.014428791 0.005783746
пять 0.012203491 -0.009465305 -0.029168312 -0.0261072 0.005002812 0.012185956 -0.031056425 -0.041042175 0.01091814 -0.035692908
смогу 0.016301068 0.022397093 -0.048935007 0.008186153 -0.037906375 0.021020949 -0.016126659 -0.008640107 0.04726518 0.042662043
ашана 0.03233153 -0.047622122 0.0064338506 0.015521888 -0.024897352 0.022792263 0.0058248816 0.049779095 0.0038418805 -0.026578063
отжим -0.007972849 0.017878633 0.034589097 0.0069526727 0.015190869 -0.044505768 0.011998117 0.031090489 -0.005289711 0.024283035
комнатах 0.037338007 0.011781024 -0.04205368 -0.03373499 -0.032165166 0.044089004 -0.01835288 0.02762392 0.005002176 0.02484822
вечернее -0.015267472 0.040688284 0.027942993 0.014137876 -0.044990428 0.0065087453 -0.0028962854 0.039641272 0.039341677 0.031202324
прислать 0.04749032 0.03918401 0.0022524826 -0.0018791945 0.038335904 -0.015745567 0.002606126 -0.044881288 -0.018075328 -0.014363763
готовку -0.016563946 0.0016881977 -0.048100457 -0.041572854 0.020932619 0.02530374 0.030118268 0.018967234 0.029130017 -0.010489321
распечатай 0.019293033 0.04394039 0.04351467 0.0073363786 0.0007164723 0.008338274 0.03339641 0.0379865 -0.042137098 -0.015060774
показания -0.031365655 -0.044744417 0.026218921 -0.008808156 0.023942532 0.015635045 0.017916841 0.04661584 0.037760574 -0.019862741
счетчиков 0.036889073 -0.037313025 -0.012141399 -0.014669019 0.026731577 0.017600227 -0.040170103 0.024104843 0.04266477 0.041757677
построй 0.029120145 -0.014259287 0.012697449 0.04067458 0.033318803 -0.019146599 0.029811693 0.049187623 -0.048701104 -0.04913377
маршрут -0.016716493 0.029914722 0.014881165 -0.029389909 -0.0032215281 0.013224134 -0.0023987012 -0.0031400009 -0.028751204 0.0068837623
москвы 0.01692015 0.038810033 0.012197633 0.00015987044 -0.04129022 -0.026932294 0.01079051 -0.0074505573 0.008916803 -0.023812534
санктпетербург 0.018526213 -0.038313866 0.037746564 0.0036168918 0.017035117 0.013712973 0.032583762 -0.016833002 0.027363658 -0.01327987
подсказывай -0.040008932 0.046044398 -0.020397332 -0.018243598 -0.042482506 0.049849592 0.024839353 0.015767593 0.011387255 0.011492895
дорогу -0.0058095553 0.0013291319 -0.004732908 0.01043377 0.00016550653 0.04185978 0.02250806 0.030272221 0.03736463 -0.0077254833
начинай -0.02179377 0.004492388 0.038504895 0.02478066 -0.00092764426 -0.0073715663 -0.04491892 -0.024860526 0.04486998 0.022753295
пылесосить -0.025181718 0.00850388 -0.030151207 -0.009917084 0.02500435 0.049601093 0.049961936 0.02477247 0.04602918 0.033229966
днём 0.009482768 0.03379004 -0.045208786 -0.02685271 -0.013705237 -0.044865746 0.025906349 -0.039279036 -0.02083478 -0.019248975
сильный 0.024404164 0.036025412 -0.0073534367 -0.00097411586 0.042963836 -0.027160646 -0.035837248 0.008834569 -0.02670768 -0.024541212
ветер -0.016107736 0.027632624 -0.047966674 0.026612604 -0.029257845 0.044620052 0.01422908 0.043060485 -0.02492726 -0.0047840606
протечки -0.046614487 -0.0015973283 0.03711927 0.0027128574 0.021321405 -0.04391674 -0.04091572 0.025311735 -0.039991047 -0.049135257
включена -0.015501835 -0.03731821 -0.01350983 -0.04262508 0.03714158 -0.026478337 -0.011086089 0.0362647 0.045305107 0.004700075
посудомоечная 0.0011747949 0.013978727 -0.030167446 -0.045413412 0.033073522 0.003811432 0.022296015 0.029554289 0.0110052945 -0.03992626
санузле 0.024856156 -0.03826577 -0.009514801 -0.021467615 -0.006895455 0.039250575 -0.009260864 -0.045215786 0.026487662 0.036018696
наличии -0.04345277 -0.031431675 0.029580139 0.04314483 0.010081306 -0.015451263 0.007023364 -0.03746709 0.0013011583 0.02099321
внутри -0.009515496 -0.014642972 0.032260325 0.00828901 -0.033204366 -0.043665983 0.015275635 0.0381772 -0.0270682 0.020179506
коголибо 0.019344091 0.041983783 0.040372245 -0.0073365355 0.042088468 -0.043507874 -0.011378147 -0.049438607 -0.0046482673 0.043696232
танцевальной 0.020587845 0.004344732 0.035412952 0.045063484 -0.04884388 0.029188534 0.004166918 0.0053885053 0.013979048 0.028408218
теплица 0.020911925 0.030776037 -0.041968234 0.031259213 -0.023098776 0.026003333 -0.026457641 0.049239848 0.02440515 -0.007046759
первые 0.019013945 0.03841938 0.0133523 0.01962131 0.007590399 -0.011766767 0.048672467 -0.0015791034 -0.035312988 -0.015584079
две -0.009751138 -0.029229926 0.046074774 -0.024441205 0.013639784 -0.027610362 0.028592074 -0.03183499 0.030082535 0.033526678
недели 0.002883809 -0.013319716 -0.03777269 0.015670918 -0.0142437965 0.0057652034 0.04220238 -0.040494468 0.044162277 -0.03615598
уф -0.038921595 0.001968727 -0.0199132 0.040318172 -0.005301949 -0.0025397427 -0.0181552 -0.03548033 0.041691456 0.008487778
ик -0.027091507 0.04571659 -0.049903426 -0.035426885 0.018911684 0.01285481 -0.019153204 -0.013057165 -0.012758599 0.009697945
наполни 0.0085231485 0.030298818 -0.03344442 -0.048834793 -0.018434295 0.03323756 -0.0119722085 0.045489952 -0.013499478 -0.020216376
горячую -0.042627074 -0.044677917 -0.016106471 -0.030354254 0.029575024 0.044485446 -0.009209937 0.009558134 0.00071949756 0.042381335
ванную 0.031958237 -0.04986169 -0.02084032 -0.0122056855 0.023490159 -0.015626257 -0.0074118264 -0.038988434 0.0048020342 0.04095735
поставь 0.025512988 -0.009569658 -0.0002730113 -0.031697504 -0.0015130166 -0.01410864 -0.029963827 0.016340889 -0.0061444943 0.01669037
будильник 0.031595692 -0.009989605 0.045346066 0.02895688 -0.033912823 -0.02233416 -0.020772498 -0.029272351 0.011224992 0.03989641
качестве -0.034722876 0.04259738 -0.034652535 0.01927861 -0.030819684 0.04250814 0.049427237 0.0071812468 0.045442756 -0.010066438
мелодии 0.026766008 0.03345217 -0.03732754 0.0030163606 -0.0023703838 0.018660132 -0.045462135 -0.038493805 -0.033376757 -0.014876384
используй -0.024604898 -0.026262155 -0.03263251 0.025608724 -0.01349244 0.018302744 0.015907241 -0.03814848 0.028835876 0.041447327
постепенным -0.034183085 0.033205852 -0.015574017 -0.032436416 0.0053897975 -0.049079347 0.0029440764 -0.02099785 0.04396148 0.0065909107
увеличением 0.007830169 0.009023746 -0.007839845 0.011008493 -0.026277991 0.02439627 -0.039466247 -0.007447577 0.03714148 0.014408395
громкости 0.041164942 -0.0336954 -0.0020168142 0.024821123 -0.0263155 -0.0046228417 0.038605124 0.030018875 -0.003201978 -0.022739323
течении 0.04863878 0.04239666 -0.045941863 -0.036080047 -0.011785246 -0.039610807 -0.0023076013 0.03412186 0.010555041 -0.024347603
получаса 0.008884719 0.015805362 -0.004925838 -0.024014926 -0.04937449 -0.046357077 -6.0044542e-05 -0.045450885 -0.006147484 0.03353731
доложи -0.036545705 0.008099264 0.005321361 -0.00041322582 -0.040993072 0.018001152 0.01725394 -0.018594451 -0.041037295 0.049101084
состоянии 0.040873993 0.03699639 0.0097781895 0.0065621794 -0.046037022 -0.0116708195 0.02771752 -0.00017002401 0.04121928 0.0034195662
урожая 0.015840348 -0.04931037 0.027002817 -0.00028545182 -0.038985305 -0.000393853 -0.043861777 0.032233465 -0.03924655 -0.011625574
датчиков 0.040808134 -0.03538279 -0.016183453 -0.0492011 -0.020396447 -0.04839212 -0.024393944 0.00391018 0.030962754 0.007564479
устройств -0.045250233 -0.038626924 -0.021330794 0.0138893025 -0.045455262 0.020719055 -0.04098507 0.035432674 -0.024094407 -0.009667634
переключи -0.03246986 0.010001695 -0.0009767506 -6.329972e-06 -0.029586222 -0.041373096 -0.007974359 0.038360644 -0.046121664 -0.025546104
трек -0.042731687 -0.037248064 -0.049986344 0.034609403 0.005776915 0.013140313 -0.0061160317 -0.02882714 -0.04913634 -0.018361023
прогревать 0.03526648 -0.025589503 0.02080402 0.020737506 -0.0024221346 -0.032418974 0.02615098 0.0067720525 -0.026291387 0.012833205
мясо -0.04743357 0.016270304 0.011373259 0.0050676144 0.0020168668 0.005672654 -0.026987694 -0.04727685 -0.00978447 -0.009392036
слабый -0.04886834 -0.031675912 0.008416454 -0.044125944 0.017554857 -0.032401334 0.025146512 -0.035624977 -0.005407231 0.03594661
растения 0.020286629 0.040297445 -0.04184845 0.019578008 0.0032195305 -0.044054504 0.019975629 0.030236606 0.021365386 0.0023496207
проигрывай -0.034630794 0.044615623 -0.02671427 0.0046703317 -0.008234087 -0.039461892 -0.018005028 -0.035637204 -0.00012906223 0.014149822
случайном 0.013667101 0.023260584 0.024245905 0.021575138 -0.033675335 0.02015948 -0.033491973 -0.041773245 -0.02794331 0.031794567
порядке 0.025906054 0.02434628 -0.015379646 -0.03991439 -0.0077183763 -0.029659284 -0.011622808 -0.04681832 0.047010552 -0.043555733
сильном -0.009540716 0.0058089187 0.0071758595 0.029999627 -0.045713525 -0.022461152 -0.015936017 -0.037881777 -0.0435928 -0.03156247
ветре -0.0251453 0.032069802 -0.0058599673 -0.017633209 0.017875852 0.04866815 0.015646908 -0.017473916 0.028459447 0.04111012
душно 0.0036953557 -0.016817218 -0.004082594 0.014856965 -0.014155507 0.036859266 -0.036251042 -0.04894114 -0.021694662 -0.015960738
обеду -0.0019322718 0.03307126 0.008082628 -0.04195796 -0.047792412 -0.009294644 -0.03161317 0.018912556 0.033627752 -0.01714665
сухо -0.035908677 0.005988646 -0.0072042327 -0.004585956 -0.0075331135 -0.0031825667 -0.033088945 0.0031114703 -0.0401932 -0.04352623
зазвонит -0.032439828 -0.03856085 -0.00071412494 -0.04546537 -0.019656494 0.004374744 -0.042970777 8.4195635e-05 -0.011060542 -0.023566365
позвонят 0.020148067 -0.025201304 0.023767026 0.038263258 0.0240744 0.014153414 -0.03517512 0.034554508 0.025432503 -0.046829145
году -0.004124744 0.010559032 -0.009582618 0.04950709 -0.03061797 -0.05002526 0.0034906713 0.0199414 -0.024101697 -0.029563582
заплатил 0.0053529614 -0.042450707 0.035490934 -0.0070388834 0.039411344 -0.012952016 0.03381541 -0.019190812 -0.020482792 -0.015296116
денег 0.03479441 -0.04105678 0.0015738291 0.010481551 -0.039968003 -0.014830867 0.042608414 0.022807086 -0.018846262 -0.029468462
потратил -0.0075657107 0.03086047 -0.03339733 0.037212767 0.010978489 0.021387838 0.026179284 0.009643989 0.0010402928 0.012135385
коммунальные -0.0035749192 -0.046678595 0.03579987 -0.013021067 0.022498872 0.03667435 0.041159928 -0.041904528 -0.03331375 0.010082198
услуги 0.015185369 -0.033031818 0.03170938 -0.033364233 0.018692272 0.027254611 0.028323682 0.028819852 -0.014470438 -0.044549283
прихода -0.0011917844 -0.01576997 -0.0037535138 -0.038384635 -0.031132387 0.03668989 0.008393256 -0.011922075 -0.043950588 -0.01874947
отключай 0.015250883 -0.035370693 -0.024273489 -0.034395967 -0.00451952 -0.004204658 -0.018634945 -0.029146193 0.003266989 0.02738371
выходе -0.0232256 0.023648616 0.03622383 7.5199634e-05 -0.035249405 -0.01728307 0.014399388 -0.023489326 -0.017108718 0.010369674
выходной -0.028199773 -0.032376885 0.03773671 0.039013144 -0.01756753 0.005976067 0.0046934434 -0.0011839429 0.030453248 0.02317715
выключения -0.04168982 0.008686908 0.010762038 0.027099095 0.023434415 0.033035975 -0.0464882 0.021758173 -0.017237803 -0.010049071
попугая 0.041007817 -0.0391103 0.027622672 0.012752534 -0.046526022 -0.007109432 0.042801253 0.018474322 -0.036769237 0.031429406
температуры 0.0012044605 -0.020749643 -0.039664675 -0.027807588 -0.029480398 -0.03223946 0.00653395 0.0257731 -0.03601634 -0.01609177
вышел -0.030942151 -0.0066721193 0.044553533 -0.022032015 -0.011968176 0.04207484 -0.030805126 0.028034154 0.026719386 -0.0121622505
строя -0.011745469 0.037100736 0.03162637 0.005574642 -0.024357153 -0.0108822435 -0.008329092 -0.044172857 0.016166417 -0.04438052
потрелбяют -0.005344256 0.033947483 -0.012171574 0.025740432 0.02158694 0.039894752 0.03961591 0.046053853 0.01505003 -0.025088973
лампы -0.022756446 0.032519687 -0.0033693484 -0.026167147 0.027799368 0.021239527 -0.03825504 -0.019718807 -0.03916124 0.038868237
светомузыку 0.023107512 -0.04328873 -0.023330394 -0.031595524 -0.008920801 -0.034148004 0.021172585 -0.03477414 -0.03982137 0.0024562657
перекрыть -0.025942998 -0.009063613 0.0054507405 -0.021023009 0.0066567915 -0.030209014 0.035667196 -0.0049333503 0.036289748 0.023802394
водоснабжение 0.023331568 -0.023888838 -0.037787374 0.010607615 0.033850003 0.019147087 0.043365195 0.013780479 -0.01845757 -0.039772082
полу -0.0100607965 0.030473959 -0.0399022 0.046044704 -0.03798984 0.027301202 0.041820087 0.0482275 0.014231077 0.04018063
обнаружена -0.0011948162 0.003004676 0.0030334224 -0.023699958 0.047940414 -0.01058475 0.005199065 -0.03375887 0.0052673477 0.030105684
движения -0.042065207 -0.04124799 0.03295129 -0.0015290859 0.0042628883 0.00412577 0.042832013 -0.04773853 0.013239114 -0.02883134
оператору 0.00025349457 -0.048273847 -0.031856027 -0.02183476 -0.02627893 -0.013362695 -0.022104792 -0.026576987 0.029707726 0.0023890347
пса 0.02950753 -0.02002101 -0.010076833 -0.021973722 -0.01138225 -0.0024510245 -0.022007952 0.04073426 -0.010492594 -0.009060517
раза 0.005082027 0.018849973 0.015355542 0.03613165 -0.016992712 -0.038130667 -0.03817013 0.015389821 0.004424067 0.023576325
перегорело 0.024942458 0.040339183 -0.022681026 -0.024013126 0.028311126 0.04493475 -0.03618051 0.03285733 0.0070672594 0.028142637
кого 0.0027397193 -0.04327877 -0.037340663 -0.049435873 -0.02088492 0.019260446 0.03917944 -0.015301812 0.016226059 0.015376742
какого -0.04847361 -0.042586226 -0.037419338 0.022106044 -0.0021466264 -0.027999077 0.010331711 -0.012840698 -0.0409838 -0.0177908
исполнителя -0.010746127 -0.022315577 0.03962295 -0.01660456 0.0136877205 -0.022762252 -0.039667156 0.026293213 0.012045833 0.012533534
неделе -0.02477511 -0.0075651044 0.030662462 -0.04770922 0.026323862 -0.016537562 0.022833906 0.01647895 0.049218886 -0.024386106
присутствие -0.021478027 0.018585274 -0.018683473 0.029544305 -0.031091748 0.013237267 -0.0145561015 -0.012629114 0.03315182 0.0074535455
людей -0.01648394 -0.035638113 0.019463174 -0.03712514 -0.032373887 0.00941104 -0.030079683 -0.031871017 0.023996325 0.04471872
июня -0.010417053 -0.007916188 0.026892956 -0.047096215 -0.019119529 0.019845309 0.01890671 -0.025144495 0.036183286 -0.03348611
июля 0.04990262 -0.02389179 -0.01501342 -0.041370906 0.031275813 0.0050359787 0.01680339 0.04918402 0.04487785 0.001427967
динамики -0.03949745 -0.0143631 -0.011264048 0.024277179 0.02335132 0.0055574505 -0.027021384 -0.029378042 0.012034749 -0.04777635
гостинной -0.028876126 -0.029645408 0.018456236 0.025651822 0.025642142 0.028128605 0.025445687 -0.013784032 -0.0046272175 -0.0068468163
её -0.029739123 -0.01753893 0.04025435 -0.0236682 -0.037624285 -0.045299284 -0.021757571 -0.00039314313 0.024978261 0.023256956
закрыть 0.011215487 0.0075850263 0.0037607895 -0.005755861 0.01952242 0.013622398 0.037413023 0.012174793 -0.01667965 0.04526307
начался -0.033678778 0.040578343 0.0022361435 -0.021675644 0.003723273 0.047690857 0.010227932 0.04335917 -0.015482359 0.028852936
содержание 0.03284388 0.0029850947 0.013116866 -0.023001947 0.046129744 -0.0027755196 -0.0063635744 -0.03897521 -0.010209316 0.023054153
углекислого 0.038533438 0.008959145 0.03953935 -0.014498412 0.025526641 0.020658974 0.03940633 -0.020669905 -0.0014642811 0.043844398
отпуск -0.035325516 -0.04752597 0.038335446 -0.009917379 -0.04959259 -0.045865472 -0.023086343 0.010802843 0.034982402 -0.006589821
последняя 0.02923165 -0.039845515 0.04714958 -0.045390133 0.017640878 -0.040608067 0.0038869833 0.0028836667 -0.0050994754 0.03466049
уборка 0.01122939 -0.0073106927 0.014100184 -0.045431517 0.02572398 -0.035276383 0.040802564 -0.006468574 0.00021693474 -0.0450697
ставлю 0.031228343 0.028659731 -0.010346533 0.04191604 -0.018057639 -0.020913586 0.012670473 0.03305777 0.005992442 0.03794002
ягоды 0.044808265 -0.024610411 -0.036023103 0.007432743 -0.03786331 0.026730105 -0.028346753 0.020661108 0.03294276 0.043995406
огурцы -0.03439666 0.019231243 0.024819685 -0.022042653 0.04128308 -0.030586412 0.005908115 -0.016027195 0.008169079 0.00042367607
напомни -0.024418097 -0.039014652 -0.04873322 0.03199536 0.04058787 -0.023434745 0.01802022 -0.035939816 0.043708313 0.0137923295
поливались 0.03949038 -0.04552908 -0.039331213 -0.017504238 -0.028781708 0.027567744 0.00029331478 0.04276425 0.00840141 -0.04461291
цветы -0.040227856 0.0068521337 0.039313044 0.0431881 0.012737519 -0.037058663 0.014466862 -0.029209465 0.04409099 0.0040733013
запрыгнет 0.035702094 0.01981894 -0.0335546 -0.0394267 0.0013227444 0.035241097 0.04585177 -0.027244225 -0.016233684 -0.011773277
шкаф -0.03599427 -0.0013681527 -0.00774178 0.038276028 0.0230187 -0.019177787 0.015059943 -0.02192924 0.017017994 0.035207365
спугни -0.025287598 0.016354699 -0.049724985 -0.013772482 -0.041034844 0.04597595 0.025826067 -0.027871111 0.026455207 0.049509566
включив 0.025760576 -0.015854063 0.036714368 0.013793811 -0.022521377 -0.041816957 -0.035961755 -0.014007074 0.013700233 0.04898707
телевизор 0.020431858 -0.0447361 -0.0050856066 0.00064423075 0.043094866 0.04902338 0.01660524 0.017525364 -0.029112495 0.015650773
стиральную -0.02190973 0.036013987 0.0132844 -0.04751441 -0.008012874 -0.049445033 -0.04679551 0.03298475 0.009993104 0.03961807
каждое -0.006420322 -0.0077947406 -0.023861814 0.027894933 -0.02746804 -0.04840078 -0.024896743 0.029519482 -0.027740443 0.025638718
четное 0.010579466 0.011217257 0.019044839 0.03165209 0.012602896 -0.013423957 -0.011494342 -0.009265327 -0.0138412975 0.005257386
число 0.025171004 0.0060345163 -0.014154922 0.0025107816 0.037295938 -0.011537211 0.004912849 0.04300062 0.04365832 0.007034671
месяца -0.03894173 0.033571754 0.015876697 0.013488167 0.039220374 -0.03889712 0.015662458 0.039806627 0.023708977 0.0075120516
быструю 0.0355797 0.00783822 0.028961731 0.014493854 0.0299997 0.009185456 0.015285306 0.016115386 0.007864444 0.0126082525
заморозку 0.0020987843 0.02408823 0.007201492 0.0086676385 0.024555346 0.011003613 0.00030860442 -0.0105500445 -0.048220888 -0.04653037
позволяй 0.04603383 0.017573547 0.034034856 0.019069893 -0.0053292727 0.0052105137 -0.030122919 0.010810633 -0.029029889 -0.007709613
коту -0.025171503 0.009861986 0.006895653 0.020980006 -0.003392494 0.018463986 -0.010285596 -0.010520092 0.037966054 0.0059321797
запрыгивать 0.0141375605 0.022706414 -0.005312416 0.021568699 0.024860088 0.035792775 0.04339368 -0.031159904 0.042022195 0.04874845
подсвети -0.00051476987 -0.003942957 0.019259078 -0.033913672 -0.04928306 -0.010332568 0.02710042 0.016924592 -0.038067754 0.044629004
путь 0.00034493618 0.033336543 0.013698841 0.038824018 -0.0036189104 -0.001569366 -0.020984339 0.033342373 -0.008828872 -0.02370917
аудиосистему 0.0039025554 -0.017987523 -0.025387624 -0.008460667 -0.027951058 0.043113064 0.016772343 0.019256042 -0.04769326 0.0354014
прихожу -0.036733277 0.021215003 -0.0032222716 0.04300713 0.03741272 0.009966951 -0.03335401 -0.021469988 0.023958046 -0.029333165
приду -0.03788611 0.011589472 -0.03708375 0.0019807224 -0.025633963 0.002053893 0.010730533 0.015682494 0.008752262 0.04782415
чай 0.0069432897 0.036856268 0.005505881 -0.018879684 -0.040737785 -0.047689024 0.04169124 -0.024976313 -0.04617391 -0.006246802
зашло 0.026116606 -0.03755037 0.017946454 -0.022696083 0.046074927 -0.008184305 -0.04037972 0.004942006 -0.0012594954 -0.029654782
домашнее -0.0073134224 0.010995566 0.049059466 -0.020914195 -0.012362706 -0.012255677 -0.018134974 0.030200213 -0.018666122 -0.036877315
животное 0.015418057 0.0009932823 -0.008666754 0.023897197 -0.022256395 0.019162696 -0.02411469 0.040731322 -0.0058962433 -0.0083318455
суперблокировку 0.029649833 0.016516661 0.011685787 0.009600472 -0.042944588 0.03570406 -0.013848561 -0.0231273 -0.023308493 -0.008436737
входной -0.016459063 -0.049815707 0.041186187 -0.044073943 0.02890682 -0.03819674 0.026844291 -0.0020958453 0.022490315 -0.0042705005
звонит -0.041690093 -0.034988843 -0.04913626 -0.00096935 -0.0036318877 0.020029256 0.041794654 -0.04623085 0.010714817 0.037273373
незнакомец 0.006871338 0.01865134 0.010173529 -0.013202001 -0.030611832 0.033342022 -0.016950129 -0.04231545 -0.036776118 -0.03581625
также -0.007651566 -0.0073723574 0.011826662 0.049503762 0.0002582176 -0.018817127 0.04526785 -0.04845429 0.0043246225 0.03110831
выслать -0.031490214 -0.0074251974 0.009888446 -0.033662956 -0.03114158 -0.017957887 0.048890766 -0.027695697 -0.01529037 0.026266241
фотографией 0.014239343 -0.003997175 -0.012905767 0.020380002 0.010348858 -0.026587399 -0.0051720985 0.046661288 -0.015836589 -0.031411137
мяса 0.031037455 0.0345687 1.9986308e-05 -0.029166907 -0.0059093945 0.011551036 0.0023063198 -0.0024935086 -0.000587524 -0.035693683
перечисли -0.038609777 -0.02817677 0.017551001 0.039076403 -0.003139457 0.03191778 0.03545269 -0.047862478 -0.006201876 -0.025118023
которые 0.023371348 0.04952556 -0.010192124 -0.0312962 0.017385071 -0.008752038 0.04907684 0.043474544 -0.011261088 -0.039186727
момент 0.034021385 -0.015882514 -0.008157667 0.01641169 -0.04422076 -0.01651178 -0.031156719 -0.036341615 0.014691279 -0.031917896
потребляют 0.046594176 -0.044758737 -0.023222111 0.033729028 0.026488656 0.019330032 -0.025000347 0.014414505 0.04133087 -0.0461489
наибольшее -0.035895504 -0.0010186479 -0.011683228 0.015907574 -0.039378755 -0.008990111 -0.03259489 0.029222613 -0.043617025 0.015548397
романтическую -0.030948505 -0.00651848 -0.036514863 0.041572165 0.047980383 -0.02146965 0.010125404 -0.007210162 0.024460016 0.025005281
атмосферу -0.039102618 0.023171341 -0.020874053 0.032892063 -0.042940773 0.005839583 0.010149473 -0.029474946 -0.02032524 -0.026796483
напечатай 0.03389447 -0.048933696 0.00039459564 -1.0745243e-06 -0.01445477 -0.024433652 0.03378272 -0.0069040162 0.026907086 -0.015331036
свежий 0.04753363 0.039215233 0.002705961 0.048073553 0.031212922 -0.002844468 0.013030001 0.02353822 -0.049684145 0.019359367
выпуск -0.037270382 -0.0038133496 -0.044257063 -0.04061155 0.028313955 -0.03943848 0.0028553342 -0.016621744 -0.043041706 -0.005243249
новостей 0.044828452 0.01976385 0.027932253 0.0056690425 0.004401063 -0.007929921 -0.037962053 -0.017996699 0.018246055 -0.012134969
заряд -0.011674427 -0.0062852395 -0.023578906 0.01109817 0.009929544 -0.040074714 -0.02530808 -0.038901612 0.03327929 -0.032882594
подзарядки -0.0008158535 0.003347793 -0.020710379 0.013855008 0.015937274 0.031186504 0.025467724 -0.0002534628 0.014706825 -0.03725307
продолжай -0.043236937 -0.0046794447 -0.032050237 -0.025633963 -0.04861834 -0.026165325 -0.0019285084 0.010905629 -0.017833266 0.012810289
закрыты -0.037424065 -0.017339528 0.014116956 -0.021127097 0.043958213 -0.03981218 -0.044595722 0.04721182 0.0014707288 0.02082364
ворота 0.0033495903 -0.013376498 -0.022753417 0.014488027 0.034281503 -0.024237327 0.01817196 -0.030464996 -0.041486595 0.026323115
гаража -0.047132272 0.0076431744 0.049422227 -0.005460902 -0.017337635 0.031384077 0.0402382 0.049441792 0.042704374 0.034552313
мешал 0.04568324 0.03698646 -0.0021477686 -0.007874 -0.034897316 0.049474455 0.028985456 0.0042026187 0.015117565 -0.011145062
станет 0.029739069 -0.004484621 -0.012177461 0.03549483 0.022732489 -0.008282693 0.04829704 0.038920864 0.025456676 -0.039551474
придет 0.04819863 0.035667807 0.009933155 -0.014862317 0.043255102 0.017938102 -0.0364651 0.033270445 -0.016220557 -0.015866306
автобус -0.0035053322 -0.029351618 -0.046245776 -0.0024251253 0.010400364 -0.03713053 0.038825877 -0.03618358 -0.022621285 0.026151437
зажги -0.02322064 -0.010404443 -0.0074685942 0.031235266 -0.0473778 0.034717582 -0.04226136 -0.018314688 0.044520494 -0.012001818
фонарики 0.046291366 0.019969467 -0.010257279 -0.026415884 0.023735294 0.049751557 -0.013037502 -0.042146027 0.03757225 -0.007894276
навесом 0.014095291 0.012515942 0.005485758 0.043420002 0.033542953 0.0046110465 -0.009829592 -0.019728066 0.027018363 0.036688503
захожу 0.027704544 -0.010594368 -0.04254264 -0.013099091 0.003959158 -0.02165553 0.037200935 -0.00893042 0.015751015 0.030727975
часам 0.01076464 0.03119475 0.028740816 0.0381484 0.031737767 -0.030128557 -0.012476384 -0.017627772 0.0021692691 0.034871206
почему 0.04757702 0.022895312 0.006861143 -0.01637661 -0.014242733 0.039719176 -0.040755417 -0.04157554 0.012857717 0.04832098
подгорит -0.04851736 0.0016814664 -0.018193169 -0.02288016 -0.030606283 -0.023412433 -0.0020087243 -0.042902663 0.0028068079 0.0017138604
плите 0.01715073 -0.037355725 0.027877979 0.030318802 0.040789492 -0.0055030305 0.00020833223 -0.023597887 -0.011701984 -0.0040284917
вытяжку -0.028486973 0.005126807 -0.045695357 0.0491165 0.046478506 -0.032338094 0.010205142 0.01099006 0.020479739 0.025005914
максимальный -0.022204135 -0.03719177 0.039611902 0.001141796 0.014407319 0.012418751 0.04480695 -0.0049110153 -0.0039031997 0.012985433
режим 0.011622492 -0.04183061 0.022111619 0.04494787 0.048495468 -0.027751237 0.026677648 0.0034117543 -0.024097828 0.0049003367
контролируй 0.04291415 0.030721199 0.011358258 -0.035080347 -0.005681895 0.02926606 -0.038535103 0.026152182 -0.045692716 -0.032606866
климат 0.008413464 -0.024289075 0.01433089 0.03216697 0.0042670025 0.03828437 -0.0016983396 0.04674972 0.009486233 -0.013033296
какое 0.025531098 0.0121926945 0.044103183 -0.0022488076 0.03606893 0.012353023 -0.0057575856 0.029730948 0.005610861 -0.04126257
затрачено -0.02169845 0.00811981 0.016572284 -0.02403978 -0.039214678 -0.035458766 0.019654289 -0.03756007 -0.005951777 -0.027170524
водонагревателем -0.035542727 0.018981744 -0.041161474 0.029002832 0.024997821 -0.008212829 -0.044298578 0.03854301 0.01039747 0.012688876
потеплее 0.034305383 0.006317492 -0.044409838 -0.03011732 -0.04096052 0.005899546 0.029078085 0.025233874 0.0064349156 -0.04807416
ехать 0.042969022 0.04502685 0.03678006 0.027116008 -0.026314778 -0.04670275 0.01534063 -0.047586795 0.042031575 0.043895457
ст 0.030162709 -0.03663704 -0.021336341 -0.012064382 -0.047268372 0.036452208 -0.00814302 0.0013866095 -0.040408216 -0.016000818
метро -0.029416123 -0.0149578415 -0.039501533 -0.042365585 -0.045768615 0.039599277 0.014273825 -0.024639739 0.024814706 0.03453922
горьковская -0.029302374 0.010800602 -0.006839887 -0.013538366 0.02152558 0.0305931 0.015864782 0.025684183 -0.036319394 0.037113007
занавесь -0.015775329 0.0012249082 0.032683484 0.03350469 -0.026981922 -0.021781944 -0.028125437 0.043435544 0.042439424 0.034724988
грамм -0.03546819 -0.034566946 0.02054893 0.033402115 0.039300956 -0.001842556 -0.0063698716 0.023061177 -0.010815957 0.027777899
корма -0.013145143 0.005774006 0.03917299 0.013114318 -0.0062419306 0.032484125 0.0134512065 0.0038822647 -0.018978849 -0.015992798
уйду 0.038635485 -0.03474399 -0.025505174 0.04713422 0.041147478 -0.033013143 -0.047603328 -0.040261 -0.032350592 -0.03906497
дверей 0.03523838 0.045406844 0.03519558 -0.013795429 -0.026988395 -0.04722995 0.0010976136 0.044018634 -0.00084877 0.048623398
открыты -0.037427735 0.023115605 -0.02211105 0.02734363 -0.0330549 -0.020730808 -0.03464597 -0.028602742 0.012767102 0.029983092
опусти 0.024765829 0.017881468 0.0028932 -0.047276836 -0.0062636603 0.014285636 -0.047023598 -0.016149485 0.025270892 0.015781868
начать -0.045492038 0.010991226 0.026997263 -0.033433635 0.017440084 -0.0004561995 0.032519434 -0.014456063 -0.03884002 -0.048348296
утюг -0.00011605365 -0.040581644 0.022642085 0.039268024 0.04712677 0.018958714 0.049780708 -0.03045299 -0.013225003 -0.03521937
всё 0.0051433463 -0.0026182106 -0.009021691 -0.047595344 -0.023556676 -0.025552059 -0.03768527 -0.044940136 0.02617865 -0.044648003
включен 0.03816475 -0.040954713 0.038671114 -0.019604037 0.016106626 0.012098666 0.009395014 0.022111328 0.017832495 0.00025093596
отключить -0.023622813 -0.011444367 -0.0073412424 0.011946679 -0.027398204 0.010312414 -0.023528127 0.012384794 0.012951448 0.042434927
статистику 0.021638786 0.017066885 -0.01779749 0.0093716215 -0.014539162 0.0403986 -0.0062808595 -0.040174626 -0.0006159334 0.026309667
прослушиваний 0.044503745 0.03577416 -0.031563032 0.026689818 -0.042309925 0.036628705 -0.035008878 -0.0201192 0.037047986 -0.03673544
список 0.024589797 -0.014852363 0.0017999392 -0.002699712 -0.021971876 0.01117364 -0.01208957 0.02626597 0.016357439 -0.033929598
продуктов 0.04969018 0.012760458 0.014707919 -0.030273631 0.019260682 -0.016094428 -0.034493774 -0.00020565998 -0.019531308 0.032855347
уходить -0.013812497 0.028124021 -0.046826553 -0.0471141 0.02157208 -0.021413282 -0.02181467 -0.018148404 0.042844776 -0.034991395
работу -0.048374377 0.029459884 -0.0013900464 0.0497461 -0.04472803 -0.015046239 -0.0072243353 0.02577733 -0.04211059 -0.021652143
открыть -0.010153007 -0.005661217 -0.008039696 -0.0006505556 -0.042134795 0.019178092 0.0002905779 -0.003922646 -0.031139739 0.015377901
гараж -0.0014317702 0.025039528 -0.025160596 0.022501925 -0.02600438 0.036924295 0.045439217 0.0042367107 -0.032813888 0.03897059
выгнать 0.022512656 -0.028109219 0.044846628 -0.005072331 0.02927231 -0.037436843 -0.033725914 -0.018168276 0.0072363676 0.048018802
оставить 0.009363873 -0.025043158 -0.007915623 -0.04042059 0.028836591 0.01117719 -0.019225253 0.042982157 0.0407676 0.015396798
двигатель -0.036036916 0.005954613 0.04722153 0.01567188 -0.042650092 0.001960547 0.04466614 0.0143010225 0.021249007 0.037156966
работающим 0.044416536 0.033242565 -0.030650562 -0.021983707 -0.02836428 -0.013993331 -0.014998771 -0.048865527 -0.034631066 0.015903369
необычное -0.03786823 -0.0047464604 0.005407605 -0.022736242 0.04753021 -0.0121478615 -0.04409911 0.02905959 -0.023036547 -0.0033536258
убирай 0.037807312 -0.014980831 0.025676677 0.03109269 0.0050270976 0.011465781 -0.017155493 -0.033662196 0.0012588227 -0.016538769
псом -0.04237268 0.018014621 0.042492345 -0.00081397616 -0.023939556 -0.010089988 -0.02020156 0.048588242 -0.03456797 -0.025394952
сходит 0.020533679 -0.01652143 0.032172576 -0.031359076 -0.039320003 0.031942017 0.019637872 0.03219581 0.024903169 0.03002474
туалет -0.004308979 -0.028911037 -0.009316502 -0.049056284 0.013753018 -0.006963182 -0.00505605 -0.00628785 0.008916233 -0.00076935947
успокаивающей 0.006405177 -0.00682758 0.008976072 0.032161016 -0.036476426 0.025332903 -0.01231004 0.012245527 -0.034818567 -0.043408304
пола -0.0109196035 -0.043333083 0.012624858 0.007385402 -0.048081417 0.0020392402 -0.0013103134 0.013136597 -0.028016673 0.049861312
следуй -0.031945564 -0.031055953 -0.018937021 0.033129513 -0.015222231 -0.030693669 -0.023037437 -0.015652252 0.024376275 -0.020823635
командам 0.023617549 0.014927519 0.02470754 -0.017005458 0.04664929 -0.039263614 0.02664435 -0.00951473 0.0057256706 -0.006434405
сервера 0.014246874 -0.032198127 0.043868434 -0.004839595 0.025687309 -0.0050307424 0.0055662068 -0.03473373 -0.037695833 -0.0486126
скажу -0.014146056 0.018799234 -0.035155647 -0.040492192 0.01455061 -0.0033185412 -0.049412224 -0.04084176 -0.04155318 0.026670337
возвращаться 0.032252748 -0.029058158 0.007572361 -0.047727793 -0.035720773 -0.0037269546 -0.04177094 -0.045785908 0.0012282486 -0.036129173
недоступен -0.035040647 -0.037088368 0.036289215 -0.012302019 -0.014632838 0.04082894 0.0051791226 0.049537823 -0.02965339 0.012518616
возвращайся -0.03970278 -0.030186137 -0.013277443 -0.04619795 0.0490174 -0.006277952 0.0036260088 0.022630967 -0.006475118 0.007029069
необходимые -0.006185799 0.039646078 -0.008389094 -0.0009416572 -0.025746386 0.020371612 -0.041077662 0.033285838 -0.011254704 0.026657442
условия -0.000442801 0.007869126 -0.019576492 -0.023703685 0.03778255 -0.011519557 0.044323854 0.0130881155 -0.019207556 0.006199472
роз -0.032716338 -0.01796275 -0.033354156 -0.015119546 -0.0021871303 0.040347364 0.029857008 0.042100873 0.013239184 0.024778603
светлее -0.032120366 -0.041255075 0.02510033 0.043159902 -0.038987648 -0.04548758 0.038802117 -0.040554494 0.044458468 0.008876881
приходить 0.034919713 0.03718095 0.043727923 -0.020802043 0.018024232 -0.027809722 0.030863687 0.030986713 -0.027337894 -0.013372452
прихожей 0.04598504 -0.0028682512 0.03079812 -0.033652157 -0.007114981 0.039317586 -0.019862553 -0.027886592 0.028985895 0.004940003
добраться -0.015476604 0.035011996 0.030069767 0.013399972 0.016098797 -0.022018272 -0.018450756 0.035938937 0.041007716 0.012233379
чтонибудь 0.022530716 0.011032239 0.009057614 0.037400346 -0.010390727 0.042117808 -0.04487697 -0.036405 -0.0034170172 -0.00300075
погромче -0.046341892 0.027382279 -0.045952745 -0.004330078 -0.042023204 0.03283169 0.0030942492 -0.027685456 -0.03075242 -0.04258238
ночное -0.024033932 0.041801464 0.0064840945 -0.020535555 -0.049876023 0.0055870665 -0.005768087 0.015331406 -0.049757853 -0.029313287
спать 0.019113658 -0.014487182 0.034391303 0.041555084 -0.014536882 -0.0018156855 -0.018289018 -0.049014058 -0.0069387606 0.0014270104
просмотру -0.020642133 -0.02242335 0.026304156 -0.024316719 0.03481499 -0.0035529295 0.026167978 0.03521466 -0.008600679 -0.03170525
фильма 0.014114076 -0.03606648 -0.020372136 -0.0063409656 0.0077300924 -0.010612198 -0.029727701 -0.04920501 0.019573111 0.009262042
какиенибудь 0.04624804 -0.0072923293 0.015380274 -0.016508082 0.019990552 -0.040316895 -0.034940366 0.010093405 -0.020253971 -0.0064926404
фрукты 0.041001033 0.021668583 -0.031703718 0.024410106 0.020984175 -0.011443368 -0.043887723 0.00069100014 0.038634688 0.034054685
процентов 0.01716375 -0.03727833 -0.014504175 0.008620325 -0.050110236 -0.015480668 0.018067459 0.023716656 -0.004094183 -0.0058381166
тихо -0.044659697 0.024829637 0.044478405 -6.817723e-05 0.027801696 -0.026508328 0.032697357 0.011679747 0.012494165 -0.040592704
час -0.012515528 -0.019063726 0.010406432 0.008980931 -0.008203395 0.043675814 0.014208932 -0.042640984 0.016279103 0.0060835755
подогрей -0.021353945 0.047805615 -0.008150613 0.0014241855 -0.005843809 -0.03685488 0.045035955 -0.036848556 0.012724084 0.048110448
полотенца 0.020132635 0.02321607 -0.045529865 -0.042680062 0.008961665 0.023190899 0.036245745 0.0356824 -0.0003301632 0.0058175763
тому -0.022647796 -0.036091506 -0.027480496 0.022436386 0.02225408 -0.0071269297 -0.004628616 0.013064747 0.0033845901 0.036137834
моменту -0.00029193074 0.029798018 -0.010553336 -0.009246363 -0.013213036 0.033092916 -0.00012526927 -0.021639002 -0.033843957 0.037008304
закончу -0.014008491 -0.036424004 -0.027665777 -0.020740008 0.0382646 0.0020147103 -0.020546889 -0.00027092348 -0.035865802 -0.047430452
принимать -0.035550743 -0.0030768954 -0.047873534 0.00726772 -0.05021406 0.03751774 0.010328106 0.014539674 0.00029489447 0.02972007
душ -0.017731296 -0.030572217 -0.00648948 -0.011271447 -0.047559638 -0.011167376 -0.032896258 -0.026302295 -0.010769147 0.030281477
ест -0.037758674 -0.0225577 -0.0074508744 0.015509261 -0.014193798 0.008151192 -0.042951304 0.043225136 -0.039027162 -0.03939201
дальнейшие 0.030705122 0.038454022 0.03257851 -0.047694933 -0.0063840887 0.045007784 -0.0074044927 0.016783655 -0.027526401 -0.018826306
команды -0.015167219 -0.042331364 0.003232957 0.033451345 -0.036681183 0.049137067 -0.043872975 0.026480827 0.0039245547 0.021399586
получай 0.045047615 0.022474617 0.008343795 -0.023154045 0.013916901 0.04581206 -0.04340916 -0.04739746 0.0031923805 0.04485097
текст -0.024579369 0.0310167 0.014454654 -0.004689512 -0.035264984 0.004514887 0.0032312034 0.0405623 -0.024601083 0.009404674
телефона 0.035025313 0.015026464 0.04291347 -0.026031712 0.0474814 0.036312558 0.017468454 -0.03858246 0.0019691933 -0.011829505
займет -0.039155815 -0.021673065 0.043693475 -0.016601019 -0.04721899 -0.045820836 -0.045024723 -0.048171405 -0.018730177 -0.018594822
дорога 0.045267727 0.04105165 -0.036619127 0.00072436535 0.037183218 -0.025092335 -0.04761857 0.031999014 0.025751146 -0.040626623
б -0.0037835483 -0.0042132204 0.013057202 -0.024630046 -0.04887036 -0.021219661 -0.035155267 -0.008937633 -0.0038103152 0.041845832
учетом 0.0377294 -0.03383197 0.030515557 -0.024649981 0.027117644 -0.026022598 0.036866307 -0.049759533 0.04967825 -0.027633647
пробок 0.046409935 0.009204463 0.027739655 0.014465821 0.021032507 -0.0050177067 0.039900877 0.038989853 0.00959136 0.045862954
звонить 0.045705985 0.04422025 -0.022640742 -0.021826427 0.026367556 -0.018016191 0.005525122 0.01264579 -0.033586297 -0.0057823486
вышли 0.031634327 -0.035920225 0.047266018 -0.047754563 0.04724757 -0.026467003 -0.03914422 0.017772427 -0.005054297 0.019299958
фото 0.010326831 -0.0392046 -0.033071782 0.019667 -0.03326213 -0.026446225 -0.013908852 0.01825002 0.013507341 0.042854507
слив 0.038613293 -0.049098343 -0.0054601957 0.003341932 -0.009863587 -0.04639511 -0.034515426 -0.0019932655 0.02961604 -0.00048215836
бассейн -0.04419795 -0.024518004 -0.017462691 0.00640465 -0.0018900983 0.007011471 -0.032452676 0.035228327 -0.038191404 -0.025795778
наполнится 0.015809432 0.050121352 -0.0260922 -0.025406666 -0.026914908 -0.047305565 -0.04447439 0.048277263 0.015499118 0.0039359103
заданного -0.025033379 0.012056481 0.027165242 -0.035232447 -0.040449977 -0.006827837 -0.016602622 0.029544665 -0.02196555 0.031268336
уровня 0.02358704 0.010323086 0.043176387 0.034737248 -0.03969122 0.026518632 -0.00095657737 0.020340787 0.005066956 0.04177824
посадить -0.0011069976 -0.0046966006 0.004061686 0.04121627 -0.027557068 -0.010286042 0.014576437 -0.039159484 -0.031627562 -0.043836087
розы 0.024552608 -0.049457688 -0.030195912 0.0053044017 -0.026591163 0.02689743 -0.030087855 -0.019517638 -0.04358081 0.013046476
будням 0.036697686 0.005207746 0.0066878577 0.020461222 -0.03522197 0.043414928 -0.038162198 0.045367077 -0.014583817 0.0027103208
буди 0.016624693 0.03686506 -0.011639562 -0.029573573 0.02098669 0.04374698 -0.04282835 -0.01171894 -0.018625844 -0.042027313
углу -0.036045395 -0.018717963 0.008030551 -0.026250048 0.04799927 -0.04704045 -0.017534098 -0.01295361 -0.013789974 -0.031372607
столом -0.019546542 0.045215108 -0.005597136 -0.04333214 0.026027838 -0.0436749 -0.01200293 -0.02734005 -0.04282593 0.049274936
осталась 0.022878723 0.0326308 -0.036958724 -0.019973174 0.011172551 0.013740392 -0.008603238 0.042041317 0.03467824 0.01614475
пыль -0.041085806 -0.032493148 0.03149371 0.022575928 0.014641241 -0.045632754 0.04106997 -0.033293974 -0.018935489 -0.04450711
заменить 0.014734015 0.019454846 0.0015674909 0.025448956 -0.012477849 0.0064844787 0.009415518 -0.015015059 -0.031537727 -0.047026068
заплати 0.018198486 -0.015103061 0.031310055 0.013871807 0.0054925163 0.045192596 -0.04223976 -0.040735904 0.011548997 -0.015560965
водителя -0.0374946 0.047525804 0.0040737926 -0.018897073 -0.016507607 -0.048856206 0.022224566 0.019906506 0.0367748 -0.02418024
громче -0.041641142 0.001577878 -0.015461854 0.0017939543 0.021131352 0.04930163 -0.007941751 0.033208873 -0.013784279 0.030568598
уровне 0.0039330195 -0.0075121853 -0.003888155 0.047159016 -0.019561196 0.005738864 -0.04161555 -0.037909854 0.0014266742 -0.017575746
пусть -0.0398398 -0.019839805 -0.025075734 -0.0022133873 0.004677004 0.00066253025 -0.028188877 -0.037294183 -0.047396444 -0.013262981
музыка 0.004917341 -0.035962224 -0.007951332 0.009119136 -0.010237861 -0.02641263 0.04959494 -0.04445822 0.011461702 0.02271523
следует 0.031243052 -0.03623562 -0.026847472 0.032575138 -0.043442477 -0.0043947347 -0.029554473 -0.035199486 -0.039325368 -0.00357917
пропылесось -0.0108925365 -0.049240064 0.0042584892 -0.030858139 0.0037141854 0.0059892945 0.03149202 0.0013744648 0.036357153 -0.039559077
затем -0.026483431 0.045324635 0.03862936 0.0008660269 -0.020992924 -0.001104668 0.0071187145 0.037892003 0.04989556 -0.037805565
выключай -0.047615126 0.041735858 -0.043877523 -0.0086769005 -0.037214946 -0.010489394 -0.0071281353 -0.009523162 -0.012007712 0.032854594
выхожу 0.021287305 -0.010366079 -0.032153476 -3.4873305e-05 -0.046846174 -0.023465414 0.018114468 0.013700502 0.0006645442 0.02848166
комнаты 0.02722395 0.008707917 -0.022944666 0.011679374 -0.018838251 -0.010483724 0.046391323 -0.006274026 0.011652288 0.033631623
пришел -0.008292447 -0.026582338 -0.0110837575 0.00057315844 0.03771162 -0.03629215 -0.012707621 0.03022816 0.03753881 -0.042719703
гаси -0.049783725 0.040233865 -0.024334634 -0.041735455 0.02755878 0.011777264 0.017908314 0.047776762 -0.03833675 -0.018080557
еды -0.03874297 0.010062477 -0.02856583 -0.012859758 -0.009148948 0.04860077 0.0330768 -0.029896837 0.042399306 -0.00024898766
стиральная -0.025928998 0.014941198 -0.020186082 -0.03288309 -0.008042604 -0.009154274 0.0002337206 -0.0027798295 0.00091556215 0.030126363
закончит 0.008871254 0.0034272547 -0.023610195 -0.049245797 0.034757894 -0.038649134 -0.03574965 -0.012005303 -0.03829069 -0.005768864
мужу -0.023083664 -0.046745233 -0.042492457 0.00758007 -0.0060044504 -0.049527433 0.018799428 -0.0069525386 0.003404682 0.0028377238
найти 0.011168978 -0.0070234477 -0.0059218844 -0.033108544 -0.019771732 0.04843831 -0.014508457 -0.02086301 -0.016925963 0.04216501
место 0.0049512773 -0.04440952 -0.030689426 0.003997785 0.032503117 0.0315606 0.023849702 -0.0026198113 -0.0027425035 0.04291757
припарковаться -0.03795136 0.014882366 -0.0111613935 -0.024969481 -0.042423144 0.02523792 -0.018150844 -0.00549551 0.00462726 0.04905162
дворе 0.012123866 0.020730136 0.033567835 0.030947974 0.013104625 0.012625124 0.033028163 0.019808134 -0.045450535 -0.04296022
фонтанчик -0.037392925 0.016968543 -0.002879422 0.031411905 0.017258424 0.04250895 0.004408886 -0.012466554 0.003508405 0.0025212064
собаку -0.00064371334 -0.04968854 0.0003423082 0.038959727 -0.03083534 0.033278104 0.022335837 -0.015001675 -0.034645267 -0.02732042
аккумуляторах -0.0032098643 -0.0005650285 0.026124015 0.0075990874 0.035758104 -0.008751024 -0.0062347357 0.0061554136 -0.021277303 0.03432418
энергию -0.008430083 -0.01770746 -0.023140455 0.026297688 -0.044635814 -0.030149562 0.033045176 -0.035638206 0.008234636 -0.049296647
аккумуляторов -0.027357219 0.04604554 -0.007618515 0.014126823 -0.046432287 -0.047324292 -0.048781212 -0.022481425 0.021760145 -0.012502883
электросети -0.0030604708 0.047034457 0.008588304 0.038752932 -0.007306266 -0.0026177778 -0.033217136 0.048013076 -0.029381746 -0.0034688972
какую 0.02421625 0.01803622 0.041887585 -0.028438272 -0.04213931 -0.0064304364 -0.036201444 -0.021282468 -0.015639171 -0.013648199
слушаю 0.047263913 -0.048380844 -0.02897232 0.02933464 0.04852885 0.019085279 -0.016653663 -0.042297084 -0.042120058 -0.04996761
реже -0.045257717 -0.013106073 -0.021079613 0.02395166 -0.005928359 -0.042500824 0.020219035 0.011847565 0.039781284 -0.049285028
погрей 0.035772678 0.02386979 -0.004054848 -0.029530998 -0.0006197478 -0.02842738 0.011854442 0.047810487 0.024288196 -0.007074551
еду 0.02545191 0.01004146 -0.012731202 0.012094564 -0.04803551 0.02939657 0.04086328 0.011132476 0.0443924 0.019146873
входил 0.04519614 -0.04012614 -0.023947002 -0.011720919 0.0329984 -0.003922858 -0.0011502238 -0.035606794 -0.04912071 -0.03499977
хватает 0.018704213 -0.030910188 -0.008952309 0.038511574 -0.027351035 -0.0053054774 0.033155248 -0.0062079467 0.029235216 -0.027484976
заряда -0.0008644584 -0.032262865 -0.025055602 0.0018732283 -0.009740584 0.03170704 -0.026618704 -0.026370237 0.0019423346 -0.032266468
батареи -0.026573084 0.0044247597 0.049478743 0.020890692 0.01723264 -0.017709369 -0.0043654367 0.031287823 0.0026165505 0.02453449
дней 0.03118453 0.033550814 -0.025752265 -0.0497788 0.01203358 0.04407774 0.013835143 -0.0067509967 -0.048422944 0.011365717
моего -0.038675256 -0.035903394 -0.019848835 0.014880238 -0.035779923 -0.04276511 0.0047373413 0.047427364 0.0076306514 0.029737864
сна 0.018805258 -0.04786407 -0.04058703 -0.04971006 0.037273023 0.027645508 -0.019585552 0.019379212 0.043863017 -0.048253156
громко 0.046371862 -0.022097904 -0.046438985 0.03915375 0.03115838 -0.047997333 0.03074784 0.03539058 0.03221122 -0.04587033
погаси 0.011738268 0.03681716 0.04421015 0.020481175 -0.023218194 0.0013894157 0.012432083 -0.0055184118 0.039104633 0.010164481
основной 0.018386023 -0.027337316 -0.04589598 0.043110337 -0.047121514 0.030155182 -0.030477198 -0.04714653 0.011635052 0.007412623
каждую -0.05013102 0.012709593 -0.010065157 0.018346513 0.011662312 0.023208715 0.0096032005 0.015906354 0.017214315 0.00072240905
неделю -0.030463682 0.019426903 0.0012058772 -0.043274842 0.019636968 -0.006527917 0.013753526 0.007494482 -0.04051221 0.033386096
собака 0.024027465 -0.0058285855 0.021650882 0.016081553 0.0023362492 -0.0009834057 -0.047075402 0.0058164247 0.010392914 -0.019885829
залезет -0.039258584 -0.047675226 -0.037223615 0.0061859805 0.04273454 0.033958178 0.038455967 0.0047362084 0.036146846 0.022144089
кухонный 0.045202803 0.011205061 0.026838602 0.007007724 -0.018777987 -0.04465272 0.039876718 0.036241986 -0.022792537 0.014393876
издай -0.018408384 -0.01733782 -0.032614507 -0.0021452047 -0.005815028 0.046249997 0.03979359 -0.010113452 0.047842745 -0.021422695
неприятный 0.023063611 -0.043905668 0.025730617 0.0003053273 0.03179318 -0.018601933 -0.03932831 -0.019713394 -0.019439489 -0.021449964
звук -0.028313143 -0.022945633 -0.025808595 -0.029613912 0.006276081 -0.008280224 0.047773845 0.028177662 -0.044175677 0.04161772
принять 0.047097534 0.04656282 0.004902227 0.029900935 -0.018791048 0.012579328 -0.0265683 0.04762742 0.0059751435 -0.026272759
потерял 0.018553687 -0.0070261043 -0.03273229 -0.033148713 0.04347499 -0.031184783 -0.019639034 -0.00075953756 -0.02026272 0.04359035
расчистите 0.016210675 0.04526509 0.008715134 0.023324275 0.043691285 -0.029824562 0.04067954 0.04973924 -0.01715045 -0.013801047
разморозок 0.042043258 0.033928834 0.021974705 0.04444089 -0.04956363 0.020798447 -0.017008997 -0.028776875 0.036455467 0.034351148
размораживать 0.03279375 -0.032070193 -0.015132015 0.02519757 0.022325577 -0.01835747 -0.04677666 -0.03540945 0.026001673 0.038569357
сливочное -0.0042925575 0.0069907852 -0.021241643 -0.0009279304 0.0047408426 0.042992916 -0.049471617 0.02717716 0.047274694 -0.018431962
масло 0.047255076 -0.046216287 0.03514198 0.0332115 -0.0476634 -0.01930446 -0.0027334292 0.0029421083 -0.01265599 -0.04682374
билеты -0.010699366 -0.008963648 0.033192128 -0.021159703 -0.009704425 0.044626284 -0.038960725 0.0005788257 -0.008039025 0.028932584
лебединое -0.0013851308 0.025273057 -0.023615172 -0.006261962 -0.008295049 -0.042961348 0.029802252 -0.042476173 0.011532866 -0.026004305
озеро -0.031754732 0.00772652 0.021140167 -0.025216578 -0.04929769 0.04433776 -0.018182175 0.030705754 0.042871084 -0.0397171
мариинке -0.043791156 0.010496514 0.022793084 -0.021462006 -0.023192354 0.05003955 0.011094447 -0.04433738 -0.022302913 -0.034402046
наличие 0.04211135 -0.01866328 0.036410853 -0.005802047 -0.041669637 -0.028710071 -0.04195321 -0.012260572 -0.022306336 -0.04469534
разойдутся -0.045675382 -0.02392135 0.04042106 -0.014080006 0.043272674 0.038720075 -0.029306792 0.0039172904 -0.024390921 0.03083491
фонтан -0.014617963 0.048121095 0.022873094 0.028681347 0.0044095763 -0.034381554 0.033906244 -0.0066831005 0.038722016 -0.042839017
снимали 0.0003360387 0.028057856 0.036783386 0.028044716 -0.047855034 0.03551907 -0.046397675 -0.029134106 -0.014418893 0.021596177
занавески -0.04373674 -0.047443133 0.032045472 -0.049191378 -0.0047278744 -0.012434931 0.026738482 -0.033492 -0.012852453 0.04483338
пропусти -0.049294576 0.019510655 0.015885154 0.0032949685 -0.0014161903 0.0003464674 0.02920199 -0.036891297 0.043608163 -0.037725322
выйду 0.038931783 0.016230056 0.009967115 -0.03228722 0.027345212 0.025029467 0.04050424 -0.047793787 0.022496205 0.030513039
квартиры -0.036192965 0.036223672 0.044780493 -0.009605212 -0.0037742862 0.039406862 0.027273558 0.033829696 0.013778902 0.011758716
бассейне -0.02266485 -0.017597098 0.01624412 0.019820966 -0.0074799345 0.049503405 -0.0009677986 -0.038769215 0.03965462 -0.011582851
выполнить 0.0334345 -0.049378145 -0.04585868 -0.040473316 -0.04441764 -0.042462103 -0.017235639 0.0051759155 0.026428748 -0.03931423
очистку -0.011041497 0.014232459 0.035808016 0.02899682 0.017611802 -0.01681572 -0.0064604497 0.0020506484 -0.029253172 0.024324827
мусора -0.012506871 0.017083254 0.043156624 0.013053373 0.04895643 -0.0189735 -0.006298416 0.039844587 -0.02166007 0.04989124
разожги 0.032106675 0.042258903 0.043099023 0.028752374 -0.011191074 -0.020188171 0.03619224 -0.001779123 0.036111385 -0.047161136
камин -0.044043466 -0.033880465 -0.026605252 -0.033586316 -0.036986448 -0.041664314 0.03323405 -0.012369163 0.026823506 -0.018223729
позвони 0.015234027 -0.04653509 -0.038653504 0.03431942 0.047983047 -0.026622653 0.028582366 0.0288327 0.02939653 0.016969588
сантехнику -0.002396029 -0.027625328 -0.012211192 0.042546522 0.016437307 0.0343431 -0.0039519975 0.039248597 0.009592546 0.046823975
напомнить 0.010333565 0.023940036 0.010095254 -0.017811788 -0.024973582 0.03861913 -0.046873163 0.00854943 -0.029099248 -0.0412449
взять -0.011232832 -0.005659909 -0.044186275 -0.03317601 -0.031341467 0.02408957 -0.017356973 0.027667664 -0.022185367 0.03442938
зонт -0.02819266 -0.04828837 0.023756135 -0.046015568 0.034659892 0.026735943 -0.034831855 0.029337583 0.013963702 0.033570047
выходом 0.033215873 0.014316094 -0.025083184 -0.014319141 -0.03906454 0.046344627 0.027906159 0.01785608 0.03330252 0.033130262
ежедневную 0.014557664 0.00970561 0.022287017 0.047560997 -0.011836525 -0.04432561 -0.0053585353 -0.045343038 0.007840775 0.011559331
подборку -0.034779463 0.006441041 0.008236404 -0.01905399 -0.00460218 -0.026392628 0.022726923 -0.0076388605 -0.0440391 -0.032190587
музыки -0.019660987 0.042052682 0.003713468 0.013759643 -0.011113634 0.012715573 0.045134038 0.035760757 -0.032049436 0.0037306594
вышло -0.017662724 -0.02850529 0.014984715 -0.02231759 0.015886512 -0.033914503 0.009857996 0.02534405 0.020443391 0.009908707
гараже -0.0017334396 0.011618473 -0.03587518 -0.027211118 0.02080324 -0.0040370477 -0.017326463 -0.043845803 -0.012592265 0.02872064
опустится 0.04381949 0.0018986125 -0.038475987 -0.019511955 -0.015109234 0.023036145 0.015718961 0.023620455 -0.03280975 -0.018269481
нуля -0.040352575 -0.019122114 0.031960517 0.013129274 -0.03715003 0.0032791966 0.012925566 -0.032281216 0.038309027 -0.0159698
резервное 0.013013258 0.023775872 0.022066267 -0.027935235 -0.044269275 -0.041343298 -0.0029665818 -0.00077638874 0.040438283 -0.017822145
питание -0.016378555 0.030425074 -0.02366381 -0.0067482367 0.01850519 0.0015791305 0.013960275 -0.049644653 -0.018667333 -0.003490602
киловатт 0.016809605 -0.01673603 -0.012625726 -0.04707384 -0.029532399 -0.039276753 -0.019082515 -0.02415052 -0.046256915 0.026920864
потрачено -0.029905837 0.03316721 -0.048343617 0.025789497 0.0017029339 -0.007283549 0.024682075 0.017837806 0.036797915 0.0059460467
следующее 0.03998822 -0.021414936 0.0002536066 -0.009051427 0.012567546 0.025076559 0.019894123 -0.03260682 0.03185686 -0.0012764971
рассвет 0.024611836 -0.0076876027 0.026360413 -0.022762768 0.032845367 -0.029773809 -0.02805484 0.014050542 0.022059793 0.031134177
автоматически -0.041838933 0.028942483 -0.04391817 0.03638756 -0.035162777 -0.01068713 0.009086043 -0.029800901 0.015530363 0.0014472342
умного 0.01728313 0.04189316 -0.036961548 0.0067967507 0.020768207 -0.04919175 0.0016877729 0.009780324 0.024309117 -0.013446104
снега -0.021318046 -0.025693536 0.009390626 0.013800073 -0.025162496 -0.0435397 0.016408633 -0.011429175 -0.032045342 0.003346879
расчисти -0.020267999 -0.009984005 -0.03716837 -0.044974852 0.012685159 -0.011896453 -0.023728656 -0.021535706 0.021810116 -0.008445509
начнет -0.04217721 -0.048647422 0.04780119 -0.040514037 0.019973446 0.016222993 -0.02775939 -0.031241147 0.008195474 -0.0475835
темнеть -0.04293408 -0.047900554 0.022588441 0.020523002 -0.020705089 0.014187841 -0.012284705 -0.04788577 0.035930756 -0.037497267
колько -0.006004574 0.010601658 0.046935894 0.045847178 -2.153984e-06 0.046660345 0.02239856 0.03158923 -0.019478662 -0.04340963
подними 0.031135235 0.04659866 0.04515749 0.025564667 -0.029451009 0.00994966 0.04893722 -0.025989773 -0.04480685 0.014092692
карту 0.037923563 -0.02885763 0.026378538 -0.011568288 0.005545873 0.0024232196 -0.0065871323 0.04238482 0.024874015 0.022439353
температур 0.028877791 -0.04467061 0.024643095 0.00282691 -0.010289397 0.036350984 -0.036013387 0.008337664 0.0031719378 -0.024131916
набери -0.0017124698 0.004585079 0.03131928 -0.0077661667 -0.0055717765 -0.009213748 0.03720034 -0.04587181 -0.037238155 0.028870178
давно 0.0108327195 -0.015113909 0.017375488 -0.039865337 -0.030729424 -0.025472453 -0.034608647 -0.009952208 -0.03163235 -0.037190605
заперта 0.016557425 -0.043949928 0.028307699 0.016588839 0.010848045 -0.02434975 -0.03829606 0.022397026 -0.020003306 -0.029393505
покупать -0.029896844 0.005085062 0.040930107 -0.013280224 -0.015905663 -0.0206164 -0.02413857 -0.026384752 -0.017387645 0.011387794
продукты -0.040155925 0.021351907 -0.02942974 0.00798783 0.047717262 0.008150455 0.028501522 0.03987215 0.036484808 0.03638569
успокаивающую 0.040345356 0.043325096 -0.018405344 -0.04804732 -0.0066490336 -0.01779856 0.009615684 -0.042271223 0.011121403 0.0025085572
оплатить 0.010131619 -0.043386936 0.011531171 -0.01144733 -0.024301983 0.022673463 -0.00023955968 0.034258947 0.046191532 -0.0013529905
проезд 0.007003716 0.013606702 -0.0022012223 0.03956008 0.049696647 -0.04550121 -0.046204723 -0.015322145 0.0020374288 0.026036942
тост 0.03828183 0.039802887 -0.002843654 -0.023909936 0.042787194 -0.018811906 0.030171184 -0.01290408 0.020754503 -0.012801237
утечка 0.037954364 -0.041185014 -0.024154974 0.016249007 -0.027501823 0.012576235 -0.012975295 -0.042441342 -0.042757787 0.030369516
повседневное 0.010714448 -0.022669742 -0.047904857 -0.00977385 -0.019706678 -0.04230524 -0.0057105874 -0.04255339 -0.001312886 0.02280351
отнеси 0.0067100064 0.012978033 -0.016130071 0.025625516 0.012796125 -0.025301753 -0.03653626 0.039352085 0.035057805 0.020710317
это -0.011871527 -0.017265659 -0.027813822 -0.016056253 -0.012813571 -0.00058852095 0.012457336 0.035812918 -0.048600692 0.02472014
влажно 0.029946852 -0.00066199753 -0.026718507 -0.018692274 0.009959426 -0.0049197725 -0.041637167 -0.019853393 0.047183223 0.025419326
стемнеет 0.046408687 -0.018101195 -0.015655508 0.01823243 0.047941945 0.022029622 0.041878372 0.004017734 0.04120847 0.0084027955
фонтана -0.021861808 0.02530746 0.02038524 -0.019643849 -0.03624949 0.023677805 0.019965522 0.030807685 -0.032215122 -0.018793572
разрешай -0.023787584 -0.02114401 0.03934835 0.0059440653 0.00017195467 -0.046760943 0.04304291 -0.030066743 0.0014996725 -0.03488804
детям 0.042066902 0.032404844 -0.03523495 0.03426811 0.002744324 0.023998315 0.0032937566 -0.013250519 -0.019925669 0.026479876
брать 0.030267574 0.0017892655 0.005840249 -0.04065242 -0.024406718 0.004746704 -0.043030612 0.043251496 -0.01676668 0.03455846
свари -0.004542721 -0.010049361 -0.0258077 -0.03176329 0.00076150656 -0.023693549 0.0384283 -0.010666684 0.048872072 0.017216222
сильнее 0.010266319 0.019394306 0.038359825 -0.04096875 0.031345118 -0.044823974 0.019195957 0.005929487 -0.045477074 0.025163623
теплее 0.048545912 0.0020774798 0.008228744 0.000113450806 0.046427246 -0.030822748 -0.029578783 0.036238115 -0.005461506 0.022510188
работе 0.032339916 0.04307854 -0.021679087 0.02123492 -0.0054101376 -0.0040355343 -0.034282148 -0.008435736 0.049937297 -0.045105133
стирал 0.014833385 -0.0465401 -0.02257904 0.044405773 0.010268745 0.041740466 -0.044560872 -0.042832315 -0.002845764 -0.04976308
приборы -0.0033572009 0.0055545554 -0.025952542 0.0031197441 0.012454091 -0.024086507 0.010989131 -0.014444164 0.0025636912 -0.021796336
втором 0.045935653 -0.040092707 0.021717938 -0.012793699 0.013557598 0.021716142 0.0061523253 -0.022408864 -0.0281203 -0.022851758
этаже 0.03245759 0.022919178 -0.04178642 0.018789755 0.015054284 0.01816899 0.032954544 -0.038553927 -0.03933045 -0.008920307
