275 10
включи -0.032915607 0.018495552 -0.013106388 -0.017505111 0.004630851 0.019032603 0.028621677 -0.044830095 0.000722872 -0.030597093
свет -0.047753535 0.04889488 0.04920522 0.03854138 -0.011746843 -0.023389114 -0.04140573 0.049262643 7.501568e-05 0.04283267
включай 0.03355477 -0.016646035 -0.039689012 0.021295687 0.0047459668 -0.024991192 -0.02336084 -0.015814226 0.03938178 0.025732053
сколько -0.00461335 -0.04843626 0.010562293 0.028749721 -0.019346658 -0.003000966 -0.022224631 0.024977423 0.038234208 -0.01375768
закрой -0.03185306 -0.047797926 0.0025106517 0.036593758 0.021694398 0.014596847 -0.044024386 -0.013858158 -0.0051185247 0.01196306
электричество 0.0017681133 -0.0392006 0.0042274524 0.029888261 0.049337495 0.03108779 0.034539413 -0.015517332 -0.0027687852 -0.024191033
выключай -0.04421056 -0.021349167 -0.05015516 -0.04034322 0.04225605 0.0013995976 -0.017765447 -0.035896555 0.03951785 -0.023604887
сделай -0.031623844 0.0063243923 -0.04379214 0.039383385 -0.008258083 0.036232937 0.0061884406 0.014540797 -0.047769092 -0.018996993
холодно -0.046554707 0.039232656 -0.04248437 0.032087233 -0.040503662 -0.04880978 -0.040462956 0.0351384 -0.038741715 -0.0049795955
шторы -0.014435736 -0.025020923 -0.0020264534 -0.04571008 0.034902737 -0.03766393 -0.043694727 0.0007790012 -0.010270992 -0.01594703
комнате 0.010052858 0.038249664 0.030488776 -0.048604913 0.0049301307 -0.019904492 -0.038441554 -0.006628289 -0.04524462 -0.024746578
приготовь -0.037486907 -0.025602477 -0.0031050784 0.0024301484 0.009560596 0.026470033 -0.010315494 0.0013374272 -0.020242717 0.022090985
буду 0.02988672 0.011507668 0.032422062 -0.008421114 0.01161484 0.029421842 0.03696767 0.005186297 0.018077087 0.0018532008
выключи 0.007424652 0.047342278 0.044956245 0.0035092223 -0.047612168 -0.014562701 0.022203334 -0.016106255 0.04932796 0.0060981503
окно -0.016623568 -0.01796997 0.005201628 -0.023342527 -0.03518237 -0.0052175783 0.04707428 0.010069535 -0.04134348 0.03287233
улице -0.02312469 -0.026468376 -0.0063749584 0.006406623 0.048474256 -0.03583013 0.031844378 -0.03926762 0.018502735 -0.038295332
ванной -0.016373282 0.0010070406 0.0425608 0.018120179 0.0341226 0.02702728 -0.014506148 0.03331404 0.041950718 -0.032028306
музыку 0.033747733 0.010794164 0.005127992 -0.029356837 -0.027559351 -0.018718628 -0.010720644 -6.817298e-05 -0.005471418 -0.032918382
проветри 0.041116882 0.017935377 0.042043928 0.02756912 -0.0321688 -0.040908836 -0.025328707 0.04433965 0.009394576 -0.0020467856
пока 0.0071026203 0.045998 -0.048257515 -0.048432812 0.012751687 -0.024573388 0.02768874 -0.038634647 0.008937448 0.03792197
слишком -0.0025337464 -0.049193647 -0.0063802605 -0.04527865 0.008649269 0.040265467 0.021437807 0.01081993 0.0059935213 0.032816533
дома 0.014301709 -0.032688104 0.023545466 -0.036346477 -0.013815858 0.046557702 -0.011686407 0.022849295 0.0037574482 -0.026889663
температуру 0.011896922 0.041492976 0.009273121 0.0001287558 -0.014207864 -0.03478039 0.021470563 -0.032661334 -0.03737817 0.025976505
машину -0.041439846 -0.032893352 0.01020912 0.039049502 0.03478782 0.025978038 -0.041892983 -0.033022605 0.03183073 0.04123332
песню 0.031102696 0.041507535 -0.0377304 0.006081451 -0.03824271 -0.044775013 -0.012637165 0.024635376 0.047618136 0.043944288
домой -0.0044843187 -0.043915242 0.020819884 0.03612189 0.025404496 -0.042288184 0.047420427 -0.039322216 0.03354941 -0.03347645
чай 0.009589454 0.03692237 0.028076397 0.047602855 -0.018683517 -0.02386668 -0.034949694 0.03202805 -0.03736859 -0.0007929857
ванную 0.0022738103 0.0072862655 -0.020116428 0.037732467 0.0016345299 -0.007550915 -0.0022357064 -0.032168075 -0.027106186 0.02708138
приходу -0.0024340677 -0.039120913 -0.020366998 0.003105059 0.009053055 -0.0028723446 0.018175056 0.033532396 -0.032106537 -0.04960381
месяце -0.048826464 -0.0479014 -0.011368672 -0.0079784645 0.006678658 -0.030619306 -0.030158037 0.029967476 -0.03182056 0.0027267472
утюг -0.025108375 -0.023289744 -0.036399167 0.04949972 0.0366112 -0.043855272 -0.018790783 -0.03317991 0.0069646677 -0.016638746
иду 0.046301093 0.017783063 0.031832453 -0.03248499 0.013701655 0.0003096561 0.004098641 0.019273266 0.00065804063 -0.034526013
спальне 0.030622283 0.0064083477 -0.033464644 -0.00066231133 0.0282441 -0.01904721 -0.04169827 -0.024769071 -0.03455775 -0.01971979
дней 0.049858697 0.021651046 -0.008462271 0.033481155 -0.03249321 0.0121814 -0.035082497 -0.022857344 0.022369452 -0.042182345
покорми 0.021308903 0.02977262 -0.046571422 0.008625224 0.029122123 -0.033566877 0.03935401 -0.02944485 -0.048286706 0.0051365076
сегодня -0.043095555 0.0052868263 0.010071249 -0.011811033 0.03702154 0.0061960877 -0.04400205 0.026958872 -0.0076141194 -0.025497029
передачи -0.02185168 0.04072532 -0.013261316 -0.0076655955 -0.0065658586 -0.011951645 -0.027847782 0.022221604 0.047357466 -0.0060982043
воду 0.016579377 -0.016430369 0.010600183 0.010863183 0.006355642 -0.03828234 -0.012988581 0.004551934 0.022585556 0.02732899
обогреватель -0.0040434827 0.012127045 -0.009467095 -0.017354157 -0.04317765 0.02300972 0.01997397 -0.010348959 0.02129781 0.035545792
документ -0.022912167 -0.015133543 -0.02712907 0.01681589 -0.021815374 0.031111091 -0.033873644 0.028091902 -0.043365795 0.04420757
окном 0.024680398 0.03135477 -0.014893691 -0.0073922095 -0.049850307 0.045266908 -0.01694421 0.047642138 0.0031607694 0.038097635
открой -0.030368833 0.0024436957 0.043445192 0.025621722 -0.011754062 0.021501377 0.049566526 -0.032166902 -0.018141933 -0.042983245
кот -0.00733318 0.04172314 -0.03785448 0.027990002 0.011036918 0.0302157 0.03070829 -0.040021524 -0.020255502 0.046051
днем -0.008120152 -0.029916083 0.019641982 -0.04045751 0.046305966 0.021927992 0.04908269 0.0031211758 -0.0097999815 -0.032697022
кухне -0.033121865 -0.010213354 0.047531813 0.008333411 0.021424245 -0.015494649 -0.016570125 0.039916746 0.04635569 -0.031294692
жарко 0.008993014 0.017887877 0.011943986 -0.03451999 -0.008270163 0.041525766 -0.008563578 -0.004995414 0.022553671 0.015242002
хочу -0.045745675 0.006287494 -0.032675494 0.042870563 0.0034759576 -0.031029543 0.03779726 -0.04310895 0.006437644 -0.035733446
принять -0.012733985 0.04197202 -0.002808882 -0.048342448 0.006575924 -0.014708909 -0.034421235 -0.0025702813 0.009500807 -0.04432075
ванну -0.027341548 0.013572217 -0.019786242 -0.011416205 0.006709429 0.036685128 0.02474733 -0.0049923193 -0.044019405 -0.00067635626
число -0.026848944 0.042777583 0.018603858 0.012634212 0.00074702216 -0.050017755 -0.009825272 0.04938923 -0.037000682 -0.04895541
стиральную 0.028578784 0.036407273 -0.03463109 -0.0020802969 -0.028280538 -0.028358586 0.037358038 0.0030123775 -0.04231568 0.027503543
какие 0.030348048 -0.037244666 -0.014103762 -0.004525559 0.0040049586 -0.02111063 -0.011437754 0.0026734557 -0.010269508 -0.030664327
доме 0.03708357 -0.031552847 -0.0039243083 -0.022836395 0.048341714 -0.040762797 -0.045622125 0.0010139866 0.04065106 -0.020028368
прихожу 0.04879267 -0.03577817 -0.033321336 0.036762312 -0.035316523 0.025569335 -0.021982761 -0.04900813 0.0010558034 -0.04086497
моему -0.019615255 0.04616843 0.014553618 0.043948766 -0.040708724 0.008706078 0.03020473 0.009238763 0.007619008 0.02193679
раза -0.025156237 0.00271321 0.037880927 0.04381372 -0.0018408819 0.0039308374 0.0023473485 -0.0145457415 -0.010596085 -0.02209157
дождь -0.01927034 -0.032825362 -0.013584944 0.046302874 -0.024458064 -0.0034194384 -0.03921886 -0.008702975 0.047703486 -0.03253753
хлеб 0.033771258 -0.0026854803 0.034958016 -0.0065264753 -0.0062475097 -0.020316169 -0.018198363 -0.0021778385 0.0070194164 0.026741937
кухню -0.028413318 -0.021879515 -0.010423432 -0.008086361 -0.03193768 -0.04205685 0.03290458 0.017685996 -0.042864718 0.02447805
зайду -0.04168163 0.037504654 -0.020656606 -0.022637146 -0.006479716 -0.04333711 -0.028281694 -0.0028450352 0.044576883 -0.021207696
стоит 0.010580396 0.030962255 0.030057978 -0.016715549 0.022943836 0.026579605 0.008802988 -0.041552164 0.048369735 0.01898063
суп -0.034779415 -0.029646238 0.024907725 -0.02521818 -0.017777244 -0.022100033 -0.041935697 -0.024487037 0.023684593 -0.04174536
занавески 0.039716646 0.026668932 -0.005836355 0.007931334 -0.009475065 0.017066525 0.046802193 0.015648106 -0.03757874 -0.0457432
темно 0.030637218 0.022861248 -0.04378252 -0.04735043 0.0207121 0.021224285 -0.041758362 -0.044659805 -0.026401507 -0.020201728
набери 0.012398524 0.037466414 -0.046309635 0.039778844 -0.010994143 0.045972325 -0.003683429 -0.025890622 0.04977854 0.014387296
часов -0.028310798 0.023151899 0.049142975 -0.023378897 -0.017145937 -0.049880784 0.0027699461 0.0045262743 -0.049816813 0.025153516
градуса 0.013498207 -0.013671957 0.00054200797 0.0009023125 -0.013435534 0.0015872341 -0.020444915 -0.00018524939 0.047306936 -0.044527326
кофе -0.009898313 -0.0040569785 -0.0041656513 0.0055764536 0.018720698 0.021900233 0.027260315 -0.028893163 -0.030707136 0.008287748
захожу 0.008113054 -0.023832181 0.007039313 -0.042259794 -0.0349694 -0.03665897 -0.035193026 0.016722512 -0.039841406 -0.01079839
спальню 0.0056899763 -0.04847637 0.036696434 -0.002700924 0.035856623 -0.009883462 -0.039353058 -0.03635699 -0.013431496 0.047549807
солнце 0.03695004 -0.04396471 0.045485403 0.006174198 0.03599284 0.013126067 0.01843453 -0.017379882 -0.018069725 -0.014308591
отключи 0.013028107 0.01995051 -0.02314231 -0.045161244 -0.0346688 -0.034780037 0.044019833 0.043339055 0.045123883 0.02980661
громкость -0.039473113 -0.025713492 0.0056164563 0.0032077588 -0.0018370803 0.0141726285 -0.014479576 -0.01504946 -0.021603657 0.01748424
день 0.0022031076 -0.04997463 -0.0047551817 -0.034100752 0.022712747 0.007379728 0.032191623 -0.015648432 0.03166486 0.014690033
прочитай -0.017504958 0.015933769 0.0021281647 -0.0048218356 -0.02629504 -0.0004395151 -0.014157986 0.040385433 -0.022784311 -0.040995494
засну 0.04232859 0.043782488 -0.024597421 -0.011157296 0.029716192 -0.013470321 0.049893633 0.009401522 -0.0010389828 -0.038892884
распечатай -0.021492152 5.8420148e-05 0.032973006 -0.048872866 -0.0070751314 0.0461126 -0.028977603 0.036494594 0.041104566 -0.0029999276
ел 0.0066293757 0.018994408 0.046831686 0.049900576 0.030738717 0.031515136 0.022262795 -0.043406636 -0.04936273 0.022497755
какиенибудь 0.0053972597 -0.01682069 -0.029244315 0.043423634 -0.0304734 -0.001822934 -0.02417813 0.019041466 -0.0033249955 0.043752734
овощи -0.04589708 0.0015953722 0.046986 -0.044038534 0.02870049 0.010506288 0.007332798 -0.038168855 -0.033112977 0.008840048
вечера -0.022659484 0.02218608 0.047747344 -0.039610777 -0.013098888 0.03556557 0.011066329 0.033877123 0.0400561 -0.02123517
дверью 0.02304574 0.047770817 0.0437437 -0.031962022 0.037292026 0.018928863 -0.030320128 0.049907845 0.013621424 0.042121384
рассвет 0.044344906 -0.047558703 0.031795062 -0.03901599 0.008984872 -0.009593182 0.040026225 -0.017510645 -0.0012624696 -0.04956107
держи 0.040196083 -0.005356922 0.04876068 -0.030007817 0.02329597 -0.044386227 -0.022919541 0.03622345 -0.008708605 0.034559347
уровне 0.0015150881 0.048948944 0.005087008 -0.0010787015 -0.040620323 -0.036435798 0.021241907 0.015579436 0.020359477 -0.024548592
каждое 0.0018117217 -0.028652802 -0.040937733 -0.0038228286 0.037786935 -0.012774094 -0.015167306 -0.04330363 -0.0024325207 0.030139288
четное 0.02696585 0.007613565 0.039468028 -0.0024536178 -0.016963232 -0.015088649 -0.008686308 -0.030895017 0.019889073 0.032967653
месяца 0.04788358 -0.025214884 0.0055307313 0.04324246 -0.0032233442 0.03228393 -0.040242203 -0.003666445 0.046737835 0.036732476
окон 0.034266822 0.04686882 0.032713175 0.044271752 0.028277893 0.03435403 0.0074765547 0.029417388 -0.027832337 0.006240894
открыты -0.048894994 0.018005712 -0.046582542 -0.023618506 0.0116310865 0.021707283 0.025963426 0.04839791 -0.037204202 -0.0047019934
назови 0.005587101 -0.008349563 -0.01773031 -0.020793041 0.025906065 -0.034527767 0.025805175 0.02548987 0.03005773 -0.030683255
самую 0.029120307 -0.036093242 -0.0027732244 -0.04955801 0.02055951 -0.0018610778 0.031871844 -0.0070543913 0.033497095 0.036675926
частую -0.029684022 -0.03375516 -0.011290958 0.026550071 0.021008836 -0.02696666 0.045745645 -0.013924984 0.0041688457 0.030725563
четвергам -0.04231259 0.04811385 0.025540523 0.015162202 0.004916484 -0.023643143 -0.035194412 -0.021909196 -0.00068421254 -0.023675974
информационноразвлекательную 0.00873685 0.021789221 -0.0069900546 -0.033135068 -0.020994246 0.046929866 -0.0072606234 0.048990052 0.046188854 -0.029110063
программу 0.023820458 -0.0496893 -0.012057616 0.010286423 -0.042362306 -0.021147724 -0.03628119 0.03860368 0.0060603176 0.021805216
запусти -0.018242301 -0.034829006 0.005050674 -0.049890686 0.034135576 -0.032908343 0.017719919 0.03560005 -0.04509591 0.011996751
стирку 0.0072477027 -0.007258041 0.013942116 -0.031466823 0.04703742 -0.007114092 0.049006112 -0.0023358199 -0.02591584 0.0066956435
цветного 0.0040140515 -0.0041697626 -0.00968089 0.007849615 -0.00023576309 -0.040363446 0.00831951 -0.017969973 0.043783974 -0.041401885
наполни 0.01207644 -0.023708923 -0.021802174 -0.04287854 0.021581229 0.0428048 -0.025524832 0.047729444 0.011929064 0.042497683
горячую 0.0438529 -0.030380966 -0.041752737 -0.03537459 0.04081817 -0.0019326889 -0.032242775 0.025576236 -0.03179901 -0.023651363
прошлом -0.00023791585 -0.0037056755 -0.030064398 0.045041543 0.025348678 0.042743742 0.019180339 -0.03951825 0.044818223 0.04676555
появлении 0.030204067 0.014781525 -0.036459424 0.007814145 -0.012181221 0.00063034915 -0.024275497 -0.026907139 0.026474798 0.012716563
кота -0.019360185 -0.017861659 -0.014048272 -0.0038401478 -0.021653231 -0.00842165 0.02238304 0.018423881 -0.04753778 -0.0038335226
газоне -0.009913337 -0.027731877 -0.024624038 0.021546338 0.022908023 0.015850205 -0.03088462 -0.027833588 0.046030615 0.02438901
распыление 0.023876294 0.027467785 -0.04550245 0.017715637 0.050085895 -0.020407435 -0.0013513681 -0.010537142 -0.010272834 0.018000478
воды 0.029703993 -0.044586953 -0.038318936 0.024286 -0.034076553 -0.011731977 -0.01618402 0.024124037 0.0128337955 -0.015926586
ухожу -0.049997482 0.018806912 0.030014042 0.02092563 -0.011004396 -0.046313606 0.036283787 -0.013466445 -0.00026440347 0.02544144
комнат -0.002639854 0.03654095 0.016169 -0.010041442 -0.012602365 -0.005066495 0.023197895 0.014921029 -0.0060765827 -0.01021499
испеки -0.008375428 0.0359104 0.04528794 0.006170834 -0.04974323 -0.010303983 0.036420453 0.03518094 0.047514066 -0.036113676
еды 0.029478112 0.03175227 0.02834845 0.035207894 0.0031406602 -0.037583265 0.025750238 -0.041579973 0.03770006 -0.0412441
время -0.0121021485 0.024414934 -0.0039123516 0.016426878 -0.03797026 -0.050044607 -0.013767058 0.028552147 0.039123487 0.029415937
погладить -0.022531573 0.042308085 -0.007854927 -0.03048186 0.04785254 -0.035587035 0.022253994 0.012535363 0.032878816 -0.018373549
шелковую 0.0019733754 -0.037228804 0.00096530607 -0.01910207 -0.03807346 -0.024348827 -0.030092355 0.020871248 0.04554377 0.001947769
блузку 0.0014112171 0.007831346 0.035391737 -0.0079250755 -0.013592834 -0.0038898885 0.016689101 0.010861035 0.0038917016 0.040029664
теплее -0.0024684698 -0.018458353 -0.037569456 -0.03535858 0.025304558 -0.014580962 -0.02024145 0.005794294 0.027532378 0.012116091
комнатах -0.033011947 -0.018668158 -0.007091953 -0.017857071 -0.02760208 -0.048262622 -0.020648701 -0.009828716 -0.043256577 -0.025555238
закрыть 0.009842685 -0.022475125 -0.01334561 0.028163629 0.0016285225 -0.010315155 -0.005602611 -0.018235672 -0.03273239 -0.034585
начался -0.028856175 -0.03317827 -0.03497498 -0.030443892 0.01641106 0.025563395 -0.022816746 -0.019727284 0.041323166 0.037330195
зашёл 0.020517094 -0.025502134 0.038886555 0.00728897 0.043139793 0.00055861817 0.02494619 0.028908141 0.045243725 0.046153016
комнату -0.048959102 -0.03113945 -0.03821827 -0.0024715792 0.018131904 0.024596218 0.005899021 0.044518124 0.019392004 0.0039453832
уплачено 0.002893516 -0.041183002 -0.042239316 -0.0231882 0.041740414 -0.0047319676 0.031484887 0.017743448 0.016321555 0.006759771
меньше -0.05007063 -0.045243166 -0.04776921 0.043080725 0.02876991 0.030757247 5.1759496e-05 0.043588758 -0.045822058 -0.021099055
температура -0.008793134 -0.0395494 0.03304691 0.044815984 -0.0054039643 0.04859478 0.025894651 0.04340214 -0.010673825 0.04298508
подогрев -0.03554045 0.045817636 0.04877595 -0.049263973 -0.037727058 -0.016244788 0.034602143 -0.009071561 0.039989304 -0.02150118
пола 0.016355937 -0.0126299225 -0.020715686 0.00858976 0.03747229 0.01466133 0.025678197 -0.0155538395 -0.0050555295 -0.01435342
просыпаюсь 0.005135567 0.026095955 0.049094558 0.005708391 -0.023911452 0.0008908475 0.0040311464 -0.01742239 0.019115806 -0.0054183593
зал 0.025385998 0.0046503036 0.024904948 0.025125029 0.027457306 -0.03197114 -0.02252168 -0.0140804285 0.032263745 -0.02464459
пищи -0.028272035 -0.046423066 -0.041971866 -0.042359665 -0.006844308 0.02309003 -0.023027884 -0.020791965 -0.010141414 -0.015355456
осталось -0.005054008 0.047539946 0.0011386288 -0.041735694 -0.030639838 -0.049157735 -0.01098377 0.014360367 0.015020909 0.032104377
завари 0.006739177 -0.020593666 0.017946478 0.007528658 -0.03944566 0.018559033 0.01608055 -0.006577498 0.017391533 -0.0028284898
микроволновке 0.038618494 -0.012317697 0.015538861 -0.03406772 0.010768856 -0.043962844 0.009603288 0.006501631 0.022484366 0.04587022
сообщить 0.017982023 0.0040299115 0.02124061 -0.030695895 0.006100636 -0.0045715193 0.049170293 -0.0117425425 0.024032922 0.033668246
взять -0.014201655 -0.027952876 -0.025634795 -0.038391683 -0.036438618 -0.022903332 0.024194414 0.036171883 0.02385169 -0.0061630225
зонт 0.01027689 0.033686038 -0.044333097 0.03157451 0.009804837 0.03772695 -0.011508553 0.0033338885 0.009995564 0.009044177
уходом 0.04272391 0.0009463058 -0.028073087 0.040628616 -0.01761594 0.002598546 -0.017827822 0.0037938613 0.020876985 -0.003976335
ставь -0.0011863355 0.017065212 -0.044598013 -0.014348009 -0.048875596 0.023180785 -0.00013616394 0.019251825 -0.049617704 -0.007988066
чаще 0.016740356 0.023627283 0.049609087 -0.027604658 -0.008467713 -0.046510726 -0.021750888 -0.016629802 -0.02147465 -0.0036918942
вернусь 0.04967217 -0.024917698 -0.0099371085 -0.046171654 -0.03420822 0.022100884 0.010687967 0.04421688 -0.016791973 0.024668697
подготовить 0.03673848 -0.019724024 0.033671297 -0.026298674 0.022669602 -0.013009805 0.035921246 -0.026066234 -0.005087733 0.031219993
обстановку 0.040848117 -0.015740635 -0.0046460214 0.032494217 -0.030511696 -0.0022228726 -0.0206049 0.020013273 0.032781005 0.03158329
просмотру -0.036709934 -0.040853776 0.019835725 -0.017427104 -0.0039695525 0.018671788 0.036692392 -0.03858586 -0.021816457 0.030252285
фильма 0.04033461 -0.017062625 0.036461525 0.045863155 0.018045906 -0.033811774 -0.049617235 -0.049419764 0.02199703 -0.0064665824
проветрите -0.026532885 0.049506508 -0.035569828 -0.049663518 -0.037776507 -0.0016800893 0.027886612 -0.0011222778 -0.008881607 0.0008523466
погода -0.025007622 -0.037922695 0.030322142 -0.022298122 0.0087902015 -0.04249883 0.00056170055 -0.003958239 0.042880498 0.045251478
запиши -0.02131764 -0.02983879 -0.008649002 -0.002875136 -0.011587582 0.039454922 0.031312067 -0.0007454061 0.030131737 0.032868985
усну -0.03318684 -0.010948466 -0.013071516 -0.013334333 -0.027801704 -0.035464153 -0.027664507 -0.009402742 0.037740022 -0.039314456
пропылесось -0.02633626 0.039540365 -0.015717229 0.034839 -0.00263482 0.021588732 0.039705783 -0.029208422 7.3442625e-06 0.021888744
тост -0.005231343 -0.0040882644 0.048562083 0.035457797 0.016739119 -0.018486213 0.005729725 0.021452758 -0.03873751 0.009772145
откроешь 0.02104786 0.039907936 -0.026927793 0.020719016 0.03275423 -0.025185367 0.023770051 0.017094048 0.011914531 -0.0008952518
нашему -0.023702137 -0.039275903 -0.014399718 0.037047595 -0.021361252 -0.008921149 0.04121261 -0.04801522 -0.00044828665 -0.032073215
духовке -0.02680698 -0.011241963 -0.02894762 0.01646356 -0.034825746 -0.017992001 0.045902193 0.02931333 0.0043909326 0.03083586
прохладно -0.028910287 0.0011676478 -0.018142322 -0.00024663057 0.047039803 -0.011085105 0.008158388 -0.01983258 0.028075313 0.036081523
подогрей -0.017282162 -0.037957463 -0.011101595 0.03834944 -0.039225344 -0.042556252 -0.009432428 0.013837598 0.049375277 0.019720268
завтра -0.046207577 0.0261742 -0.002703261 -0.016189056 0.005877457 -0.005401004 -0.031922463 -0.010689431 0.0035161772 -0.024954936
полуночи 0.019093433 -0.045225356 0.027964236 0.011395186 0.0065716393 -0.028609216 0.019552639 0.0015773039 -0.022440752 -0.04195861
хранится -0.027659006 -0.037286367 0.030692106 0.003226316 -0.03145791 -0.036389135 -0.018312067 -0.0036079758 -0.021235924 0.022469059
салат -0.034523156 0.0060037044 0.003136596 0.033256635 0.043123282 -0.031085204 -0.034656685 -0.017410358 0.0013933261 -0.03713668
холодильнике -0.030890916 -0.020456344 0.0035151313 0.015107099 -0.050092846 -0.01943725 -0.006097723 -0.017228184 0.031413417 0.009192612
копию -0.006358822 0.04686518 -0.044940177 -0.037661333 0.029615803 -0.015497384 -0.025930328 0.017956005 -0.027567342 0.027690561
паспорта 0.04444279 0.043162763 0.01789693 0.024222001 -0.030714527 -0.03441953 0.00023242451 -0.00734573 0.03465696 0.043870345
брал -0.028710166 -0.003604599 0.023318216 -0.002815243 -0.045606926 0.032924533 0.0013428362 -0.019307258 0.042360753 -0.011765792
твою -0.025862426 -0.023374895 0.008923975 0.037149332 -0.014941717 -0.009599563 -0.009161409 0.017136423 -0.044368304 0.04640382
следуюущий -0.03162669 0.0025262753 -0.007160712 -0.0037130525 -0.006650926 -0.008810144 0.021050526 -0.003343972 0.011336991 -0.016819978
технологический -0.015761292 -0.026950931 0.028096756 -0.011414467 0.03800112 -0.038486943 0.007346071 0.0039315824 0.01424788 0.035999235
осмотр -0.002435664 0.0027406814 -0.03666683 0.004592824 -0.032393843 -0.04630258 -0.039392862 0.04972676 0.012138625 -0.03491196
заполни 0.027179701 -0.038118433 -0.026347728 0.00280024 0.024189502 -0.025246449 0.026738444 0.037007272 0.0101203555 -0.028020438
поел 0.018820964 -0.041359752 -0.046876837 0.006730263 0.035134852 0.033396855 -0.013596111 -0.029079402 0.02823771 -0.035914
выпусти 0.01903032 -0.03518413 0.030847082 -0.02735169 0.016932806 0.0059492565 -0.0016757129 -0.016952068 0.0369808 -0.043047596
ктонибудь 0.037242956 0.039742753 0.024692772 -0.04881948 0.03254253 0.028331976 0.011881944 -0.039275806 -0.021561228 0.011298992
кондиционер -0.01633769 -0.034452014 0.04829396 0.02546144 -0.027387017 0.0225644 -0.00841562 -0.011432713 0.010950529 0.038793597
напор 0.048821762 0.0060744723 -0.0008183321 -0.01805123 -0.036897935 0.01515193 -0.017950216 0.039394174 0.02989725 -0.048031792
сильнее -0.042942356 -0.02513356 -0.03555235 -0.017153323 -0.036217436 -0.016079566 -0.017910054 0.041989006 0.04840296 -0.02452049
водопровод 0.02795715 0.027314628 0.029701367 0.041637138 0.003165686 -0.022134915 -0.036828823 0.024115855 0.024542458 -0.03182811
гостинной -0.01435539 0.02010574 0.029504735 -0.035512384 0.013738294 0.019701015 0.01772876 0.035867713 -0.040530473 -0.011654241
предупреди 0.037916005 0.012275194 0.034756854 0.048442494 0.03245568 0.010723643 0.031554163 0.01032572 0.00045888827 -0.046499893
грузовик -0.03179364 0.03495497 0.009811351 -0.02302104 -0.0057285205 -0.02833865 -0.04534696 0.03774394 -0.011966546 -0.0047837165
сзади -0.046702467 -0.005850332 -0.043146197 -0.037955023 0.012157277 -0.0035497614 -0.01219581 -0.0011479267 0.016868314 0.011323912
вплотную 0.040699854 0.029676782 0.042596176 0.033420745 -0.046316627 0.039559208 0.017996302 0.039579704 -0.01029488 0.0077279788
увеличь -0.043324586 -0.017148297 -0.045600977 -0.025001219 -0.034264687 -0.021749895 -0.014229877 -0.017891191 -0.04016885 -0.034132976
пункта -0.03405544 -0.01947303 -0.00066193996 -0.034662884 -0.044855483 0.008143777 -0.033678677 0.01995056 0.025718631 -0.025579538
пол 0.0056673856 0.0028882842 0.04873516 0.038964182 -0.0022853059 -0.04520032 -0.0057431865 0.016972795 -0.04259911 0.0184192
корми 0.042464938 0.048131503 -0.0008898612 0.046905708 -0.0057502654 0.02229145 -0.044851124 0.04236702 -0.031902686 -0.018763794
пса 0.024396151 0.017621404 -0.04548328 0.0074933562 -0.028836427 -0.0055706585 -0.047426064 -0.044865668 -0.004775686 -0.040117595
полностью -0.048531562 -0.0110813 -0.015430085 0.03941704 0.03363454 0.04462304 -0.03048268 0.03344004 -0.009728923 0.034150355
перекрой 0.04642441 0.012263255 -0.043651104 -0.031325463 -0.037357595 -0.03945395 -0.028784316 -0.042912178 0.0007461525 -0.032133248
готова -0.016382122 -0.033365574 0.012599133 -0.0174444 -0.013750225 -0.0076218746 0.04761166 0.031304438 -0.0211287 0.0073845107
пицца -0.02668017 0.011624795 0.04814717 0.020454947 0.029694907 0.0094328895 -0.03967634 -0.025871372 0.04701952 -0.018062143
всё 0.041267756 0.0115576135 -0.030748852 -0.0434471 0.022315232 0.0381403 -0.050029144 0.006194381 0.0064147627 -0.037767038
включен 0.022587236 -0.04981965 -0.043345187 0.024322325 -0.027425256 -0.038442936 0.0112186605 -0.0018230764 -0.040569134 -0.013989351
постирай 0.028165264 0.009389614 -0.049489032 0.025550269 0.013028373 -0.04072912 0.044465356 -0.046534803 0.03928311 -0.04014885
градусах 0.036018953 0.04544833 0.0012135719 0.043606382 0.02703071 -0.027044835 0.033739004 -0.027901614 -0.03721908 -0.0021816539
погорячее -0.039666217 -0.040307432 0.0264537 0.013022437 0.04730927 0.031620152 0.017670767 -0.019231249 -0.024727618 0.032595463
нужно 0.020007417 0.02807786 -0.0455558 0.0497635 -0.0016846238 0.011584804 0.040673543 -0.009239228 -0.036465954 -0.02672754
покупать 0.008733027 0.03609952 0.035199046 -0.0362834 -0.03797152 -0.0031907503 0.022581186 0.024857266 -0.04162766 -0.0131135965
продукты -0.017010972 -0.031391293 -0.026730403 -0.033031054 0.0057063024 -0.006088364 0.043211874 -0.010174641 0.031236291 -0.0044594076
помой 0.0059124306 -0.03953298 -0.007479246 -0.025938284 0.007433891 -0.021913642 0.030799143 0.014833363 0.032804262 -0.033533756
ягоды 0.002721347 0.013975491 0.04951242 -0.0102860425 0.0007063475 0.021427477 -0.035739228 0.0021823922 -0.027761415 -0.04828035
огурцы 0.020070793 -0.009457063 0.013194431 0.03020136 0.04069747 0.0341939 -0.041629687 -0.03701873 0.04134275 -0.014646326
санузла -0.031599246 -0.048457783 -0.012371485 -0.03796001 0.0428426 -0.0011173718 -0.011344758 0.017969478 -0.0246377 0.0058784164
подмети -0.042665247 0.0066856383 0.04700362 0.041738775 0.039827894 0.008926588 -0.025458058 -0.04298226 0.031277053 -0.00400971
спустя -0.046369296 0.023759915 -0.0077769784 -0.020479562 0.029375125 0.038022734 0.037589617 -0.045719948 -0.0460883 -0.013470192
часа -0.048836436 0.025465077 0.011328486 -0.027011447 0.041070417 0.0015382918 -0.035014894 -0.031119438 0.019828042 -0.04230832
батарею -0.031884898 -0.021386055 0.030103723 0.013153664 0.048287448 -0.010181497 0.019806663 0.023615254 -0.011228802 0.04418979
выведи 0.04227566 0.04992533 -0.045994136 0.026883118 0.041356634 0.00076200307 0.031071056 0.032203857 0.01097343 -0.00780591
статистику -0.009798673 -0.01211157 -0.047632948 -0.00049982243 -0.015845742 0.030750008 0.04044927 0.025334643 -0.011891429 0.00941765
прослушиваний -0.03302061 -0.0037310843 -0.033532534 0.0012534852 -0.015099882 -0.040023923 -0.038053025 0.007206368 0.028440498 -0.020886742
мобильник -0.027367406 -0.046213966 -0.047889695 0.022023411 -0.017169714 -0.047845773 0.046783276 0.046674535 0.038373783 0.0066594346
давненько -0.042548783 -0.021604633 -0.03791586 0.031015314 -0.042120844 0.013829342 -0.019345827 0.0045460835 -0.040946424 0.047503788
ослабь -0.033183035 0.007893769 -0.040414155 -0.045390606 0.0071272673 -0.03193105 0.01328951 0.049215887 -0.03434355 -0.020580461
успокаивающую -0.04810214 -0.048142374 0.003426837 0.004340681 0.042818207 -0.028426772 -0.0011676236 0.03824083 -0.043464784 -0.039253883
последний -0.032833714 -0.027397484 -0.03200362 -0.002632146 -0.048306737 -0.030928323 0.026407959 0.040427912 0.03976623 0.03913614
открывали -0.018132277 0.021660833 -0.0055826185 -0.03505113 0.035939477 -0.024529835 0.0033527003 -0.028207874 -0.021005016 0.027693858
снимай -0.037703495 0.033408333 -0.043702252 -0.04270529 -0.017948413 0.013122632 0.01691041 0.039708734 0.003165235 0.011021211
парктроник -0.0036218006 -0.037386693 -0.009105785 -0.050103407 -0.044197757 -0.011654097 -0.016131386 0.02066153 0.002128448 -0.021099156
пропылесосить -0.022952689 0.002228658 0.013470518 0.04373543 -0.04541425 0.041210093 -0.04283362 -0.042105615 -0.034922358 -0.041360464
покуда -0.042095568 0.04319268 0.049865536 -0.01109715 -0.017103227 0.0017176605 -0.015151359 -0.0062500886 -0.010243335 0.0072547346
душно 0.0074644615 -0.0066466485 -0.001766658 0.040244747 0.03832565 0.018353501 -0.007866266 -0.043539695 0.0006691964 0.03492052
минут -0.0040898924 0.04645134 -0.03451224 -0.011171464 -0.04771275 -0.041115854 -0.041075833 -0.0041329544 0.04046557 -0.0011615806
поставь -0.045738973 -0.014501944 0.026349425 -0.004515879 0.04571243 -0.043606885 -0.04868047 0.042469565 -0.02513002 0.03997766
шерсть -0.009984237 0.03201105 0.009507254 0.0128450645 0.011674999 -0.028238254 0.034183607 -0.041247312 0.020326776 0.0042768246
подсвети -0.006753802 0.02032166 0.016692908 0.04247107 -0.02684745 -0.006069244 0.02435835 -0.0436862 0.018529294 -0.0195124
путь 0.03950621 0.048793197 -0.012131143 -0.006742917 0.027617527 -0.012951165 -0.033866223 0.015061088 0.04511901 0.03532432
найдутся -0.031780865 0.028594973 -0.01831636 0.031428143 0.037519187 0.047340855 -0.0026161037 -0.021008477 0.003338461 -0.005929439
подсветку -0.0491477 0.019872362 0.039845828 0.012580388 -0.027330484 0.0017413538 0.03874579 0.034035828 -0.046208832 0.00361413
песик 0.03836162 -0.039837778 -0.018076621 0.04596779 0.024089701 0.0063704876 0.04640765 -0.03206197 0.018429982 -0.0029513328
давно -0.014998926 0.016874015 -0.024739191 0.03449619 0.04684435 -0.03997482 0.040134896 -0.025648667 -0.020931205 -0.019237444
жалюзи 0.0030241301 0.03792369 -0.024780363 -0.042753026 -0.00065706 -0.04690478 -0.029278768 0.022580447 0.00387034 0.0014996988
приглуши -0.018854978 -0.03613683 0.046751633 -0.0018929847 -0.035687625 -0.025001138 0.034492377 -0.00802989 0.04971176 -0.0021713653
расслабляющую -0.035164345 0.037809815 -0.019461324 -0.0047887694 -0.03779808 -0.03163787 -0.030757513 -0.005498405 -0.02832589 -0.01482126
разумеется 0.036494613 -0.034180906 -0.03729731 0.04939961 -0.038448017 0.005591542 0.035757825 -0.00236282 0.01372879 -0.020875623
орехи -0.021991942 -0.0460964 -0.012866409 -0.019040149 0.038674444 -0.016360303 -0.010640846 0.047125176 0.04788606 0.015044352
выхожу 0.0239823 -0.032863207 -0.016593087 -0.04737945 0.018020988 -0.024902968 0.0022141936 0.04004616 -0.02938093 -0.009108172
спальни -0.027074808 -0.02837479 -0.041135732 -0.043859184 0.040505134 -0.03748826 0.041720524 0.021667143 -0.032053832 0.0186613
градусов 0.033541813 0.018147489 -0.032596253 0.0035451956 0.048563767 0.042331465 -0.015571942 0.009823834 0.020216057 -0.011623101
телевизор 0.01522291 0.039689843 -0.02679627 -0.040338665 -0.04214846 0.021085713 0.03521408 0.011770439 -0.0063300384 -0.030424936
лягу -0.042413644 0.0053565614 0.03693396 0.046461675 0.0028731304 -0.00236315 0.03223484 0.024173565 0.040373877 -0.00878665
установить 0.0065355278 -0.0013100298 0.014509665 0.0020831614 0.042016182 0.031395745 -0.00783852 -0.029559974 0.024788052 0.0028545803
допустим 0.014334207 0.037386265 0.04882839 -0.032025613 -0.0030656783 -0.010504999 0.018254524 -0.040659767 -0.0048365393 -0.04885813
небо 0.018469442 -0.045203842 -0.031029852 -0.036124807 -0.02510107 0.018933028 0.046118468 -0.014102347 -0.0017104084 0.03402375
кажется -0.02166222 0.038467307 -0.025199685 -0.04064081 0.00015342039 -0.03359312 -0.01460877 0.036034595 -0.015133463 0.016070757
ест 0.019887503 0.031886198 -0.04578315 -0.024738362 0.0018634688 0.026467018 0.022280147 0.045041982 0.038800504 0.0020178421
неделю -0.015551744 0.02860835 -0.02301141 -0.04399286 -0.016691348 -0.02984093 0.036188163 -0.0090039885 -0.0023243863 -0.036136027
стирал 0.030485015 0.011808044 0.031952497 -0.007563143 -0.019414341 0.028434318 -0.03631522 -0.01659338 -0.007208843 0.023017995
ктото -0.00079380115 0.047386065 0.02098717 0.023797268 -0.015579695 -0.03937123 -0.015751457 0.022109812 -0.04326525 -0.035233643
остался -0.033433866 -0.044784807 0.041026346 -0.018969966 -0.01344473 0.012096078 -0.022677915 -0.04128801 0.008031578 -0.044635
становится -0.0076654535 -0.030985188 -0.03437433 0.02246004 -0.019461252 0.021742934 -0.0076092263 -0.018479459 0.00013481207 -0.023994152
дверь 0.016178312 -0.025308726 0.030755091 -0.020384748 -0.047284603 -0.0019079021 0.00038564348 0.023140078 -0.039083418 -0.038940944
отопление -0.010072043 0.026344188 -0.0016496673 0.016555198 -0.021641066 0.0018790477 -0.022762423 -0.017447276 0.028283313 -0.006769296
добавляй -0.015270854 -0.023382869 -0.02519528 -0.01582875 0.015417729 0.040438898 -0.0021622027 -0.029738395 -0.03328719 -0.03845816
мою 0.016447483 0.0017751611 0.031204242 0.016989367 -0.043847732 0.041211125 0.013299803 -0.009732964 -0.022215158 0.037283435
коллекцию 0.016027326 -0.0064395294 -0.02021132 0.014307575 -0.04513419 0.041693483 0.028037129 0.02484075 0.00026904448 -0.013055454
подай 0.039516963 -0.0461258 -0.011023021 0.026126277 0.012395236 0.031815637 -0.043826386 0.044153772 -0.022957573 0.005511196
печенье 0.024411952 0.03891521 0.012523013 -0.008961668 -0.0022462474 0.017322429 -0.045970816 -0.045649804 -0.03580591 0.02364807
зватрак 0.03184556 0.008533004 0.02715947 0.026854347 -0.017464323 -0.03751913 0.040671553 -0.014013083 -0.048541136 -0.022908943
каждый 0.049414914 -0.009490173 -0.00078729587 -0.046922836 0.015159609 0.009402034 0.004793952 -0.043758642 -0.020921046 0.03414072
проверяй -0.027622832 -0.04895991 -0.04953076 0.019439772 0.0048407568 0.0063092844 -0.0043150047 -0.0047481377 0.011741319 -0.0074042752
кофеварку 0.034258116 0.0007901923 -0.049096134 0.043629408 0.016722243 -0.042989437 0.018520702 -0.038298383 0.019780956 0.023506187
выйду 0.020376002 0.02726791 -0.015813375 -0.004066063 -0.04788222 0.016098527 0.027358733 -0.016948942 -0.03363471 0.046864595
комнаты 0.013512173 0.030865885 -0.0089608515 -0.048918452 0.0074284677 0.04310314 -0.012071039 0.04691561 -0.020732773 -0.048040375
ежели 0.010012616 0.027906043 0.04947158 -0.04378506 0.018175522 0.04188672 -0.015748793 0.009549818 -0.03476179 -0.0113285845
установи 0.034213293 0.038545217 0.001364346 0.019973993 0.020288514 0.011300841 0.049488813 -0.0331206 -0.03492596 -0.04241104
влажность -0.023361035 0.025278639 -0.013919253 -0.01343093 -0.031135453 -0.04809182 0.02104536 0.01484627 0.033214968 -0.0009114102
доложи -0.043732766 -0.025935022 0.005457467 -0.027571058 0.018219093 -0.023149082 0.01171395 0.004437409 0.020483088 0.047940925
соcтоянии -0.004798752 0.036078658 0.017007334 0.0067171827 -0.04508894 -0.026725285 0.043822847 0.0324095 -0.043525383 -0.039143525
одежды 0.025897056 -0.025271157 -0.027776916 0.039242476 0.039882068 -0.038210284 -0.041764513 0.027762635 -0.019050391 -0.043435745
ко -0.005266548 -0.026691178 0.005431358 0.043962415 0.03788187 0.042730954 -0.0031696998 0.014332692 0.010008593 0.026358932
сну 0.007501911 0.005602357 -0.041966747 0.04651274 0.03526925 0.007573626 0.014947198 0.0049646324 0.009565926 0.04354488
увеличьте -0.022213344 -0.049472794 0.0028130105 -0.02889338 -0.01176066 -0.036417432 0.035454948 -0.034613967 0.011081616 -0.040750954
мешал 0.0487123 0.03159959 -0.001458341 0.04256758 0.022649769 -0.029550234 -0.020852868 0.046444625 0.033891175 -0.02484375
стук 0.0340678 -0.03822847 0.03327949 -0.022493467 0.021602314 -0.043129396 -0.044227503 0.01415361 -0.008198146 0.033919536
году -0.029981187 0.018083632 0.01872448 0.026533283 0.0064663584 0.010195383 -0.049275976 -0.029650472 0.044522963 0.008083857
заплатил -0.034854136 -0.0114990445 0.02229101 -0.0028341936 0.01142949 -0.030619971 -0.034340948 -0.00043073282 0.023864415 0.019286836
пытаюсь -0.042287882 0.008271223 -0.0020387503 0.039786145 -0.038366236 0.036835257 -0.023647532 -0.036010012 -0.022077361 -0.01666654
гостиную -0.027176922 0.042545397 0.02425444 0.046686172 0.0075209425 -0.0075064516 -0.026719345 0.045115173 -0.016167535 -0.04387607
